{"learner":{"attributes":{"scikit_learn":"{\"_estimator_type\": \"classifier\"}"},"feature_names":[],"feature_types":[],"gradient_booster":{"model":{"gbtree_model_param":{"num_parallel_tree":"1","num_trees":"100"},"iteration_indptr":[0,1,2,3,4,5,6,7,8,9,10,11,12,13,14,15,16,17,18,19,20,21,22,23,24,25,26,27,28,29,30,31,32,33,34,35,36,37,38,39,40,41,42,43,44,45,46,47,48,49,50,51,52,53,54,55,56,57,58,59,60,61,62,63,64,65,66,67,68,69,70,71,72,73,74,75,76,77,78,79,80,81,82,83,84,85,86,87,88,89,90,91,92,93,94,95,96,97,98,99,100],"tree_info":[0,0,0,0,0,0,0,0,0,0,0,0,0,0,0,0,0,0,0,0,0,0,0,0,0,0,0,0,0,0,0,0,0,0,0,0,0,0,0,0,0,0,0,0,0,0,0,0,0,0,0,0,0,0,0,0,0,0,0,0,0,0,0,0,0,0,0,0,0,0,0,0,0,0,0,0,0,0,0,0,0,0,0,0,0,0,0,0,0,0,0,0,0,0,0,0,0,0,0,0],"trees":[{"base_weights":[-2.518461E-2,-1.4544137E0,1.3997679E0,-2.4931073E-1,-1.5082662E0,1.0330349E0,2.8640063E0,2.4057262E0,-1.246556E0,-9.907913E-1,-1.5158094E0,3.4933335E-1,2.394187E0,2.3334563E0,8.7715447E-1,1.7527119E0,2.8454497E0,6.521726E-1,-1.3850074E0,-1.3511001E0,1.3199469E0,-1.1756575E0,-4.552282E-1,8.30787E-1,5.5467498E-2,2.1811357E0,2.900772E0,5.871325E-1,2.849733E0,2.6717112E0,5.263714E-1,2.3164494E0,8.742147E-1,1.94086E-1,8.094495E-1,-1.4930397E0,1.7910646E-1,-1.4571192E0,-9.8225707E-1,1.6675282E0,-5.8697647E-1,-1.4927896E0,2.0081608E0,2.2152495E-1,1.818551E0,-6.350554E-2,2.260091E0,7.152043E-1,2.3938437E0,2.9156947E0,2.5115685E0,-4.5651948E-1,9.684534E-1,2.4095197E0,8.76677E-1,8.66251E-1,5.247995E-1,5.093658E-1,1.754135E-2,4.1483447E-1,8.339911E-1,4.319942E-1,-9.9265374E-2,-2.9222414E-1,-4.5187166E-1,-4.0509453E-1,7.811305E-1,-4.464668E-1,-2.9107124E-1,-3.2881066E-1,2.1021483E-2,1.2483605E-1,7.37861E-1,-4.014272E-1,5.6473285E-1,-4.5216405E-1,-7.839452E-2,6.912681E-1,-1.339053E-1,-3.757005E-1,1.4972156E-1,6.400007E-1,-2.4753283E-1,-1.3066332E-1,8.817834E-2,-2.7989274E-1,7.6172835E-1,-2.2279628E-1,5.1817185E-1,4.1343E-1,7.2690713E-1,7.9490656E-1,8.783079E-1,5.5222154E-1,8.650362E-1,7.963179E-1,-4.4140396E-1,8.6111715E-3,6.92621E-1,2.0821352E-1,8.643876E-1],"categories":[],"categories_nodes":[],"categories_segments":[],"categories_sizes":[],"default_left":[0,0,0,0,0,0,0,0,0,0,0,0,0,0,0,0,0,0,0,0,0,0,0,0,0,0,0,0,0,0,0,0,0,0,0,0,0,0,0,0,0,0,0,0,0,0,0,0,0,0,0,0,0,0,0,0,0,0,0,0,0,0,0,0,0,0,0,0,0,0,0,0,0,0,0,0,0,0,0,0,0,0,0,0,0,0,0,0,0,0,0,0,0,0,0,0,0,0,0,0,0],"id":0,"left_children":[1,3,5,7,9,11,13,15,17,19,21,23,25,27,-1,29,31,33,35,37,39,41,-1,43,45,47,49,51,53,55,57,59,-1,61,-1,63,65,67,69,71,73,75,77,79,81,83,85,87,89,91,93,95,97,99,-1,-1,-1,-1,-1,-1,-1,-1,-1,-1,-1,-1,-1,-1,-1,-1,-1,-1,-1,-1,-1,-1,-1,-1,-1,-1,-1,-1,-1,-1,-1,-1,-1,-1,-1,-1,-1,-1,-1,-1,-1,-1,-1,-1,-1,-1,-1],"loss_changes":[1.3322836E5,2.119164E3,1.7587473E4,3.7051418E3,1.2053906E2,2.437975E4,2.0147656E2,1.0473828E2,2.6828284E2,3.7815503E2,1.51640625E1,2.467403E3,9.390508E2,6.0233374E2,0E0,1.7482742E2,1.4783936E0,6.49005E1,1.6050708E2,1.3880859E1,4.173201E1,1.5475671E2,0E0,3.9776035E3,2.840967E3,1.9222109E3,7.720703E0,6.177861E1,9.458008E0,1.26918335E1,3.7301697E1,9.530991E0,0E0,3.848551E1,0E0,4.609741E0,2.3402571E2,3.1306763E0,1.0911537E1,5.077919E1,2.1473186E1,2.044281E0,1.1232399E1,1.673498E3,2.1001973E3,1.3667848E3,4.9643848E2,1.156913E3,1.5634961E2,1.8359375E-1,2.03526E1,1.3625877E2,1.4251463E2,6.1773407E1,0E0,0E0,0E0,0E0,0E0,0E0,0E0,0E0,0E0,0E0,0E0,0E0,0E0,0E0,0E0,0E0,0E0,0E0,0E0,0E0,0E0,0E0,0E0,0E0,0E0,0E0,0E0,0E0,0E0,0E0,0E0,0E0,0E0,0E0,0E0,0E0,0E0,0E0,0E0,0E0,0E0,0E0,0E0,0E0,0E0,0E0,0E0],"parents":[2147483647,0,0,1,1,2,2,3,3,4,4,5,5,6,6,7,7,8,8,9,9,10,10,11,11,12,12,13,13,15,15,16,16,17,17,18,18,19,19,20,20,21,21,23,23,24,24,25,25,26,26,27,27,28,28,29,29,30,30,31,31,33,33,35,35,36,36,37,37,38,38,39,39,40,40,41,41,42,42,43,43,44,44,45,45,46,46,47,47,48,48,49,49,50,50,51,51,52,52,53,53],"right_children":[2,4,6,8,10,12,14,16,18,20,22,24,26,28,-1,30,32,34,36,38,40,42,-1,44,46,48,50,52,54,56,58,60,-1,62,-1,64,66,68,70,72,74,76,78,80,82,84,86,88,90,92,94,96,98,100,-1,-1,-1,-1,-1,-1,-1,-1,-1,-1,-1,-1,-1,-1,-1,-1,-1,-1,-1,-1,-1,-1,-1,-1,-1,-1,-1,-1,-1,-1,-1,-1,-1,-1,-1,-1,-1,-1,-1,-1,-1,-1,-1,-1,-1,-1,-1],"split_conditions":[4.490095E-2,-2.6943E0,4.1345367E-1,-1.1283499E0,-1.1917027E0,5.4326784E-2,4.5909876E-1,1.656999E0,-4.850789E0,6.462661E-1,-2.598595E0,-7.764552E-1,1.0359557E0,-1.0454588E0,8.7715447E-1,-1.171039E0,-3.0904543E-1,2.8644795E0,-4.3477103E-1,2.2645546E-2,1.0463262E0,-3.8167298E-1,-4.552282E-1,-7.874119E-1,3.434473E-1,7.163898E-1,-4.614425E-1,-1.3469118E0,-9.2988837E-1,-1.1795975E0,1.3560174E0,1.9710572E0,8.742147E-1,-1.0940427E0,8.094495E-1,-1.1087387E0,2.0823882E0,5.198225E-1,4.6665457E-1,8.142094E-1,1.1010697E0,-4.0571836E-1,1.30474E0,-1.1221348E0,1.12051286E-1,-3.2064658E-1,-6.8728024E-1,4.6665457E-1,-1.3410358E0,1.4483689E-1,1.1010697E0,4.3607906E-1,4.3607906E-1,4.25205E-1,8.76677E-1,8.66251E-1,5.247995E-1,5.093658E-1,1.754135E-2,4.1483447E-1,8.339911E-1,4.319942E-1,-9.9265374E-2,-2.9222414E-1,-4.5187166E-1,-4.0509453E-1,7.811305E-1,-4.464668E-1,-2.9107124E-1,-3.2881066E-1,2.1021483E-2,1.2483605E-1,7.37861E-1,-4.014272E-1,5.6473285E-1,-4.5216405E-1,-7.839452E-2,6.912681E-1,-1.339053E-1,-3.757005E-1,1.4972156E-1,6.400007E-1,-2.4753283E-1,-1.3066332E-1,8.817834E-2,-2.7989274E-1,7.6172835E-1,-2.2279628E-1,5.1817185E-1,4.1343E-1,7.2690713E-1,7.9490656E-1,8.783079E-1,5.5222154E-1,8.650362E-1,7.963179E-1,-4.4140396E-1,8.6111715E-3,6.92621E-1,2.0821352E-1,8.643876E-1],"split_indices":[2,3,0,0,0,1,0,1,3,1,3,1,1,1,0,0,2,1,2,2,1,2,0,1,0,2,0,1,1,0,1,1,0,0,0,0,1,1,1,1,1,2,1,0,0,1,1,1,3,2,1,0,0,0,0,0,0,0,0,0,0,0,0,0,0,0,0,0,0,0,0,0,0,0,0,0,0,0,0,0,0,0,0,0,0,0,0,0,0,0,0,0,0,0,0,0,0,0,0,0,0],"split_type":[0,0,0,0,0,0,0,0,0,0,0,0,0,0,0,0,0,0,0,0,0,0,0,0,0,0,0,0,0,0,0,0,0,0,0,0,0,0,0,0,0,0,0,0,0,0,0,0,0,0,0,0,0,0,0,0,0,0,0,0,0,0,0,0,0,0,0,0,0,0,0,0,0,0,0,0,0,0,0,0,0,0,0,0,0,0,0,0,0,0,0,0,0,0,0,0,0,0,0,0,0],"sum_hessian":[6.5415574E4,3.265877E4,3.2756805E4,1.3972363E3,3.1261533E4,2.619717E4,6.5596357E3,3.8112576E2,1.01611053E3,4.5105505E2,3.0810477E4,1.7438922E4,8.758248E3,6.6893756E2,5.8906978E3,1.553734E2,2.2575238E2,6.880501E1,9.4730554E2,3.905696E2,6.0485447E1,1.4930237E2,3.0661176E4,6.609103E3,1.0829818E4,6.169066E3,2.589182E3,1.5312486E2,5.158127E2,8.8142365E1,6.723103E1,2.9905445E1,1.9584694E2,5.711265E1,1.1692354E1,8.861455E2,6.1160007E1,3.0107812E2,8.949148E1,5.1266476E1,9.218971E0,1.362609E2,1.30414715E1,4.0885015E3,2.5206018E3,1.027623E4,5.53588E2,7.822635E2,5.3868022E3,2.4873235E3,1.0185839E2,4.092324E1,1.1220163E2,7.7799126E1,4.3801358E2,6.970442E1,1.8437943E1,1.8437943E1,4.8793095E1,1.1242648E1,1.8662796E1,1.6414267E1,4.0698387E1,2.3834414E1,8.623111E2,3.77753E1,2.3384708E1,2.810662E2,2.0011913E1,8.072221E1,8.769265E0,2.046162E1,3.0804855E1,7.420148E0,1.7988237E0,1.3446207E2,1.7988237E0,1.1692354E1,1.3491178E0,6.473517E2,3.4411497E3,2.252577E3,2.6802472E2,5.0351323E3,5.2410977E3,4.4296036E1,5.0929196E2,3.2064032E2,4.6162314E2,1.5177576E2,5.235027E3,1.1692354E2,2.3704E3,3.8449856E1,6.3408535E1,9.668677E0,3.1254562E1,6.655648E1,4.5645153E1,1.7313679E1,6.0485447E1],"tree_param":{"num_deleted":"0","num_feature":"4","num_nodes":"101","size_leaf_vector":"1"}},{"base_weights":[-5.6904018E-2,-1.2626829E0,9.0146804E-1,-1.9204128E-1,-1.31633E0,6.6912633E-1,1.7525041E0,-1.1230304E0,1.4470524E0,-8.203156E-1,-1.3260703E0,2.3116897E-1,1.4909366E0,1.4250225E0,1.7979157E0,4.4583935E-1,-1.2682158E0,5.908128E-1,1.6344432E0,-1.141804E0,8.26427E-1,-1.0051563E0,-3.9829287E-1,5.4875356E-1,3.2315694E-2,1.3644711E0,1.7861032E0,5.3038687E-1,1.8659132E0,1.6473076E0,5.4062384E-1,-8.3658144E-2,1.1969552E0,-5.2507347E-1,-3.94657E-1,-3.454592E-1,5.4257864E-1,1.1286043E0,1.8239063E0,-1.2194645E0,-2.9185084E-1,1.12105034E-1,1.1730767E0,-1.3030025E0,1.2877592E0,1.5084228E-1,1.1416279E0,1.5349804E0,-2.9833078E-2,3.6973986E-1,1.4740125E0,5.3853625E-1,1.5555167E0,-1.280308E-1,9.5809454E-1,2.112633E0,5.397032E-1,3.4060523E-2,5.3752357E-1,1.4860222E-1,-1.8748933E-1,2.0472959E-1,5.1752967E-1,-3.9881074E-1,4.8762462E-1,-3.1334147E-1,3.4192607E-2,5.3643125E-1,6.8303905E-2,6.7674273E-1,5.299042E-1,-4.0441063E-1,-3.2950002E-1,1.5742542E-1,-3.1502774E-1,3.495653E-1,-8.300893E-2,4.7828788E-1,-8.7324835E-2,-3.9540878E-1,-6.454641E-2,5.3087944E-1,9.500538E-2,-3.1215936E-1,1.0076396E-1,3.973792E-1,-2.330207E-1,6.408462E-1,7.3672463E-3,-3.514105E-2,3.6185458E-1,-2.587329E-1,3.2153195E-1,4.8838803E-1,3.902541E-1,3.4359574E-1,5.359598E-1,8.092137E-1,-3.354383E-1,7.931504E-2,5.5960065E-1,8.637132E-1,5.643124E-1],"categories":[],"categories_nodes":[],"categories_segments":[],"categories_sizes":[],"default_left":[0,0,0,0,0,0,0,0,0,0,0,0,0,0,0,0,0,0,0,0,0,0,0,0,0,0,0,0,0,0,0,0,0,0,0,0,0,0,0,0,0,0,0,0,0,0,0,0,0,0,0,0,0,0,0,0,0,0,0,0,0,0,0,0,0,0,0,0,0,0,0,0,0,0,0,0,0,0,0,0,0,0,0,0,0,0,0,0,0,0,0,0,0,0,0,0,0,0,0,0,0,0,0],"id":1,"left_children":[1,3,5,7,9,11,13,15,17,19,21,23,25,27,29,31,33,35,37,39,41,43,-1,45,47,49,51,53,55,57,-1,59,61,63,-1,65,-1,67,69,71,73,75,77,79,81,83,85,87,89,91,93,-1,95,97,99,101,-1,-1,-1,-1,-1,-1,-1,-1,-1,-1,-1,-1,-1,-1,-1,-1,-1,-1,-1,-1,-1,-1,-1,-1,-1,-1,-1,-1,-1,-1,-1,-1,-1,-1,-1,-1,-1,-1,-1,-1,-1,-1,-1,-1,-1,-1,-1],"loss_changes":[7.1315875E4,1.5694609E3,6.79775E3,1.9933866E3,1.2464453E2,9.721808E3,1.070918E2,1.9030115E2,7.496741E1,2.676802E2,1.1546875E1,1.112896E3,3.480996E2,3.551018E2,1.0917969E0,2.845573E1,2.6122559E1,9.929646E1,3.509851E1,2.7496948E1,2.0390339E1,8.948375E1,0E0,1.6005977E3,1.0122027E3,7.1624023E2,3.0576172E0,8.444498E1,6.175049E0,4.094693E1,0E0,1.3708738E1,6.8511963E0,8.399028E1,0E0,1.6101076E1,0E0,6.392215E1,2.9870605E0,4.5358887E0,2.3238865E1,1.186231E1,3.481131E1,1.5846558E0,6.591036E0,8.95702E2,9.57499E2,3.908252E2,1.1233237E3,5.6654767E2,1.5584082E2,0E0,8.69754E0,3.353365E2,1.1382063E2,1.6449219E1,0E0,0E0,0E0,0E0,0E0,0E0,0E0,0E0,0E0,0E0,0E0,0E0,0E0,0E0,0E0,0E0,0E0,0E0,0E0,0E0,0E0,0E0,0E0,0E0,0E0,0E0,0E0,0E0,0E0,0E0,0E0,0E0,0E0,0E0,0E0,0E0,0E0,0E0,0E0,0E0,0E0,0E0,0E0,0E0,0E0,0E0,0E0],"parents":[2147483647,0,0,1,1,2,2,3,3,4,4,5,5,6,6,7,7,8,8,9,9,10,10,11,11,12,12,13,13,14,14,15,15,16,16,17,17,18,18,19,19,20,20,21,21,23,23,24,24,25,25,26,26,27,27,28,28,29,29,31,31,32,32,33,33,35,35,37,37,38,38,39,39,40,40,41,41,42,42,43,43,44,44,45,45,46,46,47,47,48,48,49,49,50,50,52,52,53,53,54,54,55,55],"right_children":[2,4,6,8,10,12,14,16,18,20,22,24,26,28,30,32,34,36,38,40,42,44,-1,46,48,50,52,54,56,58,-1,60,62,64,-1,66,-1,68,70,72,74,76,78,80,82,84,86,88,90,92,94,-1,96,98,100,102,-1,-1,-1,-1,-1,-1,-1,-1,-1,-1,-1,-1,-1,-1,-1,-1,-1,-1,-1,-1,-1,-1,-1,-1,-1,-1,-1,-1,-1,-1,-1,-1,-1,-1,-1,-1,-1,-1,-1,-1,-1,-1,-1,-1,-1,-1,-1],"split_conditions":[6.823504E-2,-2.6943E0,4.021146E-1,-4.0571836E-1,-1.1917027E0,8.0979176E-2,4.5909876E-1,-4.850789E0,-3.0904543E-1,6.462661E-1,-2.598595E0,-7.764552E-1,1.0359557E0,-9.2988837E-1,4.695115E-1,2.4533143E0,-1.1087387E0,2.0823882E0,1.5597458E0,5.170923E-1,8.142094E-1,-3.8167298E-1,-3.9829287E-1,-7.874119E-1,-1.235521E0,6.527221E-1,-4.614425E-1,4.25205E-1,4.1345367E-1,-1.3469118E0,5.4062384E-1,2.1320693E0,2.8644795E0,2.0823882E0,-3.94657E-1,-3.5742602E-1,5.4257864E-1,-1.1795975E0,1.5673342E0,-5.121554E-1,-1.2026268E0,7.812667E-1,1.0463262E0,-4.0571836E-1,1.3031818E0,-1.1221348E0,1.12051286E-1,-2.0011815E-1,3.1954733E-1,4.6665457E-1,4.962351E-1,5.3853625E-1,1.1010697E0,-1.2959635E0,-1.1089822E0,-6.8728024E-1,5.397032E-1,3.4060523E-2,5.3752357E-1,1.4860222E-1,-1.8748933E-1,2.0472959E-1,5.1752967E-1,-3.9881074E-1,4.8762462E-1,-3.1334147E-1,3.4192607E-2,5.3643125E-1,6.8303905E-2,6.7674273E-1,5.299042E-1,-4.0441063E-1,-3.2950002E-1,1.5742542E-1,-3.1502774E-1,3.495653E-1,-8.300893E-2,4.7828788E-1,-8.7324835E-2,-3.9540878E-1,-6.454641E-2,5.3087944E-1,9.500538E-2,-3.1215936E-1,1.0076396E-1,3.973792E-1,-2.330207E-1,6.408462E-1,7.3672463E-3,-3.514105E-2,3.6185458E-1,-2.587329E-1,3.2153195E-1,4.8838803E-1,3.902541E-1,3.4359574E-1,5.359598E-1,8.092137E-1,-3.354383E-1,7.931504E-2,5.5960065E-1,8.637132E-1,5.643124E-1],"split_indices":[2,3,0,2,0,1,0,3,2,1,3,1,1,1,0,1,0,1,1,1,1,2,0,1,0,2,0,0,0,1,0,1,1,1,0,2,0,0,1,1,0,1,1,2,1,0,0,1,0,1,1,0,1,1,1,1,0,0,0,0,0,0,0,0,0,0,0,0,0,0,0,0,0,0,0,0,0,0,0,0,0,0,0,0,0,0,0,0,0,0,0,0,0,0,0,0,0,0,0,0,0,0,0],"split_type":[0,0,0,0,0,0,0,0,0,0,0,0,0,0,0,0,0,0,0,0,0,0,0,0,0,0,0,0,0,0,0,0,0,0,0,0,0,0,0,0,0,0,0,0,0,0,0,0,0,0,0,0,0,0,0,0,0,0,0,0,0,0,0,0,0,0,0,0,0,0,0,0,0,0,0,0,0,0,0,0,0,0,0,0,0,0,0,0,0,0,0,0,0,0,0,0,0,0,0,0,0,0,0],"sum_hessian":[6.1712113E4,2.7328436E4,3.4383676E4,1.3042358E3,2.60242E4,2.701114E4,7.372536E3,8.31989E2,4.7224677E2,5.0283865E2,2.5521361E4,1.7621572E4,9.389569E3,9.017849E2,6.4707515E3,7.0296455E1,7.6169257E2,8.554075E1,3.8670602E2,4.2096213E2,8.18765E1,1.2757099E2,2.5393791E4,6.78447E3,1.0837102E4,6.577172E3,2.812397E3,2.9842905E2,6.0335583E2,1.8475159E2,6.2859995E3,4.1752056E1,2.8544401E1,4.6310444E1,7.1538214E2,4.8764946E1,3.6775803E1,1.0726931E2,2.794367E2,3.853205E2,3.564163E1,2.7183786E1,5.469272E1,1.1328692E2,1.4284071E1,4.0604968E3,2.7239731E3,4.294695E2,1.0407632E4,6.528746E2,5.9242974E3,2.7000215E3,1.12375374E2,1.17794945E2,1.8063411E2,1.22186195E2,4.8116965E2,1.6054617E1,1.6869696E2,2.0214685E1,2.1537369E1,1.5619677E1,1.2924724E1,3.3982582E1,1.232786E1,1.8834929E1,2.9930017E1,6.1364315E1,4.5904995E1,2.8369629E1,2.5106708E2,1.8200674E2,2.0331377E2,1.7308672E1,1.8332956E1,6.791445E0,2.0392342E1,4.240467E1,1.228805E1,1.1153467E2,1.7522479E0,8.997353E0,5.286719E0,5.452507E2,3.515246E3,2.4870713E3,2.3690196E2,3.069028E2,1.2256673E2,9.721851E3,6.857807E2,2.3688113E2,4.1599344E2,3.1317285E3,2.792569E3,4.263296E1,6.974242E1,3.0119493E1,8.767545E1,1.0309508E2,7.7539024E1,2.5701187E1,9.6485016E1],"tree_param":{"num_deleted":"0","num_feature":"4","num_nodes":"103","size_leaf_vector":"1"}},{"base_weights":[-5.9221935E-2,-1.1696297E0,6.66291E-1,-2.8386256E-1,-1.2146593E0,4.8357025E-1,1.4328977E0,-1.0054998E0,1.0686873E0,-8.6184245E-1,-1.217706E0,1.4606164E-1,1.118989E0,1.1667564E0,1.4631861E0,3.262364E-1,-1.157129E0,6.2146455E-1,1.3746327E0,-1.2054E0,5.571322E-1,-8.989123E-1,-3.657921E-1,3.7257665E-1,-4.229325E-5,9.936983E-1,1.4437224E0,1.8644236E-1,1.431942E0,1.3262725E0,4.4010606E-1,-3.354181E-1,5.498537E-1,-4.5898056E-1,-3.6134154E-1,1.1815822E0,-3.2319772E-1,4.2993197E-1,8.017946E-1,-3.6691934E-1,-7.8254306E-1,7.7350986E-1,-3.0304822E-1,-1.1912047E0,9.930529E-1,5.6067514E-1,-2.800892E-1,-5.2761484E-2,1.4138389E0,2.2638999E-1,1.1132929E0,1.3266339E0,4.409018E-1,-4.5739546E-1,4.2791155E-1,8.99788E-1,4.374271E-1,2.4553105E-2,4.3767202E-1,7.8614905E-2,4.3395522E-1,-3.610695E-1,3.6274907E-1,4.722373E-1,2.694632E-1,2.1367028E-1,-2.0153554E-1,-1.685555E-1,4.2485335E-1,-4.4103675E-2,-2.8217813E-1,1.0367596E-2,3.8956004E-1,-3.440667E-1,4.3815693E-1,-3.625593E-1,-5.3150814E-2,4.1998503E-1,7.064127E-2,1.3130897E-1,6.070888E-1,-3.9742336E-1,-2.2493472E-2,-1.1990215E-1,5.0039213E-2,-2.9626846E-1,4.7051853E-1,-1.7501287E-1,2.1605825E-1,3.6759084E-1,2.924894E-1,6.2303707E-2,4.2144006E-1,4.9452224E-1,-3.9374495E-1,5.741439E-1,1.2557725E-2,-3.220571E-1,4.6927604E-1],"categories":[],"categories_nodes":[],"categories_segments":[],"categories_sizes":[],"default_left":[0,0,0,0,0,0,0,0,0,0,0,0,0,0,0,0,0,0,0,0,0,0,0,0,0,0,0,0,0,0,0,0,0,0,0,0,0,0,0,0,0,0,0,0,0,0,0,0,0,0,0,0,0,0,0,0,0,0,0,0,0,0,0,0,0,0,0,0,0,0,0,0,0,0,0,0,0,0,0,0,0,0,0,0,0,0,0,0,0,0,0,0,0,0,0,0,0,0,0],"id":2,"left_children":[1,3,5,7,9,11,13,15,17,19,21,23,25,27,29,31,33,35,37,39,41,43,-1,45,47,49,51,53,55,57,-1,-1,59,61,-1,63,65,-1,67,-1,69,71,73,75,77,79,81,83,85,87,89,91,-1,93,95,97,-1,-1,-1,-1,-1,-1,-1,-1,-1,-1,-1,-1,-1,-1,-1,-1,-1,-1,-1,-1,-1,-1,-1,-1,-1,-1,-1,-1,-1,-1,-1,-1,-1,-1,-1,-1,-1,-1,-1,-1,-1,-1,-1],"loss_changes":[4.3885945E4,8.5828516E2,4.6144746E3,1.01884076E3,2.097461E1,5.706116E3,4.9407227E1,1.3778516E2,4.8850098E1,8.783919E1,9.265625E0,5.751426E2,3.7410156E2,1.6945227E2,1.0400391E0,2.3331709E1,1.9646545E1,7.942663E1,6.048523E0,1.20513916E-1,6.848728E0,5.9402008E1,0E0,8.367031E2,7.876124E2,6.1123535E2,5.852051E0,2.1984734E1,5.8360596E0,2.718045E1,0E0,0E0,1.5511927E1,5.1667397E1,0E0,9.041901E0,2.0832317E1,0E0,1.9372044E1,0E0,7.2168064E-1,1.1080479E1,1.3373777E1,1.3960266E0,4.1811914E0,9.508533E2,3.266965E2,7.759612E2,1.4252277E2,3.6022107E2,8.8125E1,4.1348083E1,0E0,7.186664E1,5.868425E1,3.665025E1,0E0,0E0,0E0,0E0,0E0,0E0,0E0,0E0,0E0,0E0,0E0,0E0,0E0,0E0,0E0,0E0,0E0,0E0,0E0,0E0,0E0,0E0,0E0,0E0,0E0,0E0,0E0,0E0,0E0,0E0,0E0,0E0,0E0,0E0,0E0,0E0,0E0,0E0,0E0,0E0,0E0,0E0,0E0],"parents":[2147483647,0,0,1,1,2,2,3,3,4,4,5,5,6,6,7,7,8,8,9,9,10,10,11,11,12,12,13,13,14,14,15,15,16,16,17,17,18,18,19,19,20,20,21,21,23,23,24,24,25,25,26,26,27,27,28,28,29,29,32,32,33,33,35,35,36,36,38,38,40,40,41,41,42,42,43,43,44,44,45,45,46,46,47,47,48,48,49,49,50,50,51,51,53,53,54,54,55,55],"right_children":[2,4,6,8,10,12,14,16,18,20,22,24,26,28,30,32,34,36,38,40,42,44,-1,46,48,50,52,54,56,58,-1,-1,60,62,-1,64,66,-1,68,-1,70,72,74,76,78,80,82,84,86,88,90,92,-1,94,96,98,-1,-1,-1,-1,-1,-1,-1,-1,-1,-1,-1,-1,-1,-1,-1,-1,-1,-1,-1,-1,-1,-1,-1,-1,-1,-1,-1,-1,-1,-1,-1,-1,-1,-1,-1,-1,-1,-1,-1,-1,-1,-1,-1],"split_conditions":[-1.2258112E-3,-2.6943E0,4.1345367E-1,-4.0571836E-1,-1.1917027E0,2.7378768E-2,4.5909876E-1,-4.850789E0,1.656999E0,6.462661E-1,-2.598595E0,-7.764552E-1,1.0359557E0,-1.0472848E0,4.695115E-1,2.0823882E0,-1.1087387E0,-1.1571691E0,-1.1283499E0,5.222803E-1,1.0443354E0,-3.8167298E-1,-3.657921E-1,1.12051286E-1,3.668227E-1,7.330131E-1,1.1010697E0,-1.3469118E0,-1.0442901E0,-1.3469118E0,4.4010606E-1,-3.354181E-1,-5.0118303E-1,2.0823882E0,-3.6134154E-1,-2.8910956E0,1.3560174E0,4.2993197E-1,2.0823882E0,-3.6691934E-1,5.22984E-1,8.142094E-1,1.1010697E0,-4.0571836E-1,1.3031818E0,1.2553041E-2,1.7399134E-1,-4.4066E-1,-7.0915836E-1,4.6665457E-1,4.962351E-1,1.4483689E-1,4.409018E-1,4.3607906E-1,-1.2959635E0,4.25205E-1,4.374271E-1,2.4553105E-2,4.3767202E-1,7.8614905E-2,4.3395522E-1,-3.610695E-1,3.6274907E-1,4.722373E-1,2.694632E-1,2.1367028E-1,-2.0153554E-1,-1.685555E-1,4.2485335E-1,-4.4103675E-2,-2.8217813E-1,1.0367596E-2,3.8956004E-1,-3.440667E-1,4.3815693E-1,-3.625593E-1,-5.3150814E-2,4.1998503E-1,7.064127E-2,1.3130897E-1,6.070888E-1,-3.9742336E-1,-2.2493472E-2,-1.1990215E-1,5.0039213E-2,-2.9626846E-1,4.7051853E-1,-1.7501287E-1,2.1605825E-1,3.6759084E-1,2.924894E-1,6.2303707E-2,4.2144006E-1,4.9452224E-1,-3.9374495E-1,5.741439E-1,1.2557725E-2,-3.220571E-1,4.6927604E-1],"split_indices":[2,3,0,2,0,1,0,3,1,1,3,1,1,1,0,1,0,0,0,1,1,2,0,0,0,2,1,1,1,1,0,0,2,1,0,3,1,0,1,0,1,1,1,2,1,0,0,1,1,1,1,2,0,0,1,0,0,0,0,0,0,0,0,0,0,0,0,0,0,0,0,0,0,0,0,0,0,0,0,0,0,0,0,0,0,0,0,0,0,0,0,0,0,0,0,0,0,0,0],"split_type":[0,0,0,0,0,0,0,0,0,0,0,0,0,0,0,0,0,0,0,0,0,0,0,0,0,0,0,0,0,0,0,0,0,0,0,0,0,0,0,0,0,0,0,0,0,0,0,0,0,0,0,0,0,0,0,0,0,0,0,0,0,0,0,0,0,0,0,0,0,0,0,0,0,0,0,0,0,0,0,0,0,0,0,0,0,0,0,0,0,0,0,0,0,0,0,0,0,0,0],"sum_hessian":[5.44731E4,2.1526254E4,3.2946848E4,1.0417393E3,2.0484516E4,2.6606758E4,6.3400913E3,6.794717E2,3.622676E2,1.7780557E2,2.0306709E4,1.7377674E4,9.229084E3,6.518534E2,5.6882383E3,6.933767E1,6.1013403E2,1.4838849E2,2.1387912E2,1.432684E2,3.453717E1,1.0427731E2,2.0202432E4,6.8131807E3,1.0564493E4,6.6625547E3,2.566529E3,1.39152E2,5.127014E2,1.6439973E2,5.5238384E3,8.75984E0,6.0577827E1,3.9426E1,5.70708E2,9.299705E1,5.539145E1,1.9270638E2,2.1172756E1,1.35707E2,7.561405E0,2.767604E1,6.861128E0,9.064398E1,1.3633329E1,5.2890234E3,1.5241575E3,1.0185664E4,3.7882877E2,8.988039E2,5.763751E3,4.750776E2,2.0914514E3,3.771007E1,1.0144192E2,2.5671034E1,4.870304E2,1.599019E1,1.4840955E2,4.683678E1,1.374105E1,2.745142E1,1.1974578E1,3.7078655E1,5.591839E1,1.3688475E1,4.1702976E1,6.6028934E0,1.4569863E1,1.8903513E0,5.671054E0,1.1938653E1,1.5737388E1,4.877162E0,1.983966E0,8.893264E1,1.7113391E0,8.31788E0,5.3154497E0,4.880093E3,4.0893045E2,2.49248E2,1.2749094E3,3.9475486E3,6.238115E3,2.2581486E1,3.5624728E2,3.4040628E2,5.5839764E2,3.1805088E3,2.583242E3,3.1259062E1,4.4381857E2,1.0622512E1,2.708756E1,2.0104204E1,8.1337715E1,6.3115478E0,1.9359488E1],"tree_param":{"num_deleted":"0","num_feature":"4","num_nodes":"99","size_leaf_vector":"1"}},{"base_weights":[-5.7114042E-2,-1.0764261E0,5.3096306E-1,-1.0567531E-1,-1.1330311E0,3.792763E-1,1.2762377E0,-9.1892993E-1,9.800851E-1,-6.964381E-1,-1.1495587E0,1.3524182E-1,9.4211316E-1,9.8053783E-1,1.2932795E0,2.3241505E-1,-1.083985E0,1.1741039E0,4.5503664E-1,-1.0777293E0,3.6487114E-1,-8.23417E-1,-3.4537184E-1,7.993371E-1,1.0089724E-1,8.198006E-1,1.282716E0,-7.975667E-2,3.9151433E-1,1.1691755E0,3.9018896E-1,6.6125398E-3,3.9622685E-1,-4.1257465E-1,-3.396524E-1,8.175912E-1,3.9934322E-1,-3.7284473E-1,9.9056554E-1,-8.002171E-1,-1.3606318E0,1.0738794E-2,7.612209E-1,-1.1170886E0,8.1035006E-1,9.7657776E-1,-1.0190684E0,-6.139939E-1,1.4130469E-1,2.6472625E-1,8.9934045E-1,1.2983793E0,9.367553E-1,3.3306497E-1,-3.1807816E-1,-4.58882E-1,1.346632E0,1.6939351E-1,-1.2191532E-1,-3.3621916E-1,2.8765643E-1,3.9466822E-1,1.6737923E-3,1.5111864E-1,-2.0763394E-1,1.4756954E-1,3.864806E-1,4.1766548E-1,-3.5675827E-1,-3.2908118E-1,-4.73812E-1,1.8314007E-1,-1.3281202E-1,3.4375674E-1,-1.5330046E-1,-3.4144735E-1,-4.3757755E-2,2.9760224E-1,-1.3861413E-1,3.6688954E-1,-2.6595404E-2,-3.727948E-1,-2.1731718E-1,-1.9137427E-2,-3.55491E-1,2.6329723E-1,2.934475E-2,1.18668444E-1,-6.816975E-1,3.0380344E-1,2.0993926E-1,3.1533682E-1,3.9039385E-1,1.3896672E-1,3.841342E-1,4.5551336E-1,-3.4117422E-1,-4.486288E-1,2.1053524E-1,-3.4241003E-1,1.7685894E-2,4.7327197E-1,3.8894054E-1],"categories":[],"categories_nodes":[],"categories_segments":[],"categories_sizes":[],"default_left":[0,0,0,0,0,0,0,0,0,0,0,0,0,0,0,0,0,0,0,0,0,0,0,0,0,0,0,0,0,0,0,0,0,0,0,0,0,0,0,0,0,0,0,0,0,0,0,0,0,0,0,0,0,0,0,0,0,0,0,0,0,0,0,0,0,0,0,0,0,0,0,0,0,0,0,0,0,0,0,0,0,0,0,0,0,0,0,0,0,0,0,0,0,0,0,0,0,0,0,0,0,0,0],"id":3,"left_children":[1,3,5,7,9,11,13,15,17,19,21,23,25,27,29,31,33,35,37,39,41,43,-1,45,47,49,51,53,-1,55,-1,57,-1,59,-1,61,-1,63,65,67,69,71,73,75,77,79,81,83,85,87,89,91,93,95,97,99,101,-1,-1,-1,-1,-1,-1,-1,-1,-1,-1,-1,-1,-1,-1,-1,-1,-1,-1,-1,-1,-1,-1,-1,-1,-1,-1,-1,-1,-1,-1,-1,-1,-1,-1,-1,-1,-1,-1,-1,-1,-1,-1,-1,-1,-1,-1],"loss_changes":[2.8418934E4,9.529883E2,3.398252E3,8.4574164E2,1.1746484E2,3.43114E3,2.4350586E1,1.0430707E2,4.125537E1,2.4333047E2,7.7070312E0,3.9740067E2,3.1370605E2,9.684534E1,2.8613281E0,1.706553E1,1.5033508E1,1.5646484E1,5.0167137E1,3.360553E1,2.2368225E1,4.1431328E1,0E0,2.7714087E2,4.7878397E2,2.4532153E2,9.592041E0,6.680859E0,0E0,8.107724E1,0E0,1.3722101E1,0E0,3.376082E1,0E0,3.800037E1,0E0,1.2898922E1,9.531891E0,1.9397307E2,1.0807648E1,2.3442316E1,3.7389996E1,1.3076859E0,3.5669937E0,2.0514746E2,4.145645E0,2.7849442E2,5.022187E2,2.3276202E2,1.0930249E2,1.4404297E-2,1.4051216E1,4.5206013E1,5.253793E1,1.0004521E1,8.668823E-1,0E0,0E0,0E0,0E0,0E0,0E0,0E0,0E0,0E0,0E0,0E0,0E0,0E0,0E0,0E0,0E0,0E0,0E0,0E0,0E0,0E0,0E0,0E0,0E0,0E0,0E0,0E0,0E0,0E0,0E0,0E0,0E0,0E0,0E0,0E0,0E0,0E0,0E0,0E0,0E0,0E0,0E0,0E0,0E0,0E0,0E0],"parents":[2147483647,0,0,1,1,2,2,3,3,4,4,5,5,6,6,7,7,8,8,9,9,10,10,11,11,12,12,13,13,14,14,15,15,16,16,17,17,18,18,19,19,20,20,21,21,23,23,24,24,25,25,26,26,27,27,29,29,31,31,33,33,35,35,37,37,38,38,39,39,40,40,41,41,42,42,43,43,44,44,45,45,46,46,47,47,48,48,49,49,50,50,51,51,52,52,53,53,54,54,55,55,56,56],"right_children":[2,4,6,8,10,12,14,16,18,20,22,24,26,28,30,32,34,36,38,40,42,44,-1,46,48,50,52,54,-1,56,-1,58,-1,60,-1,62,-1,64,66,68,70,72,74,76,78,80,82,84,86,88,90,92,94,96,98,100,102,-1,-1,-1,-1,-1,-1,-1,-1,-1,-1,-1,-1,-1,-1,-1,-1,-1,-1,-1,-1,-1,-1,-1,-1,-1,-1,-1,-1,-1,-1,-1,-1,-1,-1,-1,-1,-1,-1,-1,-1,-1,-1,-1,-1,-1,-1],"split_conditions":[1.14056945E-1,-2.6943E0,4.25205E-1,-4.0571836E-1,-1.1917027E0,8.0979176E-2,4.482116E-1,-4.850789E0,-1.1522027E0,4.962351E-1,-2.598595E0,-1.2334416E0,1.0359557E0,-1.1089822E0,4.695115E-1,2.8644795E0,-1.1087387E0,1.5597458E0,1.656999E0,-1.1212155E0,7.84938E-1,-3.8167298E-1,-3.4537184E-1,-2.7897787E-1,-6.4357287E-1,-1.2183201E0,-4.614425E-1,-1.2959635E0,3.9151433E-1,-1.3469118E0,3.9018896E-1,-1.086815E0,3.9622685E-1,2.0823882E0,-3.396524E-1,-1.1795975E0,3.9934322E-1,1.3560174E0,2.0823882E0,-2.621667E-1,4.490095E-2,6.048478E-1,1.0463262E0,-4.0571836E-1,1.30474E0,-2.0011815E-1,-1.0446924E0,6.8441945E-1,-2.7897787E-1,9.2731E-1,-4.136309E-1,1.4483689E-1,1.1010697E0,4.3607906E-1,4.3607906E-1,4.5909876E-1,-1.1089822E0,1.6939351E-1,-1.2191532E-1,-3.3621916E-1,2.8765643E-1,3.9466822E-1,1.6737923E-3,1.5111864E-1,-2.0763394E-1,1.4756954E-1,3.864806E-1,4.1766548E-1,-3.5675827E-1,-3.2908118E-1,-4.73812E-1,1.8314007E-1,-1.3281202E-1,3.4375674E-1,-1.5330046E-1,-3.4144735E-1,-4.3757755E-2,2.9760224E-1,-1.3861413E-1,3.6688954E-1,-2.6595404E-2,-3.727948E-1,-2.1731718E-1,-1.9137427E-2,-3.55491E-1,2.6329723E-1,2.934475E-2,1.18668444E-1,-6.816975E-1,3.0380344E-1,2.0993926E-1,3.1533682E-1,3.9039385E-1,1.3896672E-1,3.841342E-1,4.5551336E-1,-3.4117422E-1,-4.486288E-1,2.1053524E-1,-3.4241003E-1,1.7685894E-2,4.7327197E-1,3.8894054E-1],"split_indices":[2,3,0,2,0,1,0,3,0,1,3,0,1,1,0,1,0,1,1,3,1,2,0,3,3,0,0,1,0,1,0,0,0,1,0,0,0,1,1,1,2,1,1,2,1,1,1,2,3,1,0,2,1,0,0,0,1,0,0,0,0,0,0,0,0,0,0,0,0,0,0,0,0,0,0,0,0,0,0,0,0,0,0,0,0,0,0,0,0,0,0,0,0,0,0,0,0,0,0,0,0,0,0],"split_type":[0,0,0,0,0,0,0,0,0,0,0,0,0,0,0,0,0,0,0,0,0,0,0,0,0,0,0,0,0,0,0,0,0,0,0,0,0,0,0,0,0,0,0,0,0,0,0,0,0,0,0,0,0,0,0,0,0,0,0,0,0,0,0,0,0,0,0,0,0,0,0,0,0,0,0,0,0,0,0,0,0,0,0,0,0,0,0,0,0,0,0,0,0,0,0,0,0,0,0,0,0,0,0],"sum_hessian":[4.7407652E4,1.7344193E4,3.006346E4,9.5578516E2,1.6388408E4,2.4980629E4,5.0828325E3,5.4655725E2,4.0922787E2,5.993372E2,1.578907E4,1.7426219E4,7.554409E3,2.8016238E2,4.80267E3,6.847815E1,4.7807913E2,2.9790732E2,1.1132054E2,4.4091602E2,1.5842119E2,8.346618E1,1.5705604E4,8.558092E2,1.657041E4,5.560873E3,1.9935365E3,6.582896E1,2.1433344E2,2.7749326E2,4.525177E3,5.7545113E1,1.0933041E1,3.2655968E1,4.4542316E2,9.299538E1,2.0491196E2,4.384451E1,6.7476036E1,2.2451112E2,2.1640489E2,8.420892E1,7.421227E1,7.101704E1,1.2449142E1,7.8022345E2,7.558573E1,8.8573517E2,1.5684675E4,6.975187E2,4.8633545E3,1.9045555E3,8.898094E1,2.394821E1,4.188075E1,2.711779E1,2.5037547E2,2.4318838E1,3.3226273E1,2.1656265E1,1.0999701E1,5.7260204E1,3.573517E1,1.1551449E1,3.229306E1,2.6215725E1,4.1260307E1,3.344155E1,1.9106958E2,1.0084737E2,1.1555753E2,3.610719E1,4.8101738E1,5.7060364E1,1.7151907E1,6.934091E1,1.6761233E0,1.1086684E1,1.3624582E0,6.3353815E2,1.4668532E2,4.1148304E1,3.4437424E1,4.516394E2,4.340958E2,8.7360626E2,1.4811069E4,6.641145E2,3.340416E1,3.0990571E3,1.7642971E3,2.6544037E1,1.8780115E3,3.840919E1,5.057175E1,1.3241056E1,1.0707153E1,1.9222998E1,2.265775E1,1.1179528E1,1.5938262E1,3.9246334E1,2.1112914E2],"tree_param":{"num_deleted":"0","num_feature":"4","num_nodes":"103","size_leaf_vector":"1"}},{"base_weights":[-5.3590406E-2,-1.0568953E0,3.9737022E-1,-2.6311237E-1,-1.1020153E0,2.6366478E-1,1.1488076E0,-8.4923244E-1,7.2924876E-1,-6.906626E-1,-1.1042749E0,5.440967E-2,7.3880994E-1,8.10005E-1,1.1947577E0,1.8119442E-1,-1.0310348E0,9.577522E-1,1.0427134E-1,1.0607975E0,-1.0280707E0,-3.3190167E-1,-8.3557993E-1,1.3679667E-1,-2.6324895E-1,6.118777E-1,1.1643124E0,2.9860573E-2,1.2998383E0,1.0532073E0,3.61009E-1,3.8604639E-3,3.5075995E-1,-3.7593752E-1,-3.2427883E-1,1.1220614E0,2.2549282E-1,9.2809606E-1,-8.898183E-1,3.8460022E-1,6.759482E-2,-3.2683018E-1,-1.8259466E-1,-1.0700186E0,3.3645755E-1,3.5567242E-1,2.2461289E-3,-3.87361E-1,1.045505E0,3.1523148E-3,7.1044487E-1,9.914144E-1,3.6157972E-1,1.0648878E0,-3.195005E-1,1.4377515E0,3.6954856E-1,-3.7752149E-1,3.694726E-1,-2.700177E-1,4.7964055E-2,-2.7320227E-1,3.7654823E-1,2.8627634E-1,3.6985204E-1,-1.6084822E-1,3.4478688E-1,3.76978E-1,1.13438725E-1,3.2970837E-1,-4.628905E-1,-7.3741116E-2,-3.434617E-3,-3.2810396E-1,-1.257491E-1,2.4251498E-1,-2.9564893E-1,7.710964E-3,2.3842846E-1,2.3401731E-1,-1.4897769E-2,3.6498297E-2,-1.8377493E-1,4.3398626E-3,6.3091224E-1,-2.1053673E-1,1.3513218E-1,2.5174585E-1,1.639658E-1,-1.6472256E-2,3.3006263E-1,4.546313E-1,-3.1508553E-1,-2.885131E-1,1.2352812E-1,5.2199376E-1,3.8783714E-1,-3.1639996E-1,1.2729829E-2],"categories":[],"categories_nodes":[],"categories_segments":[],"categories_sizes":[],"default_left":[0,0,0,0,0,0,0,0,0,0,0,0,0,0,0,0,0,0,0,0,0,0,0,0,0,0,0,0,0,0,0,0,0,0,0,0,0,0,0,0,0,0,0,0,0,0,0,0,0,0,0,0,0,0,0,0,0,0,0,0,0,0,0,0,0,0,0,0,0,0,0,0,0,0,0,0,0,0,0,0,0,0,0,0,0,0,0,0,0,0,0,0,0,0,0,0,0,0,0],"id":4,"left_children":[1,3,5,7,9,11,13,15,17,19,21,23,25,27,29,31,33,35,37,39,41,-1,43,45,47,49,51,53,55,57,-1,59,-1,61,-1,63,65,67,69,-1,-1,-1,71,73,75,77,79,81,83,85,87,89,-1,91,93,95,-1,97,-1,-1,-1,-1,-1,-1,-1,-1,-1,-1,-1,-1,-1,-1,-1,-1,-1,-1,-1,-1,-1,-1,-1,-1,-1,-1,-1,-1,-1,-1,-1,-1,-1,-1,-1,-1,-1,-1,-1,-1,-1],"loss_changes":[1.8767025E4,4.6037988E2,2.8748184E3,4.037589E2,1.0548828E1,2.4155293E3,6.6322754E1,8.190271E1,3.673088E1,4.195906E1,5.7871094E0,4.4148477E2,4.0047998E2,1.9841199E2,3.3666992E0,1.160638E1,1.17178955E1,2.2454498E1,5.8292248E1,1.866559E0,2.8357964E0,0E0,2.683165E1,3.9447162E2,5.647242E2,3.434077E2,1.088208E1,7.313859E1,1.2208862E0,5.814618E1,0E0,8.209143E0,0E0,2.5377779E1,0E0,1.6843109E0,2.583311E1,6.5455246E0,4.3666466E1,0E0,0E0,0E0,5.3000703E-2,7.815933E-1,1.1289645E1,7.3881134E2,3.3498224E2,3.6395004E2,3.283832E2,2.5212999E2,1.0344849E2,3.7884277E1,0E0,5.0228886E1,7.1444046E1,2.104126E0,0E0,7.3873053E0,0E0,0E0,0E0,0E0,0E0,0E0,0E0,0E0,0E0,0E0,0E0,0E0,0E0,0E0,0E0,0E0,0E0,0E0,0E0,0E0,0E0,0E0,0E0,0E0,0E0,0E0,0E0,0E0,0E0,0E0,0E0,0E0,0E0,0E0,0E0,0E0,0E0,0E0,0E0,0E0,0E0],"parents":[2147483647,0,0,1,1,2,2,3,3,4,4,5,5,6,6,7,7,8,8,9,9,10,10,11,11,12,12,13,13,14,14,15,15,16,16,17,17,18,18,19,19,20,20,22,22,23,23,24,24,25,25,26,26,27,27,28,28,29,29,31,31,33,33,35,35,36,36,37,37,38,38,42,42,43,43,44,44,45,45,46,46,47,47,48,48,49,49,50,50,51,51,53,53,54,54,55,55,57,57],"right_children":[2,4,6,8,10,12,14,16,18,20,22,24,26,28,30,32,34,36,38,40,42,-1,44,46,48,50,52,54,56,58,-1,60,-1,62,-1,64,66,68,70,-1,-1,-1,72,74,76,78,80,82,84,86,88,90,-1,92,94,96,-1,98,-1,-1,-1,-1,-1,-1,-1,-1,-1,-1,-1,-1,-1,-1,-1,-1,-1,-1,-1,-1,-1,-1,-1,-1,-1,-1,-1,-1,-1,-1,-1,-1,-1,-1,-1,-1,-1,-1,-1,-1,-1],"split_conditions":[-2.5056005E-2,-2.6943E0,4.021146E-1,-4.0571836E-1,-2.598595E0,1.440378E-3,4.482116E-1,-4.850789E0,-2.8910956E0,-1.1283499E0,-7.1810566E-2,9.9462934E-2,1.0359557E0,-9.2988837E-1,4.695115E-1,2.8644795E0,-1.1087387E0,-1.1346706E0,1.3560174E0,-1.1346706E0,-4.0571836E-1,-3.3190167E-1,7.841742E-1,-7.8239566E-1,-1.2412967E-1,6.8441945E-1,1.1010697E0,-1.2959635E0,4.1345367E-1,-1.3469118E0,3.61009E-1,2.0823882E0,3.5075995E-1,2.3061109E0,-3.2427883E-1,-2.1514885E-1,2.0823882E0,-1.1618282E0,-1.1795975E0,3.8460022E-1,6.759482E-2,-3.2683018E-1,-1.1221348E0,7.799063E-1,1.0443354E0,-7.874119E-1,-1.2334416E0,-9.2988837E-1,2.4657454E-1,4.6665457E-1,4.962351E-1,1.4483689E-1,3.6157972E-1,4.3607906E-1,4.25205E-1,-6.8728024E-1,3.6954856E-1,4.5909876E-1,3.694726E-1,-2.700177E-1,4.7964055E-2,-2.7320227E-1,3.7654823E-1,2.8627634E-1,3.6985204E-1,-1.6084822E-1,3.4478688E-1,3.76978E-1,1.13438725E-1,3.2970837E-1,-4.628905E-1,-7.3741116E-2,-3.434617E-3,-3.2810396E-1,-1.257491E-1,2.4251498E-1,-2.9564893E-1,7.710964E-3,2.3842846E-1,2.3401731E-1,-1.4897769E-2,3.6498297E-2,-1.8377493E-1,4.3398626E-3,6.3091224E-1,-2.1053673E-1,1.3513218E-1,2.5174585E-1,1.639658E-1,-1.6472256E-2,3.3006263E-1,4.546313E-1,-3.1508553E-1,-2.885131E-1,1.2352812E-1,5.2199376E-1,3.8783714E-1,-3.1639996E-1,1.2729829E-2],"split_indices":[2,3,0,2,3,1,0,3,3,0,2,0,1,1,0,1,0,0,1,0,2,0,1,1,1,2,1,1,0,1,0,1,0,1,0,2,1,0,0,0,0,0,0,1,1,1,0,1,0,1,1,2,0,0,0,1,0,0,0,0,0,0,0,0,0,0,0,0,0,0,0,0,0,0,0,0,0,0,0,0,0,0,0,0,0,0,0,0,0,0,0,0,0,0,0,0,0,0,0],"split_type":[0,0,0,0,0,0,0,0,0,0,0,0,0,0,0,0,0,0,0,0,0,0,0,0,0,0,0,0,0,0,0,0,0,0,0,0,0,0,0,0,0,0,0,0,0,0,0,0,0,0,0,0,0,0,0,0,0,0,0,0,0,0,0,0,0,0,0,0,0,0,0,0,0,0,0,0,0,0,0,0,0,0,0,0,0,0,0,0,0,0,0,0,0,0,0,0,0,0,0],"sum_hessian":[4.1476656E4,1.2861291E4,2.8615363E4,6.9210516E2,1.2169186E4,2.4294012E4,4.3213525E3,4.3520404E2,2.5690115E2,6.815647E1,1.2101029E4,1.68669E4,7.427111E3,5.183134E2,3.803039E3,6.526961E1,3.6993442E2,1.8773079E2,6.917036E1,1.06627865E1,5.7493683E1,1.2005688E4,9.534073E1,1.3393716E4,3.4731848E3,5.7224707E3,1.70464E3,2.0032388E2,3.1798953E2,2.2502711E2,3.578012E3,5.618843E1,9.081177E0,2.6785498E1,3.4314893E2,1.5289162E2,3.4839165E1,3.786071E1,3.1309647E1,8.008104E0,2.6546822E0,5.333423E1,4.1594534E0,7.952138E1,1.5819348E1,5.0984053E3,8.295311E3,3.1729873E3,3.001974E2,7.9761804E2,4.924853E3,3.3127216E2,1.3733679E3,5.0036427E1,1.5028746E2,9.837024E1,2.1961928E2,2.4820423E1,2.002067E2,7.5687966E0,4.8619637E1,2.0504887E1,6.28061E0,6.461981E1,8.827181E1,1.9325365E1,1.5513798E1,2.2898499E1,1.4962213E1,7.571553E0,2.3738092E1,2.719019E0,1.4404341E0,7.607537E1,3.4460125E0,1.1943956E1,3.875392E0,2.911507E3,2.186898E3,5.1805975E2,7.7772505E3,9.7342365E2,2.1995637E3,1.5251619E2,1.476812E2,3.0940942E2,4.8820862E2,2.7562175E3,2.1686353E3,3.1247437E1,3.0002472E2,4.1483604E1,8.552821E0,7.984801E1,7.043945E1,2.8321016E1,7.004922E1,8.922373E0,1.5898049E1],"tree_param":{"num_deleted":"0","num_feature":"4","num_nodes":"99","size_leaf_vector":"1"}},{"base_weights":[-4.8679736E-2,-9.900897E-1,3.2565716E-1,-2.3631524E-1,-1.062106E0,2.0942287E-1,1.0616883E0,6.492573E-1,-8.034524E-1,-7.3080087E-1,-1.0737833E0,5.6965277E-2,6.636951E-1,7.116899E-1,1.1315231E0,8.757263E-1,-1.967997E-2,-5.9509214E-2,-9.6409494E-1,-3.141209E-1,-1.2949846E0,-9.2070967E-1,-3.2263446E-1,-1.371731E0,6.933737E-2,5.38044E-1,1.1099449E0,-1.7562605E-1,1.3036735E0,9.7065866E-1,3.4246832E-1,3.470956E-1,6.230132E-1,3.38461E-1,-1.4191546E0,-1.0024403E0,3.8019425E-1,-3.1766027E-1,-3.420519E-1,8.9288986E-1,-7.0124704E-1,-6.699905E-1,-1.3992109E0,1.8332105E-2,-3.1984562E-1,-5.04653E-1,2.7240616E-1,2.4628206E-1,-1.6271327E-2,1.0019289E0,4.6776706E-1,1.1373367E0,5.8802706E-1,1.2578634E0,-5.965999E-1,1.5424203E0,3.6042497E-1,-3.105463E-1,3.478876E-1,5.664601E-3,2.9311025E-1,2.8237596E-1,-2.9643783E-1,-6.1060864E-1,-3.1800178E-1,-3.164376E-1,-1.7890763E-1,3.7099645E-1,4.2261478E-2,-2.0160212E-1,3.0533585E-1,1.8660817E-1,4.6698004E-1,-3.6175177E-1,2.7982349E-2,-1.8999526E-2,-3.265333E-1,-4.7204775E-1,-3.2254148E-1,2.3501852E-1,-4.7375422E-2,1.0647319E-2,2.3666254E-1,-6.6602595E-2,4.3275215E-2,3.728561E-1,1.4028502E-4,2.3696449E-2,1.6596852E-1,2.3682436E-1,3.4267116E-1,1.6331207E-2,3.3284742E-1,4.7928742E-1,-2.9440722E-1,-4.5249766E-1,3.190802E-2,-2.1077545E-1,5.115453E-1,-2.958597E-1,9.15674E-3],"categories":[],"categories_nodes":[],"categories_segments":[],"categories_sizes":[],"default_left":[0,0,0,0,0,0,0,0,0,0,0,0,0,0,0,0,0,0,0,0,0,0,0,0,0,0,0,0,0,0,0,0,0,0,0,0,0,0,0,0,0,0,0,0,0,0,0,0,0,0,0,0,0,0,0,0,0,0,0,0,0,0,0,0,0,0,0,0,0,0,0,0,0,0,0,0,0,0,0,0,0,0,0,0,0,0,0,0,0,0,0,0,0,0,0,0,0,0,0,0,0],"id":5,"left_children":[1,3,5,7,9,11,13,15,17,19,21,23,25,27,29,31,33,35,37,39,41,43,-1,45,47,49,51,53,55,57,-1,-1,59,61,63,65,67,-1,69,71,73,75,77,79,-1,-1,-1,81,83,85,87,89,91,93,95,97,-1,99,-1,-1,-1,-1,-1,-1,-1,-1,-1,-1,-1,-1,-1,-1,-1,-1,-1,-1,-1,-1,-1,-1,-1,-1,-1,-1,-1,-1,-1,-1,-1,-1,-1,-1,-1,-1,-1,-1,-1,-1,-1,-1,-1],"loss_changes":[1.2790276E4,5.602803E2,2.221435E3,4.5344098E2,3.567871E1,1.5532688E3,8.575464E1,5.343596E1,6.569437E1,7.576512E1,1.3300781E0,2.9693628E2,3.153999E2,3.110721E2,3.6560059E0,1.8004776E1,4.5670494E1,4.1332565E1,2.6308685E1,8.83288E1,8.008102E0,1.4344589E1,0E0,1.0360202E2,2.5222238E2,1.4295166E2,1.701892E1,1.4419025E2,6.815613E0,4.3935226E1,0E0,0E0,3.0123955E1,5.8983337E1,1.9510117E0,4.4576645E-2,1.3781199E1,0E0,2.818484E1,7.3049774E0,5.731156E1,5.4008617E0,4.9039917E0,2.1530452E0,0E0,0E0,0E0,6.209165E2,3.7064893E2,1.3943866E2,1.2695813E2,1.1009521E0,1.7682484E1,4.2864E1,1.1835332E2,3.8810165E1,0E0,5.5429716E0,0E0,0E0,0E0,0E0,0E0,0E0,0E0,0E0,0E0,0E0,0E0,0E0,0E0,0E0,0E0,0E0,0E0,0E0,0E0,0E0,0E0,0E0,0E0,0E0,0E0,0E0,0E0,0E0,0E0,0E0,0E0,0E0,0E0,0E0,0E0,0E0,0E0,0E0,0E0,0E0,0E0,0E0,0E0],"parents":[2147483647,0,0,1,1,2,2,3,3,4,4,5,5,6,6,7,7,8,8,9,9,10,10,11,11,12,12,13,13,14,14,15,15,16,16,17,17,18,18,19,19,20,20,21,21,23,23,24,24,25,25,26,26,27,27,28,28,29,29,32,32,33,33,34,34,35,35,36,36,38,38,39,39,40,40,41,41,42,42,43,43,47,47,48,48,49,49,50,50,51,51,52,52,53,53,54,54,55,55,57,57],"right_children":[2,4,6,8,10,12,14,16,18,20,22,24,26,28,30,32,34,36,38,40,42,44,-1,46,48,50,52,54,56,58,-1,-1,60,62,64,66,68,-1,70,72,74,76,78,80,-1,-1,-1,82,84,86,88,90,92,94,96,98,-1,100,-1,-1,-1,-1,-1,-1,-1,-1,-1,-1,-1,-1,-1,-1,-1,-1,-1,-1,-1,-1,-1,-1,-1,-1,-1,-1,-1,-1,-1,-1,-1,-1,-1,-1,-1,-1,-1,-1,-1,-1,-1,-1,-1],"split_conditions":[1.14056945E-1,-2.2384844E0,3.9021268E-1,-1.1346706E0,-1.2026268E0,1.0962034E-1,4.482116E-1,-2.598595E0,-3.9949558E0,-1.1212155E0,-2.1355238E0,-1.2343305E0,1.0359557E0,-8.9948446E-1,4.695115E-1,-1.1795975E0,1.0463262E0,2.0823882E0,-4.3477103E-1,-2.607428E-1,-1.0446924E0,-1.1917027E0,-3.2263446E-1,3.7780395E-1,-7.834038E-1,2.4792413E-1,-4.614425E-1,-1.2959635E0,4.021146E-1,-1.3469118E0,3.4246832E-1,3.470956E-1,1.5597458E0,-1.1877737E0,-1.209221E0,1.9710572E0,2.1320693E0,-3.1766027E-1,2.0823882E0,-1.209221E0,4.6665457E-1,4.490095E-2,-7.8251773E-1,7.779672E-1,-3.1984562E-1,-5.04653E-1,2.7240616E-1,-7.874119E-1,-3.9185157E-1,8.782533E-2,-1.2123836E0,1.4483689E-1,1.1010697E0,4.3607906E-1,4.1345367E-1,-7.874119E-1,3.6042497E-1,4.5909876E-1,3.478876E-1,5.664601E-3,2.9311025E-1,2.8237596E-1,-2.9643783E-1,-6.1060864E-1,-3.1800178E-1,-3.164376E-1,-1.7890763E-1,3.7099645E-1,4.2261478E-2,-2.0160212E-1,3.0533585E-1,1.8660817E-1,4.6698004E-1,-3.6175177E-1,2.7982349E-2,-1.8999526E-2,-3.265333E-1,-4.7204775E-1,-3.2254148E-1,2.3501852E-1,-4.7375422E-2,1.0647319E-2,2.3666254E-1,-6.6602595E-2,4.3275215E-2,3.728561E-1,1.4028502E-4,2.3696449E-2,1.6596852E-1,2.3682436E-1,3.4267116E-1,1.6331207E-2,3.3284742E-1,4.7928742E-1,-2.9440722E-1,-4.5249766E-1,3.190802E-2,-2.1077545E-1,5.115453E-1,-2.958597E-1,9.15674E-3],"split_indices":[2,3,0,0,0,1,0,3,3,3,3,1,1,1,0,0,1,1,2,1,1,0,0,0,1,1,0,1,0,1,0,0,1,0,0,1,1,0,1,0,1,2,1,1,0,0,0,1,1,0,0,2,1,0,0,1,0,0,0,0,0,0,0,0,0,0,0,0,0,0,0,0,0,0,0,0,0,0,0,0,0,0,0,0,0,0,0,0,0,0,0,0,0,0,0,0,0,0,0,0,0],"split_type":[0,0,0,0,0,0,0,0,0,0,0,0,0,0,0,0,0,0,0,0,0,0,0,0,0,0,0,0,0,0,0,0,0,0,0,0,0,0,0,0,0,0,0,0,0,0,0,0,0,0,0,0,0,0,0,0,0,0,0,0,0,0,0,0,0,0,0,0,0,0,0,0,0,0,0,0,0,0,0,0,0,0,0,0,0,0,0,0,0,0,0,0,0,0,0,0,0,0,0,0,0],"sum_hessian":[3.629239E4,1.0324907E4,2.5967482E4,9.007966E2,9.424111E3,2.2427076E4,3.540407E3,3.51614E2,5.4918256E2,3.230198E2,9.101091E3,1.6792498E4,5.6345786E3,5.9077057E2,2.9496362E3,2.6245175E2,8.916228E1,9.777098E1,4.514116E2,1.8669344E2,1.3632635E2,1.038867E2,8.997204E3,1.4322632E2,1.6649271E4,4.3983384E3,1.2362399E3,2.3669504E2,3.5407556E2,1.7898433E2,2.770652E3,1.2251713E2,1.3993462E2,7.159777E1,1.7564507E1,3.0685984E1,6.7085E1,3.911195E2,6.0292103E1,4.502007E1,1.4167337E2,2.0546616E1,1.1577974E2,1.4049655E1,8.983705E1,1.2629078E2,1.6935545E1,5.4280835E3,1.12211875E4,5.7692267E2,3.8214158E3,1.1734735E3,6.2766426E1,5.3279854E1,1.8341519E2,1.0195356E2,2.52122E2,2.2922821E1,1.5606151E2,5.209265E1,8.7841965E1,4.942834E1,2.216943E1,4.749093E0,1.2815413E1,2.576668E1,4.919305E0,1.3741431E1,5.3343567E1,4.8926296E1,1.1365804E1,3.3347874E1,1.16721945E1,8.632903E1,5.5344337E1,8.857169E0,1.1689446E1,7.278284E1,4.2996902E1,1.9856403E0,1.2064014E1,3.9101152E3,1.5179683E3,4.9177896E3,6.303398E3,4.6485098E2,1.12071686E2,6.889918E2,3.132424E3,1.855026E1,1.1549232E3,3.1568386E1,3.119804E1,4.6509415E1,6.770437E0,7.9351776E1,1.04063416E2,6.666479E0,9.528708E1,7.055156E0,1.5867664E1],"tree_param":{"num_deleted":"0","num_feature":"4","num_nodes":"101","size_leaf_vector":"1"}},{"base_weights":[-4.3328512E-2,-1.0017365E0,2.4077041E-1,-2.9433882E-1,-3.1581846E-1,1.4555304E-1,1.00519E0,-8.1677747E-1,3.966503E-1,2.6255619E-2,5.3303355E-1,6.233877E-1,1.0883545E0,-3.3012267E-2,-3.04099E-1,8.745553E-3,8.369676E-1,-8.024773E-1,4.379942E-2,4.0517578E-1,1.033227E0,-1.4350799E-1,1.2070918E0,9.032262E-1,3.3008504E-1,-1.9504087E-1,3.145633E-1,2.743693E-1,-7.263177E-1,5.41228E-1,3.2749084E-1,-1.1095395E0,-4.1935408E-1,1.007894E-1,-1.9155477E-1,8.841813E-1,3.4239244E-1,7.760717E-1,3.3052063E-1,1.1020406E0,-4.7092986E-1,8.3333606E-1,1.256691E0,-2.5500983E-1,3.3309895E-1,1.0205809E-1,-1.4193071E-1,2.4509506E-1,-2.0859713E-2,-2.938078E-1,3.119834E-2,2.7490446E-2,3.6388642E-1,-2.795587E-1,-3.7172E-1,1.6209093E-1,-3.472673E-1,5.268595E-1,2.7069112E-2,-1.0587513E-1,1.9751118E-1,3.460516E-1,9.861077E-5,1.037747E-2,1.3089891E-1,-2.6696915E-2,2.781065E-1,4.1942477E-1,-2.7649915E-1,-3.968774E-1,2.2437707E-2,-1.673904E-1,3.4307355E-1,5.7257867E-1,3.490909E-1,-2.7811673E-1,6.5832217E-3],"categories":[],"categories_nodes":[],"categories_segments":[],"categories_sizes":[],"default_left":[0,0,0,0,0,0,0,0,0,0,0,0,0,0,0,0,0,0,0,0,0,0,0,0,0,0,0,0,0,0,0,0,0,0,0,0,0,0,0,0,0,0,0,0,0,0,0,0,0,0,0,0,0,0,0,0,0,0,0,0,0,0,0,0,0,0,0,0,0,0,0,0,0,0,0,0,0],"id":6,"left_children":[1,3,5,7,-1,9,11,13,15,17,19,21,23,25,-1,27,29,31,33,35,37,39,41,43,-1,45,-1,47,49,51,-1,53,55,57,59,61,63,65,-1,67,69,71,73,75,-1,-1,-1,-1,-1,-1,-1,-1,-1,-1,-1,-1,-1,-1,-1,-1,-1,-1,-1,-1,-1,-1,-1,-1,-1,-1,-1,-1,-1,-1,-1,-1,-1],"loss_changes":[8.774831E3,2.6548926E2,1.8091953E3,1.7968095E2,0E0,1.0218501E3,8.67439E1,4.3675537E1,3.6643898E1,2.457943E2,3.323839E2,2.216616E2,3.9960938E0,1.0351435E1,0E0,2.2671103E1,6.977768E0,4.076454E1,2.2205304E2,1.2438428E2,1.7796997E1,8.809148E1,4.1629944E0,3.4432144E1,0E0,7.7810974E0,0E0,1.5968308E1,6.5781727E0,1.4529952E1,0E0,3.3086548E0,1.12222916E2,2.3279893E2,4.428532E2,1.1421744E2,1.0601959E2,2.9607468E1,0E0,2.8246456E1,7.94831E1,1.6132488E1,1.2711914E1,4.190968E0,0E0,0E0,0E0,0E0,0E0,0E0,0E0,0E0,0E0,0E0,0E0,0E0,0E0,0E0,0E0,0E0,0E0,0E0,0E0,0E0,0E0,0E0,0E0,0E0,0E0,0E0,0E0,0E0,0E0,0E0,0E0,0E0,0E0],"parents":[2147483647,0,0,1,1,2,2,3,3,5,5,6,6,7,7,8,8,9,9,10,10,11,11,12,12,13,13,15,15,16,16,17,17,18,18,19,19,20,20,21,21,22,22,23,23,25,25,27,27,28,28,29,29,31,31,32,32,33,33,34,34,35,35,36,36,37,37,39,39,40,40,41,41,42,42,43,43],"right_children":[2,4,6,8,-1,10,12,14,16,18,20,22,24,26,-1,28,30,32,34,36,38,40,42,44,-1,46,-1,48,50,52,-1,54,56,58,60,62,64,66,-1,68,70,72,74,76,-1,-1,-1,-1,-1,-1,-1,-1,-1,-1,-1,-1,-1,-1,-1,-1,-1,-1,-1,-1,-1,-1,-1,-1,-1,-1,-1,-1,-1,-1,-1,-1,-1],"split_conditions":[-7.1810566E-2,-2.598595E0,3.9021268E-1,-4.6898252E-1,-3.1581846E-1,1.0962034E-1,4.482116E-1,-4.850789E0,1.656999E0,1.4483689E-1,1.0359557E0,-8.9948446E-1,4.695115E-1,2.8644795E0,-3.04099E-1,-1.1346706E0,-3.0904543E-1,-2.7342102E-1,1.12051286E-1,2.4792413E-1,1.1010697E0,-1.2959635E0,-7.874119E-1,-1.3469118E0,3.3008504E-1,2.1320693E0,3.145633E-1,1.3560174E0,-2.6943E0,2.3061109E0,3.2749084E-1,-7.8573567E-1,-2.607428E-1,-1.0804516E0,-1.7492555E-1,8.782533E-2,7.978086E-1,1.4483689E-1,3.3052063E-1,4.3607906E-1,4.1345367E-1,4.021146E-1,-7.545519E-1,4.5909876E-1,3.3309895E-1,1.0205809E-1,-1.4193071E-1,2.4509506E-1,-2.0859713E-2,-2.938078E-1,3.119834E-2,2.7490446E-2,3.6388642E-1,-2.795587E-1,-3.7172E-1,1.6209093E-1,-3.472673E-1,5.268595E-1,2.7069112E-2,-1.0587513E-1,1.9751118E-1,3.460516E-1,9.861077E-5,1.037747E-2,1.3089891E-1,-2.6696915E-2,2.781065E-1,4.1942477E-1,-2.7649915E-1,-3.968774E-1,2.2437707E-2,-1.673904E-1,3.4307355E-1,5.7257867E-1,3.490909E-1,-2.7811673E-1,6.5832217E-3],"split_indices":[2,3,0,2,0,1,0,3,1,2,1,1,0,1,0,0,2,1,0,1,1,1,1,1,0,1,0,1,3,1,0,1,1,1,1,0,2,2,0,0,0,0,1,0,0,0,0,0,0,0,0,0,0,0,0,0,0,0,0,0,0,0,0,0,0,0,0,0,0,0,0,0,0,0,0,0,0],"split_type":[0,0,0,0,0,0,0,0,0,0,0,0,0,0,0,0,0,0,0,0,0,0,0,0,0,0,0,0,0,0,0,0,0,0,0,0,0,0,0,0,0,0,0,0,0,0,0,0,0,0,0,0,0,0,0,0,0,0,0,0,0,0,0,0,0,0,0,0,0,0,0,0,0,0,0,0,0],"sum_hessian":[3.2225033E4,7.367669E3,2.4857363E4,4.958345E2,6.8718345E3,2.2105105E4,2.752258E3,2.8225037E2,2.1358412E2,1.6902297E4,5.202808E3,4.937912E2,2.258467E3,5.6901997E1,2.2534839E2,1.1409239E2,9.949172E1,3.4946677E2,1.655283E4,4.1450693E3,1.0577386E3,2.1373328E2,2.8005792E2,1.4136163E2,2.1171052E3,5.020102E1,6.7009764E0,8.426793E1,2.9824465E1,4.7479874E1,5.201185E1,1.9293716E2,1.565296E2,1.3326459E4,3.2263716E3,4.7882077E2,3.6662485E3,2.2510489E2,8.326338E2,4.3997223E1,1.6973607E2,3.4896477E1,2.4516145E2,2.1407564E1,1.1995407E2,1.7087063E1,3.3113956E1,3.2155994E1,5.2111935E1,2.2720715E1,7.103751E0,2.9123587E1,1.8356285E1,8.480342E1,1.08133736E2,6.81732E1,8.83564E1,8.341625E1,1.3243043E4,2.712059E3,5.143124E2,3.667585E2,1.12062256E2,8.5758795E2,2.8086606E3,3.3505054E1,1.9159984E2,3.865207E1,5.3451524E0,6.57154E1,1.0402066E2,6.217074E0,2.8679401E1,2.8186607E1,2.1697484E2,5.562495E0,1.584507E1],"tree_param":{"num_deleted":"0","num_feature":"4","num_nodes":"77","size_leaf_vector":"1"}},{"base_weights":[-3.78165E-2,-9.9388975E-1,1.8121198E-1,-3.9900956E-1,-1.0365599E0,1.1096382E-1,1.0452274E0,-7.8137535E-1,1.3459955E-1,-3.1160444E-1,-9.218357E-1,7.565066E-2,9.602911E-1,8.035543E-1,3.2153857E-1,-9.086002E-2,-9.819953E-1,-1.8384315E-1,9.1400355E-1,9.6870506E-1,-3.0917695E-1,8.850187E-3,2.6540214E-1,9.9688655E-1,2.7816373E-1,-1.237138E-1,3.345291E-1,-2.1903862E-1,2.8475824E-1,-8.1413937E-1,-3.102713E-1,-8.929442E-1,6.818008E-2,4.8726076E-1,3.5258594E-1,1.4140297E-1,-1.1430649E-1,-9.6222684E-2,5.8574563E-1,6.657657E-1,3.2168055E-1,-2.4556969E-1,3.0566072E-1,-2.097755E-1,2.0077175E-1,9.6784666E-2,-1.5430817E-1,-3.05529E-1,1.0929575E0,-3.071174E-1,-1.3041234E-1,-7.3046625E-2,1.1144661E-1,-1.6031389E-1,2.8727487E-1,6.472974E-2,-1.7746434E-1,-4.0169157E-2,5.5887043E-1,-3.415057E-1,8.740668E-2,4.6532616E-1,1.265093E-1,-4.0236678E-2,2.7860436E-1,-2.9029033E-1,3.3528286E-1,-6.275566E-2,3.104181E-1],"categories":[],"categories_nodes":[],"categories_segments":[],"categories_sizes":[],"default_left":[0,0,0,0,0,0,0,0,0,0,0,0,0,0,0,0,0,0,0,0,0,0,0,0,0,0,0,0,0,0,0,0,0,0,0,0,0,0,0,0,0,0,0,0,0,0,0,0,0,0,0,0,0,0,0,0,0,0,0,0,0,0,0,0,0,0,0,0,0],"id":7,"left_children":[1,3,5,7,9,11,13,15,17,-1,19,21,23,25,-1,27,29,31,33,-1,-1,35,37,39,41,43,-1,45,-1,47,-1,49,51,53,-1,55,57,59,61,63,-1,65,-1,-1,67,-1,-1,-1,-1,-1,-1,-1,-1,-1,-1,-1,-1,-1,-1,-1,-1,-1,-1,-1,-1,-1,-1,-1,-1],"loss_changes":[6.1074126E3,1.3757568E2,1.4401422E3,7.46709E1,2.7685547E-1,6.5814526E2,1.0594116E1,2.9424469E1,3.824374E1,0E0,4.890782E1,2.6708514E2,2.1589111E1,5.2339813E1,0E0,6.7488956E0,6.047516E-1,1.9673288E1,4.407589E0,0E0,0E0,2.5444965E2,6.356278E2,2.0027649E1,1.8090702E1,8.795312E0,0E0,7.2833176E0,0E0,4.3647984E1,0E0,1.283781E0,7.832287E0,9.482824E0,0E0,4.0928937E2,3.1321863E2,1.0416124E3,4.6008752E2,3.308609E1,0E0,2.8391794E1,0E0,0E0,1.0614074E1,0E0,0E0,0E0,0E0,0E0,0E0,0E0,0E0,0E0,0E0,0E0,0E0,0E0,0E0,0E0,0E0,0E0,0E0,0E0,0E0,0E0,0E0,0E0,0E0],"parents":[2147483647,0,0,1,1,2,2,3,3,4,4,5,5,6,6,7,7,8,8,10,10,11,11,12,12,13,13,15,15,16,16,17,17,18,18,21,21,22,22,23,23,24,24,25,25,27,27,29,29,31,31,32,32,33,33,35,35,36,36,37,37,38,38,39,39,41,41,44,44],"right_children":[2,4,6,8,10,12,14,16,18,-1,20,22,24,26,-1,28,30,32,34,-1,-1,36,38,40,42,44,-1,46,-1,48,-1,50,52,54,-1,56,58,60,62,64,-1,66,-1,-1,68,-1,-1,-1,-1,-1,-1,-1,-1,-1,-1,-1,-1,-1,-1,-1,-1,-1,-1,-1,-1,-1,-1,-1,-1],"split_conditions":[-1.906802E-1,-2.598595E0,4.3607906E-1,-5.0118303E-1,2.8644795E0,1.0359557E0,4.695115E-1,-4.850789E0,2.0823882E0,-3.1160444E-1,-9.729319E-1,-4.3957806E-3,-4.614425E-1,-1.1402053E0,3.2153857E-1,2.8644795E0,-1.0402427E0,-3.8167298E-1,2.3061109E0,9.6870506E-1,-3.0917695E-1,-4.960952E-1,-8.615364E-1,1.4483689E-1,1.1010697E0,4.482116E-1,3.345291E-1,2.1320693E0,2.8475824E-1,1.9710572E0,-3.102713E-1,-4.0571836E-1,1.5634664E0,-3.9949558E0,3.5258594E-1,-2.0011815E-1,-6.869471E-3,1.0962034E-1,1.440378E-3,1.1648757E0,3.2168055E-1,-3.195307E-1,3.0566072E-1,-2.097755E-1,-1.3469118E0,9.6784666E-2,-1.5430817E-1,-3.05529E-1,1.0929575E0,-3.071174E-1,-1.3041234E-1,-7.3046625E-2,1.1144661E-1,-1.6031389E-1,2.8727487E-1,6.472974E-2,-1.7746434E-1,-4.0169157E-2,5.5887043E-1,-3.415057E-1,8.740668E-2,4.6532616E-1,1.265093E-1,-4.0236678E-2,2.7860436E-1,-2.9029033E-1,3.3528286E-1,-6.275566E-2,3.104181E-1],"split_indices":[2,3,0,2,1,1,0,3,1,0,0,1,0,1,0,1,0,2,1,0,0,0,0,2,1,0,0,1,0,1,0,2,1,3,0,1,1,1,1,1,0,0,0,0,1,0,0,0,0,0,0,0,0,0,0,0,0,0,0,0,0,0,0,0,0,0,0,0,0],"split_type":[0,0,0,0,0,0,0,0,0,0,0,0,0,0,0,0,0,0,0,0,0,0,0,0,0,0,0,0,0,0,0,0,0,0,0,0,0,0,0,0,0,0,0,0,0,0,0,0,0,0,0,0,0,0,0,0,0,0,0,0,0,0,0,0,0,0,0,0,0],"sum_hessian":[2.9163377E4,5.4351343E3,2.3728244E4,3.6445752E2,5.070677E3,2.1945139E4,1.7831056E3,2.1204738E2,1.5241014E2,4.9707065E3,9.996988E1,2.1070176E4,8.7496234E2,1.7970204E2,1.6034034E3,4.8064987E1,1.6398239E2,1.0874436E2,4.3665783E1,1.8198553E0,9.8150024E1,1.558474E4,5.4854355E3,8.2997363E2,4.4988705E1,4.534404E1,1.34358E2,4.3494076E1,4.570911E0,4.285904E1,1.2112335E2,2.7847786E1,8.0896576E1,1.7670364E1,2.5995419E1,7.505966E3,8.0787744E3,2.5770225E3,2.908413E3,1.5573361E2,6.7424005E2,2.6745867E1,1.8242838E1,1.5931496E1,2.9412544E1,1.5314011E1,2.8180067E1,4.171849E1,1.1405475E0,2.070464E1,7.143146E0,3.9995693E1,4.0900883E1,5.5274215E0,1.2142943E1,6.815221E3,6.907446E2,8.000436E3,7.833819E1,6.980777E2,1.8789448E3,4.2122968E2,2.4871833E3,3.864644E1,1.1708717E2,1.767417E1,9.071697E0,2.0221289E1,9.191255E0],"tree_param":{"num_deleted":"0","num_feature":"4","num_nodes":"69","size_leaf_vector":"1"}},{"base_weights":[-3.307816E-2,-9.457572E-1,1.4296098E-1,-1.7723645E-1,-1.0169127E0,7.9408266E-2,9.2229074E-1,-6.3560015E-1,3.8585752E-1,-7.1579826E-1,-1.0242677E0,5.298046E-2,9.5372504E-1,6.0321045E-1,3.1550014E-1,-5.8742527E-2,-9.579708E-1,3.093665E-1,2.1598932E-1,-1.0191021E0,1.6932538E-2,-3.0808547E-1,-8.817161E-1,1.821022E-5,2.0915481E-1,1.0052361E0,2.4983814E-1,5.0752554E-3,1.1255891E0,-9.0057856E-1,2.0899196E-1,-2.9308027E-1,-4.2383894E-1,3.0790383E-1,6.099497E-2,-3.155942E-1,-6.206137E-1,2.213857E-1,-3.0443996E-1,1.4984441E0,-1.0042936E0,1.086713E0,-1.3930186E-2,-4.0952735E-2,4.6184167E-1,6.074611E-1,3.1544253E-1,-1.3619359E-1,2.953329E-1,6.351427E-1,-2.0702043E-1,8.201105E-1,1.1663716E0,-2.9565087E-1,-1.6315925E-1,-6.122753E-3,2.2089975E-1,-2.4408662E-1,1.1207152E-1,1.42604E-1,-3.760003E-2,-2.950683E-2,-2.2900592E-1,-8.319894E-2,2.3806047E-1,7.1507937E-1,8.682014E-2,-3.5063863E-2,-3.0489552E-1,3.863515E-1,-3.8037726E-1,6.320462E-2,-2.2117078E-2,-2.6644626E-1,7.629771E-2,2.1528451E-1,-2.3350608E-2,-2.5847764E-3,3.1106693E-1,1.978226E-1,-2.6182792E-1,3.8360927E-1,-5.6724705E-2,-1.9261317E-1,2.3680833E-1,-1.249513E-1,3.2417774E-1,4.5147368E-1,3.320801E-1],"categories":[],"categories_nodes":[],"categories_segments":[],"categories_sizes":[],"default_left":[0,0,0,0,0,0,0,0,0,0,0,0,0,0,0,0,0,0,0,0,0,0,0,0,0,0,0,0,0,0,0,0,0,0,0,0,0,0,0,0,0,0,0,0,0,0,0,0,0,0,0,0,0,0,0,0,0,0,0,0,0,0,0,0,0,0,0,0,0,0,0,0,0,0,0,0,0,0,0,0,0,0,0,0,0,0,0,0,0],"id":8,"left_children":[1,3,5,7,9,11,13,15,17,19,21,23,25,27,-1,29,31,-1,33,35,37,-1,39,41,43,45,47,49,51,53,55,-1,57,-1,59,-1,61,63,-1,65,67,69,71,73,75,77,-1,79,-1,81,83,85,87,-1,-1,-1,-1,-1,-1,-1,-1,-1,-1,-1,-1,-1,-1,-1,-1,-1,-1,-1,-1,-1,-1,-1,-1,-1,-1,-1,-1,-1,-1,-1,-1,-1,-1,-1,-1],"loss_changes":[4.3204683E3,2.375918E2,1.116442E3,9.565872E1,8.080078E0,4.815824E2,6.952832E1,3.7910835E1,1.8030983E1,2.1841671E1,5.800781E-1,1.6736023E2,2.192102E1,1.5393155E2,0E0,1.6925167E1,9.119034E-1,0E0,1.665207E1,2.572937E-1,6.4965134E0,0E0,2.4499367E1,2.2905782E2,3.238526E2,9.83551E0,1.2336568E1,3.0959192E1,2.3197937E0,1.2537003E-2,6.928812E0,0E0,2.2479844E0,0E0,8.7663765E0,0E0,5.0143576E-1,7.535078E0,0E0,3.8707056E0,6.874466E-1,9.232753E1,2.0039859E2,6.446592E2,3.5190137E2,1.63252E1,0E0,1.7620132E1,0E0,3.1189096E1,7.564229E1,1.1512476E1,2.9550476E0,0E0,0E0,0E0,0E0,0E0,0E0,0E0,0E0,0E0,0E0,0E0,0E0,0E0,0E0,0E0,0E0,0E0,0E0,0E0,0E0,0E0,0E0,0E0,0E0,0E0,0E0,0E0,0E0,0E0,0E0,0E0,0E0,0E0,0E0,0E0,0E0],"parents":[2147483647,0,0,1,1,2,2,3,3,4,4,5,5,6,6,7,7,8,8,9,9,10,10,11,11,12,12,13,13,15,15,16,16,18,18,19,19,20,20,22,22,23,23,24,24,25,25,26,26,27,27,28,28,29,29,30,30,32,32,34,34,36,36,37,37,39,39,40,40,41,41,42,42,43,43,44,44,45,45,47,47,49,49,50,50,51,51,52,52],"right_children":[2,4,6,8,10,12,14,16,18,20,22,24,26,28,-1,30,32,-1,34,36,38,-1,40,42,44,46,48,50,52,54,56,-1,58,-1,60,-1,62,64,-1,66,68,70,72,74,76,78,-1,80,-1,82,84,86,88,-1,-1,-1,-1,-1,-1,-1,-1,-1,-1,-1,-1,-1,-1,-1,-1,-1,-1,-1,-1,-1,-1,-1,-1,-1,-1,-1,-1,-1,-1,-1,-1,-1,-1,-1,-1],"split_conditions":[-1.2258112E-3,-2.598595E0,3.9021268E-1,-4.0571836E-1,-1.1877737E0,1.0359557E0,4.695115E-1,-3.9949558E0,-3.4150805E0,6.90291E-1,2.8644795E0,-4.3957806E-3,-4.614425E-1,-8.9948446E-1,3.1550014E-1,2.0823882E0,-4.3477103E-1,3.093665E-1,-1.1795975E0,5.222803E-1,1.0443354E0,-3.0808547E-1,-9.9020004E-1,-2.0116696E0,-7.820051E-1,1.4483689E-1,1.1010697E0,-1.1706522E0,-7.874119E-1,1.9710572E0,2.6072865E0,-2.9308027E-1,2.0823882E0,3.0790383E-1,1.3560174E0,-3.155942E-1,5.22984E-1,8.142094E-1,-3.0443996E-1,2.872454E0,-9.6430576E-1,-2.0011815E-1,-9.606261E-1,1.0962034E-1,4.962351E-1,1.1010697E0,3.1544253E-1,1.0454339E0,2.953329E-1,4.3607906E-1,4.3607906E-1,4.021146E-1,-7.545519E-1,-2.9565087E-1,-1.6315925E-1,-6.122753E-3,2.2089975E-1,-2.4408662E-1,1.1207152E-1,1.42604E-1,-3.760003E-2,-2.950683E-2,-2.2900592E-1,-8.319894E-2,2.3806047E-1,7.1507937E-1,8.682014E-2,-3.5063863E-2,-3.0489552E-1,3.863515E-1,-3.8037726E-1,6.320462E-2,-2.2117078E-2,-2.6644626E-1,7.629771E-2,2.1528451E-1,-2.3350608E-2,-2.5847764E-3,3.1106693E-1,1.978226E-1,-2.6182792E-1,3.8360927E-1,-5.6724705E-2,-1.9261317E-1,2.3680833E-1,-1.249513E-1,3.2417774E-1,4.5147368E-1,3.320801E-1],"split_indices":[2,3,0,2,0,1,0,3,3,1,1,1,0,1,0,1,2,0,0,1,1,0,0,3,0,2,1,1,1,1,1,0,1,0,1,0,1,1,0,1,0,1,1,1,1,1,0,1,0,0,0,0,1,0,0,0,0,0,0,0,0,0,0,0,0,0,0,0,0,0,0,0,0,0,0,0,0,0,0,0,0,0,0,0,0,0,0,0,0],"split_type":[0,0,0,0,0,0,0,0,0,0,0,0,0,0,0,0,0,0,0,0,0,0,0,0,0,0,0,0,0,0,0,0,0,0,0,0,0,0,0,0,0,0,0,0,0,0,0,0,0,0,0,0,0,0,0,0,0,0,0,0,0,0,0,0,0,0,0,0,0,0,0,0,0,0,0,0,0,0,0,0,0,0,0,0,0,0,0,0,0],"sum_hessian":[2.6888945E4,4.3470728E3,2.2541871E4,3.6867377E2,3.978399E3,2.084325E4,1.698622E3,2.03166E2,1.6550775E2,9.7202E1,3.881197E3,2.023274E4,6.105105E2,4.9167316E2,1.2069487E3,7.325823E1,1.2990778E2,3.3429924E1,1.3207784E2,6.846927E1,2.8732737E1,3.8033823E3,7.7814674E1,1.5109699E4,5.12304E3,5.6848047E2,4.203004E1,2.2968658E2,2.6198654E2,1.7106539E1,5.615169E1,1.2465317E2,5.2546024E0,2.0303457E1,1.11774376E2,6.1735645E1,6.733621E0,2.463614E1,4.0965953E0,3.2614121E0,7.455327E1,1.905098E2,1.4919189E4,2.5750818E3,2.5479585E3,6.0672974E1,5.0780746E2,2.8085718E1,1.3944322E1,5.734339E1,1.723432E2,3.3342937E1,2.2864362E2,1.2393299E1,4.713239E0,3.9799572E1,1.635212E1,3.5157402E0,1.7388624E0,3.4190784E1,7.758359E1,1.8079004E0,4.9257207E0,1.3438081E1,1.1198059E1,1.3220509E0,1.9393612E0,1.1400324E0,7.341323E1,1.7593507E2,1.4574727E1,3.136078E3,1.1783111E4,6.6502106E2,1.9100607E3,1.7284507E3,8.1950793E2,2.5323174E1,3.53498E1,1.3552131E1,1.4533587E1,3.1891285E1,2.5452105E1,1.202133E2,5.2129898E1,5.6971664E0,2.764577E1,3.0515789E1,1.9812784E2],"tree_param":{"num_deleted":"0","num_feature":"4","num_nodes":"89","size_leaf_vector":"1"}},{"base_weights":[-2.7523054E-2,-9.830815E-1,1.00299574E-1,-3.599752E-2,-1.0062314E0,5.075254E-2,8.8250583E-1,-8.3497894E-1,1.694708E-1,-7.976948E-1,-3.0591416E-1,2.8759541E-2,7.61776E-1,5.3893805E-1,3.1115294E-1,-2.850408E-1,-4.4851562E-1,7.5805163E-1,-3.6861796E-2,-9.639826E-1,1.961981E0,-5.963059E-1,5.018173E-2,1.6289957E-1,9.0160996E-1,1.1867417E-2,1.0756278E0,-2.669926E-1,5.9267025E-2,4.9579535E-2,9.1215605E-1,-4.6647224E-1,2.734674E-1,-3.0469042E-1,-5.8805853E-1,3.456127E0,9.908484E-1,-7.668087E-1,-2.7010504E-2,-1.0743153E0,5.7345442E-2,-3.8209388E-1,5.8103126E-1,5.35375E-1,3.104335E-1,-5.007325E-1,2.323942E-1,7.608967E-1,1.1186347E0,3.143589E-1,1.10600024E-1,-2.0878578E-2,3.445359E-1,-2.746807E-1,-1.0453356E-1,1.910506E-1,1.453809E0,5.6931365E-2,6.553437E-1,-1.7386185E-1,-3.075908E-1,1.7179883E-1,-1.0915279E-1,-4.1202426E-1,2.128016E-1,4.7928327E-1,1.4808602E-2,4.5546312E-2,-4.1205567E-1,7.369845E-2,2.8111607E-1,2.3873183E-1,-1.6113458E-2,3.6921355E-1,-3.483457E-1,-6.37752E-2,3.0250594E-1,-9.8967366E-2,3.1173533E-1,3.9899054E-1,3.224079E-1],"categories":[],"categories_nodes":[],"categories_segments":[],"categories_sizes":[],"default_left":[0,0,0,0,0,0,0,0,0,0,0,0,0,0,0,0,0,0,0,0,0,0,0,0,0,0,0,0,0,0,0,0,0,0,0,0,0,0,0,0,0,0,0,0,0,0,0,0,0,0,0,0,0,0,0,0,0,0,0,0,0,0,0,0,0,0,0,0,0,0,0,0,0,0,0,0,0,0,0,0,0],"id":9,"left_children":[1,3,5,7,9,11,13,15,17,19,-1,21,23,25,-1,-1,27,29,31,33,35,37,39,41,43,45,47,-1,-1,-1,49,-1,51,-1,53,55,57,59,61,63,65,67,69,71,-1,73,75,77,79,-1,-1,-1,-1,-1,-1,-1,-1,-1,-1,-1,-1,-1,-1,-1,-1,-1,-1,-1,-1,-1,-1,-1,-1,-1,-1,-1,-1,-1,-1,-1,-1],"loss_changes":[3.0569302E3,6.470532E1,8.554931E2,1.1878233E1,7.2905273E0,3.2462976E2,6.931641E1,2.322073E-1,7.0352354E0,8.432372E1,0E0,2.6969913E2,5.2013702E1,1.1604524E2,0E0,0E0,1.6846714E0,1.2216511E0,2.1001047E1,2.70549E0,1.1866539E1,6.476291E1,1.5692586E2,2.7368155E1,2.4062561E1,2.3629944E1,1.9002991E0,0E0,0E0,0E0,4.767971E-1,0E0,1.1220591E1,0E0,1.4800324E0,1.160574E1,7.0330753E0,2.4266083E1,3.1487803E1,6.6763214E1,2.3786617E2,2.790362E1,7.8656406E0,2.1006401E1,0E0,7.3338234E1,5.0667767E1,8.708078E0,2.1166992E-1,0E0,0E0,0E0,0E0,0E0,0E0,0E0,0E0,0E0,0E0,0E0,0E0,0E0,0E0,0E0,0E0,0E0,0E0,0E0,0E0,0E0,0E0,0E0,0E0,0E0,0E0,0E0,0E0,0E0,0E0,0E0,0E0],"parents":[2147483647,0,0,1,1,2,2,3,3,4,4,5,5,6,6,7,7,8,8,9,9,11,11,12,12,13,13,16,16,17,17,18,18,19,19,20,20,21,21,22,22,23,23,24,24,25,25,26,26,30,30,32,32,34,34,35,35,36,36,37,37,38,38,39,39,40,40,41,41,42,42,43,43,45,45,46,46,47,47,48,48],"right_children":[2,4,6,8,10,12,14,16,18,20,-1,22,24,26,-1,-1,28,30,32,34,36,38,40,42,44,46,48,-1,-1,-1,50,-1,52,-1,54,56,58,60,62,64,66,68,70,72,-1,74,76,78,80,-1,-1,-1,-1,-1,-1,-1,-1,-1,-1,-1,-1,-1,-1,-1,-1,-1,-1,-1,-1,-1,-1,-1,-1,-1,-1,-1,-1,-1,-1,-1,-1],"split_conditions":[-3.5742602E-1,-3.9949558E0,3.9021268E-1,2.0823882E0,-1.0242968E0,1.0359557E0,4.695115E-1,1.9710572E0,2.1320693E0,2.0823882E0,-3.0591416E-1,1.855464E-1,-1.1936522E-1,-8.9948446E-1,3.1115294E-1,-2.850408E-1,-1.0793171E0,-6.3586724E-1,2.3061109E0,1.3031818E0,2.1320693E0,5.147569E-1,-1.2343305E0,1.5028788E0,1.1010697E0,4.1345367E-1,-7.874119E-1,-2.669926E-1,5.9267025E-2,4.9579535E-2,2.08971E0,-4.6647224E-1,-5.0118303E-1,-3.0469042E-1,-4.0571836E-1,-1.1157951E0,2.8644795E0,-1.1212155E0,-2.2384844E0,3.7780395E-1,-1.1706522E0,1.3560174E0,-2.6235032E-1,1.0463262E0,3.104335E-1,-1.2959635E0,-1.1089822E0,4.021146E-1,-7.545519E-1,3.143589E-1,1.10600024E-1,-2.0878578E-2,3.445359E-1,-2.746807E-1,-1.0453356E-1,1.910506E-1,1.453809E0,5.6931365E-2,6.553437E-1,-1.7386185E-1,-3.075908E-1,1.7179883E-1,-1.0915279E-1,-4.1202426E-1,2.128016E-1,4.7928327E-1,1.4808602E-2,4.5546312E-2,-4.1205567E-1,7.369845E-2,2.8111607E-1,2.3873183E-1,-1.6113458E-2,3.6921355E-1,-3.483457E-1,-6.37752E-2,3.0250594E-1,-9.8967366E-2,3.1173533E-1,3.9899054E-1,3.224079E-1],"split_indices":[2,3,0,1,0,1,0,1,1,1,0,2,2,1,0,0,0,2,1,1,1,1,1,1,1,0,1,0,0,0,1,0,2,0,2,0,1,3,3,0,1,1,2,1,0,1,1,0,1,0,0,0,0,0,0,0,0,0,0,0,0,0,0,0,0,0,0,0,0,0,0,0,0,0,0,0,0,0,0,0,0],"split_type":[0,0,0,0,0,0,0,0,0,0,0,0,0,0,0,0,0,0,0,0,0,0,0,0,0,0,0,0,0,0,0,0,0,0,0,0,0,0,0,0,0,0,0,0,0,0,0,0,0,0,0,0,0,0,0,0,0,0,0,0,0,0,0,0,0,0,0,0,0,0,0,0,0,0,0,0,0,0,0,0,0],"sum_hessian":[2.5025867E4,2.9518855E3,2.2073982E4,7.0493324E1,2.8813923E3,2.076005E4,1.3139323E3,1.3793259E1,5.6700066E1,1.7863031E2,2.702762E3,2.0138188E4,6.2186316E2,4.0928253E2,9.046497E2,9.503036E0,4.2902236E0,1.40233555E1,4.2676712E1,1.6909215E2,9.538173E0,6.664152E2,1.9471771E4,1.18125244E2,5.037379E2,2.0700742E2,2.0227512E2,2.3244298E0,1.9657936E0,3.321008E0,1.0702348E1,6.562796E0,3.6113914E1,1.4716934E2,2.19228E1,2.7493186E0,6.7888536E0,5.1255817E2,1.5385701E2,1.2231841E2,1.9349453E4,5.132038E1,6.680486E1,1.3566293E2,3.68075E2,6.188627E1,1.4512114E2,2.6564518E1,1.7571059E2,7.8213596E0,2.880988E0,2.6603664E1,9.510252E0,8.0700865E0,1.3852713E1,1.3893452E0,1.3599734E0,4.7559776E0,2.0328765E0,2.9910782E2,2.1345038E2,5.5085808E1,9.877121E1,1.0494955E2,1.7368866E1,9.8747375E1,1.9250705E4,3.390714E1,1.741324E1,3.5270443E1,3.1534422E1,9.383401E1,4.182892E1,1.6849045E1,4.5037224E1,9.269226E1,5.2428886E1,5.3609123E0,2.1203606E1,2.5208107E1,1.5050249E2],"tree_param":{"num_deleted":"0","num_feature":"4","num_nodes":"81","size_leaf_vector":"1"}},{"base_weights":[-2.3100387E-2,-9.6789634E-1,7.4082404E-2,-3.214095E-2,-9.958612E-1,4.1283835E-2,9.9899834E-1,-2.8211382E-1,4.7437036E-1,-7.755481E-1,-3.0459428E-1,2.511692E-2,6.907916E-1,6.87997E-1,3.0796707E-1,-7.72114E-1,-9.140087E-2,3.2565796E-1,1.6534168E-1,-9.521574E-1,9.3467534E-1,-6.317094E-1,3.723227E-2,2.5431955E-1,9.2629135E-1,-3.6330253E-2,3.065687E-1,-2.741291E-1,-3.8295233E-1,5.949915E-1,-5.849684E-1,5.4344344E-1,-2.8522807E-1,-3.027872E-1,-5.756841E-1,1.5767248E0,2.5279525E-1,-1.0406339E0,-4.259249E-1,1.2341331E-2,3.164716E-1,-5.7679333E-2,6.8579084E-1,3.0787915E-1,8.8803366E-2,-2.5069132E-1,5.5935916E-2,-2.4095504E-1,4.611859E-2,3.8035147E-2,2.1749248E-1,-3.986911E-1,-5.7057764E-2,-1.1610578E-1,3.2585883E-1,-3.6014834E-1,2.4937643E-1,-2.7749392E-1,-8.043039E-2,2.2140078E-1,7.273458E-1,-4.1599292E-2,3.0114123E-1,-1.8932904E-1,-3.414914E-1,-5.1763978E-2,-3.0483642E-1,1.979101E-2,-1.389999E-1,-3.142301E-2,4.6393496E-1,2.9289056E-2,-1.4033929E-1,6.7729235E-2,3.110813E-1,-2.459957E-1,1.530286E-1],"categories":[],"categories_nodes":[],"categories_segments":[],"categories_sizes":[],"default_left":[0,0,0,0,0,0,0,0,0,0,0,0,0,0,0,0,0,0,0,0,0,0,0,0,0,0,0,0,0,0,0,0,0,0,0,0,0,0,0,0,0,0,0,0,0,0,0,0,0,0,0,0,0,0,0,0,0,0,0,0,0,0,0,0,0,0,0,0,0,0,0,0,0,0,0,0,0],"id":10,"left_children":[1,3,5,7,9,11,13,15,17,19,-1,21,23,25,-1,27,29,-1,31,33,35,37,39,41,43,45,-1,-1,47,49,51,53,55,-1,57,59,61,63,65,67,69,71,73,-1,75,-1,-1,-1,-1,-1,-1,-1,-1,-1,-1,-1,-1,-1,-1,-1,-1,-1,-1,-1,-1,-1,-1,-1,-1,-1,-1,-1,-1,-1,-1,-1,-1],"loss_changes":[2.1858982E3,5.807251E1,6.548111E2,8.422519E0,8.452393E0,2.1890271E2,5.6294556E0,4.08412E0,3.9764757E0,5.500197E1,0E0,1.6190794E2,5.180638E1,1.5323351E1,0E0,3.2930183E-1,1.1574424E1,0E0,2.845799E0,2.922409E0,7.163826E0,3.0565765E1,1.388376E2,2.411155E1,2.7411316E1,3.8790348E0,0E0,0E0,1.2532787E0,7.8183556E-1,5.5570884E0,4.931211E0,9.0324335E0,0E0,2.3078723E0,4.4008026E0,2.9520617E0,4.1882935E0,3.6736065E1,4.6792734E2,8.471426E2,6.7144427E0,1.1900265E1,0E0,1.4249175E1,0E0,0E0,0E0,0E0,0E0,0E0,0E0,0E0,0E0,0E0,0E0,0E0,0E0,0E0,0E0,0E0,0E0,0E0,0E0,0E0,0E0,0E0,0E0,0E0,0E0,0E0,0E0,0E0,0E0,0E0,0E0,0E0],"parents":[2147483647,0,0,1,1,2,2,3,3,4,4,5,5,6,6,7,7,8,8,9,9,11,11,12,12,13,13,15,15,16,16,18,18,19,19,20,20,21,21,22,22,23,23,24,24,25,25,28,28,29,29,30,30,31,31,32,32,34,34,35,35,36,36,37,37,38,38,39,39,40,40,41,41,42,42,44,44],"right_children":[2,4,6,8,10,12,14,16,18,20,-1,22,24,26,-1,28,30,-1,32,34,36,38,40,42,44,46,-1,-1,48,50,52,54,56,-1,58,60,62,64,66,68,70,72,74,-1,76,-1,-1,-1,-1,-1,-1,-1,-1,-1,-1,-1,-1,-1,-1,-1,-1,-1,-1,-1,-1,-1,-1,-1,-1,-1,-1,-1,-1,-1,-1,-1,-1],"split_conditions":[-3.5742602E-1,-3.9949558E0,4.482116E-1,2.4533143E0,-9.9020004E-1,1.0359557E0,4.695115E-1,2.0823882E0,-1.0940427E0,2.0823882E0,-3.0459428E-1,9.182929E-2,1.4483689E-1,-1.3469118E0,3.0796707E-1,1.9710572E0,2.1320693E0,3.2565796E-1,2.612419E0,1.3031818E0,-1.0402427E0,-2.6685548E-1,2.8344715E-1,1.5634664E0,-4.614425E-1,4.5909876E-1,3.065687E-1,-2.741291E-1,-1.0793171E0,-6.3586724E-1,2.3061109E0,2.6072865E0,2.8644795E0,-3.027872E-1,-4.0571836E-1,-3.4150805E0,-1.1671401E0,-1.0446924E0,-1.1917027E0,1.12051286E-1,-3.6903855E-1,1.3560174E0,-2.6235032E-1,3.0787915E-1,-4.136309E-1,-2.5069132E-1,5.5935916E-2,-2.4095504E-1,4.611859E-2,3.8035147E-2,2.1749248E-1,-3.986911E-1,-5.7057764E-2,-1.1610578E-1,3.2585883E-1,-3.6014834E-1,2.4937643E-1,-2.7749392E-1,-8.043039E-2,2.2140078E-1,7.273458E-1,-4.1599292E-2,3.0114123E-1,-1.8932904E-1,-3.414914E-1,-5.1763978E-2,-3.0483642E-1,1.979101E-2,-1.389999E-1,-3.142301E-2,4.6393496E-1,2.9289056E-2,-1.4033929E-1,6.7729235E-2,3.110813E-1,-2.459957E-1,1.530286E-1],"split_indices":[2,3,0,1,0,1,0,1,0,1,0,2,2,1,0,1,1,0,1,1,0,1,0,1,0,0,0,0,0,2,1,1,1,0,2,3,3,1,0,0,1,1,2,0,0,0,0,0,0,0,0,0,0,0,0,0,0,0,0,0,0,0,0,0,0,0,0,0,0,0,0,0,0,0,0,0,0],"split_type":[0,0,0,0,0,0,0,0,0,0,0,0,0,0,0,0,0,0,0,0,0,0,0,0,0,0,0,0,0,0,0,0,0,0,0,0,0,0,0,0,0,0,0,0,0,0,0,0,0,0,0,0,0,0,0,0,0,0,0,0,0,0,0,0,0,0,0,0,0,0,0,0,0,0,0,0,0],"sum_hessian":[2.3805105E4,2.219408E3,2.1585697E4,6.4464226E1,2.1549436E3,2.0847467E4,7.382302E2,4.345928E1,2.1004946E1,1.7815436E2,1.9767893E3,2.0342168E4,5.0529874E2,6.22049E1,6.760253E2,1.1321724E1,3.2137554E1,6.21031E0,1.4794636E1,1.6188072E2,1.6273643E1,3.6749524E2,1.9974674E4,1.7781631E2,3.2748242E2,1.990851E1,4.229639E1,7.3121634E0,4.0095606E0,1.3356919E1,1.8780636E1,7.9321437E0,6.862492E0,1.390914E2,2.2789326E1,7.7057195E0,8.5679245E0,1.21667274E2,2.4582797E2,1.8340844E4,1.6338287E3,1.0369808E2,7.411824E1,2.9235773E2,3.5124702E1,3.739814E0,1.6168697E1,1.9702462E0,2.0393143E0,3.331618E0,1.0025301E1,5.690265E0,1.309037E1,3.02802E0,4.904124E0,3.7297137E0,3.1327784E0,9.731189E0,1.3058137E1,4.8137884E0,2.8919308E0,6.1681633E0,2.3997614E0,2.4865728E1,9.6801544E1,1.7289464E2,7.293334E1,1.6483334E4,1.8575106E3,1.2177249E3,4.1610388E2,7.576735E1,2.793073E1,3.279605E1,4.1322186E1,1.0825704E1,2.4299E1],"tree_param":{"num_deleted":"0","num_feature":"4","num_nodes":"77","size_leaf_vector":"1"}},{"base_weights":[-1.8892732E-2,-9.893622E-1,5.2291892E-2,-1.006981E0,-5.021148E-1,2.7287874E-2,9.830884E-1,-8.153061E-1,-3.0320328E-1,-9.623448E-1,1.9468409E-1,1.6484952E-2,6.167153E-1,6.1862093E-1,3.0558395E-1,-9.198502E-1,1.483039E-1,-2.9462662E-1,-9.589956E-2,-4.7705874E-1,9.67734E-1,-7.860462E-1,2.5937876E-2,8.931941E-2,3.0380106E-1,-4.0961765E-2,3.0085245E-1,-2.92893E-1,-3.181751E-1,-6.200814E-1,1.6946684E-1,4.959693E-1,3.797187E-1,-9.5550895E-1,-2.371941E-1,3.952524E-3,2.2669145E-1,-7.878058E-2,4.5827976E-1,-2.3502907E-1,4.0347286E-2,-1.9237132E-1,4.8904724E-2,-1.0885262E-2,-2.4306825E-1,-2.1006607E-1,2.5374693E-1,-1.7054172E-1,-2.9714787E-1,-2.9111317E-1,4.8359167E-2,1.3278614E-2,-1.5933761E-1,-1.3337855E-2,3.204599E-1,-2.3938628E-1,8.8617805E-4,2.895264E-1,7.361334E-2],"categories":[],"categories_nodes":[],"categories_segments":[],"categories_sizes":[],"default_left":[0,0,0,0,0,0,0,0,0,0,0,0,0,0,0,0,0,0,0,0,0,0,0,0,0,0,0,0,0,0,0,0,0,0,0,0,0,0,0,0,0,0,0,0,0,0,0,0,0,0,0,0,0,0,0,0,0,0,0],"id":11,"left_children":[1,3,5,7,9,11,13,15,-1,17,19,21,23,25,-1,27,-1,-1,-1,29,31,33,35,37,-1,39,-1,-1,41,43,-1,-1,45,47,49,51,53,55,57,-1,-1,-1,-1,-1,-1,-1,-1,-1,-1,-1,-1,-1,-1,-1,-1,-1,-1,-1,-1],"loss_changes":[1.5761266E3,1.2879272E1,4.946836E2,2.4145508E-1,1.8275883E1,1.3180554E2,6.569275E0,5.0586243E0,0E0,1.1923027E-1,1.2544553E1,1.5424655E2,7.770769E1,1.3201618E1,0E0,7.5907135E-1,0E0,0E0,0E0,2.3053896E0,3.8659859E0,2.1789276E1,8.868651E1,1.0012748E1,0E0,2.720661E0,0E0,0E0,7.5508666E-1,1.3041043E0,0E0,0E0,4.2663565E0,1.8813477E0,1.6856281E1,3.906678E2,4.5259918E2,6.5483193E0,5.211582E0,0E0,0E0,0E0,0E0,0E0,0E0,0E0,0E0,0E0,0E0,0E0,0E0,0E0,0E0,0E0,0E0,0E0,0E0,0E0,0E0],"parents":[2147483647,0,0,1,1,2,2,3,3,4,4,5,5,6,6,7,7,9,9,10,10,11,11,12,12,13,13,15,15,19,19,20,20,21,21,22,22,23,23,25,25,28,28,29,29,32,32,33,33,34,34,35,35,36,36,37,37,38,38],"right_children":[2,4,6,8,10,12,14,16,-1,18,20,22,24,26,-1,28,-1,-1,-1,30,32,34,36,38,-1,40,-1,-1,42,44,-1,-1,46,48,50,52,54,56,58,-1,-1,-1,-1,-1,-1,-1,-1,-1,-1,-1,-1,-1,-1,-1,-1,-1,-1,-1,-1],"split_conditions":[-6.3586724E-1,-7.2367215E-1,4.482116E-1,-9.9020004E-1,2.0823882E0,1.1010697E0,4.695115E-1,2.8644795E0,-3.0320328E-1,1.9710572E0,-4.850789E0,2.2645546E-2,-1.1936522E-1,-1.3469118E0,3.0558395E-1,2.0823882E0,1.483039E-1,-2.9462662E-1,-9.589956E-2,2.8644795E0,2.1320693E0,7.7424574E-1,2.4657454E-1,2.0823882E0,3.0380106E-1,4.5909876E-1,3.0085245E-1,-2.92893E-1,-1.1671401E0,2.1320693E0,1.6946684E-1,4.959693E-1,2.6072865E0,-1.2026268E0,-9.5271125E-2,1.2515916E-1,-3.4626833E-1,-4.0571836E-1,-1.1157951E0,-2.3502907E-1,4.0347286E-2,-1.9237132E-1,4.8904724E-2,-1.0885262E-2,-2.4306825E-1,-2.1006607E-1,2.5374693E-1,-1.7054172E-1,-2.9714787E-1,-2.9111317E-1,4.8359167E-2,1.3278614E-2,-1.5933761E-1,-1.3337855E-2,3.204599E-1,-2.3938628E-1,8.8617805E-4,2.895264E-1,7.361334E-2],"split_indices":[2,2,0,0,1,1,0,1,0,1,3,2,2,1,0,1,0,0,0,1,1,1,0,1,0,0,0,0,3,1,0,0,1,0,2,0,1,2,0,0,0,0,0,0,0,0,0,0,0,0,0,0,0,0,0,0,0,0,0],"split_type":[0,0,0,0,0,0,0,0,0,0,0,0,0,0,0,0,0,0,0,0,0,0,0,0,0,0,0,0,0,0,0,0,0,0,0,0,0,0,0,0,0,0,0,0,0,0,0,0,0,0,0,0,0,0,0,0,0,0,0],"sum_hessian":[2.2813385E4,1.5581412E3,2.1255244E4,1.5027358E3,5.540542E1,2.0700203E4,5.55041E2,3.2625626E1,1.4701102E3,3.313736E1,2.2268057E1,2.0328652E4,3.71552E2,5.0930656E1,5.0411038E2,3.048942E1,2.136205E0,3.163731E1,1.5000504E0,1.21196E1,1.0148457E1,2.357049E2,2.0092947E4,1.5985593E2,2.1169606E2,1.9076262E1,3.1854395E1,2.7304571E1,3.1848485E0,1.1012813E1,1.1067879E0,3.8493798E0,6.2990775E0,1.7953197E2,5.617293E1,1.81106E4,1.9823468E3,1.10361305E2,4.9494625E1,2.983921E0,1.609234E1,1.706518E0,1.4783306E0,2.9982462E0,8.014566E0,1.7476301E0,4.5514474E0,1.6312471E1,1.632195E2,1.9271221E1,3.6901707E1,1.6842691E4,1.2679088E3,1.4999724E3,4.8237433E2,1.0368364E1,9.999294E1,1.35961895E1,3.5898434E1],"tree_param":{"num_deleted":"0","num_feature":"4","num_nodes":"59","size_leaf_vector":"1"}},{"base_weights":[-1.5406681E-2,-9.993096E-1,3.7521392E-2,-7.2388005E-1,-3.0211738E-1,1.7629353E-2,9.24688E-1,-2.9114062E-1,5.5940356E-2,-2.3941766E-2,1.3750567E-1,5.2014166E-1,3.03751E-1,5.516254E-1,-2.3612466E-1,1.4450761E-2,-3.057552E-1,-6.2772624E-2,2.9222676E-1,-1.6150266E-1,3.2089034E-1,-2.0937297E-2,2.5506896E-1,-6.9101065E-1,4.3911356E-1,1.6725361E-1,-6.1790388E-2,-1.2139052E0,-6.748675E-2,-6.3840157E-1,9.374007E-2,4.8930758E-1,1.5633796E-1,-1.7906961E-1,1.4241947E-1,-4.0684838E-2,-2.469235E-1,-2.8228486E-2,2.2516628E-1,9.543563E-2,-1.3960584E-1,-5.4046404E-2,2.1127768E-1,3.9957204E-1,-4.3469462E-1,-1.917185E-1,1.0733389E-1,9.6465275E-3,-5.0723964E-1,3.52239E-1,1.5777659E-2,-2.4548772E-1,2.0551798E-1,1.5006968E-1,-8.044528E-2,-1.2964695E-2,2.518429E-1],"categories":[],"categories_nodes":[],"categories_segments":[],"categories_sizes":[],"default_left":[0,0,0,0,0,0,0,0,0,0,0,0,0,0,0,0,0,0,0,0,0,0,0,0,0,0,0,0,0,0,0,0,0,0,0,0,0,0,0,0,0,0,0,0,0,0,0,0,0,0,0,0,0,0,0,0,0],"id":12,"left_children":[1,3,5,7,-1,9,11,-1,13,15,17,19,-1,21,23,25,27,29,31,33,-1,-1,-1,35,37,39,41,43,45,47,49,51,53,-1,55,-1,-1,-1,-1,-1,-1,-1,-1,-1,-1,-1,-1,-1,-1,-1,-1,-1,-1,-1,-1,-1,-1],"loss_changes":[1.1494739E3,1.6756592E0,3.6963766E2,6.666706E0,0E0,1.02103676E2,1.5791626E1,0E0,1.4631326E0,1.6460722E2,1.6349603E2,3.1629128E1,0E0,7.483554E-1,2.2979572E0,1.5600616E2,3.9463068E2,2.0728604E2,7.963759E1,5.1600876E0,0E0,0E0,0E0,2.014606E-1,6.0620093E-1,4.2556165E2,8.101874E2,2.2878522E2,3.517272E2,3.4713885E2,8.0371826E1,3.1137427E2,2.5752927E2,0E0,3.063403E0,0E0,0E0,0E0,0E0,0E0,0E0,0E0,0E0,0E0,0E0,0E0,0E0,0E0,0E0,0E0,0E0,0E0,0E0,0E0,0E0,0E0,0E0],"parents":[2147483647,0,0,1,1,2,2,3,3,5,5,6,6,8,8,9,9,10,10,11,11,13,13,14,14,15,15,16,16,17,17,18,18,19,19,23,23,24,24,25,25,26,26,27,27,28,28,29,29,30,30,31,31,32,32,34,34],"right_children":[2,4,6,8,-1,10,12,-1,14,16,18,20,-1,22,24,26,28,30,32,34,-1,-1,-1,36,38,40,42,44,46,48,50,52,54,-1,56,-1,-1,-1,-1,-1,-1,-1,-1,-1,-1,-1,-1,-1,-1,-1,-1,-1,-1,-1,-1,-1,-1],"split_conditions":[-7.140612E-1,-9.9020004E-1,4.3607906E-1,2.0823882E0,-3.0211738E-1,-4.3957806E-3,4.695115E-1,-2.9114062E-1,-7.435145E-1,-2.2483672E-1,-9.9896157E-1,-1.1402053E0,3.03751E-1,2.8644795E0,-1.1671401E0,-8.615364E-1,-9.5544326E-1,1.0962034E-1,2.4792413E-1,4.482116E-1,3.2089034E-1,-2.0937297E-2,2.5506896E-1,-1.4955095E0,-7.2367215E-1,-2.7342102E-1,-2.977577E-1,-2.0011815E-1,-1.2412967E-1,-1.140472E0,2.4792413E-1,-7.921432E-1,-4.2562902E-1,-1.7906961E-1,-1.3469118E0,-4.0684838E-2,-2.469235E-1,-2.8228486E-2,2.2516628E-1,9.543563E-2,-1.3960584E-1,-5.4046404E-2,2.1127768E-1,3.9957204E-1,-4.3469462E-1,-1.917185E-1,1.0733389E-1,9.6465275E-3,-5.0723964E-1,3.52239E-1,1.5777659E-2,-2.4548772E-1,2.0551798E-1,1.5006968E-1,-8.044528E-2,-1.2964695E-2,2.518429E-1],"split_indices":[2,0,0,1,0,1,0,0,2,1,0,1,0,1,3,0,0,1,1,0,0,0,0,3,2,1,1,1,1,0,1,0,0,0,1,0,0,0,0,0,0,0,0,0,0,0,0,0,0,0,0,0,0,0,0,0,0],"split_type":[0,0,0,0,0,0,0,0,0,0,0,0,0,0,0,0,0,0,0,0,0,0,0,0,0,0,0,0,0,0,0,0,0,0,0,0,0,0,0,0,0,0,0,0,0,0,0,0,0,0,0,0,0,0,0,0,0],"sum_hessian":[2.207125E4,1.1257788E3,2.094547E4,3.338687E1,1.092392E3,2.0487129E4,4.583423E2,2.5180132E1,8.2067375E0,1.5212489E4,5.274639E3,8.298252E1,3.7535977E2,2.7132218E0,5.4935155E0,1.33893545E4,1.8231345E3,2.2991306E3,2.9755088E3,3.735269E1,4.5629826E1,1.1293153E0,1.5839065E0,3.2683659E0,2.2251499E0,4.4564746E3,8.932881E3,3.780642E2,1.4450703E3,4.9083566E2,1.8082949E3,1.2132786E3,1.7622302E3,1.4958827E1,2.2393864E1,1.0172622E0,2.2511036E0,1.0777822E0,1.1473676E0,3.598738E3,8.577366E2,7.738023E3,1.1948573E3,3.1564472E1,3.4649973E2,6.1627264E2,8.287976E2,3.003994E2,1.9043625E2,6.533396E1,1.7429609E3,1.5756755E2,1.0557109E3,9.7343536E2,7.8879486E2,1.8425043E1,3.9688213E0],"tree_param":{"num_deleted":"0","num_feature":"4","num_nodes":"57","size_leaf_vector":"1"}},{"base_weights":[-1.3071332E-2,-9.938236E-1,2.701872E-2,-6.6190934E-1,-3.012317E-1,6.843671E-3,7.20864E-1,-2.8684717E-1,4.269232E-2,-2.8275448E-1,2.2052452E-2,4.5154703E-1,3.0228308E-1,2.629679E-1,-4.7693783E-1,-8.8957274E-1,-2.4528852E-2,1.3678735E-2,8.4100956E-1,1.2625241E-2,1.043515E0,9.0366584E-1,-1.6795173E-1,-4.4169445E-2,-1.7253935E-1,-1.5491943E0,-7.106721E-1,8.6207247E-1,-1.8668501E-1,1.8391693E-1,-1.9608375E-2,3.031925E-1,2.0347644E-2,5.54218E-1,-1.8609254E-1,7.2203064E-1,3.2857612E-1,4.145398E-1,-5.636804E-3,-2.219103E-1,1.0396398E-1,-5.5798656E-1,-4.0697357E-1,6.771844E-2,-2.9277417E-1,8.399952E-2,5.322556E-1,-2.6336414E-1,2.4818843E-2,-3.3442158E-1,1.335787E-1,-2.671346E-1,7.2751646E-3,-9.945534E-2,3.1282082E-1,3.3996657E-1,-3.0838085E-2,-3.261575E-1,3.9033942E-2,-5.6373913E-2,3.0284142E-1],"categories":[],"categories_nodes":[],"categories_segments":[],"categories_sizes":[],"default_left":[0,0,0,0,0,0,0,0,0,0,0,0,0,0,0,0,0,0,0,0,0,0,0,0,0,0,0,0,0,0,0,0,0,0,0,0,0,0,0,0,0,0,0,0,0,0,0,0,0,0,0,0,0,0,0,0,0,0,0,0,0],"id":13,"left_children":[1,3,5,7,-1,9,11,-1,13,15,17,19,-1,21,23,25,27,29,31,33,35,37,39,-1,-1,41,43,45,47,49,51,-1,53,55,57,59,-1,-1,-1,-1,-1,-1,-1,-1,-1,-1,-1,-1,-1,-1,-1,-1,-1,-1,-1,-1,-1,-1,-1,-1,-1],"loss_changes":[8.40437E2,2.2001953E0,2.8746594E2,5.8785496E0,0E0,8.790462E1,4.435501E1,0E0,1.1844144E0,1.5602316E2,1.3002412E2,7.820261E1,0E0,2.1236477E0,1.6001701E-2,3.3975708E1,1.0074124E2,1.0637415E2,2.6694534E1,1.8816006E1,1.3408508E0,1.3618095E0,1.7605264E0,0E0,0E0,1.2220917E0,5.8754982E1,5.7027412E1,1.1036091E2,1.0424983E3,5.9974146E2,0E0,1.2538355E1,1.7966599E1,3.659842E1,5.6040335E0,0E0,0E0,0E0,0E0,0E0,0E0,0E0,0E0,0E0,0E0,0E0,0E0,0E0,0E0,0E0,0E0,0E0,0E0,0E0,0E0,0E0,0E0,0E0,0E0,0E0],"parents":[2147483647,0,0,1,1,2,2,3,3,5,5,6,6,8,8,9,9,10,10,11,11,13,13,14,14,15,15,16,16,17,17,18,18,19,19,20,20,21,21,22,22,25,25,26,26,27,27,28,28,29,29,30,30,32,32,33,33,34,34,35,35],"right_children":[2,4,6,8,-1,10,12,-1,14,16,18,20,-1,22,24,26,28,30,32,34,36,38,40,-1,-1,42,44,46,48,50,52,-1,54,56,58,60,-1,-1,-1,-1,-1,-1,-1,-1,-1,-1,-1,-1,-1,-1,-1,-1,-1,-1,-1,-1,-1,-1,-1,-1,-1],"split_conditions":[-7.140612E-1,-9.9020004E-1,3.9021268E-1,2.0823882E0,-3.012317E-1,2.648986E-1,4.695115E-1,-2.8684717E-1,2.872454E0,-2.7342102E-1,1.0359557E0,-8.9948446E-1,3.0228308E-1,-7.435145E-1,-1.015902E0,-1.4316978E0,-2.5994092E-1,-9.606261E-1,-4.614425E-1,-1.1706522E0,-7.874119E-1,-1.3899217E0,-1.1671401E0,-4.4169445E-2,-1.7253935E-1,-2.1355238E0,-1.1294888E0,1.14056945E-1,5.147569E-1,-1.1157951E0,-8.0320805E-1,3.031925E-1,-3.195307E-1,4.3607906E-1,4.1345367E-1,4.021146E-1,3.2857612E-1,4.145398E-1,-5.636804E-3,-2.219103E-1,1.0396398E-1,-5.5798656E-1,-4.0697357E-1,6.771844E-2,-2.9277417E-1,8.399952E-2,5.322556E-1,-2.6336414E-1,2.4818843E-2,-3.3442158E-1,1.335787E-1,-2.671346E-1,7.2751646E-3,-9.945534E-2,3.1282082E-1,3.3996657E-1,-3.0838085E-2,-3.261575E-1,3.9033942E-2,-5.6373913E-2,3.0284142E-1],"split_indices":[2,0,0,1,0,2,0,0,1,1,1,1,0,2,0,3,1,1,0,1,1,3,3,0,0,3,3,2,1,0,1,0,0,0,0,0,0,0,0,0,0,0,0,0,0,0,0,0,0,0,0,0,0,0,0,0,0,0,0,0,0],"split_type":[0,0,0,0,0,0,0,0,0,0,0,0,0,0,0,0,0,0,0,0,0,0,0,0,0,0,0,0,0,0,0,0,0,0,0,0,0,0,0,0,0,0,0,0,0,0,0,0,0,0,0,0,0,0,0,0,0,0,0,0,0],"sum_hessian":[2.137347E4,8.3843494E2,2.0535037E4,2.7157028E1,8.112779E2,1.995579E4,5.7924774E2,1.8905079E1,8.251947E0,9.948451E2,1.8960943E4,3.000295E2,2.7921823E2,6.1421647E0,2.109783E0,2.9624295E2,6.986022E2,1.877004E4,1.909042E2,1.7287247E2,1.2715704E2,2.02874E0,4.113425E0,1.0577043E0,1.0520785E0,6.1569942E1,2.34673E2,1.0734867E2,5.912535E2,3.0691504E3,1.5700889E4,1.580115E2,3.2892708E1,4.592307E1,1.2694939E2,1.970059E1,1.0745646E2,1.0082028E0,1.0205371E0,1.7409914E0,2.3724334E0,2.0247284E1,4.132266E1,5.1832916E1,1.8284009E2,6.632785E1,4.102082E1,1.6519066E2,4.2606284E2,5.136247E2,2.5555256E3,7.5191656E2,1.4948973E4,2.4973547E1,7.9191604E0,2.402541E1,2.1897661E1,3.234287E1,9.460652E1,4.8123894E0,1.4888201E1],"tree_param":{"num_deleted":"0","num_feature":"4","num_nodes":"61","size_leaf_vector":"1"}},{"base_weights":[-1.1438332E-2,-9.93138E-1,1.8677432E-2,-6.9600505E-1,-3.0095327E-1,8.413339E-3,3.0103737E-1,-8.6649436E-1,3.8833353E-1,1.1930202E-1,-3.232088E-2,-2.843472E-1,-3.024488E-1,2.2868314E-1,-5.711749E-2,-3.0782813E-2,6.0226804E-1,-5.395636E-2,9.487451E-1,-1.7624012E-1,1.915051E-2,-9.3149924E-1,9.043596E-2,7.06275E-1,-8.1722885E-1,6.7200772E-3,-3.7611052E-1,2.9159976E-2,1.4238254E0,-3.0251158E-2,-3.5372078E-1,3.682664E-1,-2.0787347E-2,-2.7998075E-1,2.2776717E-1,-3.6906517E-1,2.6758328E-1,-8.908272E-2,2.273225E-2,3.690512E-1,-1.6017772E-1,-4.8475432E-1,1.9451365E-1,4.5886612E-1,3.062402E-1],"categories":[],"categories_nodes":[],"categories_segments":[],"categories_sizes":[],"default_left":[0,0,0,0,0,0,0,0,0,0,0,0,0,0,0,0,0,0,0,0,0,0,0,0,0,0,0,0,0,0,0,0,0,0,0,0,0,0,0,0,0,0,0,0,0],"id":14,"left_children":[1,3,5,7,-1,9,-1,11,13,15,17,-1,19,-1,-1,21,23,25,27,-1,-1,29,31,33,35,37,39,41,43,-1,-1,-1,-1,-1,-1,-1,-1,-1,-1,-1,-1,-1,-1,-1,-1],"loss_changes":[6.161589E2,1.1522217E0,2.0438435E2,4.68828E0,0E0,9.040437E1,0E0,6.6067505E-1,9.867146E-1,3.897716E2,3.1074667E2,0E0,4.6251163E-1,0E0,0E0,4.4807883E2,1.887894E2,2.7997107E2,1.3796451E2,0E0,0E0,9.998779E1,6.570973E2,1.0387012E2,6.285637E1,2.5277669E2,5.761135E2,1.1169709E2,7.313019E0,0E0,0E0,0E0,0E0,0E0,0E0,0E0,0E0,0E0,0E0,0E0,0E0,0E0,0E0,0E0,0E0],"parents":[2147483647,0,0,1,1,2,2,3,3,5,5,7,7,8,8,9,9,10,10,12,12,15,15,16,16,17,17,18,18,21,21,22,22,23,23,24,24,25,25,26,26,27,27,28,28],"right_children":[2,4,6,8,-1,10,-1,12,14,16,18,-1,20,-1,-1,22,24,26,28,-1,-1,30,32,34,36,38,40,42,44,-1,-1,-1,-1,-1,-1,-1,-1,-1,-1,-1,-1,-1,-1,-1,-1],"split_conditions":[-7.2367215E-1,-9.729319E-1,4.695115E-1,2.8644795E0,-3.0095327E-1,-7.8354794E-1,3.0103737E-1,2.0823882E0,2.872454E0,-7.874119E-1,3.549195E-1,-2.843472E-1,-1.1671401E0,2.2868314E-1,-5.711749E-2,-1.1283499E0,2.1107991E-1,1.2553041E-2,-5.7614595E-1,-1.7624012E-1,1.915051E-2,4.2584392E-1,-8.716679E-1,1.14056945E-1,3.7780395E-1,-5.2371806E-1,-6.6516876E-1,3.668227E-1,3.9021268E-1,-3.0251158E-2,-3.5372078E-1,3.682664E-1,-2.0787347E-2,-2.7998075E-1,2.2776717E-1,-3.6906517E-1,2.6758328E-1,-8.908272E-2,2.273225E-2,3.690512E-1,-1.6017772E-1,-4.8475432E-1,1.9451365E-1,4.5886612E-1,3.062402E-1],"split_indices":[2,0,0,1,0,1,0,1,1,1,0,0,3,0,0,0,0,0,1,0,0,2,0,2,0,1,1,0,0,0,0,0,0,0,0,0,0,0,0,0,0,0,0,0,0],"split_type":[0,0,0,0,0,0,0,0,0,0,0,0,0,0,0,0,0,0,0,0,0,0,0,0,0,0,0,0,0,0,0,0,0,0,0,0,0,0,0,0,0,0,0,0,0],"sum_hessian":[2.0839451E4,6.193155E2,2.0220137E4,2.2539976E1,5.967755E2,2.001256E4,2.0757678E2,1.965115E1,2.8888278E0,5.3759517E3,1.4636608E4,1.658007E1,3.0710788E0,1.5622274E0,1.3266003E0,4.1021255E3,1.273826E3,1.4321716E4,3.1489233E2,1.3875333E0,1.6835455E0,4.857885E2,3.6163372E3,1.1873323E3,8.649374E1,1.205263E4,2.2690852E3,1.0762681E2,2.0726552E2,1.1186376E2,3.7392474E2,4.4458582E2,3.1717515E3,3.6625053E1,1.1507073E3,6.988711E1,1.660663E1,2.2324082E3,9.820222E3,2.023834E2,2.066702E3,2.8993528E1,7.863328E1,1.6197762E2,4.5287914E1],"tree_param":{"num_deleted":"0","num_feature":"4","num_nodes":"45","size_leaf_vector":"1"}},{"base_weights":[-9.173055E-3,-9.8827493E-1,1.3673384E-2,-6.385792E-1,-3.0040035E-1,5.8828727E-3,2.9989704E-1,-2.78833E-1,2.4094058E-2,-1.4060185E-2,1.7414148E-1,3.5788828E-1,-4.6405903E-1,1.1459749E-2,-4.6874273E-1,6.292738E-1,-4.7722172E-2,-4.3383487E-2,5.9915245E-1,-1.7364481E-1,-4.1860968E-2,1.0085307E0,6.5657925E-3,6.4912623E-1,-5.931382E-1,-4.4379085E-1,1.5392518E0,-7.209388E-1,4.1345572E-1,2.6941314E-1,-1.3971482E-2,4.149625E-1,-3.9064935E-1,-5.29723E-1,3.633596E-3,-2.0882744E-1,1.63684E-1,5.335114E-1,-2.3799898E-1,6.4336324E-1,1.596461E-1,-3.0022323E-1,9.133236E-2,-4.5076866E-2,3.6302102E-1],"categories":[],"categories_nodes":[],"categories_segments":[],"categories_sizes":[],"default_left":[0,0,0,0,0,0,0,0,0,0,0,0,0,0,0,0,0,0,0,0,0,0,0,0,0,0,0,0,0,0,0,0,0,0,0,0,0,0,0,0,0,0,0,0,0],"id":15,"left_children":[1,3,5,7,-1,9,-1,-1,11,13,15,17,19,21,23,25,27,-1,29,-1,-1,31,33,-1,35,37,39,41,43,-1,-1,-1,-1,-1,-1,-1,-1,-1,-1,-1,-1,-1,-1,-1,-1],"loss_changes":[4.5341544E2,1.471344E0,1.5214578E2,3.761639E0,0E0,6.595239E1,0E0,0E0,1.2891386E0,2.0390196E2,2.1033673E2,6.5135026E-1,3.9687276E-2,8.118622E1,3.070998E2,6.672305E2,4.353012E2,0E0,6.8672085E-1,0E0,0E0,7.215768E1,1.6278822E2,0E0,1.0501727E2,2.4531512E2,2.2416241E2,1.6383258E2,3.7385938E2,0E0,0E0,0E0,0E0,0E0,0E0,0E0,0E0,0E0,0E0,0E0,0E0,0E0,0E0,0E0,0E0],"parents":[2147483647,0,0,1,1,2,2,3,3,5,5,8,8,9,9,10,10,11,11,12,12,13,13,14,14,15,15,16,16,18,18,21,21,22,22,24,24,25,25,26,26,27,27,28,28],"right_children":[2,4,6,8,-1,10,-1,-1,12,14,16,18,20,22,24,26,28,-1,30,-1,-1,32,34,-1,36,38,40,42,44,-1,-1,-1,-1,-1,-1,-1,-1,-1,-1,-1,-1,-1,-1,-1,-1],"split_conditions":[-7.2367215E-1,-9.729319E-1,4.695115E-1,2.0823882E0,-3.0040035E-1,2.2279137E-1,2.9989704E-1,-2.78833E-1,-7.435145E-1,1.2515916E-1,-9.606261E-1,2.8644795E0,-1.1671401E0,-1.0804516E0,-1.1706522E0,-1.0804516E0,-5.543474E-1,-4.3383487E-2,2.872454E0,-1.7364481E-1,-4.1860968E-2,1.12051286E-1,-1.0496498E0,6.4912623E-1,1.935325E-1,2.590453E-1,3.3065444E-1,3.7780395E-1,3.1954733E-1,2.6941314E-1,-1.3971482E-2,4.149625E-1,-3.9064935E-1,-5.29723E-1,3.633596E-3,-2.0882744E-1,1.63684E-1,5.335114E-1,-2.3799898E-1,6.4336324E-1,1.596461E-1,-3.0022323E-1,9.133236E-2,-4.5076866E-2,3.6302102E-1],"split_indices":[2,0,0,1,0,0,0,0,2,0,1,1,3,1,1,1,1,0,1,0,0,0,1,0,1,0,0,0,0,0,0,0,0,0,0,0,0,0,0,0,0,0,0,0,0],"split_type":[0,0,0,0,0,0,0,0,0,0,0,0,0,0,0,0,0,0,0,0,0,0,0,0,0,0,0,0,0,0,0,0,0,0,0,0,0,0,0,0,0,0,0,0,0],"sum_hessian":[2.0268219E4,4.6119263E2,1.9807025E4,1.8399662E1,4.4279297E2,1.965275E4,1.5427551E2,1.2507316E1,5.892345E0,1.7571037E4,2.0817124E3,3.6579366E0,2.2344086E0,1.6638164E4,9.328742E2,6.8161255E2,1.4000999E3,1.3165216E0,2.341415E0,1.0718056E0,1.1626029E0,8.02651E1,1.6557898E4,4.1353077E1,8.915211E2,3.1301328E2,3.6859927E2,5.6896906E2,8.311308E2,1.3334403E0,1.0079747E0,6.941147E1,1.085363E1,5.0663914E1,1.6507234E4,8.1795917E2,7.3562E1,4.1988365E1,2.710249E2,2.2952147E2,1.390778E2,4.4701248E2,1.2195656E2,4.871898E2,3.43941E2],"tree_param":{"num_deleted":"0","num_feature":"4","num_nodes":"45","size_leaf_vector":"1"}},{"base_weights":[-7.919144E-3,-9.827238E-1,9.2700105E-3,-5.798725E-1,-2.99886E-1,1.6497134E-3,8.3965147E-1,-2.7214822E-1,1.1747584E-2,-2.4239188E-1,1.3882797E-2,5.401574E-1,2.9875848E-1,2.877107E-1,-1.2568513E-1,-7.698832E-1,-5.1410895E-2,7.837262E-3,8.1821084E-1,1.4287564E-1,3.2308474E-1,-3.7010085E-2,4.7320455E-1,-5.349136E-1,-1.2438383E0,5.549171E-1,-1.9426973E-1,1.9328299E-1,-1.589983E-2,3.0088216E-1,5.6313574E-2,-2.244484E-1,3.8386792E-1,-9.696635E-4,2.4155498E-1,8.235015E-2,-2.473363E-1,-4.0245354E-1,-2.9884776E-1,2.5181383E-1,-2.7908832E-1,-2.943238E-1,8.784922E-3,7.475341E-2,-6.5681803E-1,-1.874218E-1,2.5671974E-3,3.0628985E-1,-6.506375E-2,-2.049122E-1,-3.2123175E-2,7.392708E-2,2.5103146E-1],"categories":[],"categories_nodes":[],"categories_segments":[],"categories_sizes":[],"default_left":[0,0,0,0,0,0,0,0,0,0,0,0,0,0,0,0,0,0,0,0,0,0,0,0,0,0,0,0,0,0,0,0,0,0,0,0,0,0,0,0,0,0,0,0,0,0,0,0,0,0,0,0,0],"id":16,"left_children":[1,3,5,7,-1,9,11,-1,13,15,17,19,-1,21,-1,23,25,27,29,31,-1,-1,33,35,37,39,41,43,45,-1,47,49,51,-1,-1,-1,-1,-1,-1,-1,-1,-1,-1,-1,-1,-1,-1,-1,-1,-1,-1,-1,-1],"loss_changes":[3.3339062E2,1.7670898E0,1.2372138E2,3.1589866E0,0E0,5.784693E1,7.7800903E0,0E0,9.2619157E-1,9.313907E1,8.971655E1,1.3309452E1,0E0,4.1860622E-1,0E0,2.6707092E1,5.9021423E1,8.0624756E1,1.9316109E1,3.3998482E0,0E0,0E0,5.5018497E-1,3.9148266E1,6.161804E-1,5.5684166E1,9.697971E1,2.7734375E2,2.4179167E2,0E0,7.5793266E0,7.590448E-1,1.223825E0,0E0,0E0,0E0,0E0,0E0,0E0,0E0,0E0,0E0,0E0,0E0,0E0,0E0,0E0,0E0,0E0,0E0,0E0,0E0,0E0],"parents":[2147483647,0,0,1,1,2,2,3,3,5,5,6,6,8,8,9,9,10,10,11,11,13,13,15,15,16,16,17,17,18,18,19,19,22,22,23,23,24,24,25,25,26,26,27,27,28,28,30,30,31,31,32,32],"right_children":[2,4,6,8,-1,10,12,-1,14,16,18,20,-1,22,-1,24,26,28,30,32,-1,-1,34,36,38,40,42,44,46,-1,48,50,52,-1,-1,-1,-1,-1,-1,-1,-1,-1,-1,-1,-1,-1,-1,-1,-1,-1,-1,-1,-1],"split_conditions":[-7.2367215E-1,-9.729319E-1,4.3607906E-1,2.0823882E0,-2.99886E-1,2.648986E-1,4.695115E-1,-2.7214822E-1,-7.435145E-1,-2.7342102E-1,1.039665E0,-1.1402053E0,2.9875848E-1,2.8644795E0,-1.2568513E-1,-7.764552E-1,-2.0011815E-1,-1.2061769E0,-4.614425E-1,4.482116E-1,3.2308474E-1,-3.7010085E-2,-9.9896157E-1,-1.1294888E0,-1.2183201E0,-1.2026268E0,4.962351E-1,8.698498E-1,-4.7369266E-1,3.0088216E-1,1.0454339E0,-1.3469118E0,-1.3469118E0,-9.696635E-4,2.4155498E-1,8.235015E-2,-2.473363E-1,-4.0245354E-1,-2.9884776E-1,2.5181383E-1,-2.7908832E-1,-2.943238E-1,8.784922E-3,7.475341E-2,-6.5681803E-1,-1.874218E-1,2.5671974E-3,3.0628985E-1,-6.506375E-2,-2.049122E-1,-3.2123175E-2,7.392708E-2,2.5103146E-1],"split_indices":[2,0,0,1,0,2,0,0,2,1,1,1,0,1,0,1,1,0,0,0,0,0,0,3,0,0,1,1,3,0,1,1,1,0,0,0,0,0,0,0,0,0,0,0,0,0,0,0,0,0,0,0,0],"split_type":[0,0,0,0,0,0,0,0,0,0,0,0,0,0,0,0,0,0,0,0,0,0,0,0,0,0,0,0,0,0,0,0,0,0,0,0,0,0,0,0,0,0,0,0,0,0,0,0,0,0,0,0,0],"sum_hessian":[1.9895168E4,3.4376785E2,1.95514E4,1.525949E1,3.2850836E2,1.9374604E4,1.767961E2,9.48112E0,5.77837E0,9.239344E2,1.845067E4,6.2131756E1,1.1466434E2,3.7241607E0,2.0542092E0,2.4479022E2,6.7914417E2,1.8314025E4,1.3664316E2,3.6433407E1,2.5698347E1,1.262105E0,2.4620557E0,1.650788E2,7.971143E1,1.2895273E2,5.501914E2,2.07738E3,1.6236646E4,1.0972327E2,2.6919895E1,1.4460755E1,2.1972652E1,1.4177073E0,1.0443485E0,4.3506863E1,1.2157193E2,5.3999958E1,2.5711472E1,1.08589455E2,2.0363277E1,1.2098561E2,4.292058E2,2.0306387E3,4.6741196E1,6.260919E2,1.5610555E4,5.3371344E0,2.1582762E1,1.9647187E0,1.24960375E1,1.80416E1,3.9310536E0],"tree_param":{"num_deleted":"0","num_feature":"4","num_nodes":"53","size_leaf_vector":"1"}},{"base_weights":[-6.252558E-3,-9.755699E-1,6.6052256E-3,-5.133321E-1,-2.993636E-1,-1.8633375E-3,5.331254E-1,-2.64127E-1,1.511247E-2,-8.196444E-1,2.081839E-3,3.5273075E-1,2.975217E-1,2.3471306E-1,-1.0875621E-1,-3.5635048E-1,2.1540947E-1,8.5046643E-1,-2.416786E-3,9.428321E-2,9.3791276E-1,-3.154886E-2,3.780816E-1,1.4625113E0,-4.9945328E-1,-3.8030043E-2,8.915987E-2,6.549389E-1,-1.289058E-1,5.975123E-1,3.070668E-1,2.11845E-1,-1.3980432E-2,4.917867E-1,1.8896474E-1,2.9728333E-2,-3.1811044E-2,-2.6765358E-2,9.4995074E-2,3.3530205E-1,3.66248E-2,-3.124913E-1,3.846379E-2,-6.0068894E-2,2.8838626E-1],"categories":[],"categories_nodes":[],"categories_segments":[],"categories_sizes":[],"default_left":[0,0,0,0,0,0,0,0,0,0,0,0,0,0,0,0,0,0,0,0,0,0,0,0,0,0,0,0,0,0,0,0,0,0,0,0,0,0,0,0,0,0,0,0,0],"id":17,"left_children":[1,3,5,7,-1,9,11,-1,13,15,17,19,-1,21,-1,-1,-1,23,25,27,29,-1,31,33,-1,35,37,39,41,43,-1,-1,-1,-1,-1,-1,-1,-1,-1,-1,-1,-1,-1,-1,-1],"loss_changes":[2.4529282E2,2.144638E0,8.661046E1,2.7139463E0,0E0,6.1680664E1,2.5088081E1,0E0,6.398646E-1,5.2819263E1,7.261913E1,3.3520767E1,0E0,2.7545494E-1,0E0,0E0,0E0,1.5694026E2,6.1732327E1,1.951224E1,1.3698654E0,0E0,5.372056E-1,1.0927032E1,0E0,1.2710123E2,2.1509807E2,1.0804436E1,2.6391024E1,4.854606E0,0E0,0E0,0E0,0E0,0E0,0E0,0E0,0E0,0E0,0E0,0E0,0E0,0E0,0E0,0E0],"parents":[2147483647,0,0,1,1,2,2,3,3,5,5,6,6,8,8,9,9,10,10,11,11,13,13,17,17,18,18,19,19,20,20,22,22,23,23,25,25,26,26,27,27,28,28,29,29],"right_children":[2,4,6,8,-1,10,12,-1,14,16,18,20,-1,22,-1,-1,-1,24,26,28,30,-1,32,34,-1,36,38,40,42,44,-1,-1,-1,-1,-1,-1,-1,-1,-1,-1,-1,-1,-1,-1,-1],"split_conditions":[-7.2367215E-1,-9.729319E-1,3.9021268E-1,2.0823882E0,-2.993636E-1,-1.2343305E0,4.695115E-1,-2.64127E-1,-7.435145E-1,3.7780395E-1,-1.1706522E0,-8.9948446E-1,2.975217E-1,2.8644795E0,-1.0875621E-1,-3.5635048E-1,2.1540947E-1,2.590453E-1,-2.1973222E-2,-1.1706522E0,-7.874119E-1,-3.154886E-2,-7.6094484E-1,2.4657454E-1,-4.9945328E-1,-8.5155976E-1,-7.0899314E-1,4.3607906E-1,4.1345367E-1,4.021146E-1,3.070668E-1,2.11845E-1,-1.3980432E-2,4.917867E-1,1.8896474E-1,2.9728333E-2,-3.1811044E-2,-2.6765358E-2,9.4995074E-2,3.3530205E-1,3.66248E-2,-3.124913E-1,3.846379E-2,-6.0068894E-2,2.8838626E-1],"split_indices":[2,0,0,1,0,1,0,0,2,0,1,1,0,1,0,0,0,0,1,1,1,0,2,0,0,0,0,0,0,0,0,0,0,0,0,0,0,0,0,0,0,0,0,0,0],"split_type":[0,0,0,0,0,0,0,0,0,0,0,0,0,0,0,0,0,0,0,0,0,0,0,0,0,0,0,0,0,0,0,0,0,0,0,0,0,0,0,0,0,0,0,0,0],"sum_hessian":[1.9679734E4,2.566498E2,1.9423086E4,1.2921741E1,2.4372807E2,1.911661E4,3.0647552E2,7.2319226E0,5.6898174E0,9.078778E1,1.9025822E4,2.2122592E2,8.524962E1,3.8369963E0,1.8528211E0,7.343223E1,1.7355549E1,9.936187E1,1.892646E4,1.5425835E2,6.6967575E1,1.2174172E0,2.619579E0,8.025271E1,1.9109158E1,1.362746E4,5.2990005E3,4.3372135E1,1.1088621E2,1.5065293E1,5.1902283E1,1.1039819E0,1.5155972E0,6.5398895E1,1.4853816E1,4.517734E3,9.109726E3,2.9704473E3,2.328553E3,2.2626055E1,2.074608E1,2.3700785E1,8.718542E1,4.8590975E0,1.0206196E1],"tree_param":{"num_deleted":"0","num_feature":"4","num_nodes":"45","size_leaf_vector":"1"}},{"base_weights":[-4.4692648E-3,-9.837483E-1,5.0713713E-3,-4.7635737E-1,-2.987867E-1,9.0171926E-2,-3.7781253E-2,-2.3664993E-1,7.669314E-2,-1.7760408E-1,4.7839716E-1,6.879286E-2,-2.6116005E-1,-7.2416015E-2,-4.0141055E-1,9.504682E-1,7.681313E-2,-4.155276E-1,1.1537141E-1,-3.7678862E-1,7.3897135E-1,-3.1274286E-1,2.4463247E-1,6.102752E-1,3.7052257E0,2.5250977E-1,-2.514165E-1,-3.975604E-2,3.140693E-1,-7.134898E-1,1.5418896E-1,2.637977E-1,1.3420732E0,-3.9214888E-3,-2.847376E-1,2.6701102E-1,-1.1979831E-2,6.167059E-2,3.7210634E-1,1.22249E0,9.883828E-1,-3.6751968E-1,1.2699589E-1,2.4787211E-1,-2.3203738E-1,1.2749645E-1,-6.874946E-2,-9.510073E-2,1.4229725E-1,-1.2842363E-1,-2.998452E-1,1.02741845E-1,-3.582792E-1,-1.27963E-1,2.9777515E-1,4.3955484E-1,3.4864023E-1],"categories":[],"categories_nodes":[],"categories_segments":[],"categories_sizes":[],"default_left":[0,0,0,0,0,0,0,0,0,0,0,0,0,0,0,0,0,0,0,0,0,0,0,0,0,0,0,0,0,0,0,0,0,0,0,0,0,0,0,0,0,0,0,0,0,0,0,0,0,0,0,0,0,0,0,0,0],"id":18,"left_children":[1,3,5,7,-1,9,11,-1,-1,13,15,17,19,21,-1,23,25,-1,27,29,31,33,35,37,39,41,43,45,47,49,51,53,55,-1,-1,-1,-1,-1,-1,-1,-1,-1,-1,-1,-1,-1,-1,-1,-1,-1,-1,-1,-1,-1,-1,-1,-1],"loss_changes":[1.8124385E2,6.8489075E-1,7.006648E1,1.6459067E0,0E0,6.690157E2,3.0423138E2,0E0,0E0,4.648183E2,4.9791766E2,5.8606915E2,4.7761923E2,2.6624933E2,0E0,1.1292295E3,8.1981384E1,0E0,2.5844595E2,6.617034E2,1.22329544E2,3.790169E2,2.7677155E2,2.740861E2,6.6934814E0,2.3415738E2,2.7954556E2,4.1463797E2,3.7191635E2,1.8443481E2,3.652079E2,1.21516594E2,2.4709473E0,0E0,0E0,0E0,0E0,0E0,0E0,0E0,0E0,0E0,0E0,0E0,0E0,0E0,0E0,0E0,0E0,0E0,0E0,0E0,0E0,0E0,0E0,0E0,0E0],"parents":[2147483647,0,0,1,1,2,2,3,3,5,5,6,6,9,9,10,10,11,11,12,12,13,13,15,15,16,16,18,18,19,19,20,20,21,21,22,22,23,23,24,24,25,25,26,26,27,27,28,28,29,29,30,30,31,31,32,32],"right_children":[2,4,6,8,-1,10,12,-1,-1,14,16,18,20,22,-1,24,26,-1,28,30,32,34,36,38,40,42,44,46,48,50,52,54,56,-1,-1,-1,-1,-1,-1,-1,-1,-1,-1,-1,-1,-1,-1,-1,-1,-1,-1,-1,-1,-1,-1,-1,-1],"split_conditions":[-7.534104E-1,-9.729319E-1,-6.4242613E-1,2.8644795E0,-2.987867E-1,-1.9725461E-1,-3.195307E-1,-2.3664993E-1,7.669314E-2,-7.764552E-1,1.2515916E-1,-5.3262657E-1,3.07197E-1,-7.874119E-1,-4.0141055E-1,-7.764552E-1,-9.2988837E-1,-4.155276E-1,-9.5544326E-1,-7.3420286E-2,-3.6903855E-1,-5.077681E-1,-7.849937E-1,5.887961E-4,1.2553041E-2,1.7399134E-1,2.4657454E-1,-2.7342102E-1,-3.9185157E-1,-1.1146403E-2,6.462661E-1,3.549195E-1,3.434473E-1,-3.9214888E-3,-2.847376E-1,2.6701102E-1,-1.1979831E-2,6.167059E-2,3.7210634E-1,1.22249E0,9.883828E-1,-3.6751968E-1,1.2699589E-1,2.4787211E-1,-2.3203738E-1,1.2749645E-1,-6.874946E-2,-9.510073E-2,1.4229725E-1,-1.2842363E-1,-2.998452E-1,1.02741845E-1,-3.582792E-1,-1.27963E-1,2.9777515E-1,4.3955484E-1,3.4864023E-1],"split_indices":[2,0,1,1,0,0,0,0,0,1,0,1,0,1,0,1,1,0,0,1,1,0,1,0,0,0,0,1,1,0,1,0,0,0,0,0,0,0,0,0,0,0,0,0,0,0,0,0,0,0,0,0,0,0,0,0,0],"split_type":[0,0,0,0,0,0,0,0,0,0,0,0,0,0,0,0,0,0,0,0,0,0,0,0,0,0,0,0,0,0,0,0,0,0,0,0,0,0,0,0,0,0,0,0,0,0,0,0,0,0,0,0,0,0,0,0,0],"sum_hessian":[1.9397475E4,1.861715E2,1.9211303E4,5.3141255E0,1.8085736E2,6.4336616E3,1.2777641E4,3.669889E0,1.6442367E0,3.8077983E3,2.6258633E3,8.650957E3,4.126683E3,3.4922988E3,3.1549942E2,1.2063752E3,1.419488E3,2.676577E2,8.3833E3,3.699585E3,4.2709824E2,1.9865112E3,1.5057876E3,1.0748593E3,1.3151596E2,9.24726E2,4.9476196E2,4.708263E3,3.6750364E3,2.2637573E3,1.4358276E3,2.3968887E2,1.8740936E2,1.3512369E3,6.3527435E2,4.6011124E2,1.0456764E3,6.552874E2,4.1957187E2,6.450669E1,6.700926E1,9.518288E1,8.2954315E2,1.6126918E2,3.334928E2,1.3629089E3,3.3453545E3,7.440488E2,2.9309875E3,1.1342834E3,1.129474E3,1.260562E3,1.7526564E2,1.2330408E2,1.163848E2,1.07035736E2,8.037363E1],"tree_param":{"num_deleted":"0","num_feature":"4","num_nodes":"57","size_leaf_vector":"1"}},{"base_weights":[-6.667709E-3,-9.778191E-1,6.228542E-4,-4.210909E-1,-2.9810488E-1,-1.6900286E-2,1.8520491E-1,-2.2376636E-1,6.061915E-2,3.9988378E-1,-2.1189423E-2,5.7513658E-2,1.2790571E0,4.2196624E-3,-3.6360064E-1,3.822954E-1,-1.8604675E-1,3.4315884E-1,1.428318E0,3.4808448E-1,1.2451279E-3,-5.1404446E-2,-5.825807E-1,-4.5480374E-1,1.0705768E0,-7.6361996E-1,1.6941041E-1,-5.1474816E-1,3.3340424E-1,1.5181865E0,3.2719648E-1,-4.4317466E-1,1.7805755E-3,-1.247874E-1,6.449002E-1,-3.0561477E-1,-3.070007E-2,-2.4149826E-1,1.5294659E-1,4.3868372E-1,-3.0314745E-2,1.074598E0,-2.5266287E-1,-1.1148953E-1,3.113612E-1,2.3182242E-1,-6.4536583E-1,5.472894E-1,3.8805228E-1],"categories":[],"categories_nodes":[],"categories_segments":[],"categories_sizes":[],"default_left":[0,0,0,0,0,0,0,0,0,0,0,0,0,0,0,0,0,0,0,0,0,0,0,0,0,0,0,0,0,0,0,0,0,0,0,0,0,0,0,0,0,0,0,0,0,0,0,0,0],"id":19,"left_children":[1,3,5,7,-1,9,11,-1,-1,-1,13,15,17,19,21,23,25,27,29,-1,31,33,35,37,39,41,43,45,-1,47,-1,-1,-1,-1,-1,-1,-1,-1,-1,-1,-1,-1,-1,-1,-1,-1,-1,-1,-1],"loss_changes":[1.328938E2,8.167572E-1,6.026342E1,1.2862056E0,0E0,9.854712E1,2.2556146E2,0E0,0E0,0E0,1.4758907E2,1.1458261E2,2.309253E1,5.4305096E1,8.008295E1,3.581051E2,1.701023E2,1.674258E1,2.7528076E0,0E0,1.0924521E2,3.894169E2,1.4413518E2,9.525543E1,1.5660672E2,1.1079794E2,2.4158208E2,2.7524794E1,0E0,5.3563843E0,0E0,0E0,0E0,0E0,0E0,0E0,0E0,0E0,0E0,0E0,0E0,0E0,0E0,0E0,0E0,0E0,0E0,0E0,0E0],"parents":[2147483647,0,0,1,1,2,2,3,3,5,5,6,6,10,10,11,11,12,12,13,13,14,14,15,15,16,16,17,17,18,18,20,20,21,21,22,22,23,23,24,24,25,25,26,26,27,27,29,29],"right_children":[2,4,6,8,-1,10,12,-1,-1,-1,14,16,18,20,22,24,26,28,30,-1,32,34,36,38,40,42,44,46,-1,48,-1,-1,-1,-1,-1,-1,-1,-1,-1,-1,-1,-1,-1,-1,-1,-1,-1,-1,-1],"split_conditions":[-7.534104E-1,-9.729319E-1,2.4657454E-1,2.8644795E0,-2.9810488E-1,-1.1706522E0,-1.7492555E-1,-2.2376636E-1,6.061915E-2,3.9988378E-1,9.9462934E-2,-9.606261E-1,2.590453E-1,-1.0804516E0,-6.8728024E-1,-1.0804516E0,3.1954733E-1,-9.203182E-4,3.1954733E-1,3.4808448E-1,-1.0496498E0,-7.8239566E-1,-9.702926E-2,4.3607906E-1,3.549195E-1,-9.2988837E-1,-5.265114E-1,-9.702926E-2,3.3340424E-1,-7.3420286E-2,3.2719648E-1,-4.4317466E-1,1.7805755E-3,-1.247874E-1,6.449002E-1,-3.0561477E-1,-3.070007E-2,-2.4149826E-1,1.5294659E-1,4.3868372E-1,-3.0314745E-2,1.074598E0,-2.5266287E-1,-1.1148953E-1,3.113612E-1,2.3182242E-1,-6.4536583E-1,5.472894E-1,3.8805228E-1],"split_indices":[2,0,0,1,0,1,1,0,0,0,0,1,0,1,1,1,0,1,0,0,1,1,1,0,0,1,1,1,0,1,0,0,0,0,0,0,0,0,0,0,0,0,0,0,0,0,0,0,0],"split_type":[0,0,0,0,0,0,0,0,0,0,0,0,0,0,0,0,0,0,0,0,0,0,0,0,0,0,0,0,0,0,0,0,0,0,0,0,0,0,0,0,0,0,0,0,0,0,0,0,0],"sum_hessian":[1.8768584E4,1.3885649E2,1.8629729E4,4.610157E0,1.3424634E2,1.7015303E4,1.6144249E3,2.9011059E0,1.7090513E0,5.2913708E1,1.6962389E4,1.4466073E3,1.6781767E2,1.5791544E4,1.1708451E3,6.196928E2,8.269145E2,2.3536682E1,1.4428099E2,3.9528683E1,1.5752016E4,4.8319574E2,6.8764935E2,2.797705E2,3.3992227E2,3.1459268E2,5.1232184E2,1.1274892E1,1.226179E1,1.1119146E2,3.3089527E1,4.8818176E1,1.5703197E4,4.152335E2,6.7962234E1,3.597878E2,3.2786154E2,2.0537735E2,7.4393166E1,2.5456657E2,8.5355705E1,4.7964115E0,3.0979626E2,3.1601788E2,1.9630394E2,6.6056857E0,4.669206E0,4.4052708E1,6.713875E1],"tree_param":{"num_deleted":"0","num_feature":"4","num_nodes":"49","size_leaf_vector":"1"}},{"base_weights":[-5.551955E-3,-9.7024906E-1,-5.629308E-5,-3.709434E-1,-2.972599E-1,-3.1704032E-3,2.9554757E-1,-2.1020138E-1,4.8053034E-2,2.3347825E-1,-1.499379E-2,8.0510914E-1,1.031429E-1,-8.078213E-1,-3.4367081E-3,-4.013945E-1,1.232694E0,2.8127998E-3,4.426799E-1,-1.31857E0,5.927139E-1,-8.0702955E-1,1.9316167E-5,-4.7447494E-1,3.7551367E-1,4.1702622E-1,2.3931365E-1,-1.9692008E-1,3.9793383E-2,2.658683E-1,5.493025E-2,-2.7335832E-1,-9.02756E-1,-1.6568983E-1,3.54637E-1,-2.7676353E-1,1.5113045E-1,-5.430267E-3,3.9498743E-2],"categories":[],"categories_nodes":[],"categories_segments":[],"categories_sizes":[],"default_left":[0,0,0,0,0,0,0,0,0,0,0,0,0,0,0,0,0,0,0,0,0,0,0,0,0,0,0,0,0,0,0,0,0,0,0,0,0,0,0],"id":20,"left_children":[1,3,5,7,-1,9,-1,-1,-1,11,13,15,17,19,21,23,25,27,29,31,33,35,37,-1,-1,-1,-1,-1,-1,-1,-1,-1,-1,-1,-1,-1,-1,-1,-1],"loss_changes":[9.8067635E1,9.2710876E-1,5.643655E1,1.0024103E0,0E0,5.1309772E1,0E0,0E0,0E0,6.492945E1,1.6002718E2,8.400159E1,2.4244589E1,1.802767E2,4.781099E1,8.608754E1,7.0903473E0,4.719414E1,1.8528254E1,1.2410858E2,4.637291E1,1.16274185E1,4.0894318E1,0E0,0E0,0E0,0E0,0E0,0E0,0E0,0E0,0E0,0E0,0E0,0E0,0E0,0E0,0E0,0E0],"parents":[2147483647,0,0,1,1,2,2,3,3,5,5,9,9,10,10,11,11,12,12,13,13,14,14,15,15,16,16,17,17,18,18,19,19,20,20,21,21,22,22],"right_children":[2,4,6,8,-1,10,-1,-1,-1,12,14,16,18,20,22,24,26,28,30,32,34,36,38,-1,-1,-1,-1,-1,-1,-1,-1,-1,-1,-1,-1,-1,-1,-1,-1],"split_conditions":[-7.534104E-1,-9.729319E-1,4.695115E-1,2.8644795E0,-2.972599E-1,-1.8801488E0,2.9554757E-1,-2.1020138E-1,4.8053034E-2,-2.0011815E-1,-1.3899217E0,-2.7342102E-1,3.4435216E-1,9.2731E-1,2.2645546E-2,3.0606714E-1,-1.2264485E0,4.962351E-1,2.617278E-1,6.03775E-1,6.206109E-1,2.0823882E0,2.626145E-1,-4.7447494E-1,3.7551367E-1,4.1702622E-1,2.3931365E-1,-1.9692008E-1,3.9793383E-2,2.658683E-1,5.493025E-2,-2.7335832E-1,-9.02756E-1,-1.6568983E-1,3.54637E-1,-2.7676353E-1,1.5113045E-1,-5.430267E-3,3.9498743E-2],"split_indices":[2,0,0,1,0,3,0,0,0,1,3,1,2,1,2,2,0,1,1,2,2,1,1,0,0,0,0,0,0,0,0,0,0,0,0,0,0,0,0],"split_type":[0,0,0,0,0,0,0,0,0,0,0,0,0,0,0,0,0,0,0,0,0,0,0,0,0,0,0,0,0,0,0,0,0,0,0,0,0,0,0],"sum_hessian":[1.8496582E4,1.0377959E2,1.8392803E4,4.083102E0,9.969649E1,1.8335842E4,5.695995E1,2.3222063E0,1.7608957E0,8.716075E2,1.7464234E4,1.6087169E2,7.107358E2,2.4992935E2,1.7214305E4,4.2110622E1,1.1876106E2,5.4940106E2,1.6133475E2,1.831841E2,6.6745255E1,7.272111E1,1.7141584E4,2.4594992E1,1.751563E1,8.559406E1,3.3166996E1,8.973274E1,4.596683E2,5.8670036E1,1.026647E2,1.4885464E2,3.4329456E1,2.2703459E1,4.4041798E1,6.710371E1,5.617396E0,1.5068344E4,2.0732407E3],"tree_param":{"num_deleted":"0","num_feature":"4","num_nodes":"39","size_leaf_vector":"1"}},{"base_weights":[-3.8725836E-3,-9.605083E-1,2.556473E-4,-3.2665423E-1,-2.9618186E-1,-2.0780975E-3,2.9362905E-1,-1.9634728E-1,3.817695E-2,-7.6786187E-3,3.577784E-1,-9.710925E-1,-3.475598E-3,3.5399005E-2,2.956475E-1,-7.9028055E-2,-2.9471976E-1,6.1935663E-2,-3.394323E-2,-1.769436E-1,2.1355021E-1,-2.1756146E-2,7.924266E-2,-1.3199834E-2,3.4074593E-1,-2.6019435E-2,-3.7393278E-1,2.8034182E-2,2.898464E-1],"categories":[],"categories_nodes":[],"categories_segments":[],"categories_sizes":[],"default_left":[0,0,0,0,0,0,0,0,0,0,0,0,0,0,0,0,0,0,0,0,0,0,0,0,0,0,0,0,0],"id":21,"left_children":[1,3,5,7,-1,9,-1,-1,-1,11,13,15,17,19,-1,-1,-1,21,23,25,27,-1,-1,-1,-1,-1,-1,-1,-1],"loss_changes":[7.240341E1,1.0139236E0,4.1690735E1,7.806109E-1,0E0,3.6709644E1,0E0,0E0,0E0,7.262078E1,5.6451443E1,3.6450958E-1,3.5592407E1,7.0534987E0,0E0,0E0,0E0,1.5431674E2,1.4337611E2,8.107962E0,9.066359E0,0E0,0E0,0E0,0E0,0E0,0E0,0E0,0E0],"parents":[2147483647,0,0,1,1,2,2,3,3,5,5,9,9,10,10,11,11,12,12,13,13,17,17,18,18,19,19,20,20],"right_children":[2,4,6,8,-1,10,-1,-1,-1,12,14,16,18,20,-1,-1,-1,22,24,26,28,-1,-1,-1,-1,-1,-1,-1,-1],"split_conditions":[-7.534104E-1,-9.729319E-1,