{"learner":{"attributes":{"scikit_learn":"{\"_estimator_type\": \"classifier\"}"},"feature_names":[],"feature_types":[],"gradient_booster":{"model":{"gbtree_model_param":{"num_parallel_tree":"1","num_trees":"100"},"iteration_indptr":[0,1,2,3,4,5,6,7,8,9,10,11,12,13,14,15,16,17,18,19,20,21,22,23,24,25,26,27,28,29,30,31,32,33,34,35,36,37,38,39,40,41,42,43,44,45,46,47,48,49,50,51,52,53,54,55,56,57,58,59,60,61,62,63,64,65,66,67,68,69,70,71,72,73,74,75,76,77,78,79,80,81,82,83,84,85,86,87,88,89,90,91,92,93,94,95,96,97,98,99,100],"tree_info":[0,0,0,0,0,0,0,0,0,0,0,0,0,0,0,0,0,0,0,0,0,0,0,0,0,0,0,0,0,0,0,0,0,0,0,0,0,0,0,0,0,0,0,0,0,0,0,0,0,0,0,0,0,0,0,0,0,0,0,0,0,0,0,0,0,0,0,0,0,0,0,0,0,0,0,0,0,0,0,0,0,0,0,0,0,0,0,0,0,0,0,0,0,0,0,0,0,0,0,0],"trees":[{"base_weights":[-2.1663512E-1,-1.2633157E0,1.6338656E0,-1.2699136E0,-6.6873187E-1,1.1139191E0,3.1493974E0,-1.1326169E0,-1.2778901E0,1.4717919E-1,-8.567227E-1,7.5079054E-1,2.178884E0,2.3288646E0,3.5782316E0,-5.6011945E-1,-1.2701555E0,-1.2334715E0,-3.839424E-1,1.5752356E0,-3.7393454E-1,-6.2158614E-1,-3.756497E-1,8.936812E-1,1.08809E-1,1.8468063E0,3.363466E0,5.482533E-1,3.0120003E0,4.778947E-1,3.7283342E0,-3.8182458E-1,7.7595256E-2,-3.8332143E-1,-1.0498685E0,-1.0393033E0,-3.8363507E-1,1.0740154E0,1.7137718E0,1.1201438E0,-8.0057234E-1,6.9277495E-1,1.2768252E0,-4.3481314E-1,1.2018087E0,1.5495162E0,3.8869867E0,2.46081E0,1.3477526E0,2.2009919E0,1.6464013E-1,3.3682349E0,2.3664198E0,-1.1094389E-1,8.258992E-1,3.9348836E0,3.1656184E0,-2.576191E-2,2.5192094E-1,-2.4908301E-1,-3.708204E-1,-3.809844E-1,-2.4782737E-1,3.6944464E-2,3.8526756E-1,5.262537E-1,1.0188981E-1,7.814795E-2,5.8202666E-1,-3.303022E-1,-1.60601E-1,1.4448896E-1,3.6925793E-1,-3.7842262E-1,4.000274E-1,1.9706257E-1,-2.9242343E-1,2.529559E-1,8.718441E-1,8.510611E-1,2.4408115E-1,9.326392E-1,1.346805E0,4.817113E-1,1.1425706E0,1.1192431E0,1.3640379E-2,-6.391645E-2,2.9539728E-1,1.1484807E0,8.9529735E-1,5.6890553E-1,9.749568E-1,1.5796724E-1,-2.2235073E-1,1.8204246E-1,4.7128996E-1,1.0849148E0,1.2089157E0,7.7759355E-1,1.0289185E0],"categories":[],"categories_nodes":[],"categories_segments":[],"categories_sizes":[],"default_left":[0,0,0,0,0,0,0,0,0,0,0,0,0,0,0,0,0,0,0,0,0,0,0,0,0,0,0,0,0,0,0,0,0,0,0,0,0,0,0,0,0,0,0,0,0,0,0,0,0,0,0,0,0,0,0,0,0,0,0,0,0,0,0,0,0,0,0,0,0,0,0,0,0,0,0,0,0,0,0,0,0,0,0,0,0,0,0,0,0,0,0,0,0,0,0,0,0,0,0,0,0],"id":0,"left_children":[1,3,5,7,9,11,13,15,17,19,21,23,25,27,29,31,33,35,-1,37,-1,39,-1,41,43,45,47,49,51,53,55,-1,57,-1,59,61,-1,63,65,67,69,71,73,75,77,79,81,83,-1,85,87,89,91,93,95,97,99,-1,-1,-1,-1,-1,-1,-1,-1,-1,-1,-1,-1,-1,-1,-1,-1,-1,-1,-1,-1,-1,-1,-1,-1,-1,-1,-1,-1,-1,-1,-1,-1,-1,-1,-1,-1,-1,-1,-1,-1,-1,-1,-1,-1],"loss_changes":[1.0804461E5,1.3892188E2,1.5876945E4,3.714453E1,6.0427643E1,5.801713E3,1.8028828E3,1.5232812E2,1.2539062E0,1.5017834E2,2.894545E1,1.0266108E3,1.4946191E3,2.1509531E3,1.5705664E3,1.7200793E2,1.2749023E0,1.103833E1,0E0,7.441025E-1,0E0,6.401063E1,0E0,7.0379736E2,1.2119163E3,1.8027139E3,8.390586E2,3.115103E2,2.8611426E2,3.229932E1,3.6209766E2,0E0,2.5060759E1,0E0,1.3341026E0,1.229303E1,0E0,1.988471E0,9.303131E-1,1.308646E1,1.4086418E1,6.8196436E2,4.539126E2,8.0363257E2,4.116261E2,2.4651543E3,1.6352197E2,5.306626E2,0E0,3.0513547E2,1.2419489E2,1.3369238E2,1.8406274E2,2.4201508E1,1.5192108E1,5.65E1,1.2297656E2,0E0,0E0,0E0,0E0,0E0,0E0,0E0,0E0,0E0,0E0,0E0,0E0,0E0,0E0,0E0,0E0,0E0,0E0,0E0,0E0,0E0,0E0,0E0,0E0,0E0,0E0,0E0,0E0,0E0,0E0,0E0,0E0,0E0,0E0,0E0,0E0,0E0,0E0,0E0,0E0,0E0,0E0,0E0,0E0],"parents":[2147483647,0,0,1,1,2,2,3,3,4,4,5,5,6,6,7,7,8,8,9,9,10,10,11,11,12,12,13,13,14,14,15,15,16,16,17,17,19,19,21,21,23,23,24,24,25,25,26,26,27,27,28,28,29,29,30,30,32,32,34,34,35,35,37,37,38,38,39,39,40,40,41,41,42,42,43,43,44,44,45,45,46,46,47,47,49,49,50,50,51,51,52,52,53,53,54,54,55,55,56,56],"right_children":[2,4,6,8,10,12,14,16,18,20,22,24,26,28,30,32,34,36,-1,38,-1,40,-1,42,44,46,48,50,52,54,56,-1,58,-1,60,62,-1,64,66,68,70,72,74,76,78,80,82,84,-1,86,88,90,92,94,96,98,100,-1,-1,-1,-1,-1,-1,-1,-1,-1,-1,-1,-1,-1,-1,-1,-1,-1,-1,-1,-1,-1,-1,-1,-1,-1,-1,-1,-1,-1,-1,-1,-1,-1,-1,-1,-1,-1,-1,-1,-1,-1,-1,-1,-1],"split_conditions":[3.3238077E-1,2.72922E-1,2.717968E-1,-1.0508261E0,-9.7724354E-1,2.0334168E-1,8.6331105E-1,-9.7724354E-1,-1.0276091E0,-2.950047E-1,-8.5167736E-1,4.391445E-1,-9.912961E-1,9.1482174E-1,-1.0396245E0,-1.3849196E0,2.6152322E-1,-9.7724354E-1,-3.839424E-1,-1.05364E0,-3.7393454E-1,2.8292748E-1,-3.756497E-1,4.2930877E-1,-1.6078179E-1,3.871078E-1,2.897743E-1,-1.0449861E0,-2.601935E-1,1.0348178E0,-6.145209E-1,-3.8182458E-1,1.9545595E-1,-3.8332143E-1,6.9179124E-1,-1.3849196E0,-3.8363507E-1,-9.962093E-1,-9.912961E-1,-1.0523033E0,-1.0523033E0,-1.6078179E-1,-1.9214199E0,-9.3289167E-1,2.5930935E-1,2.9904604E-1,3.9040747E-1,-6.424034E-1,1.3477526E0,-1.0149698E0,-9.1735935E-1,5.88884E-1,-6.847861E-2,1.0314476E0,-1.0418639E0,1.0320778E0,1.0289363E0,-2.576191E-2,2.5192094E-1,-2.4908301E-1,-3.708204E-1,-3.809844E-1,-2.4782737E-1,3.6944464E-2,3.8526756E-1,5.262537E-1,1.0188981E-1,7.814795E-2,5.8202666E-1,-3.303022E-1,-1.60601E-1,1.4448896E-1,3.6925793E-1,-3.7842262E-1,4.000274E-1,1.9706257E-1,-2.9242343E-1,2.529559E-1,8.718441E-1,8.510611E-1,2.4408115E-1,9.326392E-1,1.346805E0,4.817113E-1,1.1425706E0,1.1192431E0,1.3640379E-2,-6.391645E-2,2.9539728E-1,1.1484807E0,8.9529735E-1,5.6890553E-1,9.749568E-1,1.5796724E-1,-2.2235073E-1,1.8204246E-1,4.7128996E-1,1.0849148E0,1.2089157E0,7.7759355E-1,1.0289185E0],"split_indices":[2,2,1,0,1,0,1,1,0,3,3,3,1,2,0,1,2,1,0,0,0,1,0,3,1,0,0,3,0,1,0,0,2,0,1,1,0,1,1,0,0,1,1,1,1,0,0,1,0,0,0,1,0,1,0,1,1,0,0,0,0,0,0,0,0,0,0,0,0,0,0,0,0,0,0,0,0,0,0,0,0,0,0,0,0,0,0,0,0,0,0,0,0,0,0,0,0,0,0,0,0],"split_type":[0,0,0,0,0,0,0,0,0,0,0,0,0,0,0,0,0,0,0,0,0,0,0,0,0,0,0,0,0,0,0,0,0,0,0,0,0,0,0,0,0,0,0,0,0,0,0,0,0,0,0,0,0,0,0,0,0,0,0,0,0,0,0,0,0,0,0,0,0,0,0,0,0,0,0,0,0,0,0,0,0,0,0,0,0,0,0,0,0,0,0,0,0,0,0,0,0,0,0,0,0],"sum_hessian":[5.5780656E4,3.5628676E4,2.015198E4,3.5236535E4,3.9214166E2,1.5005613E4,5.146368E3,1.9425963E3,3.3293938E4,7.347317E1,3.1866852E2,1.119133E4,3.8142825E3,1.768653E3,3.3777153E3,3.7727618E2,1.5653202E3,1.4047045E3,3.1889234E4,3.622398E1,3.7249187E1,2.0145317E2,1.1721533E2,9.153561E3,2.0377698E3,2.981131E3,8.3315155E2,4.909033E2,1.2777496E3,1.561732E2,3.221542E3,1.7770255E2,1.9957362E2,1.508592E3,5.672812E1,2.703129E2,1.1343915E3,9.739467E0,2.6484514E1,1.8282858E1,1.8317032E2,6.0066875E3,3.1468728E3,1.361304E3,6.7646576E2,2.6035132E3,3.7761792E2,4.647605E2,3.6839105E2,9.158516E1,3.993181E2,8.2067816E2,4.5707144E2,5.826593E1,9.7907265E1,2.3521665E3,8.6937555E2,1.6505832E2,3.45153E1,2.8534927E1,2.8193192E1,1.274674E2,1.428455E2,2.050414E0,7.6890526E0,2.5459307E1,1.025207E0,9.568599E0,8.714259E0,8.440871E1,9.8761604E1,4.315267E3,1.6914207E3,6.817626E1,3.0786965E3,4.504076E2,9.108964E2,5.6010474E2,1.1636099E2,9.459243E2,1.6575889E3,1.6745047E2,2.1016743E2,2.85691E2,1.7906949E2,5.3139896E1,3.8445263E1,2.7390112E2,1.25416985E2,3.692454E2,4.514328E2,3.0038565E2,1.566858E2,2.9047531E1,2.92184E1,7.706139E1,2.0845875E1,5.486566E2,1.80351E3,2.7748935E2,5.9188617E2],"tree_param":{"num_deleted":"0","num_feature":"4","num_nodes":"101","size_leaf_vector":"1"}},{"base_weights":[-2.2751054E-1,-1.1712916E0,8.5148066E-1,-1.1788768E0,-5.626676E-1,6.224651E-1,1.4107217E0,-1.0225737E0,-1.1882389E0,6.170983E-2,-7.327414E-1,4.412967E-1,1.0643446E0,1.185955E0,1.5897032E0,-4.5577213E-1,-1.179082E0,-1.1354952E0,-3.57162E-1,8.671051E-1,-3.460524E-1,-5.083057E-1,-3.4746468E-1,8.8944E-1,3.2268307E-1,5.3424037E-1,1.3479555E0,6.847253E-1,1.3496546E0,3.554573E-1,1.6385682E0,-3.5478854E-1,5.1626757E-2,-3.5643053E-1,-9.3081313E-1,-9.158341E-1,-3.5681814E-1,6.768162E-1,1.0465944E0,6.7032707E-1,-6.698906E-1,1.064297E0,-6.9644016E-1,1.3391185E-1,7.1996474E-1,2.152577E0,3.5445053E-2,9.633993E-1,2.6565294E0,2.9722676E-1,1.3614397E0,1.3824512E0,6.490756E-1,3.0164737E-1,1.8422556E0,1.6887288E0,1.3972715E0,-7.0766215E-3,2.9842964E-1,-2.1028064E-1,-3.426515E-1,-3.5384983E-1,-2.077764E-1,9.083392E-2,2.7942717E-1,9.852866E-2,3.3905143E-1,1.023445E-1,4.1241005E-1,-2.950914E-1,-1.2635311E-1,-3.7131295E-1,3.6053747E-1,-3.0797023E-1,-5.6435343E-2,1.2995522E-1,-8.391177E-2,2.0659901E-1,9.0828156E-1,-1.5254477E-1,8.0551946E-1,-3.743069E-1,4.1726062E-1,4.8021227E-2,3.5734797E-1,9.2869854E-1,5.7642955E-1,3.36101E-1,-3.5403315E-2,6.3540936E-1,2.8664175E-1,4.0898082E-1,6.88803E-1,4.28821E-1,5.6859467E-2,1.0588946E-1,-3.2809687E-1,8.812182E-1,-2.278083E-1,4.8889703E-1,5.259152E-1,-3.9074096E-1,4.230889E-1],"categories":[],"categories_nodes":[],"categories_segments":[],"categories_sizes":[],"default_left":[0,0,0,0,0,0,0,0,0,0,0,0,0,0,0,0,0,0,0,0,0,0,0,0,0,0,0,0,0,0,0,0,0,0,0,0,0,0,0,0,0,0,0,0,0,0,0,0,0,0,0,0,0,0,0,0,0,0,0,0,0,0,0,0,0,0,0,0,0,0,0,0,0,0,0,0,0,0,0,0,0,0,0,0,0,0,0,0,0,0,0,0,0,0,0,0,0,0,0,0,0,0,0],"id":1,"left_children":[1,3,5,7,9,11,13,15,17,19,21,23,25,27,29,31,33,35,-1,37,-1,39,-1,41,43,45,47,49,51,53,55,-1,57,-1,59,61,-1,63,65,67,69,71,73,75,77,79,81,83,85,87,89,91,93,95,97,99,101,-1,-1,-1,-1,-1,-1,-1,-1,-1,-1,-1,-1,-1,-1,-1,-1,-1,-1,-1,-1,-1,-1,-1,-1,-1,-1,-1,-1,-1,-1,-1,-1,-1,-1,-1,-1,-1,-1,-1,-1,-1,-1,-1,-1,-1,-1],"loss_changes":[5.3725133E4,1.292539E2,3.151793E3,3.9460938E1,3.703385E1,1.3977559E3,2.8579102E2,1.3943945E2,1.828125E0,7.488516E1,2.5560104E1,6.5825635E2,7.627197E2,2.5950293E2,2.3933691E2,1.2658346E2,1.6617432E0,1.21427E1,0E0,8.6180115E-1,0E0,3.4930244E1,0E0,7.195752E2,7.346829E2,1.4299333E3,1.6618184E3,2.050307E2,5.405127E1,1.1666758E1,4.395117E1,0E0,1.4423076E1,0E0,1.5288315E0,1.2400635E1,0E0,2.1125927E0,9.3891335E-1,4.708229E0,1.2049438E1,7.406106E2,4.3108345E1,8.22421E2,2.2585571E2,5.927484E2,2.3586392E3,4.6780298E2,2.3636328E2,1.7083678E2,8.5508545E1,3.6888184E1,3.8756474E1,1.1028587E1,1.6875607E1,9.161133E0,2.51958E1,0E0,0E0,0E0,0E0,0E0,0E0,0E0,0E0,0E0,0E0,0E0,0E0,0E0,0E0,0E0,0E0,0E0,0E0,0E0,0E0,0E0,0E0,0E0,0E0,0E0,0E0,0E0,0E0,0E0,0E0,0E0,0E0,0E0,0E0,0E0,0E0,0E0,0E0,0E0,0E0,0E0,0E0,0E0,0E0,0E0,0E0],"parents":[2147483647,0,0,1,1,2,2,3,3,4,4,5,5,6,6,7,7,8,8,9,9,10,10,11,11,12,12,13,13,14,14,15,15,16,16,17,17,19,19,21,21,23,23,24,24,25,25,26,26,27,27,28,28,29,29,30,30,32,32,34,34,35,35,37,37,38,38,39,39,40,40,41,41,42,42,43,43,44,44,45,45,46,46,47,47,48,48,49,49,50,50,51,51,52,52,53,53,54,54,55,55,56,56],"right_children":[2,4,6,8,10,12,14,16,18,20,22,24,26,28,30,32,34,36,-1,38,-1,40,-1,42,44,46,48,50,52,54,56,-1,58,-1,60,62,-1,64,66,68,70,72,74,76,78,80,82,84,86,88,90,92,94,96,98,100,102,-1,-1,-1,-1,-1,-1,-1,-1,-1,-1,-1,-1,-1,-1,-1,-1,-1,-1,-1,-1,-1,-1,-1,-1,-1,-1,-1,-1,-1,-1,-1,-1,-1,-1,-1,-1,-1,-1,-1,-1,-1,-1,-1,-1,-1,-1],"split_conditions":[3.3238077E-1,2.72922E-1,2.717968E-1,-1.0508261E0,-9.7724354E-1,1.9314861E-1,1.0289363E0,-9.7724354E-1,-1.0276091E0,-2.950047E-1,-8.5167736E-1,-1.2693019E0,-1.824245E0,-8.4535503E-1,-1.0396245E0,-1.3849196E0,2.6152322E-1,-9.7724354E-1,-3.57162E-1,-9.935277E-1,-3.460524E-1,2.8292748E-1,-3.4746468E-1,1.4125408E-1,-1.6078179E-1,3.2515427E-1,3.4106055E-1,8.6331105E-1,4.6312505E-1,1.0421823E0,1.1107978E0,-3.5478854E-1,2.4992639E-1,-3.5643053E-1,6.9179124E-1,-1.3849196E0,-3.5681814E-1,-3.0231595E-1,-1.0548518E0,-1.0508261E0,-1.0523033E0,-1.0124453E0,-1.4230082E0,-6.0043484E-1,1.5219554E-1,2.3359485E-1,3.8195828E-1,-1.5358195E0,-9.912961E-1,-1.0149698E0,1.0241923E0,4.3761946E-2,6.7773557E-1,1.0420802E0,-1.0438164E0,1.0378243E0,7.0589244E-2,-7.0766215E-3,2.9842964E-1,-2.1028064E-1,-3.426515E-1,-3.5384983E-1,-2.077764E-1,9.083392E-2,2.7942717E-1,9.852866E-2,3.3905143E-1,1.023445E-1,4.1241005E-1,-2.950914E-1,-1.2635311E-1,-3.7131295E-1,3.6053747E-1,-3.0797023E-1,-5.6435343E-2,1.2995522E-1,-8.391177E-2,2.0659901E-1,9.0828156E-1,-1.5254477E-1,8.0551946E-1,-3.743069E-1,4.1726062E-1,4.8021227E-2,3.5734797E-1,9.2869854E-1,5.7642955E-1,3.36101E-1,-3.5403315E-2,6.3540936E-1,2.8664175E-1,4.0898082E-1,6.88803E-1,4.28821E-1,5.6859467E-2,1.0588946E-1,-3.2809687E-1,8.812182E-1,-2.278083E-1,4.8889703E-1,5.259152E-1,-3.9074096E-1,4.230889E-1],"split_indices":[2,2,1,0,1,0,1,1,0,3,3,1,1,0,0,1,2,1,0,1,0,1,0,0,1,0,0,1,3,1,2,0,2,0,1,1,0,3,0,0,0,0,1,1,0,0,0,1,1,0,1,0,1,1,0,1,3,0,0,0,0,0,0,0,0,0,0,0,0,0,0,0,0,0,0,0,0,0,0,0,0,0,0,0,0,0,0,0,0,0,0,0,0,0,0,0,0,0,0,0,0,0,0],"split_type":[0,0,0,0,0,0,0,0,0,0,0,0,0,0,0,0,0,0,0,0,0,0,0,0,0,0,0,0,0,0,0,0,0,0,0,0,0,0,0,0,0,0,0,0,0,0,0,0,0,0,0,0,0,0,0,0,0,0,0,0,0,0,0,0,0,0,0,0,0,0,0,0,0,0,0,0,0,0,0,0,0,0,0,0,0,0,0,0,0,0,0,0,0,0,0,0,0,0,0,0,0,0,0],"sum_hessian":[5.275602E4,2.8141176E4,2.4614844E4,2.7793852E4,3.4732437E2,1.7464887E4,7.1499575E3,1.5769303E3,2.621692E4,7.449058E1,2.728338E2,1.2387906E4,5.076981E3,3.1729565E3,3.977001E3,3.4205942E2,1.2348708E3,1.116626E3,2.5100295E4,4.497169E1,2.9518888E1,1.8005191E2,9.278188E1,2.5912402E3,9.796666E3,1.7705267E3,3.306454E3,7.824291E2,2.3905273E3,1.5177216E2,3.8252288E3,1.4007262E2,2.0198682E2,1.1879271E3,4.694369E1,2.2355005E2,8.93076E2,2.4144855E1,2.0826836E1,2.132857E1,1.5872334E2,2.3342031E3,2.5703717E2,6.6420063E3,3.1546597E3,4.1635416E2,1.3541726E3,2.5568098E3,7.496443E2,4.9844818E2,2.839809E2,2.2826934E3,1.0783417E2,1.4763196E2,4.1401877E0,3.1619302E3,6.6329846E2,1.8797107E2,1.401574E1,2.4554289E1,2.2389404E1,1.0053251E2,1.2301753E2,1.0665575E1,1.347928E1,2.6849656E0,1.814187E1,1.5547155E1,5.781414E0,6.887897E1,8.984438E1,1.3110875E2,2.2030942E3,1.5521448E2,1.0182269E2,3.853655E3,2.788351E3,3.113723E3,4.093688E1,6.942985E1,3.4692432E2,6.9567737E2,6.5849524E2,5.651579E2,1.9916519E3,4.6728595E2,2.8235837E2,1.6656827E2,3.318799E2,9.769391E1,1.8628699E2,2.238191E3,4.4502464E1,3.9185257E1,6.86489E1,1.4311539E2,4.5165687E0,2.8228552E0,1.3173325E0,1.6619545E3,1.4999757E3,2.7093515E0,6.605891E2],"tree_param":{"num_deleted":"0","num_feature":"4","num_nodes":"103","size_leaf_vector":"1"}},{"base_weights":[-2.081144E-1,-1.1098635E0,5.678963E-1,-1.1188805E0,-4.7286782E-1,4.0719008E-1,1.0008137E0,-9.475147E-1,-1.131149E0,2.7624574E-2,-6.257945E-1,2.351326E-1,6.4470816E-1,8.0282164E-1,1.1461881E0,-4.024258E-1,-1.1206548E0,-1.0716716E0,-3.3997208E-1,5.6670684E-1,-3.2667524E-1,-4.114663E-1,-3.2789946E-1,4.2944378E-1,2.9111981E-2,6.057884E-1,4.6756753E-1,4.7458598E-1,9.369848E-1,2.3369622E-1,1.1843857E0,-1.1178995E0,7.7695446E-3,-3.3918148E-1,-8.2847774E-1,-8.4205824E-1,-3.3943167E-1,4.5112163E-1,6.725275E-1,4.5752215E-1,-5.553964E-1,-1.6895148E-1,5.239836E-1,5.6196153E-1,-1.4371604E-1,-3.1384242E-1,6.813058E-1,-5.9321415E-1,6.510661E-1,1.0641735E0,6.994222E-1,-1.153495E-1,4.2612675E-1,1.2345253E0,9.4418293E-1,-3.375025E-1,-1.19286604E-1,-4.2827476E-2,9.830116E-2,-3.3222753E-1,-1.7864981E-1,-3.3483353E-1,-1.906065E-1,6.356598E-2,1.814996E-1,2.5639343E-1,1.437489E-1,2.4425412E-2,2.2600287E-1,-2.0033191E-1,7.699006E-2,-1.5825075E-1,3.8317457E-1,-4.0828437E-1,1.7135559E-1,9.750698E-2,4.510318E-1,-1.0098211E-1,6.917114E-2,-3.7201127E-1,8.038129E-2,1.9056694E-1,5.05032E-1,-3.9806277E-1,2.3563588E-2,2.1877594E-1,-3.547722E-1,4.4574583E-1,2.7415654E-1,1.4878938E-1,3.169055E-1,2.3044702E-1,-1.422042E-1,2.3999827E-1,1.6398959E-2,3.494649E-1,3.8742092E-1,2.9945314E-1,2.1220149E-1],"categories":[],"categories_nodes":[],"categories_segments":[],"categories_sizes":[],"default_left":[0,0,0,0,0,0,0,0,0,0,0,0,0,0,0,0,0,0,0,0,0,0,0,0,0,0,0,0,0,0,0,0,0,0,0,0,0,0,0,0,0,0,0,0,0,0,0,0,0,0,0,0,0,0,0,0,0,0,0,0,0,0,0,0,0,0,0,0,0,0,0,0,0,0,0,0,0,0,0,0,0,0,0,0,0,0,0,0,0,0,0,0,0,0,0,0,0,0,0],"id":2,"left_children":[1,3,5,7,9,11,13,15,17,19,21,23,25,27,29,31,33,35,-1,37,-1,39,-1,41,43,45,-1,47,49,51,53,55,57,-1,59,61,-1,63,65,67,69,71,73,75,77,79,81,83,85,87,89,91,93,95,97,-1,-1,-1,-1,-1,-1,-1,-1,-1,-1,-1,-1,-1,-1,-1,-1,-1,-1,-1,-1,-1,-1,-1,-1,-1,-1,-1,-1,-1,-1,-1,-1,-1,-1,-1,-1,-1,-1,-1,-1,-1,-1,-1,-1],"loss_changes":[3.302749E4,1.24859375E2,1.7644868E3,4.4179688E1,2.3471413E1,7.5595776E2,1.9672998E2,1.3584985E2,1.2851562E0,4.4361374E1,2.3057861E1,4.2957275E2,2.7547437E2,1.277312E2,1.3765234E2,1.0264346E2,2.248169E0,8.6604E0,0E0,3.0413532E-1,0E0,2.0583044E1,0E0,3.1250116E2,4.7984372E2,5.180171E2,0E0,1.5991187E2,6.16532E1,1.0812202E1,4.457617E1,2.0523071E-1,1.0798086E1,0E0,1.9284363E0,7.7079773E0,0E0,8.5755205E-1,4.3186855E-1,2.569253E0,1.293697E1,3.9175116E2,4.2510095E2,2.8417398E2,2.8413773E2,3.0557834E2,3.1714087E2,5.9536243E1,1.0508215E2,8.376819E1,5.1981598E1,1.86591E1,1.4331356E1,1.0929199E1,7.735962E0,0E0,0E0,0E0,0E0,0E0,0E0,0E0,0E0,0E0,0E0,0E0,0E0,0E0,0E0,0E0,0E0,0E0,0E0,0E0,0E0,0E0,0E0,0E0,0E0,0E0,0E0,0E0,0E0,0E0,0E0,0E0,0E0,0E0,0E0,0E0,0E0,0E0,0E0,0E0,0E0,0E0,0E0,0E0,0E0],"parents":[2147483647,0,0,1,1,2,2,3,3,4,4,5,5,6,6,7,7,8,8,9,9,10,10,11,11,12,12,13,13,14,14,15,15,16,16,17,17,19,19,21,21,23,23,24,24,25,25,27,27,28,28,29,29,30,30,31,31,32,32,34,34,35,35,37,37,38,38,39,39,40,40,41,41,42,42,43,43,44,44,45,45,46,46,47,47,48,48,49,49,50,50,51,51,52,52,53,53,54,54],"right_children":[2,4,6,8,10,12,14,16,18,20,22,24,26,28,30,32,34,36,-1,38,-1,40,-1,42,44,46,-1,48,50,52,54,56,58,-1,60,62,-1,64,66,68,70,72,74,76,78,80,82,84,86,88,90,92,94,96,98,-1,-1,-1,-1,-1,-1,-1,-1,-1,-1,-1,-1,-1,-1,-1,-1,-1,-1,-1,-1,-1,-1,-1,-1,-1,-1,-1,-1,-1,-1,-1,-1,-1,-1,-1,-1,-1,-1,-1,-1,-1,-1,-1,-1],"split_conditions":[3.3238077E-1,2.72922E-1,3.328495E-1,-1.0475744E0,-9.7724354E-1,2.1192119E-2,1.0281144E0,-9.7724354E-1,-1.0276091E0,-2.950047E-1,-8.5167736E-1,4.210029E-1,3.9040747E-1,9.385014E-1,-1.0396245E0,-9.9942505E-1,2.6152322E-1,-9.7724354E-1,-3.3997208E-1,-9.935277E-1,-3.2667524E-1,2.8292748E-1,-3.2789946E-1,-1.0149698E0,-1.2693019E0,-2.275388E0,4.6756753E-1,4.8493308E-1,-2.833399E-1,1.0359851E0,1.1145036E0,-1.3849196E0,1.20498694E-1,-3.3918148E-1,2.6482424E-1,-1.3849196E0,-3.3943167E-1,-3.0231595E-1,-9.9273133E-1,-1.0523033E0,1.0408432E0,1.3177977E-2,-8.5167736E-1,-1.3849196E0,4.4031954E-1,3.8195828E-1,3.763169E-1,-1.0045698E0,4.10348E-1,5.88884E-1,-1.01798765E-1,1.0314476E0,1.0406673E0,1.0368133E0,4.6312505E-1,-3.375025E-1,-1.19286604E-1,-4.2827476E-2,9.830116E-2,-3.3222753E-1,-1.7864981E-1,-3.3483353E-1,-1.906065E-1,6.356598E-2,1.814996E-1,2.5639343E-1,1.437489E-1,2.4425412E-2,2.2600287E-1,-2.0033191E-1,7.699006E-2,-1.5825075E-1,3.8317457E-1,-4.0828437E-1,1.7135559E-1,9.750698E-2,4.510318E-1,-1.0098211E-1,6.917114E-2,-3.7201127E-1,8.038129E-2,1.9056694E-1,5.05032E-1,-3.9806277E-1,2.3563588E-2,2.1877594E-1,-3.547722E-1,4.4574583E-1,2.7415654E-1,1.4878938E-1,3.169055E-1,2.3044702E-1,-1.422042E-1,2.3999827E-1,1.6398959E-2,3.494649E-1,3.8742092E-1,2.9945314E-1,2.1220149E-1],"split_indices":[2,2,1,0,1,0,1,1,0,3,3,3,0,2,0,1,2,1,0,1,0,1,0,0,1,1,0,1,0,1,2,1,2,0,1,1,0,3,1,0,1,1,3,1,3,0,0,0,3,1,0,1,1,1,3,0,0,0,0,0,0,0,0,0,0,0,0,0,0,0,0,0,0,0,0,0,0,0,0,0,0,0,0,0,0,0,0,0,0,0,0,0,0,0,0,0,0,0,0],"split_type":[0,0,0,0,0,0,0,0,0,0,0,0,0,0,0,0,0,0,0,0,0,0,0,0,0,0,0,0,0,0,0,0,0,0,0,0,0,0,0,0,0,0,0,0,0,0,0,0,0,0,0,0,0,0,0,0,0,0,0,0,0,0,0,0,0,0,0,0,0,0,0,0,0,0,0,0,0,0,0,0,0,0,0,0,0,0,0,0,0,0,0,0,0,0,0,0,0,0,0],"sum_hessian":[4.7195934E4,2.1829236E4,2.5366697E4,2.15238E4,3.054352E2,1.8500822E4,6.8658755E3,1.4432206E3,2.008058E4,7.1676025E1,2.3375919E2,1.0730017E4,7.770806E3,2.9096328E3,3.9562424E3,3.4871167E2,1.0945089E3,6.994974E2,1.9381082E4,4.8669933E1,2.300609E1,1.6153584E2,7.2223335E1,5.5213735E3,5.2086436E3,7.4549707E3,3.158351E2,8.455346E2,2.0640981E3,1.5924297E2,3.7969995E3,1.2644231E2,2.2226935E2,1.055688E3,3.8820866E1,1.4758693E2,5.519104E2,2.5777208E1,2.2892727E1,2.264375E1,1.388921E2,7.531947E2,4.7681787E3,1.2751013E3,3.933542E3,5.654854E2,6.8894854E3,1.195899E2,7.2594476E2,1.3420813E3,7.2201685E2,5.673432E1,1.0250864E2,3.1378645E3,6.5913495E2,1.2465016E2,1.7921453E0,1.5152417E2,7.074519E1,1.5959298E1,2.2861567E1,6.156396E1,8.602297E1,1.1020479E1,1.4756728E1,1.0028076E1,1.286465E1,1.0530537E1,1.2113214E1,1.2216356E2,1.6728537E1,6.040661E2,1.4912862E2,1.1580598E2,4.6523726E3,1.0197977E3,2.5530356E2,2.595853E3,1.3376891E3,2.1772896E2,3.4775647E2,6.588165E3,3.0132056E2,5.6695126E1,6.289477E1,6.968338E2,2.9110926E1,3.5037842E2,9.9170294E2,4.6139893E2,2.606179E2,1.6051813E1,4.068251E1,5.0514057E1,5.199458E1,1.4202979E3,1.7175668E3,5.34149E2,1.2498597E2],"tree_param":{"num_deleted":"0","num_feature":"4","num_nodes":"99","size_leaf_vector":"1"}},{"base_weights":[-1.8488356E-1,-1.0731602E0,3.947388E-1,-8.279623E-1,-1.0909784E0,2.5106922E-1,7.079797E-1,-2.6066107E-1,-1.0477577E0,-1.0036806E0,-3.2837313E-1,1.4621595E-1,5.286016E-1,5.7017446E-1,8.953036E-1,-3.2511324E-1,6.849315E-2,-3.2722372E-1,-7.718122E-1,-6.93727E-1,-3.2784244E-1,3.3576092E-1,-3.2573618E-2,3.9614367E-1,9.651491E-1,1.6016151E-1,7.6068795E-1,1.1884509E-1,9.4536215E-1,-1.6342465E-2,4.616735E-1,-5.469945E-1,-9.865509E-1,-9.873905E-1,-3.7180528E-1,2.2638258E-1,5.5650586E-1,3.067832E-1,-2.3990239E-1,1.2122376E0,2.369447E-1,6.440045E-2,1.2427499E0,-2.942097E-1,4.519316E-1,9.962973E-1,6.411595E-1,-2.168811E-1,3.9068362E-1,9.9723244E-1,7.138378E-1,-7.021478E-2,1.1973999E-2,2.510322E-1,1.08151376E-1,-3.068087E-1,9.4215915E-2,-3.294848E-1,-1.3864556E-1,-3.2286257E-1,-2.0479009E-1,-1.4373814E-1,-1.0240154E-2,-1.6497875E-2,1.3289464E-1,1.5095605E-1,4.134667E-1,5.15257E-2,6.7047817E-1,-1.9116841E-1,-3.225856E-2,1.5068313E-1,4.0123588E-1,2.6731648E-2,3.1094092E-1,-9.094756E-2,4.877769E-1,2.6552975E-1,4.2940375E-1,6.6481674E-1,-1.3703007E-1,6.093407E-2,2.2302486E-1,4.4602123E-1,2.2134446E-1,1.8175577E-1,6.2025654E-1,3.3246142E-1,-1.1926302E-1,7.36814E-2,4.0324238E-1,2.9050884E-1,3.364498E-1,-3.8323823E-1,2.1756575E-1],"categories":[],"categories_nodes":[],"categories_segments":[],"categories_sizes":[],"default_left":[0,0,0,0,0,0,0,0,0,0,0,0,0,0,0,0,0,0,0,0,0,0,0,0,0,0,0,0,0,0,0,0,0,0,0,0,0,0,0,0,0,0,0,0,0,0,0,0,0,0,0,0,0,0,0,0,0,0,0,0,0,0,0,0,0,0,0,0,0,0,0,0,0,0,0,0,0,0,0,0,0,0,0,0,0,0,0,0,0,0,0,0,0,0,0],"id":3,"left_children":[1,3,5,7,9,11,13,15,17,19,-1,21,23,25,27,-1,29,-1,31,33,-1,35,37,39,41,43,45,47,49,51,53,55,57,59,61,63,65,67,69,71,73,75,77,79,81,83,85,87,89,91,93,-1,-1,-1,-1,-1,-1,-1,-1,-1,-1,-1,-1,-1,-1,-1,-1,-1,-1,-1,-1,-1,-1,-1,-1,-1,-1,-1,-1,-1,-1,-1,-1,-1,-1,-1,-1,-1,-1,-1,-1,-1,-1,-1,-1],"loss_changes":[2.1654732E4,7.165625E1,1.1452263E3,1.4053204E2,3.7636719E0,5.0772778E2,2.060647E2,8.586321E1,8.80896E0,1.6504395E1,0E0,4.2926602E2,2.7628418E2,3.6024036E2,1.3165283E2,0E0,7.584153E0,0E0,4.9194336E0,1.3084824E1,0E0,1.4832697E2,4.5875128E2,4.768499E2,2.7825085E2,1.9432745E2,8.8058105E1,1.8927267E1,3.7532715E1,2.3093677E0,1.2294397E0,2.3867939E1,2.8082008E0,1.2631836E0,2.5017385E0,2.5069489E2,8.853015E1,6.43434E2,2.1280391E2,5.259839E1,3.632913E2,1.5160606E2,5.6122192E1,2.349982E2,6.4572876E1,1.3305469E2,1.04116516E2,2.2708796E1,1.5500511E1,8.238525E0,1.421637E1,0E0,0E0,0E0,0E0,0E0,0E0,0E0,0E0,0E0,0E0,0E0,0E0,0E0,0E0,0E0,0E0,0E0,0E0,0E0,0E0,0E0,0E0,0E0,0E0,0E0,0E0,0E0,0E0,0E0,0E0,0E0,0E0,0E0,0E0,0E0,0E0,0E0,0E0,0E0,0E0,0E0,0E0,0E0,0E0],"parents":[2147483647,0,0,1,1,2,2,3,3,4,4,5,5,6,6,7,7,8,8,9,9,11,11,12,12,13,13,14,14,16,16,18,18,19,19,21,21,22,22,23,23,24,24,25,25,26,26,27,27,28,28,29,29,30,30,31,31,32,32,33,33,34,34,35,35,36,36,37,37,38,38,39,39,40,40,41,41,42,42,43,43,44,44,45,45,46,46,47,47,48,48,49,49,50,50],"right_children":[2,4,6,8,10,12,14,16,18,20,-1,22,24,26,28,-1,30,-1,32,34,-1,36,38,40,42,44,46,48,50,52,54,56,58,60,62,64,66,68,70,72,74,76,78,80,82,84,86,88,90,92,94,-1,-1,-1,-1,-1,-1,-1,-1,-1,-1,-1,-1,-1,-1,-1,-1,-1,-1,-1,-1,-1,-1,-1,-1,-1,-1,-1,-1,-1,-1,-1,-1,-1,-1,-1,-1,-1,-1,-1,-1,-1,-1,-1,-1],"split_conditions":[2.9981306E-1,-1.0508261E0,1.4695059E-1,-9.7724354E-1,-1.030219E0,2.133912E-1,1.0302235E0,-1.3849196E0,2.6152322E-1,-9.7724354E-1,-3.2837313E-1,-8.888772E-1,-9.983162E-1,9.385014E-1,-1.0396245E0,-3.2511324E-1,2.4992639E-1,-3.2722372E-1,7.0597494E-1,-9.966126E-1,-3.2784244E-1,-9.9942505E-1,-6.2451226E-1,2.620761E-1,2.428314E-1,4.8493308E-1,4.1575786E-1,1.0373708E0,1.1107978E0,-9.9738693E-1,2.6152322E-1,2.6482424E-1,1.0411503E0,-1.3849196E0,-1.3123144E-1,1.1113592E0,1.1158818E0,1.3177977E-2,-5.801885E-1,-2.0389442E0,3.871078E-1,-4.4714868E-1,2.8045765E-1,1.9491515E-1,8.6331105E-1,3.829183E-1,7.630978E-2,1.0314476E0,-1.0418639E0,1.0408432E0,7.0589244E-2,-7.021478E-2,1.1973999E-2,2.510322E-1,1.08151376E-1,-3.068087E-1,9.4215915E-2,-3.294848E-1,-1.3864556E-1,-3.2286257E-1,-2.0479009E-1,-1.4373814E-1,-1.0240154E-2,-1.6497875E-2,1.3289464E-1,1.5095605E-1,4.134667E-1,5.15257E-2,6.7047817E-1,-1.9116841E-1,-3.225856E-2,1.5068313E-1,4.0123588E-1,2.6731648E-2,3.1094092E-1,-9.094756E-2,4.877769E-1,2.6552975E-1,4.2940375E-1,6.6481674E-1,-1.3703007E-1,6.093407E-2,2.2302486E-1,4.4602123E-1,2.2134446E-1,1.8175577E-1,6.2025654E-1,3.3246142E-1,-1.1926302E-1,7.36814E-2,4.0324238E-1,2.9050884E-1,3.364498E-1,-3.8323823E-1,2.1756575E-1],"split_indices":[2,0,1,1,0,0,1,1,2,1,0,1,1,2,0,0,2,0,1,1,0,1,0,0,0,1,3,1,2,1,2,1,1,1,2,2,2,1,1,1,0,1,0,1,1,1,0,1,0,1,3,0,0,0,0,0,0,0,0,0,0,0,0,0,0,0,0,0,0,0,0,0,0,0,0,0,0,0,0,0,0,0,0,0,0,0,0,0,0,0,0,0,0,0,0],"split_type":[0,0,0,0,0,0,0,0,0,0,0,0,0,0,0,0,0,0,0,0,0,0,0,0,0,0,0,0,0,0,0,0,0,0,0,0,0,0,0,0,0,0,0,0,0,0,0,0,0,0,0,0,0,0,0,0,0,0,0,0,0,0,0,0,0,0,0,0,0,0,0,0,0,0,0,0,0,0,0,0,0,0,0,0,0,0,0,0,0,0,0,0,0,0,0],"sum_hessian":[4.2057227E4,1.6606602E4,2.5450623E4,1.1282391E3,1.5478362E4,1.744924E4,8.001383E3,3.1566937E2,8.1256976E2,6.238773E2,1.4854485E4,1.2665624E4,4.7836167E3,4.612345E3,3.3890376E3,8.952352E1,2.2614586E2,7.004917E2,1.12078064E2,1.412934E2,4.8258392E2,6.147467E3,6.518157E3,3.6715088E3,1.1121078E3,1.4638237E3,3.1485215E3,2.0546344E2,3.183574E3,1.8679909E2,3.9346775E1,5.6487026E1,5.5591038E1,7.280868E1,6.848472E1,4.1120073E3,2.0354596E3,2.4718086E3,4.0463486E3,5.9822784E2,3.073281E3,2.6228552E2,8.498222E2,5.724084E2,8.9141534E2,1.0572267E3,2.091295E3,9.2019554E1,1.13443886E2,2.5981758E3,5.8539813E2,3.7708572E1,1.4909052E2,6.8135085E0,3.2533264E1,3.6264385E1,2.0222643E1,4.492474E1,1.0666301E1,5.441785E1,1.8390827E1,5.1649944E1,1.6834768E1,1.7888859E3,2.3231216E3,1.9129458E3,1.2251375E2,2.3110513E3,1.6075735E2,1.01024445E3,3.0361042E3,9.044172E1,5.077861E2,2.5946238E3,4.7865732E2,2.1296307E2,4.9322456E1,2.9537332E2,5.544489E2,3.4044758E1,5.3836365E2,4.8181964E2,4.0959567E2,3.6325027E2,6.9397644E2,2.0421694E3,4.912539E1,1.0424666E1,8.159489E1,9.955335E1,1.3890533E1,2.1154958E3,4.8267993E2,2.6946602E0,5.827035E2],"tree_param":{"num_deleted":"0","num_feature":"4","num_nodes":"95","size_leaf_vector":"1"}},{"base_weights":[-1.6123576E-1,-1.0405093E0,2.8400674E-1,-7.5124735E-1,-1.0631298E0,2.0999785E-1,6.6646683E-1,-2.0818324E-1,-1.007026E0,-9.560451E-1,-3.2043126E-1,1.9890971E-1,3.6404717E-1,-4.9979217E-2,7.129955E-1,-3.1611332E-1,4.838338E-2,-3.188481E-1,-6.840684E-1,-6.1562055E-1,-3.1974554E-1,-3.9709905E-1,2.0529518E-1,-9.3208987E-1,7.716928E-2,7.8584546E-1,4.7453064E-1,-7.983557E-2,2.1610625E-1,-4.621135E-1,-9.198907E-1,-3.1391323E-1,-3.7721145E-1,1.2992734E-1,3.379881E-1,3.8918215E-1,-1.1080405E0,-1.3546863E-1,3.0093968E-1,1.156269E0,7.6298666E-1,1.9909971E-4,5.409962E-1,-1.3741933E-2,-1.6389588E-1,2.0548679E-1,5.879636E-2,-3.1244987E-1,4.044355E-2,-3.1727114E-1,-1.12480916E-1,-1.6535924E-1,-8.673614E-2,1.3088857E-2,1.0064814E-1,-9.439826E-3,1.22699544E-1,-2.0199105E-1,-4.6715984E-1,2.4753182E-1,-7.303391E-2,1.042164E0,6.961899E-2,4.4187942E-1,-1.376E-2,1.4931044E-1,2.4501784E-1,-1.20702304E-1,4.845992E-1,1.5573293E-1,5.163246E-1],"categories":[],"categories_nodes":[],"categories_segments":[],"categories_sizes":[],"default_left":[0,0,0,0,0,0,0,0,0,0,0,0,0,0,0,0,0,0,0,0,0,0,0,0,0,0,0,0,0,0,0,0,0,0,0,0,0,0,0,0,0,0,0,0,0,0,0,0,0,0,0,0,0,0,0,0,0,0,0,0,0,0,0,0,0,0,0,0,0,0,0],"id":4,"left_children":[1,3,5,7,9,11,13,15,17,19,-1,21,-1,23,25,-1,27,-1,29,31,-1,-1,33,35,37,39,41,43,45,47,49,-1,51,53,55,-1,57,59,61,63,65,67,69,-1,-1,-1,-1,-1,-1,-1,-1,-1,-1,-1,-1,-1,-1,-1,-1,-1,-1,-1,-1,-1,-1,-1,-1,-1,-1,-1,-1],"loss_changes":[1.4722195E4,8.191699E1,7.064927E2,1.2761914E2,5.2226562E0,2.325149E2,1.3494812E2,6.4245544E1,1.05425415E1,1.9144806E1,0E0,2.014364E2,0E0,2.7858393E1,6.564783E1,0E0,4.9201074E0,0E0,4.5440483E0,1.3116783E1,0E0,0E0,2.0602673E2,1.3710176E1,1.0387689E1,2.3754517E1,2.811676E1,2.0376246E0,8.0000305E-1,1.7749554E1,2.9813423E0,0E0,1.1626568E0,2.3314081E2,1.9581787E2,0E0,4.7193184E0,1.1837315E1,2.2416826E1,6.370511E1,3.8703735E1,7.256389E1,1.9309998E1,0E0,0E0,0E0,0E0,0E0,0E0,0E0,0E0,0E0,0E0,0E0,0E0,0E0,0E0,0E0,0E0,0E0,0E0,0E0,0E0,0E0,0E0,0E0,0E0,0E0,0E0,0E0,0E0],"parents":[2147483647,0,0,1,1,2,2,3,3,4,4,5,5,6,6,7,7,8,8,9,9,11,11,13,13,14,14,16,16,18,18,19,19,22,22,23,23,24,24,25,25,26,26,27,27,28,28,29,29,30,30,32,32,33,33,34,34,36,36,37,37,38,38,39,39,40,40,41,41,42,42],"right_children":[2,4,6,8,10,12,14,16,18,20,-1,22,-1,24,26,-1,28,-1,30,32,-1,-1,34,36,38,40,42,44,46,48,50,-1,52,54,56,-1,58,60,62,64,66,68,70,-1,-1,-1,-1,-1,-1,-1,-1,-1,-1,-1,-1,-1,-1,-1,-1,-1,-1,-1,-1,-1,-1,-1,-1,-1,-1,-1,-1],"split_conditions":[2.9981306E-1,-1.0508261E0,8.6331105E-1,-9.7724354E-1,-1.0276091E0,3.9040747E-1,-1.0396245E0,-1.3849196E0,2.6152322E-1,-9.7724354E-1,-3.2043126E-1,-2.5345893E0,3.6404717E-1,1.0284944E0,1.1107978E0,-3.1611332E-1,1.20498694E-1,-3.188481E-1,7.0597494E-1,-1.3849196E0,-3.1974554E-1,-3.9709905E-1,2.1192119E-2,1.0241923E0,1.0379807E0,9.7394085E-1,9.7394085E-1,1.0021141E-1,1.2685353E-1,2.5930935E-1,1.0411503E0,-3.1391323E-1,-9.9577373E-1,1.3177977E-2,-1.9214199E0,3.8918215E-1,-1.0438164E0,-1.0508261E0,1.0381194E0,-5.85292E-1,1.0302235E0,1.1156815E0,5.484208E-1,-1.3741933E-2,-1.6389588E-1,2.0548679E-1,5.879636E-2,-3.1244987E-1,4.044355E-2,-3.1727114E-1,-1.12480916E-1,-1.6535924E-1,-8.673614E-2,1.3088857E-2,1.0064814E-1,-9.439826E-3,1.22699544E-1,-2.0199105E-1,-4.6715984E-1,2.4753182E-1,-7.303391E-2,1.042164E0,6.961899E-2,4.4187942E-1,-1.376E-2,1.4931044E-1,2.4501784E-1,-1.20702304E-1,4.845992E-1,1.5573293E-1,5.163246E-1],"split_indices":[2,0,1,1,0,0,0,1,2,1,0,1,0,1,2,0,2,0,1,1,0,0,0,1,1,1,1,2,2,1,1,0,1,1,1,0,0,0,1,0,1,2,3,0,0,0,0,0,0,0,0,0,0,0,0,0,0,0,0,0,0,0,0,0,0,0,0,0,0,0,0],"split_type":[0,0,0,0,0,0,0,0,0,0,0,0,0,0,0,0,0,0,0,0,0,0,0,0,0,0,0,0,0,0,0,0,0,0,0,0,0,0,0,0,0,0,0,0,0,0,0,0,0,0,0,0,0,0,0,0,0,0,0,0,0,0,0,0,0,0,0,0,0,0,0],"sum_hessian":[3.7603797E4,1.264025E4,2.4963549E4,9.192655E2,1.1720984E4,2.091742E4,4.0461282E3,2.949172E2,6.243483E2,5.2886926E2,1.1192115E4,2.0690004E4,2.2741687E2,2.4674162E2,3.7993865E3,6.793317E1,2.2698404E2,5.304121E2,9.3936226E1,1.3056734E2,3.983019E2,8.5547E1,2.0604457E4,3.0287449E1,2.1645418E2,2.908544E3,8.908427E2,1.2893852E2,9.804551E1,4.991553E1,4.4020695E1,4.5310844E1,8.5256485E1,1.314197E4,7.462487E3,1.7493647E0,2.8538084E1,1.1119023E2,1.0526395E2,1.6617188E2,2.7423718E3,1.0961048E2,7.8123224E2,1.2119572E2,7.742805E0,2.6743658E0,9.537115E1,2.4951958E1,2.4963575E1,3.439127E1,9.629425E0,2.6889887E1,5.83666E1,9.257034E3,3.884936E3,1.2031691E3,6.259318E3,1.5771763E1,1.2766321E1,1.0564704E1,1.0062553E2,1.1861238E0,1.0407783E2,1.313475E2,3.482437E1,4.63679E2,2.2786929E3,8.834348E1,2.1267002E1,7.684206E2,1.2811632E1],"tree_param":{"num_deleted":"0","num_feature":"4","num_nodes":"71","size_leaf_vector":"1"}},{"base_weights":[-1.374379E-1,-1.0136406E0,2.0359594E-1,-6.9295216E-1,-1.0444632E0,1.4699043E-1,5.2629274E-1,-1.8314253E-1,-9.7919816E-1,-9.1816735E-1,-3.1478077E-1,1.2955806E-1,6.799842E-1,-1.0319021E-2,5.704389E-1,-3.098466E-1,2.288977E-2,-3.129701E-1,-6.015947E-1,-5.627617E-1,-3.136162E-1,-3.4967697E-1,1.4071305E-1,2.8474227E-1,1.3410357E0,-4.3424347E-1,1.6914335E-1,6.428265E-1,3.5345516E-1,-5.9782505E-2,1.6646324E-1,-3.0244157E-1,-4.5973048E-1,-3.0402756E-1,-3.479765E-1,1.0278555E-1,3.2038128E-1,-3.6767587E-1,7.0522946E-1,1.1131923E0,1.4447595E0,3.5479903E-1,-5.18203E-1,6.8803155E-1,1.1140809E-1,6.32591E-1,1.3878874E0,5.560259E-2,4.2820853E-1,-8.5869394E-2,6.60747E-3,2.5181355E-2,7.766027E-2,2.7916877E-2,-2.566585E-1,-1.6210347E-1,-9.024905E-2,1.4993927E-2,7.894503E-2,6.587143E-2,2.7907148E-1,1.0465087E-1,3.3089602E-1,3.082074E-1,4.5089355E-1,6.0368675E-1,3.996487E-1,-1.1177351E-1,-3.590404E-1,8.7356895E-1,-6.1016854E-2,-3.186001E-1,4.902084E-2,1.6411322E-1,2.2037734E-1,2.6636916E-1,4.6905974E-1,-1.6987652E-1,1.1350748E-1,4.925748E-2,1.6446182E-1],"categories":[],"categories_nodes":[],"categories_segments":[],"categories_sizes":[],"default_left":[0,0,0,0,0,0,0,0,0,0,0,0,0,0,0,0,0,0,0,0,0,0,0,0,0,0,0,0,0,0,0,0,0,0,0,0,0,0,0,0,0,0,0,0,0,0,0,0,0,0,0,0,0,0,0,0,0,0,0,0,0,0,0,0,0,0,0,0,0,0,0,0,0,0,0,0,0,0,0,0,0],"id":5,"left_children":[1,3,5,7,9,11,13,15,17,19,-1,21,23,25,27,-1,29,-1,31,33,-1,-1,35,37,39,41,43,45,47,49,51,-1,53,-1,55,57,59,-1,61,63,65,-1,67,69,71,73,75,77,79,-1,-1,-1,-1,-1,-1,-1,-1,-1,-1,-1,-1,-1,-1,-1,-1,-1,-1,-1,-1,-1,-1,-1,-1,-1,-1,-1,-1,-1,-1,-1,-1],"loss_changes":[1.022572E4,9.4043945E1,4.4988965E2,1.2293881E2,4.3447266E0,1.9464682E2,8.708386E1,5.3347103E1,1.24313965E1,1.4268433E1,0E0,2.933909E2,1.7298538E2,2.1405794E1,5.3120117E1,0E0,2.931421E0,0E0,4.1891212E0,8.24091E0,0E0,0E0,1.3709781E2,2.653909E2,4.25296E0,1.1972553E1,5.8467045E0,1.8534912E1,1.8943108E1,2.913436E0,6.661327E-1,0E0,1.3566074E1,0E0,3.965602E-1,1.407078E2,2.1541412E2,0E0,4.589261E1,1.1974792E0,7.995514E0,0E0,7.4837456E0,3.9455025E1,1.1101656E1,2.152533E1,1.5677185E0,3.4746193E1,2.147873E1,0E0,0E0,0E0,0E0,0E0,0E0,0E0,0E0,0E0,0E0,0E0,0E0,0E0,0E0,0E0,0E0,0E0,0E0,0E0,0E0,0E0,0E0,0E0,0E0,0E0,0E0,0E0,0E0,0E0,0E0,0E0,0E0],"parents":[2147483647,0,0,1,1,2,2,3,3,4,4,5,5,6,6,7,7,8,8,9,9,11,11,12,12,13,13,14,14,16,16,18,18,19,19,22,22,23,23,24,24,25,25,26,26,27,27,28,28,29,29,30,30,32,32,34,34,35,35,36,36,38,38,39,39,40,40,42,42,43,43,44,44,45,45,46,46,47,47,48,48],"right_children":[2,4,6,8,10,12,14,16,18,20,-1,22,24,26,28,-1,30,-1,32,34,-1,-1,36,38,40,42,44,46,48,50,52,-1,54,-1,56,58,60,-1,62,64,66,-1,68,70,72,74,76,78,80,-1,-1,-1,-1,-1,-1,-1,-1,-1,-1,-1,-1,-1,-1,-1,-1,-1,-1,-1,-1,-1,-1,-1,-1,-1,-1,-1,-1,-1,-1,-1,-1],"split_conditions":[2.9981306E-1,-1.0475744E0,8.6331105E-1,-9.7724354E-1,-1.0276091E0,3.8195828E-1,-1.0375311E0,-1.3849196E0,2.6152322E-1,-9.7724354E-1,-3.1478077E-1,-2.275388E0,-2.4006028E0,1.0332586E0,1.1107978E0,-3.098466E-1,1.4746158E-1,-3.129701E-1,2.5930935E-1,-1.3849196E0,-3.136162E-1,-3.4967697E-1,2.2356333E-1,3.871078E-1,-2.275388E0,1.0241923E0,1.0346175E0,-1.473533E-1,-5.0386536E-1,-9.962093E-1,2.4992639E-1,-3.0244157E-1,7.0597494E-1,-3.0402756E-1,-2.0196798E-1,1.3177977E-2,-8.500977E-1,-3.6767587E-1,3.9040747E-1,3.871078E-1,-2.1554236E0,3.5479903E-1,-1.1943669E0,-1.0457131E0,-1.0508261E0,1.0368133E0,9.179446E-1,1.0320778E0,1.1150753E0,-8.5869394E-2,6.60747E-3,2.5181355E-2,7.766027E-2,2.7916877E-2,-2.566585E-1,-1.6210347E-1,-9.024905E-2,1.4993927E-2,7.894503E-2,6.587143E-2,2.7907148E-1,1.0465087E-1,3.3089602E-1,3.082074E-1,4.5089355E-1,6.0368675E-1,3.996487E-1,-1.1177351E-1,-3.590404E-1,8.7356895E-1,-6.1016854E-2,-3.186001E-1,4.902084E-2,1.6411322E-1,2.2037734E-1,2.6636916E-1,4.6905974E-1,-1.6987652E-1,1.1350748E-1,4.925748E-2,1.6446182E-1],"split_indices":[2,0,1,1,0,0,0,1,2,1,0,1,1,1,2,0,2,0,1,1,0,0,0,0,1,1,1,0,0,1,2,0,1,0,2,1,1,0,0,0,1,0,3,0,0,1,1,1,2,0,0,0,0,0,0,0,0,0,0,0,0,0,0,0,0,0,0,0,0,0,0,0,0,0,0,0,0,0,0,0,0],"split_type":[0,0,0,0,0,0,0,0,0,0,0,0,0,0,0,0,0,0,0,0,0,0,0,0,0,0,0,0,0,0,0,0,0,0,0,0,0,0,0,0,0,0,0,0,0,0,0,0,0,0,0,0,0,0,0,0,0,0,0,0,0,0,0,0,0,0,0,0,0,0,0,0,0,0,0,0,0,0,0,0,0],"sum_hessian":[3.421924E4,9.58667E3,2.4632566E4,8.426737E2,8.743996E3,2.0957742E4,3.674824E3,3.0359857E2,5.3907513E2,3.2758234E2,8.416414E3,2.0295201E4,6.6254254E2,2.7939917E2,3.3954248E3,5.8467022E1,2.4513156E2,4.5940466E2,7.967046E1,8.778026E1,2.3980208E2,1.724245E2,2.0122775E4,4.1552896E2,2.4701357E2,8.267806E1,1.967211E2,2.544572E3,8.5085284E2,1.5592859E2,8.920297E1,1.9029833E1,6.0640633E1,2.7132471E1,6.0647785E1,1.6616621E4,3.5061543E3,9.007567E1,3.254533E2,8.094321E1,1.6607036E2,3.435254E0,7.924281E1,1.86039E1,1.781172E2,2.5119128E3,3.265917E1,1.7105063E2,6.7980225E2,4.0718365E1,1.1521022E2,4.812837E1,4.10746E1,2.5621513E1,3.501912E1,9.878821E0,5.0768963E1,1.2501398E4,4.1152236E3,3.0099648E3,4.961895E2,1.7264195E2,1.5281134E2,6.931511E1,1.1628102E1,2.4700373E1,1.4136998E2,6.6517456E1,1.2725355E1,4.6748304E0,1.3929071E1,6.7334127E0,1.7138379E2,1.3695999E3,1.142313E3,1.00645485E1,2.259462E1,5.8186836E1,1.1286379E2,2.1316583E2,4.6663638E2],"tree_param":{"num_deleted":"0","num_feature":"4","num_nodes":"81","size_leaf_vector":"1"}},{"base_weights":[-1.15501374E-1,-9.963077E-1,1.4465015E-1,-6.573389E-1,-1.0302683E0,1.0834625E-1,4.406872E-1,-1.7210506E-1,-9.997577E-1,-8.7330556E-1,-3.107235E-1,1.0218098E-1,3.1128013E-1,-4.429932E-2,4.8946473E-1,-3.0414534E-1,-6.989119E-3,-3.0844936E-1,-4.1041213E-1,-4.7675368E-1,-3.0911413E-1,-9.6726006E-1,1.0638639E-1,-7.154744E-1,2.5884142E-2,5.4645747E-1,3.2933515E-1,-1.4919703E-1,5.2330375E-2,8.868859E-2,-2.615377E-1,-2.9479203E-1,-2.6799214E-1,-3.5930118E-1,-2.7083376E-1,9.9488646E-2,3.2878116E-1,-2.9491466E-1,-1.0925129E-1,5.0783056E-1,-3.022048E-2,5.0687957E-1,7.437905E-1,3.0596644E-1,3.7045914E-1,-9.258211E-2,3.250496E-2,4.8322496E-3,1.3870412E-1,-2.2368777E-1,1.0766094E0,-8.711294E-2,1.0554279E-1,-3.0572516E-1,3.1592265E-2,5.450774E-1,-2.7789736E-1,8.0167755E-2,6.1611676E-1,-3.2438776E-1,1.762809E-2,1.5469979E-1,-3.3843002E-1,2.0994717E-1,3.4448975E-1,4.072051E-2,1.0945574E-1],"categories":[],"categories_nodes":[],"categories_segments":[],"categories_sizes":[],"default_left":[0,0,0,0,0,0,0,0,0,0,0,0,0,0,0,0,0,0,0,0,0,0,0,0,0,0,0,0,0,0,0,0,0,0,0,0,0,0,0,0,0,0,0,0,0,0,0,0,0,0,0,0,0,0,0,0,0,0,0,0,0,0,0,0,0,0,0],"id":6,"left_children":[1,3,5,7,9,11,13,15,17,19,-1,21,-1,23,25,-1,27,-1,29,31,-1,33,35,37,39,41,43,45,47,49,-1,-1,51,-1,-1,53,-1,-1,55,57,59,61,63,65,-1,-1,-1,-1,-1,-1,-1,-1,-1,-1,-1,-1,-1,-1,-1,-1,-1,-1,-1,-1,-1,-1,-1],"loss_changes":[7.2140337E3,8.195752E1,2.6116138E2,1.0890073E2,4.7026367E0,1.2393483E2,6.2820984E1,3.7906715E1,6.0177917E0,1.3604691E1,0E0,9.6840225E1,0E0,1.1489082E1,2.1833618E1,0E0,1.940164E0,0E0,4.533736E0,6.713992E0,0E0,1.7195892E-1,1.461383E2,3.6376257E0,6.0024395E0,1.3504944E1,1.3073822E1,2.812322E0,2.4042606E0,3.2472427E1,0E0,0E0,7.700825E-1,0E0,0E0,1.3860855E2,0E0,0E0,1.4580416E1,8.059788E0,1.87009E1,2.1895111E1,4.4393463E0,6.1757126E0,0E0,0E0,0E0,0E0,0E0,0E0,0E0,0E0,0E0,0E0,0E0,0E0,0E0,0E0,0E0,0E0,0E0,0E0,0E0,0E0,0E0,0E0,0E0],"parents":[2147483647,0,0,1,1,2,2,3,3,4,4,5,5,6,6,7,7,8,8,9,9,11,11,13,13,14,14,16,16,18,18,19,19,21,21,22,22,23,23,24,24,25,25,26,26,27,27,28,28,29,29,32,32,35,35,38,38,39,39,40,40,41,41,42,42,43,43],"right_children":[2,4,6,8,10,12,14,16,18,20,-1,22,-1,24,26,-1,28,-1,30,32,-1,34,36,38,40,42,44,46,48,50,-1,-1,52,-1,-1,54,-1,-1,56,58,60,62,64,66,-1,-1,-1,-1,-1,-1,-1,-1,-1,-1,-1,-1,-1,-1,-1,-1,-1,-1,-1,-1,-1,-1,-1],"split_conditions":[2.72922E-1,-1.0457131E0,1.0289363E0,-9.7724354E-1,-1.0276091E0,3.9040747E-1,4.0219787E-1,-1.3849196E0,2.6152322E-1,-9.912961E-1,-3.107235E-1,-2.5345893E0,3.1128013E-1,2.9981306E-1,-5.9569365E-1,-3.0414534E-1,-9.962093E-1,-3.0844936E-1,5.368845E-1,-1.3849196E0,-3.0911413E-1,3.871078E-1,3.871078E-1,1.0411503E0,1.0314476E0,1.0408432E0,-2.0546691E-1,9.36474E-2,7.0589244E-2,4.338185E-1,-2.615377E-1,-2.9479203E-1,-9.9154603E-1,-3.5930118E-1,-2.7083376E-1,-2.4006028E0,3.2878116E-1,-2.9491466E-1,1.041337E0,-1.0418639E0,1.0332586E0,1.0407648E0,-7.258788E-1,1.0330147E0,3.7045914E-1,-9.258211E-2,3.250496E-2,4.8322496E-3,1.3870412E-1,-2.2368777E-1,1.0766094E0,-8.711294E-2,1.0554279E-1,-3.0572516E-1,3.1592265E-2,5.450774E-1,-2.7789736E-1,8.0167755E-2,6.1611676E-1,-3.2438776E-1,1.762809E-2,1.5469979E-1,-3.3843002E-1,2.0994717E-1,3.4448975E-1,4.072051E-2,1.0945574E-1],"split_indices":[2,0,1,1,0,0,2,1,2,1,0,1,0,2,0,0,1,0,1,1,0,0,0,1,1,1,0,2,3,1,0,0,1,0,0,1,0,0,1,0,1,1,0,1,0,0,0,0,0,0,0,0,0,0,0,0,0,0,0,0,0,0,0,0,0,0,0],"split_type":[0,0,0,0,0,0,0,0,0,0,0,0,0,0,0,0,0,0,0,0,0,0,0,0,0,0,0,0,0,0,0,0,0,0,0,0,0,0,0,0,0,0,0,0,0,0,0,0,0,0,0,0,0,0,0,0,0,0,0,0,0,0,0,0,0,0,0],"sum_hessian":[3.1481031E4,7.177392E3,2.4303639E4,6.554591E2,6.521933E3,2.1650002E4,2.653637E3,2.7180005E2,3.8365903E2,2.2530104E2,6.2966323E3,2.150841E4,1.4159073E2,2.4250845E2,2.4111284E3,4.3731197E1,2.2806886E2,3.6530643E2,1.8352575E1,6.506721E1,1.6023383E2,8.335025E1,2.142506E4,2.2087545E1,2.2042091E2,1.7764485E3,6.3467993E2,6.668598E1,1.6138289E2,9.203938E0,9.148638E0,1.7924425E1,4.714278E1,1.4382609E1,6.896764E1,2.1277842E4,1.4721858E2,1.4892645E1,7.194901E0,2.2144564E1,1.9827635E2,1.4826509E3,2.9379758E2,6.200172E2,1.4662716E1,4.1068295E1,2.5617685E1,1.4923778E2,1.2145109E1,8.067752E0,1.136185E0,4.6012524E1,1.1302568E0,1.09215126E2,2.1168627E4,1.7785149E0,5.416386E0,2.0177044E1,1.9675206E0,1.46050005E1,1.8367134E2,1.4754067E3,7.2442203E0,2.6745728E2,2.6340279E1,1.6020155E2,4.5981564E2],"tree_param":{"num_deleted":"0","num_feature":"4","num_nodes":"67","size_leaf_vector":"1"}},{"base_weights":[-9.5073886E-2,-9.7433573E-1,1.0289956E-1,-6.3255286E-1,-3.075977E-1,7.0359826E-2,3.1763226E-1,-1.7584346E-1,-9.925457E-1,5.8462895E-2,5.3274095E-1,-1.0536775E-1,3.5605258E-1,-3.0150324E-1,-3.378077E-2,-3.0563366E-1,-3.4636664E-1,-3.319556E-1,6.5702274E-2,1.9831495E-1,1.0560077E0,-3.463049E-1,7.268176E-2,4.595316E-1,2.4661078E-1,-1.944036E-1,2.4270179E-2,4.272785E-2,-2.750556E-1,2.2108176E-1,4.1328672E-2,-8.422547E-1,4.7641295E-1,7.097235E-1,1.2817454E0,-6.333658E-1,-1.6483952E-1,-6.674449E-1,1.7276658E-1,3.4835857E-1,4.0957138E-1,2.2786742E-1,1.126391E0,-8.894539E-2,-2.4391172E-2,-1.31744025E-2,3.840491E-2,2.0244996E-1,-2.0672032E-1,3.4163183E-1,-6.9628924E-4,5.3420453E-3,4.088954E-1,-3.3017164E-1,-2.3111087E-1,5.638822E-2,2.8650308E-1,1.9295385E-1,3.4640113E-1,4.1496196E-1,3.244065E-1,-5.311674E-2,-3.303226E-1,-1.5629165E-1,-1.0101627E-2,-2.965407E-1,-6.812495E-2,2.11667E-1,9.353053E-4,6.788653E-2,1.7328992E-1,2.5842214E-2,8.691311E-2,2.0365547E-1,4.041123E-1],"categories":[],"categories_nodes":[],"categories_segments":[],"categories_sizes":[],"default_left":[0,0,0,0,0,0,0,0,0,0,0,0,0,0,0,0,0,0,0,0,0,0,0,0,0,0,0,0,0,0,0,0,0,0,0,0,0,0,0,0,0,0,0,0,0,0,0,0,0,0,0,0,0,0,0,0,0,0,0,0,0,0,0,0,0,0,0,0,0,0,0,0,0,0,0],"id":7,"left_children":[1,3,5,7,-1,9,11,13,15,17,19,21,23,-1,25,-1,27,-1,29,31,33,35,37,39,41,43,45,47,-1,49,51,53,55,57,59,61,63,65,67,-1,69,71,73,-1,-1,-1,-1,-1,-1,-1,-1,-1,-1,-1,-1,-1,-1,-1,-1,-1,-1,-1,-1,-1,-1,-1,-1,-1,-1,-1,-1,-1,-1,-1,-1],"loss_changes":[5.143548E3,9.398926E1,1.6850299E2,1.1616168E2,0E0,1.1519134E2,5.1614258E1,3.68487E1,6.350952E0,1.7230463E2,9.171382E1,1.1394308E1,3.2837433E1,0E0,2.5068753E0,0E0,3.8002746E0,0E0,7.685722E1,9.3496605E1,1.5082825E1,5.771302E0,1.1465676E1,5.1910004E1,2.3096626E1,7.996404E-1,1.4062504E0,5.5666804E0,0E0,5.641791E2,5.454329E2,4.1869736E-1,3.4954697E1,1.71418E0,9.9716187E-1,9.053654E0,3.2738762E0,2.3848572E0,1.2269611E1,0E0,4.2888123E1,1.2139862E1,1.9778061E0,0E0,0E0,0E0,0E0,0E0,0E0,0E0,0E0,0E0,0E0,0E0,0E0,0E0,0E0,0E0,0E0,0E0,0E0,0E0,0E0,0E0,0E0,0E0,0E0,0E0,0E0,0E0,0E0,0E0,0E0,0E0,0E0],"parents":[2147483647,0,0,1,1,2,2,3,3,5,5,6,6,7,7,8,8,9,9,10,10,11,11,12,12,14,14,16,16,18,18,19,19,20,20,21,21,22,22,23,23,24,24,25,25,26,26,27,27,29,29,30,30,31,31,32,32,33,33,34,34,35,35,36,36,37,37,38,38,40,40,41,41,42,42],"right_children":[2,4,6,8,-1,10,12,14,16,18,20,22,24,-1,26,-1,28,-1,30,32,34,36,38,40,42,44,46,48,-1,50,52,54,56,58,60,62,64,66,68,-1,70,72,74,-1,-1,-1,-1,-1,-1,-1,-1,-1,-1,-1,-1,-1,-1,-1,-1,-1,-1,-1,-1,-1,-1,-1,-1,-1,-1,-1,-1,-1,-1,-1,-1],"split_conditions":[2.72922E-1,-1.030219E0,8.6331105E-1,-9.7724354E-1,-3.075977E-1,3.8195828E-1,4.0219787E-1,-1.3849196E0,2.6152322E-1,-2.275388E0,-2.4006028E0,1.0363505E0,-7.634325E-1,-3.0150324E-1,-9.294504E-2,-3.0563366E-1,-1.0558606E0,-3.319556E-1,-1.4803954E0,3.871078E-1,-2.275388E0,3.3238077E-1,-1.0508261E0,1.0241923E0,-1.473533E-1,-9.9425554E-1,-6.210623E-1,5.368845E-1,-2.750556E-1,1.3063823E-1,3.2515427E-1,-2.5345893E0,3.9040747E-1,3.871078E-1,3.871078E-1,-1.0508261E0,1.0281144E0,1.0411503E0,-1.0475744E0,3.4835857E-1,1.0361409E0,1.0289363E0,-1.2510423E-1,-8.894539E-2,-2.4391172E-2,-1.31744025E-2,3.840491E-2,2.0244996E-1,-2.0672032E-1,3.4163183E-1,-6.9628924E-4,5.3420453E-3,4.088954E-1,-3.3017164E-1,-2.3111087E-1,5.638822E-2,2.8650308E-1,1.9295385E-1,3.4640113E-1,4.1496196E-1,3.244065E-1,-5.311674E-2,-3.303226E-1,-1.5629165E-1,-1.0101627E-2,-2.965407E-1,-6.812495E-2,2.11667E-1,9.353053E-4,6.788653E-2,1.7328992E-1,2.5842214E-2,8.691311E-2,2.0365547E-1,4.041123E-1],"split_indices":[2,0,1,1,0,0,2,1,2,1,1,1,0,0,2,0,0,0,1,0,1,2,0,1,0,1,3,1,0,0,0,1,0,0,0,0,1,1,0,0,1,1,0,0,0,0,0,0,0,0,0,0,0,0,0,0,0,0,0,0,0,0,0,0,0,0,0,0,0,0,0,0,0,0,0],"split_type":[0,0,0,0,0,0,0,0,0,0,0,0,0,0,0,0,0,0,0,0,0,0,0,0,0,0,0,0,0,0,0,0,0,0,0,0,0,0,0,0,0,0,0,0,0,0,0,0,0,0,0,0,0,0,0,0,0,0,0,0,0,0,0,0,0,0,0,0,0,0,0,0,0,0,0],"sum_hessian":[2.954707E4,5.429416E3,2.4117654E4,7.065888E2,4.7228276E3,2.0945053E4,3.1726016E3,3.121122E2,3.9447656E2,2.042076E4,5.242937E2,2.6402264E2,2.9085789E3,4.476443E1,2.6734778E2,3.785326E2,1.5943978E1,1.25176384E2,2.0295582E4,3.2070584E2,2.0358788E2,1.1179556E2,1.522271E2,1.493372E3,1.415207E3,7.03488E1,1.9699898E2,1.0028934E1,5.9150443E0,2.7508833E3,1.75447E4,6.720685E1,2.53499E2,8.197746E1,1.2161041E2,4.233513E1,6.9460434E1,1.745782E1,1.3476927E2,9.7785576E1,1.3955864E3,1.3869182E3,2.828871E1,3.612333E1,3.422547E1,1.1922062E2,7.777836E1,5.4227486E0,4.6061854E0,5.3776434E2,2.2131191E3,1.7238908E4,3.0579187E2,1.1515626E1,5.5691223E1,1.590386E2,9.446039E1,7.343972E1,8.537746E0,7.6815094E1,4.4795315E1,2.2126488E1,2.0208643E1,1.7896862E1,5.156357E1,9.377176E0,8.080645E0,3.1785753E1,1.0298352E2,6.6868524E2,7.269012E2,4.2206216E2,9.648561E2,1.0687694E1,1.7601017E1],"tree_param":{"num_deleted":"0","num_feature":"4","num_nodes":"75","size_leaf_vector":"1"}},{"base_weights":[-7.7123135E-2,-9.511652E-1,7.401515E-2,-5.560918E-1,-1.0178491E0,2.7988391E-2,1.9702998E-1,-1.3643055E-1,-9.753517E-1,-8.3024454E-1,-3.0576867E-1,6.804758E-2,-2.9603374E-1,5.4893102E-2,2.9896623E-1,-2.9724187E-1,-2.4784915E-2,-1.0090649E0,-3.0212414E-1,-2.507184E-1,-2.9364735E-1,-3.9535868E-1,9.108251E-2,6.3016516E-1,-3.3291093E-1,-2.550427E-1,2.8597125E-1,4.30824E-1,1.4414677E-1,-1.4582865E-1,1.6889974E-2,-3.048072E-1,-6.3789207E-1,-2.621507E-1,4.8876606E-2,2.1209203E-1,-2.2730397E-1,2.1246953E-1,-8.6180323E-1,6.624008E-1,7.056331E-2,-5.3074294E-1,9.176722E-2,2.3872614E-1,-5.4348266E-1,1.060014E0,2.4659802E-1,6.612387E-1,1.8367545E-1,1.2838942E-1,4.0643382E-1,-1.4686313E-1,-3.1713154E-2,-3.464638E-2,1.4761522E-2,-4.0279422E-2,-2.5027838E-1,3.612475E-1,-2.253573E-1,1.2764975E-1,-1.5358639E-2,-3.329268E-1,2.5883886E-1,-3.2677755E-1,3.2692605E-1,4.8413008E-1,1.552644E-1,-4.5667693E-2,3.0562144E-2,-5.483381E-2,-2.4126427E-1,2.1849643E-1,-8.107253E-2,3.6567282E-2,7.330604E-1,3.7051773E-1,-1.9126803E-1,3.5043353E-1,2.6133925E-1,-2.6090968E-2,9.7642265E-2,1.0009992E-1,2.223776E-1,2.9374372E-2,3.333165E-1,-4.1687734E-2,6.1473187E-2],"categories":[],"categories_nodes":[],"categories_segments":[],"categories_sizes":[],"default_left":[0,0,0,0,0,0,0,0,0,0,0,0,0,0,0,0,0,0,0,0,0,0,0,0,0,0,0,0,0,0,0,0,0,0,0,0,0,0,0,0,0,0,0,0,0,0,0,0,0,0,0,0,0,0,0,0,0,0,0,0,0,0,0,0,0,0,0,0,0,0,0,0,0,0,0,0,0,0,0,0,0,0,0,0,0,0,0],"id":8,"left_children":[1,3,5,7,9,11,13,15,17,19,-1,21,23,25,27,-1,29,31,33,35,-1,37,39,-1,41,43,45,47,49,51,53,-1,55,-1,57,59,-1,61,63,65,67,69,71,73,75,77,79,81,83,85,-1,-1,-1,-1,-1,-1,-1,-1,-1,-1,-1,-1,-1,-1,-1,-1,-1,-1,-1,-1,-1,-1,-1,-1,-1,-1,-1,-1,-1,-1,-1,-1,-1,-1,-1,-1,-1],"loss_changes":[3.689224E3,1.0790161E2,1.3480905E2,1.0486908E2,6.542969E-2,2.2494577E2,9.391484E1,2.8535461E1,6.4671936E0,2.4327812E0,0E0,1.6466638E2,1.6922223E2,1.9407684E2,7.700461E1,0E0,1.3434536E0,8.468628E-2,3.184492E0,1.965314E0,0E0,2.0729735E2,1.722018E2,0E0,1.578944E2,1.6498686E2,4.7047325E1,1.1595096E2,3.2978794E1,8.8850844E-1,8.554475E-1,0E0,6.700957E-1,0E0,1.0746257E1,2.9160082E-1,0E0,2.743891E2,1.8474796E2,6.935036E1,9.8964294E1,1.2183197E2,1.3798145E2,1.0983385E2,1.2309689E2,5.104065E-1,3.8927475E1,2.7392517E1,7.821576E1,3.514784E1,0E0,0E0,0E0,0E0,0E0,0E0,0E0,0E0,0E0,0E0,0E0,0E0,0E0,0E0,0E0,0E0,0E0,0E0,0E0,0E0,0E0,0E0,0E0,0E0,0E0,0E0,0E0,0E0,0E0,0E0,0E0,0E0,0E0,0E0,0E0,0E0,0E0],"parents":[2147483647,0,0,1,1,2,2,3,3,4,4,5,5,6,6,7,7,8,8,9,9,11,11,12,12,13,13,14,14,16,16,17,17,18,18,19,19,21,21,22,22,24,24,25,25,26,26,27,27,28,28,29,29,30,30,32,32,34,34,35,35,37,37,38,38,39,39,40,40,41,41,42,42,43,43,44,44,45,45,46,46,47,47,48,48,49,49],"right_children":[2,4,6,8,10,12,14,16,18,20,-1,22,24,26,28,-1,30,32,34,36,-1,38,40,-1,42,44,46,48,50,52,54,-1,56,-1,58,60,-1,62,64,66,68,70,72,74,76,78,80,82,84,86,-1,-1,-1,-1,-1,-1,-1,-1,-1,-1,-1,-1,-1,-1,-1,-1,-1,-1,-1,-1,-1,-1,-1,-1,-1,-1,-1,-1,-1,-1,-1,-1,-1,-1,-1,-1,-1],"split_conditions":[2.72922E-1,-1.030219E0,1.4695059E-1,-9.7724354E-1,-1.0252786E0,4.391445E-1,-7.856417E-1,-1.3849196E0,2.6152322E-1,-9.929573E-1,-3.0576867E-1,-1.0149698E0,-1.4803954E0,8.6331105E-1,7.0597494E-1,-2.9724187E-1,-9.294504E-2,2.4367352E-1,2.6482424E-1,8.623046E-2,-2.9364735E-1,-9.7724354E-1,-4.3508998E-1,6.3016516E-1,-1.6078179E-1,6.3536125E-1,1.0241923E0,-3.3927903E-1,-6.847861E-2,-1.0508261E0,-9.9738693E-1,-3.048072E-1,2.7109817E-1,-2.621507E-1,5.368845E-1,-2.1492487E-1,-2.2730397E-1,-1.3849196E0,1.3177977E-2,-6.0043484E-1,9.243848E-2,-9.3289167E-1,-1.4917478E-1,-8.5167736E-1,1.9491515E-1,-1.7012338E-1,-1.0375311E0,-7.594394E-2,4.3761946E-2,9.179446E-1,4.0643382E-1,-1.4686313E-1,-3.1713154E-2,-3.464638E-2,1.4761522E-2,-4.0279422E-2,-2.5027838E-1,3.612475E-1,-2.253573E-1,1.2764975E-1,-1.5358639E-2,-3.329268E-1,2.5883886E-1,-3.2677755E-1,3.2692605E-1,4.8413008E-1,1.552644E-1,-4.5667693E-2,3.0562144E-2,-5.483381E-2,-2.4126427E-1,2.1849643E-1,-8.107253E-2,3.6567282E-2,7.330604E-1,3.7051773E-1,-1.9126803E-1,3.5043353E-1,2.6133925E-1,-2.6090968E-2,9.7642265E-2,1.0009992E-1,2.223776E-1,2.9374372E-2,3.333165E-1,-4.1687734E-2,6.1473187E-2],"split_indices":[2,0,1,1,0,3,0,1,2,1,0,0,1,1,1,0,2,2,1,3,0,1,3,0,1,2,1,0,0,0,1,0,1,0,1,2,0,1,1,1,3,1,1,3,1,3,0,3,0,1,0,0,0,0,0,0,0,0,0,0,0,0,0,0,0,0,0,0,0,0,0,0,0,0,0,0,0,0,0,0,0,0,0,0,0,0,0],"split_type":[0,0,0,0,0,0,0,0,0,0,0,0,0,0,0,0,0,0,0,0,0,0,0,0,0,0,0,0,0,0,0,0,0,0,0,0,0,0,0,0,0,0,0,0,0,0,0,0,0,0,0,0,0,0,0,0,0,0,0,0,0,0,0,0,0,0,0,0,0,0,0,0,0,0,0,0,0,0,0,0,0,0,0,0,0,0,0],"sum_hessian":[2.7925723E4,4.116198E3,2.3809523E4,5.9578253E2,3.5204158E3,1.7327543E4,6.4819795E3,2.984111E2,2.973714E2,3.0103447E1,3.4903123E3,1.54217295E4,1.9058143E3,2.7078179E3,3.7741619E3,3.357808E1,2.6483304E2,2.8271503E2,1.4656369E1,6.6914234E0,2.3412024E1,7.2951495E2,1.4692215E4,2.8033081E1,1.8777812E3,1.1565203E3,1.5512976E3,2.0372659E3,1.736896E3,6.7187965E1,1.9764507E2,2.7580673E2,6.908309E0,5.008671E0,9.647698E0,3.8020933E0,2.8893301E0,3.1698865E2,4.1252634E2,5.0829947E2,1.4183915E4,1.2808572E3,5.969241E2,4.2653107E2,7.2998914E2,7.383551E1,1.4774622E3,1.0534589E3,9.8380695E2,1.7156711E3,2.1224781E1,5.85158E0,6.1336384E1,3.827574E1,1.5936932E2,2.4103167E0,4.4979925E0,3.7408762E0,5.9068217E0,1.7596843E0,2.042409E0,1.0427442E2,2.1271422E2,3.698607E2,4.266565E1,6.5825966E1,4.424735E2,1.7472869E3,1.2436628E4,5.643937E2,7.1646356E2,2.16036E2,3.808881E2,4.0606836E2,2.0462719E1,3.6064186E1,6.93925E2,4.366296E1,3.0172548E1,2.825316E2,1.1949305E3,2.0783371E2,8.456252E2,9.0154114E2,8.226585E1,3.816061E2,1.3340651E3],"tree_param":{"num_deleted":"0","num_feature":"4","num_nodes":"87","size_leaf_vector":"1"}},{"base_weights":[-6.3546404E-2,-9.1370076E-1,5.342071E-2,-4.6980655E-1,-1.0121958E0,2.120441E-2,1.7245647E-1,-1.1376187E-1,-8.8486534E-1,-7.796685E-1,-3.0421054E-1,4.644989E-2,-1.7469403E-1,-1.6595018E-1,1.9090192E-1,-2.9410547E-1,-2.8149918E-2,-3.028845E-1,-4.7258952E-1,-2.1133623E-1,-2.8827262E-1,9.3516156E-2,-5.778326E-2,-3.8105443E-1,8.3581604E-2,-1.1309935E0,-4.9104158E-2,4.469514E-1,1.6473423E-1,-1.00239925E-1,6.614259E-3,-2.8880987E-1,-3.2750404E-1,1.624256E-1,-2.1297145E-1,3.8298652E-1,3.720537E-2,-1.12006135E-1,7.644443E-1,-2.0044178E-1,-1.0309495E0,4.3594113E-1,-4.4718467E-2,5.863751E-3,-3.6204258E-1,5.97145E-1,-1.3626719E-1,-2.3216322E-1,5.444533E-1,3.5184842E-1,1.0759463E-1,1.5775627E-1,-3.6907442E-2,6.42071E-2,-3.5557135E-3,-4.6485183E-3,-2.1108754E-1,1.1709317E-1,-1.3285071E-3,8.81788E-2,7.281897E-1,2.4639344E-2,-7.569069E-2,-8.9429274E-2,1.0157876E-2,1.02155544E-1,4.2767474E-1,4.704937E-1,-7.663764E-2,2.5810245E-1,-3.3590156E-1,2.6364845E-1,3.8417205E-2,-6.3785136E-2,1.4702055E-1,1.0867936E-1,3.7707362E-1,-3.20895E-3,-4.4211718E-1,-3.9279702E-1,4.442358E-1,3.5526985E-1,9.7292066E-2,-3.6348617E-1,1.3069661E-1,-3.393133E-2,5.43412E-2],"categories":[],"categories_nodes":[],"categories_segments":[],"categories_sizes":[],"default_left":[0,0,0,0,0,0,0,0,0,0,0,0,0,0,0,0,0,0,0,0,0,0,0,0,0,0,0,0,0,0,0,0,0,0,0,0,0,0,0,0,0,0,0,0,0,0,0,0,0,0,0,0,0,0,0,0,0,0,0,0,0,0,0,0,0,0,0,0,0,0,0,0,0,0,0,0,0,0,0,0,0,0,0,0,0,0,0],"id":9,"left_children":[1,3,5,7,9,11,13,15,17,19,-1,21,23,25,27,-1,29,-1,31,33,-1,35,37,39,41,43,45,47,49,51,53,-1,55,57,-1,59,61,63,65,67,69,71,73,-1,-1,75,77,79,81,83,85,-1,-1,-1,-1,-1,-1,-1,-1,-1,-1,-1,-1,-1,-1,-1,-1,-1,-1,-1,-1,-1,-1,-1,-1,-1,-1,-1,-1,-1,-1,-1,-1,-1,-1,-1,-1],"loss_changes":[2.6408777E3,1.3995532E2,8.952585E1,8.637097E1,3.334961E-1,9.088024E1,3.1070343E1,2.3424614E1,1.3410889E1,2.366891E0,0E0,7.986165E1,1.1184119E2,2.8987343E1,3.1524231E1,0E0,7.242303E-1,0E0,4.278818E0,1.4783592E0,0E0,1.827841E2,2.2586967E2,1.3669138E2,4.217718E1,2.4460526E0,1.3081474E1,2.9041626E1,4.5725082E1,1.4055569E0,7.521861E-1,0E0,6.01707E0,1.916324E-1,0E0,3.3176053E2,1.22140564E2,1.2899615E2,8.736281E1,8.933307E1,4.3482758E1,3.3841785E1,6.1567516E1,0E0,0E0,3.8239212E0,3.4274414E1,1.0439069E2,5.3441513E1,1.3167044E2,5.32639E1,0E0,0E0,0E0,0E0,0E0,0E0,0E0,0E0,0E0,0E0,0E0,0E0,0E0,0E0,0E0,0E0,0E0,0E0,0E0,0E0,0E0,0E0,0E0,0E0,0E0,0E0,0E0,0E0,0E0,0E0,0E0,0E0,0E0,0E0,0E0,0E0],"parents":[2147483647,0,0,1,1,2,2,3,3,4,4,5,5,6,6,7,7,8,8,9,9,11,11,12,12,13,13,14,14,16,16,18,18,19,19,21,21,22,22,23,23,24,24,25,25,26,26,27,27,28,28,29,29,30,30,32,32,33,33,35,35,36,36,37,37,38,38,39,39,40,40,41,41,42,42,45,45,46,46,47,47,48,48,49,49,50,50],"right_children":[2,4,6,8,10,12,14,16,18,20,-1,22,24,26,28,-1,30,-1,32,34,-1,36,38,40,42,44,46,48,50,52,54,-1,56,58,-1,60,62,64,66,68,70,72,74,-1,-1,76,78,80,82,84,86,-1,-1,-1,-1,-1,-1,-1,-1,-1,-1,-1,-1,-1,-1,-1,-1,-1,-1,-1,-1,-1,-1,-1,-1,-1,-1,-1,-1,-1,-1,-1,-1,-1,-1,-1,-1],"split_conditions":[2.9981306E-1,-1.030219E0,2.717968E-1,-9.7724354E-1,-1.0252786E0,4.391445E-1,-1.0418639E0,-1.3849196E0,2.4367352E-1,-9.929573E-1,-3.0421054E-1,-5.7917064E-1,-1.8213312E-1,6.7773557E-1,-1.0149698E0,-2.9410547E-1,-9.95299E-1,-3.028845E-1,2.5930935E-1,8.623046E-2,-2.8827262E-1,1.6431266E-1,1.7281839E-1,-5.701147E-1,-1.4917478E-1,2.8292748E-1,8.0831385E-1,4.8493308E-1,6.3810575E-1,-1.0578622E0,-9.9492574E-1,-2.8880987E-1,7.0597494E-1,-9.9577373E-1,-2.1297145E-1,-6.531009E-1,-8.888772E-1,-1.6078179E-1,-3.587945E-1,-1.4803954E0,1.1113592E0,-3.9532483E-1,2.5930935E-1,5.863751E-3,-3.6204258E-1,6.9256055E-1,-1.1943669E0,-8.798333E-1,1.0241923E0,-9.343549E-1,8.0831385E-1,1.5775627E-1,-3.6907442E-2,6.42071E-2,-3.5557135E-3,-4.6485183E-3,-2.1108754E-1,1.1709317E-1,-1.3285071E-3,8.81788E-2,7.281897E-1,2.4639344E-2,-7.569069E-2,-8.9429274E-2,1.0157876E-2,1.02155544E-1,4.2767474E-1,4.704937E-1,-7.663764E-2,2.5810245E-1,-3.3590156E-1,2.6364845E-1,3.8417205E-2,-6.3785136E-2,1.4702055E-1,1.0867936E-1,3.7707362E-1,-3.20895E-3,-4.4211718E-1,-3.9279702E-1,4.442358E-1,3.5526985E-1,9.7292066E-2,-3.6348617E-1,1.3069661E-1,-3.393133E-2,5.43412E-2],"split_indices":[2,0,1,1,0,3,0,1,2,1,0,1,1,1,0,0,1,0,1,3,0,3,0,1,1,1,1,1,1,0,1,0,1,1,0,0,1,1,1,1,2,0,1,0,0,1,3,3,1,0,1,0,0,0,0,0,0,0,0,0,0,0,0,0,0,0,0,0,0,0,0,0,0,0,0,0,0,0,0,0,0,0,0,0,0,0,0],"split_type":[0,0,0,0,0,0,0,0,0,0,0,0,0,0,0,0,0,0,0,0,0,0,0,0,0,0,0,0,0,0,0,0,0,0,0,0,0,0,0,0,0,0,0,0,0,0,0,0,0,0,0,0,0,0,0,0,0,0,0,0,0,0,0,0,0,0,0,0,0,0,0,0,0,0,0,0,0,0,0,0,0,0,0,0,0,0,0],"sum_hessian":[2.655598E4,3.2109512E3,2.334503E4,5.841395E2,2.6268118E3,1.8373525E4,4.971504E3,3.1510825E2,2.6903125E2,2.3950003E1,2.6028616E3,1.6276706E4,2.09682E3,2.565603E2,4.714944E3,2.7391567E1,2.877167E2,2.0542369E2,6.360757E1,6.314637E0,1.7635365E1,1.1213414E4,5.063292E3,1.1652878E3,9.315321E2,2.6771593E1,2.297887E2,4.3568704E2,4.279257E3,9.299363E1,1.9472307E2,1.3241471E1,5.03661E1,3.9943838E0,2.3202531E0,1.8251704E3,9.388244E3,4.7508545E3,3.1243756E2,9.1289355E2,2.5239427E2,2.4800919E2,6.8352295E2,1.7009432E0,2.507065E1,2.6614088E1,2.031746E2,5.4525837E1,3.8116122E2,9.9986285E2,3.2793938E3,2.4901078E0,9.050352E1,1.5053936E1,1.7966913E2,2.809842E1,2.226768E1,1.1223171E0,2.872067E0,1.750075E3,7.509544E1,8.1277036E3,1.26054E3,2.0871204E3,2.663734E3,1.9129382E2,1.2114372E2,2.670916E1,8.8618445E2,1.091981E1,2.4147446E2,1.0094568E2,1.470635E2,5.2066144E2,1.6286147E2,2.0769218E1,5.8448696E0,1.8665775E2,1.6516861E1,3.362005E1,2.0905787E1,9.645853E1,2.847027E2,5.0184444E1,9.496784E2,8.195161E2,2.4598777E3],"tree_param":{"num_deleted":"0","num_feature":"4","num_nodes":"87","size_leaf_vector":"1"}},{"base_weights":[-5.1581036E-2,-8.943051E-1,3.595305E-2,-4.0251577E-1,-1.0076172E0,3.2805707E-2,2.7078643E-1,-7.779494E-2,-9.375694E-1,-7.236839E-1,-3.0302507E-1,-7.8801024E-1,3.566451E-2,-2.8814632E-1,-1.0623655E-2,-3.0124944E-1,-2.961466E-1,-1.7623554E-1,-2.8227216E-1,-3.118058E-1,-2.2184019E-1,2.881193E-2,5.559455E-1,-4.7257137E-2,9.721679E-2,6.991814E-2,-7.6551855E-1,1.321638E-1,-1.985806E-1,-3.2302907E-1,3.3753693E-2,3.1216517E-1,3.5885644E-1,-1.1841328E-2,-1.4600319E-1,1.10074855E-1,1.8908631E-2,4.2555025E-1,-2.0191981E-1,-6.951773E-2,-2.5604624E-1,9.200658E-2,-1.034003E-3,2.9145943E-3,3.8068593E-2,-1.1460859E-2,2.3421855E-1],"categories":[],"categories_nodes":[],"categories_segments":[],"categories_sizes":[],"default_left":[0,0,0,0,0,0,0,0,0,0,0,0,0,0,0,0,0,0,0,0,0,0,0,0,0,0,0,0,0,0,0,0,0,0,0,0,0,0,0,0,0,0,0,0,0,0,0],"id":10,"left_children":[1,3,5,7,9,11,-1,13,15,17,-1,19,21,-1,23,-1,25,27,-1,-1,-1,29,31,33,35,37,39,41,-1,-1,43,45,-1,-1,-1,-1,-1,-1,-1,-1,-1,-1,-1,-1,-1,-1,-1],"loss_changes":[1.8819884E3,1.333722E2,6.301439E1,7.832219E1,6.348877E-1,5.4068974E1,0E0,1.6703428E1,6.9781647E0,2.251011E0,0E0,2.0720291E-1,8.181021E1,0E0,1.0434585E0,0E0,3.0498648E0,1.1365836E0,0E0,0E0,0E0,1.23804344E2,4.618493E1,6.546577E-1,5.947007E-1,1.1689823E1,1.6496325E-1,1.2217164E-1,0E0,0E0,5.049611E1,3.5719265E1,0E0,0E0,0E0,0E0,0E0,0E0,0E0,0E0,0E0,0E0,0E0,0E0,0E0,0E0,0E0],"parents":[2147483647,0,0,1,1,2,2,3,3,4,4,5,5,7,7,8,8,9,9,11,11,12,12,14,14,16,16,17,17,21,21,22,22,23,23,24,24,25,25,26,26,27,27,30,30,31,31],"right_children":[2,4,6,8,10,12,-1,14,16,18,-1,20,22,-1,24,-1,26,28,-1,-1,-1,30,32,34,36,38,40,42,-1,-1,44,46,-1,-1,-1,-1,-1,-1,-1,-1,-1,-1,-1,-1,-1,-1,-1],"split_conditions":[2.72922E-1,-1.030219E0,3.9040747E-1,-9.7724354E-1,-1.0252786E0,-2.5345893E0,2.7078643E-1,-1.3849196E0,2.4367352E-1,-9.929573E-1,-3.0302507E-1,3.871078E-1,3.8195828E-1,-2.8814632E-1,1.4746158E-1,-3.0124944E-1,5.368845E-1,8.623046E-2,-2.8227216E-1,-3.118058E-1,-2.2184019E-1,-2.275388E0,-2.275388E0,-9.912961E-1,1.611893E-1,-9.4510096E-1,6.9179124E-1,-9.9577373E-1,-1.985806E-1,-3.2302907E-1,3.328495E-1,3.871078E-1,3.5885644E-1,-1.1841328E-2,-1.4600319E-1,1.10074855E-1,1.8908631E-2,4.2555025E-1,-2.0191981E-1,-6.951773E-2,-2.5604624E-1,9.200658E-2,-1.034003E-3,2.9145943E-3,3.8068593E-2,-1.1460859E-2,2.3421855E-1],"split_indices":[2,0,0,1,0,1,0,1,2,1,0,0,0,0,2,0,1,3,0,0,0,1,1,1,2,3,1,1,0,0,1,0,0,0,0,0,0,0,0,0,0,0,0,0,0,0,0],"split_type":[0,0,0,0,0,0,0,0,0,0,0,0,0,0,0,0,0,0,0,0,0,0,0,0,0,0,0,0,0,0,0,0,0,0,0,0,0,0,0,0,0,0,0,0,0,0,0],"sum_hessian":[2.5511145E4,2.3996436E3,2.3111502E4,4.5021295E2,1.9494305E3,2.3028908E4,8.259256E1,2.8088867E2,1.6932426E2,1.9323431E1,1.9301072E3,7.897532E1,2.2949934E4,1.8923061E1,2.619656E2,1.5288547E2,1.6438787E1,6.003828E0,1.3319604E1,9.479907E0,6.9495415E1,2.2652633E4,2.9730075E2,1.9595973E2,6.600588E1,9.713914E0,6.724874E0,4.1173625E0,1.8864658E0,9.983831E1,2.2552795E4,2.163937E2,8.090703E1,1.9361884E2,2.3408906E0,6.330905E0,5.9674976E1,3.1276875E0,6.5862265E0,1.4656328E0,5.2592416E0,1.2487434E0,2.868619E0,1.7927178E4,4.625617E3,1.2433827E2,9.205544E1],"tree_param":{"num_deleted":"0","num_feature":"4","num_nodes":"47","size_leaf_vector":"1"}},{"base_weights":[-4.048608E-2,-8.582309E-1,2.5480276E-2,-3.3409548E-1,-1.0038278E0,1.5443932E-2,2.3734365E-1,-5.9449404E-2,-9.183576E-1,-6.635694E-1,-3.0213946E-1,8.835377E-1,8.427956E-3,-4.1704953E-1,1.4265193E0,-2.8271058E-1,-7.7729435E-3,-2.9974714E-1,-2.621525E-1,-1.4913458E-1,-2.753524E-1,1.690996E0,-3.643943E-1,2.9301835E-2,-3.055312E-1,-1.1638341E0,2.1845026E-1,1.4968364E0,3.341159E-1,-3.134308E-2,8.2558714E-2,-2.4754293E-1,1.876576E-2,1.0712422E-1,-1.8444581E-1,-2.537895E-1,1.7757204E0,5.453572E-1,1.0392191E-2,-5.6272316E-1,1.1280106E0,-1.3142776E0,-6.766188E-1,9.283538E-2,2.4849851E-1,1.3533882E0,4.9263155E-1,-7.806634E-4,-3.4763135E-2,1.3481494E-2,2.1430576E-1,2.4763568E-1,-2.1402048E-1,-2.8872913E-2,1.4403284E-1,5.076899E-1,9.519904E-1,6.634385E-3,4.7111788E-1,-2.734436E-1,5.599396E-3,-2.1216445E-1,-2.6690649E-2,4.6505174E-1,3.187928E-1,-3.086535E-1,-4.0593308E-1,-3.450971E-1,1.8951598E-1,-1.7491448E-1,9.692147E-2,2.15034E-1,4.404671E-1],"categories":[],"categories_nodes":[],"categories_segments":[],"categories_sizes":[],"default_left":[0,0,0,0,0,0,0,0,0,0,0,0,0,0,0,0,0,0,0,0,0,0,0,0,0,0,0,0,0,0,0,0,0,0,0,0,0,0,0,0,0,0,0,0,0,0,0,0,0,0,0,0,0,0,0,0,0,0,0,0,0,0,0,0,0,0,0,0,0,0,0,0,0],"id":11,"left_children":[1,3,5,7,9,11,13,15,17,19,-1,21,23,25,27,-1,29,-1,31,33,-1,35,-1,37,39,41,43,45,-1,47,49,-1,51,53,-1,-1,55,57,59,61,63,65,67,69,-1,71,-1,-1,-1,-1,-1,-1,-1,-1,-1,-1,-1,-1,-1,-1,-1,-1,-1,-1,-1,-1,-1,-1,-1,-1,-1,-1,-1],"loss_changes":[1.33963E3,1.4113074E2,4.8860977E1,6.485379E1,9.6191406E-1,1.3363316E2,8.093886E2,1.2595811E1,6.592346E0,2.070746E0,0E0,3.0007672E2,1.4266304E2,3.1878497E2,6.4523315E0,0E0,5.60337E-1,0E0,2.471366E0,8.745515E-1,0E0,2.8894989E1,0E0,1.9917715E2,5.0099008E2,2.1740265E1,2.776699E1,3.9976196E0,0E0,5.062112E-1,1.2628881E0,0E0,7.284904E0,4.4237274E-1,0E0,0E0,9.045441E0,3.8692023E2,1.5018259E2,7.87493E1,4.058777E0,1.2107544E0,4.7147488E1,4.726177E1,0E0,1.0342621E1,0E0,0E0,0E0,0E0,0E0,0E0,0E0,0E0,0E0,0E0,0E0,0E0,0E0,0E0,0E0,0E0,0E0,0E0,0E0,0E0,0E0,0E0,0E0,0E0,0E0,0E0,0E0],"parents":[2147483647,0,0,1,1,2,2,3,3,4,4,5,5,6,6,7,7,8,8,9,9,11,11,12,12,13,13,14,14,16,16,18,18,19,19,21,21,23,23,24,24,25,25,26,26,27,27,29,29,30,30,32,32,33,33,36,36,37,37,38,38,39,39,40,40,41,41,42,42,43,43,45,45],"right_children":[2,4,6,8,10,12,14,16,18,20,-1,22,24,26,28,-1,30,-1,32,34,-1,36,-1,38,40,42,44,46,-1,48,50,-1,52,54,-1,-1,56,58,60,62,64,66,68,70,-1,72,-1,-1,-1,-1,-1,-1,-1,-1,-1,-1,-1,-1,-1,-1,-1,-1,-1,-1,-1,-1,-1,-1,-1,-1,-1,-1,-1],"split_conditions":[2.72922E-1,-1.030219E0,3.5640523E-1,-9.7724354E-1,-1.0252786E0,-2.1554236E0,-1.824245E0,-1.3849196E0,2.4367352E-1,-9.929573E-1,-3.0213946E-1,3.3307955E-1,2.897743E-1,3.8195828E-1,-1.4230082E0,-2.8271058E-1,1.7516312E-1,-2.9974714E-1,2.6482424E-1,8.623046E-2,-2.753524E-1,-2.275388E0,-3.643943E-1,-1.6505721E0,-9.9942505E-1,3.763169E-1,3.9040747E-1,-1.7078612E0,3.341159E-1,-9.924832E-1,-9.9154603E-1,-2.4754293E-1,5.368845E-1,-1.0276091E0,-1.8444581E-1,-2.537895E-1,3.2515427E-1,2.3359485E-1,-1.5926515E0,-1.4140298E0,-9.912961E-1,-2.275388E0,-2.1554236E0,-2.5345893E0,2.4849851E-1,3.630636E-1,4.9263155E-1,-7.806634E-4,-3.4763135E-2,1.3481494E-2,2.1430576E-1,2.4763568E-1,-2.1402048E-1,-2.8872913E-2,1.4403284E-1,5.076899E-1,9.519904E-1,6.634385E-3,4.7111788E-1,-2.734436E-1,5.599396E-3,-2.1216445E-1,-2.6690649E-2,4.6505174E-1,3.187928E-1,-3.086535E-1,-4.0593308E-1,-3.450971E-1,1.8951598E-1,-1.7491448E-1,9.692147E-2,2.15034E-1,4.404671E-1],"split_indices":[2,0,0,1,0,1,1,1,2,1,0,0,0,0,1,0,2,0,1,3,0,1,0,1,1,0,0,1,0,1,1,0,1,0,0,0,0,0,1,1,1,1,1,1,0,0,0,0,0,0,0,0,0,0,0,0,0,0,0,0,0,0,0,0,0,0,0,0,0,0,0,0,0],"split_type":[0,0,0,0,0,0,0,0,0,0,0,0,0,0,0,0,0,0,0,0,0,0,0,0,0,0,0,0,0,0,0,0,0,0,0,0,0,0,0,0,0,0,0,0,0,0,0,0,0,0,0,0,0,0,0,0,0,0,0,0,0,0,0,0,0,0,0,0,0,0,0,0,0],"sum_hessian":[2.4832477E4,1.8527726E3,2.2979705E4,4.0350104E2,1.4492715E3,2.1941375E4,1.0383289E3,2.7522626E2,1.2827478E2,1.5877077E1,1.4333944E3,1.7490794E2,2.1766467E4,6.701825E2,3.681464E2,1.4265021E1,2.609612E2,1.1374639E2,1.4528387E1,5.776586E0,1.0100492E1,1.26442375E2,4.8465576E1,2.0410371E4,1.3560966E3,3.0773154E2,3.6245093E2,2.974863E2,7.0660095E1,2.074774E2,5.348382E1,4.191287E0,1.03371E1,4.2228074E0,1.5537784E0,3.7958407E0,1.2264653E2,7.204702E2,1.96899E4,1.1503242E3,2.0577238E2,2.3383104E2,7.39005E1,3.0150336E2,6.0947582E1,1.5487169E2,1.4261461E2,1.5560408E2,5.187332E1,5.1489017E1,1.9948052E0,4.8576427E0,5.479457E0,3.212942E0,1.0098656E0,1.1782453E2,4.8219976E0,4.7766272E2,2.4280751E2,1.74146E2,1.9515756E4,8.811018E2,2.692224E2,2.454442E1,1.8122797E2,3.129514E1,2.025359E2,5.434486E1,1.9555641E1,7.621968E1,2.2528366E2,2.4774147E1,1.3009755E2],"tree_param":{"num_deleted":"0","num_feature":"4","num_nodes":"73","size_leaf_vector":"1"}},{"base_weights":[-3.1038247E-2,-7.9512453E-1,2.0201696E-2,-2.897343E-1,-1.0031117E0,6.934005E-2,-1.0107842E-2,-5.9497837E-2,-7.736281E-1,-5.759925E-1,-3.0148152E-1,2.0076327E-1,7.2634732E-3,-3.1038108E-1,2.9962394E-2,-2.809612E-1,-1.6691733E-2,-2.9838124E-1,-4.0215623E-1,8.160147E-3,-2.4198426E-1,5.658783E-2,1.100378E0,-4.945754E-1,1.3048963E-1,-1.5017625E0,-2.653444E-1,1.4238179E-1,-4.2992383E-3,-2.8191924E-2,1.4929348E-1,-2.7658552E-1,-2.8190887E-1,-1.2701252E-1,4.7659847E-1,9.170893E-2,2.5766623E0,-1.2860312E-1,-1.2096882E0,6.845206E-2,5.077327E-1,-5.2367854E-1,-1.17929384E-1,-2.8691885E-1,6.70017E-1,1.2562293E0,-4.1789908E-2,-3.4198456E-2,1.1518006E0,-3.8263851E-3,-5.2768335E-2,1.0776241E-1,-5.9854988E-2,4.1411016E-2,-1.3324244E-1,3.9482797E-3,-4.7325608E-1,4.430083E-2,6.768386E-1,-4.6070853E-1,3.3538234E-1,8.3201754E-1,-5.993592E-2,-6.602771E-2,3.938001E-1,-3.9615157E-1,-1.3656741E-1,-1.24629855E-1,3.2597657E-2,9.391477E-3,2.7398822E-1,-8.15898E-2,-6.2060857E-1,3.2174617E-1,-1.7850703E-2,8.531992E-2,4.8811853E-1,-2.6831046E-1,2.8916867E-2,-2.2142842E-2,4.1769076E-2,1.444175E-1,3.902364E-1],"categories":[],"categories_nodes":[],"categories_segments":[],"categories_sizes":[],"default_left":[0,0,0,0,0,0,0,0,0,0,0,0,0,0,0,0,0,0,0,0,0,0,0,0,0,0,0,0,0,0,0,0,0,0,0,0,0,0,0,0,0,0,0,0,0,0,0,0,0,0,0,0,0,0,0,0,0,0,0,0,0,0,0,0,0,0,0,0,0,0,0,0,0,0,0,0,0,0,0,0,0,0,0],"id":12,"left_children":[1,3,5,7,9,11,13,15,17,19,-1,21,23,25,27,-1,29,-1,31,-1,-1,33,35,37,39,41,43,45,47,49,51,-1,53,55,57,59,61,63,65,67,69,-1,-1,71,73,75,77,79,81,-1,-1,-1,-1,-1,-1,-1,-1,-1,-1,-1,-1,-1,-1,-1,-1,-1,-1,-1,-1,-1,-1,-1,-1,-1,-1,-1,-1,-1,-1,-1,-1,-1,-1],"loss_changes":[9.4602875E2,1.5933148E2,3.3727535E1,4.9436146E1,2.602539E-1,7.048063E1,1.6854013E2,1.1323569E1,1.1347351E1,9.8493576E-1,0E0,3.5941232E2,3.6298752E2,8.808977E1,4.7602196E1,0E0,5.5586565E-1,0E0,3.1813745E0,0E0,0E0,1.8434512E2,5.697383E2,3.0269345E2,1.1025503E2,1.5494873E1,3.2284805E1,5.922401E2,3.2748495E2,6.1592996E-1,1.4543965E0,0E0,3.2057004E0,3.3828055E2,4.2527008E2,3.8322638E2,8.539856E1,1.01369514E2,3.2140747E1,7.880482E1,1.2853674E2,0E0,0E0,4.08712E1,1.0679052E1,1.471604E2,2.920323E2,6.3452385E1,2.322998E1,0E0,0E0,0E0,0E0,0E0,0E0,0E0,0E0,0E0,0E0,0E0,0E0,0E0,0E0,0E0,0E0,0E0,0E0,0E0,0E0,0E0,0E0,0E0,0E0,0E0,0E0,0E0,0E0,0E0,0E0,0E0,0E0,0E0,0E0],"parents":[2147483647,0,0,1,1,2,2,3,3,4,4,5,5,6,6,7,7,8,8,9,9,11,11,12,12,13,13,14,14,16,16,18,18,21,21,22,22,23,23,24,24,25,25,26,26,27,27,28,28,29,29,30,30,32,32,33,33,34,34,35,35,36,36,37,37,38,38,39,39,40,40,43,43,44,44,45,45,46,46,47,47,48,48],"right_children":[2,4,6,8,10,12,14,16,18,20,-1,22,24,26,28,-1,30,-1,32,-1,-1,34,36,38,40,42,44,46,48,50,52,-1,54,56,58,60,62,64,66,68,70,-1,-1,72,74,76,78,80,82,-1,-1,-1,-1,-1,-1,-1,-1,-1,-1,-1,-1,-1,-1,-1,-1,-1,-1,-1,-1,-1,-1,-1,-1,-1,-1,-1,-1,-1,-1,-1,-1,-1,-1],"split_conditions":[2.9981306E-1,-1.0276091E0,4.1575786E-1,-9.7724354E-1,-1.0252786E0,-5.801885E-1,1.1099439E0,-1.3849196E0,2.4367352E-1,-9.929573E-1,-3.0148152E-1,-8.087838E-1,-1.6078179E-1,-1.5926515E0,-1.4803954E0,-2.809612E-1,-9.9154603E-1,-2.9838124E-1,2.5930935E-1,8.160147E-3,-2.4198426E-1,1.0100349E0,-8.8148445E-1,-4.4714868E-1,1.7949928E-2,-6.847861E-2,1.0363505E0,1.3063823E-1,3.2515427E-1,-9.9201417E-1,-9.912961E-1,-2.7658552E-1,2.8292748E-1,-9.7724354E-1,-9.7724354E-1,-6.8286705E-1,-6.0043484E-1,-4.925373E-1,-1.8213312E-1,-8.262733E-2,-7.996553E-1,-5.2367854E-1,-1.17929384E-1,1.0320778E0,1.0406673E0,1.1113592E0,2.2356333E-1,2.4015334E-1,-1.4182287E0,-3.8263851E-3,-5.2768335E-2,1.0776241E-1,-5.9854988E-2,4.1411016E-2,-1.3324244E-1,3.9482797E-3,-4.7325608E-1,4.430083E-2,6.768386E-1,-4.6070853E-1,3.3538234E-1,8.3201754E-1,-5.993592E-2,-6.602771E-2,3.938001E-1,-3.9615157E-1,-1.3656741E-1,-1.24629855E-1,3.2597657E-2,9.391477E-3,2.7398822E-1,-8.15898E-2,-6.2060857E-1,3.2174617E-1,-1.7850703E-2,8.531992E-2,4.8811853E-1,-2.6831046E-1,2.8916867E-2,-2.2142842E-2,4.1769076E-2,1.444175E-1,3.902364E-1],"split_indices":[2,0,3,1,0,1,2,1,2,1,0,1,1,1,1,0,1,0,1,0,0,2,0,1,3,0,1,0,0,1,1,0,1,1,1,1,1,1,1,1,0,0,0,1,1,2,0,1,1,0,0,0,0,0,0,0,0,0,0,0,0,0,0,0,0,0,0,0,0,0,0,0,0,0,0,0,0,0,0,0,0,0,0],"split_type":[0,0,0,0,0,0,0,0,0,0,0,0,0,0,0,0,0,0,0,0,0,0,0,0,0,0,0,0,0,0,0,0,0,0,0,0,0,0,0,0,0,0,0,0,0,0,0,0,0,0,0,0,0,0,0,0,0,0,0,0,0,0,0,0,0,0,0,0,0,0,0,0,0,0,0,0,0,0,0,0,0,0,0],"sum_hessian":[2.4161723E4,1.5175538E3,2.264417E4,4.4314474E2,1.0744092E3,8.638307E3,1.4005862E4,3.0103525E2,1.421095E2,5.9225764E0,1.0684866E3,2.7705344E3,5.8677725E3,1.6481819E3,1.2357681E4,1.3037422E1,2.8799783E2,8.805257E1,5.4056923E1,1.8820676E0,4.0405087E0,2.3887654E3,3.8176907E2,1.1561864E3,4.711586E3,5.8857018E1,1.5893248E3,2.8857598E3,9.471921E3,2.7011334E2,1.7884493E1,8.903308E0,4.5153618E1,1.66266E3,7.2610535E2,2.2743593E2,1.5433316E2,7.6557104E2,3.906154E2,4.0472053E3,6.643809E2,4.777515E1,1.1081865E1,1.5541707E3,3.515423E1,4.086251E2,2.4771348E3,9.234078E3,2.3784262E2,2.4553708E2,2.4576252E1,1.1146625E1,6.737868E0,1.2624286E1,3.252933E1,1.5170474E3,1.4561275E2,6.137437E2,1.1236164E2,8.776358E1,1.3967235E2,1.4412225E2,1.0210903E1,7.206714E2,4.4899635E1,3.3993488E2,5.068051E1,3.0977383E2,3.7374314E3,3.059948E2,3.583861E2,1.5423795E3,1.1791161E1,2.2352434E1,1.2801793E1,1.13347E2,2.952781E2,3.4471896E2,2.1324158E3,7.5176304E3,1.7164481E3,4.4015232E1,1.938274E2],"tree_param":{"num_deleted":"0","num_feature":"4","num_nodes":"83","size_leaf_vector":"1"}},{"base_weights":[-2.524215E-2,-7.79611E-1,1.176822E-2,-2.4799556E-1,-3.0089575E-1,-2.167768E-1,1.8938437E-2,-4.4685606E-2,-9.764951E-1,-1.4816433E-1,-3.205872E-1,7.8340195E-2,-9.851941E-3,-2.709038E-1,-1.0373329E-2,-2.9699472E-1,-6.7182966E-2,3.1141916E-1,-2.6379672E-1,3.6931872E-2,1.720616E-1,-1.8150683E-1,1.9867504E-2,3.0294314E-4,-1.8844415E-1,-7.41393E-2,7.8005207E-1,-6.5431476E-2,-1.1080527E0,8.683064E-2,-8.411702E-1,-9.550287E-3,4.5074055E-1,-9.3459684E-1,-1.416713E-1,-1.3907066E-1,3.8159654E-2,-3.1672618E-3,9.39746E-2,1.10942304E-1,-3.9735023E-2,3.463499E-1,1.871925E-1,2.0684247E-1,-4.791209E-2,-4.313217E-2,-3.3756512E-1,-1.019041E-1,3.3043455E-2,-3.6847234E-1,8.062617E-2,-5.4067727E-2,1.690539E-1,3.2445902E-1,4.793116E-2,-5.704347E-1,-1.2205995E-1,1.3607645E-1,-6.348085E-2,-3.1815514E-1,-1.2708946E-2,2.3733545E-2,-1.8946562E-2],"categories":[],"categories_nodes":[],"categories_segments":[],"categories_sizes":[],"default_left":[0,0,0,0,0,0,0,0,0,0,0,0,0,0,0,0,0,0,0,0,0,0,0,0,0,0,0,0,0,0,0,0,0,0,0,0,0,0,0,0,0,0,0,0,0,0,0,0,0,0,0,0,0,0,0,0,0,0,0,0,0,0,0],"id":13,"left_children":[1,3,5,7,-1,9,11,13,15,17,-1,19,21,-1,23,-1,-1,25,27,29,31,33,35,37,-1,39,41,43,45,47,49,51,53,55,57,59,61,-1,-1,-1,-1,-1,-1,-1,-1,-1,-1,-1,-1,-1,-1,-1,-1,-1,-1,-1,-1,-1,-1,-1,-1,-1,-1],"loss_changes":[6.562432E2,1.3028656E2,3.672167E1,4.8323166E1,0E0,3.9682682E1,3.715591E1,7.540563E0,5.010071E-1,3.3668674E1,0E0,2.751838E1,7.4659645E1,0E0,1.6326602E0,0E0,0E0,2.3096512E1,8.458389E1,2.1566458E2,1.0998771E2,6.466266E1,3.6275043E1,8.33642E-1,0E0,1.8835113E0,2.6482582E0,2.9317022E1,1.4289856E0,4.6342525E1,1.1403412E2,1.2888123E2,1.5720146E2,5.4500114E1,8.5537254E1,1.1471257E2,4.6426807E1,0E0,0E0,0E0,0E0,0E0,0E0,0E0,0E0,0E0,0E0,0E0,0E0,0E0,0E0,0E0,0E0,0E0,0E0,0E0,0E0,0E0,0E0,0E0,0E0,0E0,0E0],"parents":[2147483647,0,0,1,1,2,2,3,3,5,5,6,6,7,7,8,8,9,9,11,11,12,12,14,14,17,17,18,18,19,19,20,20,21,21,22,22,23,23,25,25,26,26,27,27,28,28,29,29,30,30,31,31,32,32,33,33,34,34,35,35,36,36],"right_children":[2,4,6,8,-1,10,12,14,16,18,-1,20,22,-1,24,-1,-1,26,28,30,32,34,36,38,-1,40,42,44,46,48,50,52,54,56,58,60,62,-1,-1,-1,-1,-1,-1,-1,-1,-1,-1,-1,-1,-1,-1,-1,-1,-1,-1,-1,-1,-1,-1,-1,-1,-1,-1],"split_conditions":[2.4992639E-1,-1.0252786E0,4.0219787E-1,-9.7724354E-1,-3.0089575E-1,-2.950047E-1,-6.2451226E-1,-1.3849196E0,2.4367352E-1,-9.7724354E-1,-3.205872E-1,8.623046E-2,1.1099439E0,-2.709038E-1,2.4367352E-1,-2.9699472E-1,-6.7182966E-2,3.3238077E-1,-7.3087686E-1,2.4213327E-2,-8.087838E-1,-1.5358195E0,4.2771825E-1,2.2969969E-1,-1.8844415E-1,2.6152322E-1,-9.962093E-1,2.6600593E-1,-5.801885E-1,-1.4124172E0,-1.6078179E-1,1.0100349E0,-5.801885E-1,-1.2510423E-1,-1.3262061E0,-9.9942505E-1,4.391445E-1,-3.1672618E-3,9.39746E-2,1.10942304E-1,-3.9735023E-2,3.463499E-1,1.871925E-1,2.0684247E-1,-4.791209E-2,-4.313217E-2,-3.3756512E-1,-1.019041E-1,3.3043455E-2,-3.6847234E-1,8.062617E-2,-5.4067727E-2,1.690539E-1,3.2445902E-1,4.793116E-2,-5.704347E-1,-1.2205995E-1,1.3607645E-1,-6.348085E-2,-3.1815514E-1,-1.2708946E-2,2.3733545E-2,-1.8946562E-2],"split_indices":[2,0,2,1,0,3,0,1,2,1,0,3,2,0,2,0,0,2,3,3,1,1,3,2,0,2,1,1,1,1,1,2,1,0,1,1,3,0,0,0,0,0,0,0,0,0,0,0,0,0,0,0,0,0,0,0,0,0,0,0,0,0,0],"split_type":[0,0,0,0,0,0,0,0,0,0,0,0,0,0,0,0,0,0,0,0,0,0,0,0,0,0,0,0,0,0,0,0,0,0,0,0,0,0,0,0,0,0,0,0,0,0,0,0,0,0,0,0,0,0,0,0,0,0,0,0,0,0,0],"sum_hessian":[2.3503531E4,1.0982494E3,2.2405281E4,3.2555737E2,7.726921E2,6.806566E2,2.1724625E4,2.5535431E2,7.020305E1,6.310058E2,4.9650764E1,7.091456E3,1.4633169E4,8.842416E0,2.465119E2,6.8657074E1,1.5459744E0,1.2650717E2,5.0449866E2,4.919361E3,2.172095E3,2.1588545E3,1.2474314E4,2.4330663E2,3.2052777E0,6.986715E1,5.664002E1,4.0938712E2,9.511154E1,4.6556987E3,2.6366223E2,1.31566E3,8.56435E2,1.07329544E2,2.051525E3,1.2868073E3,1.1187507E4,2.3607996E2,7.226666E0,7.491196E0,6.2375957E1,1.4781194E1,4.1858826E1,4.474892E1,3.6463818E2,1.8273773E0,9.3284164E1,2.4059917E2,4.4150996E3,1.9540929E2,6.825293E1,1.01426654E3,3.0139355E2,2.6949152E2,5.869435E2,3.697845E1,7.03511E1,2.1510002E2,1.8364249E3,1.21278435E2,1.1655288E3,7.9672925E3,3.2202148E3],"tree_param":{"num_deleted":"0","num_feature":"4","num_nodes":"63","size_leaf_vector":"1"}},{"base_weights":[-2.0358892E-2,-7.2249675E-1,7.380596E-3,-1.9741406E-1,-3.0042708E-1,5.718167E-3,7.554647E-1,-3.434597E-2,-9.661888E-1,-1.51033E-1,1.5007248E-2,2.0331705E-1,2.841257E-1,-2.623659E-1,-7.8136E-3,-2.952076E-1,-5.7539962E-2,6.010928E-1,-6.6198975E-1,-4.968107E-3,1.0796831E0,5.3180254E-4,-1.5602423E-1,-3.2732335E-1,1.203032E0,-1.1083425E0,1.3410713E-2,1.386974E-2,-4.0441245E-1,6.4823186E-1,1.2370423E0,-2.2361688E-2,8.481797E-3,4.140321E-1,-2.768363E-1,4.0645996E-1,1.6607057E-1,-3.5855356E-1,-1.8163435E-1,-6.38542E-2,1.4339477E-1,1.2419502E-1,-1.451537E-3,-1.9545144E-1,2.9784435E-1,-6.693893E-2,4.5089394E-1,3.1815195E-1,3.8906252E-1],"categories":[],"categories_nodes":[],"categories_segments":[],"categories_sizes":[],"default_left":[0,0,0,0,0,0,0,0,0,0,0,0,0,0,0,0,0,0,0,0,0,0,0,0,0,0,0,0,0,0,0,0,0,0,0,0,0,0,0,0,0,0,0,0,0,0,0,0,0],"id":14,"left_children":[1,3,5,7,-1,9,11,13,15,17,19,-1,-1,-1,21,-1,-1,23,25,27,29,31,-1,33,35,37,39,41,43,45,47,-1,-1,-1,-1,-1,-1,-1,-1,-1,-1,-1,-1,-1,-1,-1,-1,-1,-1],"loss_changes":[4.5075546E2,1.286232E2,2.7684244E1,3.8375984E1,0E0,3.2350166E1,9.343529E-2,5.6511736E0,5.513115E-1,4.780681E2,4.4606265E2,0E0,0E0,0E0,1.0564129E0,0E0,0E0,2.8168338E2,2.2328516E2,1.5492816E2,2.5422913E1,5.1041883E-1,0E0,2.0336055E2,2.938266E1,1.8749878E1,3.1181868E1,1.4718262E2,3.2077997E2,7.878513E1,1.6026611E0,0E0,0E0,0E0,0E0,0E0,0E0,0E0,0E0,0E0,0E0,0E0,0E0,0E0,0E0,0E0,0E0,0E0,0E0],"parents":[2147483647,0,0,1,1,2,2,3,3,5,5,6,6,7,7,8,8,9,9,10,10,14,14,17,17,18,18,19,19,20,20,21,21,23,23,24,24,25,25,26,26,27,27,28,28,29,29,30,30],"right_children":[2,4,6,8,-1,10,12,14,16,18,20,-1,-1,-1,22,-1,-1,24,26,28,30,32,-1,34,36,38,40,42,44,46,48,-1,-1,-1,-1,-1,-1,-1,-1,-1,-1,-1,-1,-1,-1,-1,-1,-1,-1],"split_conditions":[2.4992639E-1,-1.0252786E0,3.9040747E-1,-9.7724354E-1,-3.0042708E-1,-1.824245E0,3.9218032E-1,-1.3849196E0,2.4367352E-1,3.2515427E-1,3.4868053E-1,2.0331705E-1,2.841257E-1,-2.623659E-1,2.4367352E-1,-2.952076E-1,-5.7539962E-2,2.3359485E-1,3.8195828E-1,2.897743E-1,3.5640523E-1,-9.962093E-1,-1.5602423E-1,1.1994308E-1,-1.9214199E0,3.763169E-1,-2.4006028E0,-1.4803954E0,-9.9942505E-1,-1.6505721E0,3.630636E-1,-2.2361688E-2,8.481797E-3,4.140321E-1,-2.768363E-1,4.0645996E-1,1.6607057E-1,-3.5855356E-1,-1.8163435E-1,-6.38542E-2,1.4339477E-1,1.2419502E-1,-1.451537E-3,-1.9545144E-1,2.9784435E-1,-6.693893E-2,4.5089394E-1,3.1815195E-1,3.8906252E-1],"split_indices":[2,0,0,1,0,1,0,1,2,0,0,0,0,0,2,0,0,0,0,0,0,1,0,0,1,0,1,1,1,1,0,0,0,0,0,0,0,0,0,0,0,0,0,0,0,0,0,0,0],"split_type":[0,0,0,0,0,0,0,0,0,0,0,0,0,0,0,0,0,0,0,0,0,0,0,0,0,0,0,0,0,0,0,0,0,0,0,0,0,0,0,0,0,0,0,0,0,0,0,0,0],"sum_hessian":[2.3141754E4,8.785663E2,2.2263188E4,3.053845E2,5.731818E2,2.2214828E4,4.8359238E1,2.5280551E2,5.257898E1,1.2419495E3,2.0972879E4,3.7629585E1,1.0729654E1,6.7604036E0,2.4604512E2,5.113058E1,1.4483992E0,5.0233636E2,7.396131E2,2.0587611E4,3.8526764E2,2.4308397E2,2.9611466E0,1.977649E2,3.0457147E2,4.4493036E2,2.9468274E2,1.9661346E4,9.262663E2,1.0433075E2,2.8093692E2,6.5134254E1,1.779497E2,5.0795765E1,1.4696913E2,2.4597922E2,5.8592266E1,3.782419E2,6.668847E1,1.985337E2,9.6149025E1,8.773016E2,1.8784043E4,7.8752954E2,1.3873677E2,5.2029205E1,5.230154E1,7.585424E1,2.0508266E2],"tree_param":{"num_deleted":"0","num_feature":"4","num_nodes":"49","size_leaf_vector":"1"}},{"base_weights":[-1.5156185E-2,-6.579296E-1,5.804448E-3,-1.5566999E-1,-2.9999876E-1,-1.1085176E-1,1.451474E-2,-2.6891693E-2,-9.533694E-1,-5.036101E-2,-1.0072893E0,-2.4015556E-1,2.1630011E-2,-2.5244674E-1,-6.289405E-3,-2.9304376E-1,-4.919166E-2,-1.4700751E-1,3.6266205E-1,-3.262877E-1,-7.362753E-1,-1.1689062E0,6.937491E-2,4.2262974E-1,9.221757E-3,2.561274E-4,-1.2941055E-1,-8.6768425E-1,9.7023316E-2,-9.175307E-2,5.2033323E-1,-2.9475E-1,-6.197997E-1,-1.2025785E0,-6.866273E-1,9.057299E-2,-1.2603164E0,7.186123E-1,1.9354998E-1,-1.0432414E0,1.1515059E-2,-4.5597274E-3,4.0661663E-2,-1.9187279E-1,-2.9878154E-1,2.4136151E-1,9.102486E-3,-1.7019449E-2,-1.8271396E-1,2.0722048E-1,1.22551195E-1,9.779187E-2,-2.198896E-1,-2.1537198E-1,-3.660881E-1,-3.3050945E-1,-1.2138866E-1,-1.07136086E-1,5.9111156E-2,3.5190645E-1,2.9450038E-2,-5.991765E-1,1.0639458E-1,-2.0545933E-1,-8.32884E-1,3.613396E-2,-1.0512217E-3],"categories":[],"categories_nodes":[],"categories_segments":[],"categories_sizes":[],"default_left":[0,0,0,0,0,0,0,0,0,0,0,0,0,0,0,0,0,0,0,0,0,0,0,0,0,0,0,0,0,0,0,0,0,0,0,0,0,0,0,0,0,0,0,0,0,0,0,0,0,0,0,0,0,0,0,0,0,0,0,0,0,0,0,0,0,0,0],"id":15,"left_children":[1,3,5,7,-1,9,11,13,15,17,19,21,23,-1,25,-1,-1,27,29,-1,31,33,35,37,39,41,-1,43,45,47,49,-1,51,53,55,57,-1,59,61,63,65,-1,-1,-1,-1,-1,-1,-1,-1,-1,-1,-1,-1,-1,-1,-1,-1,-1,-1,-1,-1,-1,-1,-1,-1,-1,-1],"loss_changes":[3.0575485E2,1.22973175E2,2.2333712E1,2.99226E1,0E0,8.2759155E1,3.7065075E1,4.224596E0,5.892029E-1,5.7200356E1,1.2998428E0,1.59907E2,9.899756E1,0E0,6.8688506E-1,0E0,0E0,2.0424406E2,1.9519138E1,0E0,1.1250591E-1,1.4320068E0,3.821382E1,4.035161E1,4.659669E1,5.1240337E-1,0E0,7.9570312E0,4.093206E1,1.2490969E0,3.56538E0,0E0,2.356658E0,2.2831726E-1,8.890686E-1,1.9938686E1,0E0,7.323724E1,1.200014E2,2.4168888E1,3.1510553E1,0E0,0E0,0E0,0E0,0E0,0E0,0E0,0E0,0E0,0E0,0E0,0E0,0E0,0E0,0E0,0E0,0E0,0E0,0E0,0E0,0E0,0E0,0E0,0E0,0E0,0E0],"parents":[2147483647,0,0,1,1,2,2,3,3,5,5,6,6,7,7,8,8,9,9,10,10,11,11,12,12,14,14,17,17,18,18,20,20,21,21,22,22,23,23,24,24,25,25,27,27,28,28,29,29,30,30,32,32,33,33,34,34,35,35,37,37,38,38,39,39,40,40],"right_children":[2,4,6,8,-1,10,12,14,16,18,20,22,24,-1,26,-1,-1,28,30,-1,32,34,36,38,40,42,-1,44,46,48,50,-1,52,54,56,58,-1,60,62,64,66,-1,-1,-1,-1,-1,-1,-1,-1,-1,-1,-1,-1,-1,-1,-1,-1,-1,-1,-1,-1,-1,-1,-1,-1,-1,-1],"split_conditions":[2.4992639E-1,-1.0252786E0,5.698924E-1,-9.7724354E-1,-2.9999876E-1,-2.950047E-1,-8.5167736E-1,-1.3849196E0,2.4367352E-1,-4.6925524E-1,5.027022E-1,6.8382627E-1,-4.3508998E-1,-2.5244674E-1,2.4367352E-1,-2.9304376E-1,-4.919166E-2,1.3177977E-2,3.3238077E-1,-3.262877E-1,-1.4164689E0,6.7773557E-1,-9.4510096E-1,-9.893583E-1,-3.7176734E-1,1.9545595E-1,-1.2941055E-1,-5.718581E-1,2.6318055E-1,-9.912961E-1,-9.9577373E-1,-2.9475E-1,-1.4154928E0,-1.0101004E0,6.026225E-1,8.0831385E-1,-1.2603164E0,-1.6078179E-1,-6.424034E-1,6.9256055E-1,-1.396225E-2,-4.5597274E-3,4.0661663E-2,-1.9187279E-1,-2.9878154E-1,2.4136151E-1,9.102486E-3,-1.7019449E-2,-1.8271396E-1,2.0722048E-1,1.22551195E-1,9.779187E-2,-2.198896E-1,-2.1537198E-1,-3.660881E-1,-3.3050945E-1,-1.2138866E-1,-1.07136086E-1,5.9111156E-2,3.5190645E-1,2.9450038E-2,-5.991765E-1,1.0639458E-1,-2.0545933E-1,-8.32884E-1,3.613396E-2,-1.0512217E-3],"split_indices":[2,0,2,1,0,3,3,1,2,3,2,1,3,0,2,0,0,1,2,0,1,1,3,0,3,2,0,1,1,1,1,0,1,0,2,1,0,1,1,1,3,0,0,0,0,0,0,0,0,0,0,0,0,0,0,0,0,0,0,0,0,0,0,0,0,0,0],"split_type":[0,0,0,0,0,0,0,0,0,0,0,0,0,0,0,0,0,0,0,0,0,0,0,0,0,0,0,0,0,0,0,0,0,0,0,0,0,0,0,0,0,0,0,0,0,0,0,0,0,0,0,0,0,0,0,0,0,0,0,0,0,0,0,0,0,0,0],"sum_hessian":[2.2692719E4,7.156734E2,2.1977045E4,2.905341E2,4.251393E2,1.5261201E3,2.0450926E4,2.5104054E2,3.949355E1,1.4306382E3,9.5481926E1,5.549613E2,1.9895965E4,5.2096796E0,2.4583087E2,3.8123947E1,1.3696045E0,1.1598743E3,2.70764E2,7.132573E1,2.4156197E1,1.3802847E2,4.1693283E2,5.9617615E2,1.9299787E4,2.4308711E2,2.7437522E0,2.927534E2,8.6712085E2,6.985551E1,2.009085E2,5.3696775E0,1.8786518E1,1.2762433E2,1.0404146E1,4.1584738E2,1.085443E0,2.5917374E2,3.3700244E2,4.097561E1,1.9258812E4,2.1895995E2,2.4127172E1,1.07516045E2,1.8523735E2,7.37322E1,7.933886E2,6.646536E1,3.3901403E0,7.7555435E1,1.2335306E2,1.8066978E0,1.697982E1,5.9645286E0,1.21659805E2,3.0330613E0,7.371085E0,7.943987E1,3.364075E2,1.4909047E2,1.10083244E2,2.2302982E1,3.1469943E2,3.511029E1,5.865317E0,2.3327456E3,1.6926066E4],"tree_param":{"num_deleted":"0","num_feature":"4","num_nodes":"67","size_leaf_vector":"1"}},{"base_weights":[-1.2426943E-2,-9.6787804E-1,-2.7910296E-3,-3.69922E-1,-2.9911196E-1,-3.1974712E-1,6.057331E-3,-9.371932E-2,-2.3758343E-1,-1.6104573E-1,-2.9796052E-1,-1.6998516E-2,4.4113047E-2,-1.1946119E-1,7.501748E-2,-3.2845095E-2,-3.939766E-1,4.931997E-3,-3.6309418E-1,3.3368576E-2,1.3357127E0,-6.670941E-2,1.1196903E-1,-2.7352363E-1,-6.3019334E-3,-2.101448E-1,-1.0500274E0,-1.7847325E-1,2.7211359E-2,-1.7420796E-1,-9.540122E-1,7.263453E-2,-1.7824359E-1,5.3136367E-1,4.3704727E-1,-8.063354E-2,3.1129101E-2,-1.8635849E-2,6.1572613E-3,-9.568364E-2,2.8915337E-1,-4.479957E-2,-3.3262357E-1,-1.1070376E-3,-3.5043445E-1,4.353912E-3,1.2609443E-1,-3.0941775E-1,1.7941067E-2,1.8662998E-1,-3.191772E-1,9.0067856E-2,1.1165648E-2,-1.3642487E-1,2.4823897E-2,5.147692E-1,-5.0660217E-1],"categories":[],"categories_nodes":[],"categories_segments":[],"categories_sizes":[],"default_left":[0,0,0,0,0,0,0,0,0,0,0,0,0,0,0,0,0,0,0,0,0,0,0,0,0,0,0,0,0,0,0,0,0,0,0,0,0,0,0,0,0,0,0,0,0,0,0,0,0,0,0,0,0,0,0,0,0],"id":16,"left_children":[1,3,5,7,-1,9,11,13,-1,15,-1,17,19,-1,21,23,25,27,29,31,33,35,-1,-1,37,39,41,43,45,47,49,51,53,55,-1,-1,-1,-1,-1,-1,-1,-1,-1,-1,-1,-1,-1,-1,-1,-1,-1,-1,-1,-1,-1,-1,-1],"loss_changes":[2.067069E2,3.5401611E0,6.2344234E1,1.3261945E0,0E0,6.4365234E1,1.8975834E1,4.6123177E-1,0E0,1.4612888E1,0E0,1.0222452E2,1.1318715E2,0E0,2.8878236E-1,7.389531E0,2.073778E1,5.1761757E1,8.941305E1,6.725938E1,5.7809906E0,2.0290226E-1,0E0,0E0,4.6353707E-1,1.780576E1,1.8328438E0,2.3733737E2,5.6377148E1,1.2229953E2,3.429956E1,5.5017326E1,9.146858E1,3.0194284E1,0E0,0E0,0E0,0E0,0E0,0E0,0E0,0E0,0E0,0E0,0E0,0E0,0E0,0E0,0E0,0E0,0E0,0E0,0E0,0E0,0E0,0E0,0E0],"parents":[2147483647,0,0,1,1,2,2,3,3,5,5,6,6,7,7,9,9,11,11,12,12,14,14,15,15,16,16,17,17,18,18,19,19,20,20,21,21,24,24,25,25,26,26,27,27,28,28,29,29,30,30,31,31,32,32,33,33],"right_children":[2,4,6,8,-1,10,12,14,-1,16,-1,18,20,-1,22,24,26,28,30,32,34,36,-1,-1,38,40,42,44,46,48,50,52,54,56,-1,-1,-1,-1,-1,-1,-1,-1,-1,-1,-1,-1,-1,-1,-1,-1,-1,-1,-1,-1,-1,-1,-1],"split_conditions":[-2.0196798E-1,-1.0252786E0,3.3238077E-1,-9.929573E-1,-2.9911196E-1,-1.030219E0,-1.8213312E-1,-9.966126E-1,-2.3758343E-1,-9.7724354E-1,-2.9796052E-1,4.3932772E-1,1.5219554E-1,-1.1946119E-1,-1.0276091E0,-1.3849196E0,-8.5167736E-1,8.623046E-2,-5.701147E-1,-1.6982229E-1,-1.5917712E-1,7.0589244E-2,1.1196903E-1,-2.7352363E-1,-9.95299E-1,1.0408432E0,-5.7375634E-1,-4.4714868E-1,-3.587945E-1,4.3978658E-1,1.1113592E0,-1.4917478E-1,1.4695059E-1,-1.6078179E-1,4.3704727E-1,-8.063354E-2,3.1129101E-2,-1.8635849E-2,6.1572613E-3,-9.568364E-2,2.8915337E-1,-4.479957E-2,-3.3262357E-1,-1.1070376E-3,-3.5043445E-1,4.353912E-3,1.2609443E-1,-3.0941775E-1,1.7941067E-2,1.8662998E-1,-3.191772E-1,9.0067856E-2,1.1165648E-2,-1.3642487E-1,2.4823897E-2,5.147692E-1,-5.0660217E-1],"split_indices":[2,0,2,1,0,0,1,1,0,1,0,3,0,0,0,1,3,3,1,0,1,3,0,0,1,1,1,1,1,3,2,1,1,1,0,0,0,0,0,0,0,0,0,0,0,0,0,0,0,0,0,0,0,0,0,0,0],"split_type":[0,0,0,0,0,0,0,0,0,0,0,0,0,0,0,0,0,0,0,0,0,0,0,0,0,0,0,0,0,0,0,0,0,0,0,0,0,0,0,0,0,0,0,0,0,0,0,0,0,0,0,0,0,0,0,0,0],"sum_hessian":[2.2451223E4,2.2317136E2,2.222805E4,1.101415E1,2.121572E2,6.027263E2,2.1625324E4,7.39584E0,3.6183095E0,4.8878253E2,1.1394378E2,1.3466981E4,8.1583433E3,2.152234E0,5.2436066E0,3.160021E2,1.7278041E2,1.2665417E4,8.015643E2,8.0920537E3,6.628978E1,4.0805902E0,1.1630162E0,8.285987E0,3.0771613E2,1.3599391E2,3.6786503E1,1.3711343E3,1.1294283E4,6.083884E2,1.9317583E2,6.8260874E3,1.2659663E3,9.38012E0,5.690966E1,1.6033765E0,2.4772136E0,9.9457565E1,2.0825854E2,1.25126045E2,1.0867862E1,2.468254E0,3.431825E1,1.1661765E3,2.049577E2,1.0941867E4,3.524154E2,1.2974069E2,4.7864774E2,1.2289327E1,1.8088649E2,9.1817175E2,5.9079155E3,6.1435016E2,6.516161E2,6.2646246E0,3.115496E0],"tree_param":{"num_deleted":"0","num_feature":"4","num_nodes":"57","size_leaf_vector":"1"}},{"base_weights":[-1.0506444E-2,-9.5611256E-1,-3.2770478E-3,-3.1679258E-1,-2.9849115E-1,-1.2935364E-3,-2.9371527E-1,-7.675979E-2,-2.2433005E-1,-1.5425383E-1,5.2815285E-3,-1.0360147E-1,5.963832E-2,-1.1421531E-1,-2.9325897E-1,3.3918172E-1,2.376848E-3,-5.8028445E-2,8.7639645E-2,-3.0391294E-1,-9.116281E-2,3.228225E-1,2.5770602E-1,1.0639158E-3,6.8344426E-1,-6.921242E-2,2.3913722E-2,1.8913517E-2,-6.1337546E-2,-6.186891E-2,1.2781031E-1,-3.5787124E-2,3.2262998E-3,1.7874649E-1,2.74447E-1],"categories":[],"categories_nodes":[],"categories_segments":[],"categories_sizes":[],"default_left":[0,0,0,0,0,0,0,0,0,0,0,0,0,0,0,0,0,0,0,0,0,0,0,0,0,0,0,0,0,0,0,0,0,0,0],"id":17,"left_children":[1,3,5,7,-1,9,-1,11,-1,13,15,-1,17,19,-1,21,23,25,-1,-1,27,-1,29,31,33,-1,-1,-1,-1,-1,-1,-1,-1,-1,-1],"loss_changes":[1.518891E2,3.8727112E0,4.267822E1,1.0935825E0,0E0,2.213441E1,0E0,3.2320789E-1,0E0,2.9787281E1,2.046505E1,0E0,1.9014983E-1,1.7853794E1,0E0,1.0648426E1,1.8706371E1,1.3821648E-1,0E0,0E0,1.4785706E1,0E0,1.2986965E1,2.4354853E1,2.709732E-1,0E0,0E0,0E0,0E0,0E0,0E0,0E0,0E0,0E0,0E0],"parents":[2147483647,0,0,1,1,2,2,3,3,5,5,7,7,9,9,10,10,12,12,13,13,15,15,16,16,17,17,20,20,22,22,23,23,24,24],"right_children":[2,4,6,8,-1,10,-1,12,-1,14,16,-1,18,20,-1,22,24,26,-1,-1,28,-1,30,32,34,-1,-1,-1,-1,-1,-1,-1,-1,-1,-1],"split_conditions":[-2.0196798E-1,-1.0252786E0,7.8763247E-1,-9.929573E-1,-2.9849115E-1,4.0219787E-1,-2.9371527E-1,-9.966126E-1,-2.2433005E-1,-1.030219E0,-1.1976534E0,-1.0360147E-1,-1.0276091E0,-1.3849196E0,-2.9325897E-1,1.0359851E0,3.9040747E-1,7.0589244E-2,8.7639645E-2,-3.0391294E-1,-9.912961E-1,3.228225E-1,1.0381194E0,-1.7078612E0,3.9218032E-1,-6.921242E-2,2.3913722E-2,1.8913517E-2,-6.1337546E-2,-6.186891E-2,1.2781031E-1,-3.5787124E-2,3.2262998E-3,1.7874649E-1,2.74447E-1],"split_indices":[2,0,3,1,0,2,0,1,0,0,3,0,0,1,0,1,0,3,0,0,1,0,1,1,0,0,0,0,0,0,0,0,0,0,0],"split_type":[0,0,0,0,0,0,0,0,0,0,0,0,0,0,0,0,0,0,0,0,0,0,0,0,0,0,0,0,0,0,0,0,0,0,0],"sum_hessian":[2.2217936E4,1.6757707E2,2.205036E4,1.0126186E1,1.5745088E2,2.2006627E4,4.3732807E1,7.2605195E0,2.865667E0,9.0605194E2,2.1100574E4,1.9294478E0,5.331072E0,8.6511725E2,4.0934658E1,1.8097765E2,2.0919598E4,4.0378804E0,1.2931913E0,2.0559208E1,8.4455804E2,1.6802546E1,1.641751E2,2.0880346E4,3.9250656E1,1.4922143E0,2.5456662E0,3.578832E2,4.8667484E2,4.3648567E1,1.20526535E2,1.5550774E3,1.932527E4,3.1062466E1,8.188191E0],"tree_param":{"num_deleted":"0","num_feature":"4","num_nodes":"35","size_leaf_vector":"1"}},{"base_weights":[-7.815588E-3,-9.841378E-1,-2.6023663E-3,-7.7315204E-2,-2.9769477E-1,-1.0666357E-3,-2.916894E-1,-3.5310793E-3,2.876452E-1,-2.3518153E-1,-9.799126E-4,-7.9673536E-2,6.5731716E-1,-4.1257385E-3,3.4897843E-1,-9.761776E-2,5.213758E-1,1.7261665E-1,2.9811275E-1,-2.9799125E-1,-8.9806976E-4,-1.5861388E-2,2.994601E-1,1.3900605E-1,2.277218E-1],"categories":[],"categories_nodes":[],"categories_segments":[],"categories_sizes":[],"default_left":[0,0,0,0,0,0,0,0,0,0,0,0,0,0,0,0,0,0,0,0,0,0,0,0,0],"id":18,"left_children":[1,3,5,-1,-1,7,-1,9,11,-1,13,15,17,19,21,-1,23,-1,-1,-1,-1,-1,-1,-1,-1],"loss_changes":[1.1259588E2,4.42276E-1,3.2770016E1,0E0,0E0,1.5634507E1,0E0,4.337638E1,2.530597E1,0E0,2.3910053E1,1.4078767E1,1.9858208E0,2.4102968E1,5.0532654E1,0E0,3.0495167E-2,0E0,0E0,0E0,0E0,0E0,0E0,0E0,0E0],"parents":[2147483647,0,0,1,1,2,2,5,5,7,7,8,8,10,10,11,11,12,12,13,13,14,14,16,16],"right_children":[2,4,6,-1,-1,8,-1,10,12,-1,14,16,18,20,22,-1,24,-1,-1,-1,-1,-1,-1,-1,-1],"split_conditions":[-2.2124021E-1,-1.0252786E0,7.8763247E-1,-7.7315204E-2,-2.9769477E-1,3.871078E-1,-2.916894E-1,-2.4006028E0,-2.5345893E0,-2.3518153E-1,3.763169E-1,3.9040747E-1,-2.4006028E0,-2.275388E0,-2.1554236E0,-9.761776E-2,3.9218032E-1,1.7261665E-1,2.9811275E-1,-2.9799125E-1,-8.9806976E-4,-1.5861388E-2,2.994601E-1,1.3900605E-1,2.277218E-1],"split_indices":[2,0,3,0,0,0,0,1,1,0,0,0,1,1,1,0,0,0,0,0,0,0,0,0,0],"split_type":[0,0,0,0,0,0,0,0,0,0,0,0,0,0,0,0,0,0,0,0,0,0,0,0,0],"sum_hessian":[2.2121438E4,1.16496086E2,2.2004941E4,1.658874E0,1.1483721E2,2.1971146E4,3.3795143E1,2.1786168E4,1.8497891E2,6.998935E1,2.1716178E4,9.317826E1,9.1800644E1,2.1523686E4,1.9249129E2,6.646492E1,2.671334E1,7.6001045E1,1.5799599E1,2.3605076E1,2.1500082E4,1.1946466E2,7.3026634E1,2.3842644E1,2.8706982E0],"tree_param":{"num_deleted":"0","num_feature":"4","num_nodes":"25","size_leaf_vector":"1"}},{"base_weights":[-5.7355673E-3,-9.781824E-1,-1.8440405E-3,-6.636574E-2,-2.9673493E-1,-6.9341407E-4,-2.8880554E-1,-1.6778721E-1,3.267589E-3,-1.1284185E-1,-2.9104957E-1,2.8091228E-2,-2.4256581E-2,-1.329275E-1,5.1977634E-1,2.4836724E-1,-1.7770685E-3,-3.3218876E-1,-3.542513E-3,-1.1137675E-2,-1.0498753E-1,-9.936676E-2,6.561425E-1,-6.1658148E-2,1.8603574E-1,-3.2853705E-1,1.0361317E-2,-1.7572416E-1,-6.909824E-3,-3.958151E-2,4.240712E-3],"categories":[],"categories_nodes":[],"categories_segments":[],"categories_sizes":[],"default_left":[0,0,0,0,0,0,0,0,0,0,0,0,0,0,0,0,0,0,0,0,0,0,0,0,0,0,0,0,0,0,0],"id":19,"left_children":[1,3,5,-1,-1,7,-1,9,11,13,-1,15,17,19,21,23,25,27,29,-1,-1,-1,-1,-1,-1,-1,-1,-1,-1,-1,-1],"loss_changes":[8.340882E1,5.083084E-1,2.4271395E1,0E0,0E0,1.4514524E1,0E0,2.2278618E1,1.4637461E1,6.1225295E0,0E0,7.411048E1,6.4799E1,9.604104E0,2.1815346E1,2.270771E2,3.9391495E2,5.0179237E1,2.1610023E1,0E0,0E0,0E0,0E0,0E0,0E0,0E0,0E0,0E0,0E0,0E0,0E0],"parents":[2147483647,0,0,1,1,2,2,5,5,7,7,8,8,9,9,11,11,12,12,13,13,14,14,15,15,16,16,17,17,18,18],"right_children":[2,4,6,-1,-1,8,-1,10,12,14,-1,16,18,20,22,24,26,28,30,-1,-1,-1,-1,-1,-1,-1,-1,-1,-1,-1,-1],"split_conditions":[-2.2124021E-1,-1.0252786E0,7.8763247E-1,-6.636574E-2,-2.9673493E-1,3.3238077E-1,-2.8880554E-1,-1.0252786E0,-2.7341405E-1,1.0409379E0,-2.9104957E-1,-1.2693019E0,1.1090441E0,-9.7724354E-1,-1.0508261E0,-7.335523E-1,-1.0362304E0,-3.1690326E-1,4.2604026E-1,-1.1137675E-2,-1.0498753E-1,-9.936676E-2,6.561425E-1,-6.1658148E-2,1.8603574E-1,-3.2853705E-1,1.0361317E-2,-1.7572416E-1,-6.909824E-3,-3.958151E-2,4.240712E-3],"split_indices":[2,0,3,0,0,2,0,0,0,1,0,1,2,1,0,0,1,1,3,0,0,0,0,0,0,0,0,0,0,0,0],"split_type":[0,0,0,0,0,0,0,0,0,0,0,0,0,0,0,0,0,0,0,0,0,0,0,0,0,0,0,0,0,0,0],"sum_hessian":[2.2040213E4,8.685083E1,2.1953361E4,1.538987E0,8.531184E1,2.1928104E4,2.5258621E1,5.0681686E2,2.1421287E4,4.754028E2,3.141407E1,1.1263176E4,1.0158111E4,4.615388E2,1.3864003E1,1.3439977E3,9.919178E3,6.3930237E2,9.518809E3,3.2100958E2,1.405292E2,9.709676E0,4.1543274E0,6.053438E2,7.386539E2,3.179308E2,9.601247E3,3.50742E2,2.885604E2,1.1512058E3,8.367603E3],"tree_param":{"num_deleted":"0","num_feature":"4","num_nodes":"31","size_leaf_vector":"1"}},{"base_weights":[-4.8171175E-3,-2.954766E-1,-1.9411215E-3,-1.0677712E-3,-2.852388E-1,2.6940819E-2,-2.1813102E-2,7.256126E-2,-1.3456234E-1,-4.1926388E-2,6.69794E-1,3.473652E-2,3.3097827E-1,-3.0441374E-1,5.06475E-2,-1.7855994E-1,1.7580738E-2,5.1342267E-1,3.630151E-1,-1.5982814E-2,5.503393E-2,1.5231279E-1,-1.4301157E-1,2.2429205E-1,-1.644372E-1,-1.3532521E-1,2.3918472E-1,1.2812202E-2,-1.13764726E-1,1.2274615E-3,2.9845238E-1,9.3150064E-2,3.2249764E-1],"categories":[],"categories_nodes":[],"categories_segments":[],"categories_sizes":[],"default_left":[0,0,0,0,0,0,0,0,0,0,0,0,0,0,0,0,0,0,0,0,0,0,0,0,0,0,0,0,0,0,0,0,0],"id":20,"left_children":[1,-1,3,5,-1,7,9,11,13,15,17,19,21,23,25,27,29,31,-1,-1,-1,-1,-1,-1,-1,-1,-1,-1,-1,-1,-1,-1,-1],"loss_changes":[6.1766308E1,0E0,1.810571E1,1.2685389E1,0E0,6.8455154E1,1.7449591E2,7.079796E1,6.439396E1,9.9105225E1,2.9327255E1,8.273355E1,1.3225687E2,2.741501E2,3.6741678E2,1.6420258E2,1.1193694E2,3.1193512E1,0E0,0E0,0E0,0E0,0E0,0E0,0E0,0E0,0E0,0E0,0E0,0E0,0E0,0E0,0E0],"parents":[2147483647,0,0,2,2,3,3,5,5,6,6,7,7,8,8,9,9,10,10,11,11,12,12,13,13,14,14,15,15,16,16,17,17],"right_children":[2,-1,4,6,-1,8,10,12,14,16,18,20,22,24,26,28,30,32,-1,-1,-1,-1,-1,-1,-1,-1,-1,-1,-1,-1,-1,-1,-1],"split_conditions":[-2.2566515E-1,-2.954766E-1,7.8763247E-1,-9.3289167E-1,-2.852388E-1,2.8045765E-1,2.428314E-1,2.0334168E-1,3.4106055E-1,-2.7165157E-1,-6.0043484E-1,-9.9942505E-1,-1.0948149E0,-1.9214199E0,-1.824245E0,4.2475227E-1,1.4125408E-1,2.9904604E-1,3.630151E-1,-1.5982814E-2,5.503393E-2,1.5231279E-1,-1.4301157E-1,2.2429205E-1,-1.644372E-1,-1.3532521E-1,2.3918472E-1,1.2812202E-2,-1.13764726E-1,1.2274615E-3,2.9845238E-1,9.3150064E-2,3.2249764E-1],"split_indices":[2,0,3,1,0,0,0,0,0,1,1,1,1,1,1,3,0,0,0,0,0,0,0,0,0,0,0,0,0,0,0,0,0],"split_type":[0,0,0,0,0,0,0,0,0,0,0,0,0,0,0,0,0,0,0,0,0,0,0,0,0,0,0,0,0,0,0,0,0],"sum_hessian":[2.1912123E4,6.311123E1,2.1849012E4,2.182992E4,1.9091694E1,9.288744E3,1.2541176E4,7.243262E3,2.0454822E3,1.2187674E4,3.5350195E2,6.3194175E3,9.2384454E2,1.0666449E3,9.7883734E2,3.6970115E3,8.490662E3,2.756642E2,7.783772E1,3.970284E3,2.3491335E3,7.5829236E2,1.6555223E2,2.0022812E2,8.6641675E2,5.856691E2,3.931682E2,1.7585782E3,1.9384333E3,8.376051E3,1.14611084E2,2.0363416E2,7.203007E1],"tree_param":{"num_deleted":"0","num_feature":"4","num_nodes":"33","size_leaf_vector":"1"}},{"base_weights":[-3.182149E-3,-2.9386267E-1,-1.0159379E-3,-5.0759926E-3,2.7007642E-1,-1.7780437E-1,4.9841674E-3,1.747689E-1,3.263923E-1,2.5517485E-1,-6.456433E-1,-7.3789777E-3,7.947712E-1,-1.9269366E-2,3.1216028E-1,6.569994E-1,-1.1373397E0,-8.418129E-1,-2.5347614E-1,6.777395E-1,-1.3825323E-2,1.4732507E-1,1.2416422E0,-5.2349895E-1,8.8781245E-2,7.5957365E-2,5.7617205E-1,3.997945E-2,3.6455342E-1,-6.5819216E-1,-2.0473303E-1,-1.73139E-1,-4.0308616E-1,-2.436822E-1,3.5062152E-1,3.1833258E-1,-3.9720094E-1,-2.1772468E-1,-1.819508E-3,-3.0160505E-1,2.834169E-1,2.8153676E-1,4.044205E-1,-2.60759E-1,-1.396189E-1,-3.38241E-2,1.5390271E-1,1.6437638E-1,2.647205E-1],"categories":[],"categories_nodes":[],"categories_segments":[],"categories_sizes":[],"default_left":[0,0,0,0,0,0,0,0,0,0,0,0,0,0,0,0,0,0,0,0,0,0,0,0,0,0,0,0,0,0,0,0,0,0,0,0,0,0,0,0,0,0,0,0,0,0,0,0,0],"id":21,"left_children":[1,-1,3,5,7,9,11,13,-1,15,17,19,21,23,25,27,29,31,33,35,37,39,41,43,-1,45,47,-1,-1,-1,-1,-1,-1,-1,-1,-1,-1,-1,-1,-1,-1,-1,-1,-1,-1,-1,-1,-1,-1],"loss_changes":[4.5838467E1,0E0,2.3804579E1,3.7027916E1,2.4686762E1,2.3772829E2,1.9662463E2,7.657646E0,0E0,3.419579E2,4.3174377E1,8.757654E1,8.961328E1,1.9214952E1,1.0438665E1,1.3836919E2,6.431673E1,4.9098633E1,1.5153441E2,1.4325024E2,1.0852021E2,1.1848388E2,4.6555786E0,5.2929115E-1,0E0,7.46987E0,2.0188904E-1,0E0,0E0,0E0,0E0,0E0,0E0,0E0,0E0,0E0,0E0,0E0,0E0,0E0,0E0,0E0,0E0,0E0,0E0,0E0,0E0,0E0,0E0],"parents":[2147483647,0,0,2,2,3,3,4,4,5,5,6,6,7,7,9,9,10,10,11,11,12,12,13,13,14,14,15,15,16,16,17,17,18,18,19,19,20,20,21,21,22,22,23,23,25,25,26,26],"right_children":[2,-1,4,6,8,10,12,14,-1,16,18,20,22,24,26,28,30,32,34,36,38,40,42,44,-1,46,48,-1,-1,-1,-1,-1,-1,-1,-1,-1,-1,-1,-1,-1,-1,-1,-1,-1,-1,-1,-1,-1,-1],"split_conditions":[-2.2566515E-1,-2.9386267E-1,3.8195828E-1,-1.7078612E0,-2.275388E0,3.163022E-1,3.3307955E-1,3.871078E-1,3.263923E-1,-1.7649133E0,-1.824245E0,-1.6505721E0,-1.5926515E0,-2.4006028E0,-2.5345893E0,2.3359485E-1,2.1192119E-2,-2.0389442E0,3.630636E-1,3.0752727E-1,-1.5926515E0,3.4868053E-1,-1.5358195E0,-2.5345893E0,8.8781245E-2,3.9040747E-1,-2.4006028E0,3.997945E-2,3.6455342E-1,-6.5819216E-1,-2.0473303E-1,-1.73139E-1,-4.0308616E-1,-2.436822E-1,3.5062152E-1,3.1833258E-1,-3.9720094E-1,-2.1772468E-1,-1.819508E-3,-3.0160505E-1,2.834169E-1,2.8153676E-1,4.044205E-1,-2.60759E-1,-1.396189E-1,-3.38241E-2,1.5390271E-1,1.6437638E-1,2.647205E-1],"split_indices":[2,0,0,1,1,0,0,0,0,1,1,1,1,1,1,0,0,1,0,0,1,0,1,1,0,0,1,0,0,0,0,0,0,0,0,0,0,0,0,0,0,0,0,0,0,0,0,0,0],"split_type":[0,0,0,0,0,0,0,0,0,0,0,0,0,0,0,0,0,0,0,0,0,0,0,0,0,0,0,0,0,0,0,0,0,0,0,0,0,0,0,0,0,0,0,0,0,0,0,0,0],"sum_hessian":[2.1672484E4,4.697861E1,2.1625506E4,2.1307375E4,3.1813177E2,1.1717795E3,2.0135596E4,2.8601666E2,3.2115097E1,6.087985E2,5.62981E2,1.982623E4,3.0936462E2,1.1892221E2,1.6709445E2,4.72874E2,1.3592451E2,3.7450156E2,1.8847945E2,1.8383734E2,1.9642393E4,1.268739E2,1.8249072E2,4.5490784E1,7.343143E1,8.887158E1,7.822287E1,2.4460335E2,2.2827063E2,3.975605E1,9.616847E1,2.4658707E2,1.2791447E2,1.3562164E2,5.2857807E1,1.5468275E2,2.915458E1,2.108048E2,1.9431588E4,5.177295E1,7.510095E1,4.9965897E1,1.3252483E2,4.5369916E0,4.095379E1,6.2589535E1,2.628205E1,7.41697E1,4.0531697E0],"tree_param":{"num_deleted":"0","num_feature":"4","num_nodes":"49","size_leaf_vector":"1"}},{"base_weights":[-1.9264288E-3,-2.9175764E-1,-2.9422893E-4,-9.766737E-2,9.260725E-3,1.2482597E-1,-2.1525364E-1,-2.4933444E-1,1.5218758E-2,4.7221038E-1,2.4423527E-2,-1.664562E-1,-3.276499E-1,-3.3704132E-1,-1.3245727E-2,6.578989E-1,9.9307895E-3,-3.0312526E-1,7.05006E-1,-1.5433291E0,4.7492675E-2,-7.7549064E-1,-1.1812229E-1,-1.077983E-1,6.81026E-1,1.0540645E0,-6.968983E-1,3.9703277E-1,4.3531777E-3,1.1508605E-1,-1.360342E-1,1.5895674E-1,3.773773E-1,-2.4189977E-1,-5.44246E-1,3.0094385E-1,5.711685E-3,-3.1307867E-1,-1.4294231E-1,2.5295129E-2,-1.04847714E-1,-1.1603351E-2,-3.1478742E-1,3.0966705E-1,1.122367E-1,-1.7177384E-1,5.264053E-1,4.423187E-1,-4.1642892E-1,6.669785E-2,3.2902908E-1,-9.257351E-2,2.8437525E-3],"categories":[],"categories_nodes":[],"categories_segments":[],"categories_sizes":[],"default_left":[0,0,0,0,0,0,0,0,0,0,0,0,0,0,0,0,0,0,0,0,0,0,0,0,0,0,0,0,0,0,0,0,0,0,0,0,0,0,0,0,0,0,0,0,0,0,0,0,0,0,0,0,0],"id":22,"left_children":[1,-1,3,5,7,9,11,13,15,17,19,21,-1,-1,23,25,27,29,31,33,35,37,39,41,43,45,47,49,51,-1,-1,-1,-1,-1,-1,-1,-1,-1,-1,-1,-1,-1,-1,-1,-1,-1,-1,-1,-1,-1,-1,-1,-1],"loss_changes":[3.3993816E1,0E0,1.9932806E1,5.011225E1,3.0062614E1,2.3097567E1,5.3429283E1,9.067314E1,6.4806335E1,2.7018127E1,1.8701317E1,3.487936E1,0E0,0E0,2.2852419E1,8.4260445E1,4.0841087E1,3.7862651E0,1.0423397E1,3.3950806E-2,1.3809636E1,6.490906E0,5.1637154E1,1.98905E1,4.1116524E0,1.3868611E2,5.579349E1,3.260155E1,2.9917322E1,0E0,0E0,0E0,0E0,0E0,0E0,0E0,0E0,0E0,0E0,0E0,0E0,0E0,0E0,0E0,0E0,0E0,0E0,0E0,0E0,0E0,0E0,0E0,0E0],"parents":[2147483647,0,0,2,2,3,3,4,4,5,5,6,6,7,7,8,8,9,9,10,10,11,11,14,14,15,15,16,16,17,17,18,18,19,19,20,20,21,21,22,22,23,23,24,24,25,25,26,26,27,27,28,28],"right_children":[2,-1,4,6,8,10,12,14,16,18,20,22,-1,-1,24,26,28,30,32,34,36,38,40,42,44,46,48,50,52,-1,-1,-1,-1,-1,-1,-1,-1,-1,-1,-1,-1,-1,-1,-1,-1,-1,-1,-1,-1,-1,-1,-1,-1],"split_conditions":[-2.2566515E-1,-2.9175764E-1,6.026225E-1,-9.4510096E-1,-8.5167736E-1,8.0831385E-1,3.328495E-1,6.7773557E-1,-6.7395324E-1,6.8135184E-1,8.6331105E-1,-1.3849196E0,-3.276499E-1,-3.3704132E-1,1.0408432E0,1.9491515E-1,-9.893583E-1,-1.0558606E0,7.0597494E-1,-1.0492626E0,1.0241923E0,5.027022E-1,-6.0043484E-1,1.0403017E0,1.0414329E0,-9.956673E-1,-9.988375E-1,-5.701147E-1,-3.0542442E-1,1.1508605E-1,-1.360342E-1,1.5895674E-1,3.773773E-1,-2.4189977E-1,-5.44246E-1,3.0094385E-1,