{"learner":{"attributes":{"scikit_learn":"{\"_estimator_type\": \"classifier\"}"},"feature_names":[],"feature_types":[],"gradient_booster":{"model":{"gbtree_model_param":{"num_parallel_tree":"1","num_trees":"100"},"iteration_indptr":[0,1,2,3,4,5,6,7,8,9,10,11,12,13,14,15,16,17,18,19,20,21,22,23,24,25,26,27,28,29,30,31,32,33,34,35,36,37,38,39,40,41,42,43,44,45,46,47,48,49,50,51,52,53,54,55,56,57,58,59,60,61,62,63,64,65,66,67,68,69,70,71,72,73,74,75,76,77,78,79,80,81,82,83,84,85,86,87,88,89,90,91,92,93,94,95,96,97,98,99,100],"tree_info":[0,0,0,0,0,0,0,0,0,0,0,0,0,0,0,0,0,0,0,0,0,0,0,0,0,0,0,0,0,0,0,0,0,0,0,0,0,0,0,0,0,0,0,0,0,0,0,0,0,0,0,0,0,0,0,0,0,0,0,0,0,0,0,0,0,0,0,0,0,0,0,0,0,0,0,0,0,0,0,0,0,0,0,0,0,0,0,0,0,0,0,0,0,0,0,0,0,0,0,0],"trees":[{"base_weights":[-5.6507657E-3,-1.6606247E0,5.918428E-1,-4.0604815E-1,-4.987402E-1,1.2746982E-1,1.0248512E0,1.3480377E0,-1.7424016E-1,1.114228E0,2.464947E-1,3.5157037E-1,1.5628746E0,-8.484205E-1,2.3821542E-1,9.707512E-1,1.5394783E0,-4.731577E-1,1.9191831E0,-1.375843E0,4.6087304E-1,1.9272817E0,1.1878873E0,-1.8412577E-1,-1.1419833E0,9.5018387E-1,-8.370924E-2,1.0407615E0,-1.0425518E-1,2.182304E0,1.2385418E0,7.097392E-1,-7.7939135E-1,1.3957227E0,6.5273947E-1,-2.7530682E-1,-4.6479666E-1,-4.3760952E-1,1.6960001E-1,5.0097543E-1,6.767491E-1,2.5236732E-1,4.2508906E-1,-9.635158E-2,3.945211E-1,-3.8311073E-1,-1.3397694E-1,6.1934546E-2,5.3585684E-1,-1.2835731E-2,-4.372098E-1,5.0459903E-1,2.9948893E-1,-1.4437622E-1,2.0422359E-1,5.3643465E-1,6.8107456E-1,7.340424E-2,5.203892E-1,-9.351096E-2,6.8985516E-1,2.0232776E-1,-3.7454295E-1,1.976796E-1,5.847088E-1],"categories":[],"categories_nodes":[],"categories_segments":[],"categories_sizes":[],"default_left":[0,0,0,0,0,0,0,0,0,0,0,0,0,0,0,0,0,0,0,0,0,0,0,0,0,0,0,0,0,0,0,0,0,0,0,0,0,0,0,0,0,0,0,0,0,0,0,0,0,0,0,0,0,0,0,0,0,0,0,0,0,0,0,0,0],"id":0,"left_children":[1,3,5,-1,-1,7,9,11,13,15,17,19,21,23,25,27,29,31,33,35,37,39,41,43,45,47,49,51,53,55,57,59,61,63,-1,-1,-1,-1,-1,-1,-1,-1,-1,-1,-1,-1,-1,-1,-1,-1,-1,-1,-1,-1,-1,-1,-1,-1,-1,-1,-1,-1,-1,-1,-1],"loss_changes":[4.3779402E4,4.3964844E0,6.540828E3,0E0,0E0,5.780938E3,1.1707559E3,6.6550977E2,3.5003057E3,9.1975E2,2.0895435E3,1.05067024E2,3.47417E2,9.3154565E2,1.7901826E3,8.500039E2,7.338428E2,4.4030096E2,6.710132E1,1.2142677E0,1.0528348E2,1.0584326E2,9.917639E1,3.0152832E2,3.1060742E2,1.5117427E3,3.0233154E2,2.8701953E2,2.0493633E2,3.798291E1,1.279353E3,4.069579E2,6.587938E2,6.98764E1,0E0,0E0,0E0,0E0,0E0,0E0,0E0,0E0,0E0,0E0,0E0,0E0,0E0,0E0,0E0,0E0,0E0,0E0,0E0,0E0,0E0,0E0,0E0,0E0,0E0,0E0,0E0,0E0,0E0,0E0,0E0],"parents":[2147483647,0,0,1,1,2,2,5,5,6,6,7,7,8,8,9,9,10,10,11,11,12,12,13,13,14,14,15,15,16,16,17,17,18,18,19,19,20,20,21,21,22,22,23,23,24,24,25,25,26,26,27,27,28,28,29,29,30,30,31,31,32,32,33,33],"right_children":[2,4,6,-1,-1,8,10,12,14,16,18,20,22,24,26,28,30,32,34,36,38,40,42,44,46,48,50,52,54,56,58,60,62,64,-1,-1,-1,-1,-1,-1,-1,-1,-1,-1,-1,-1,-1,-1,-1,-1,-1,-1,-1,-1,-1,-1,-1,-1,-1,-1,-1,-1,-1,-1,-1],"split_conditions":[-4.009946E-1,-2.6933355E0,2.5224262E-1,-4.0604815E-1,-4.987402E-1,-1.1041119E0,1.8621143E0,-2.034205E-1,3.1604695E-1,4.9241874E-1,3.35451E0,-2.0812802E0,-1.6937879E0,-5.883641E-1,-2.3566234E-1,4.554288E-1,7.196487E-1,-2.342135E-1,3.6693122E0,-2.5181823E0,-3.7820685E-1,2.4440852E-1,2.7308333E-1,-6.3201624E-1,1.0282941E-1,6.578008E-1,2.160068E-1,3.280462E-1,9.3463224E-1,8.927471E-1,1.1690744E0,2.4441097E0,2.231275E0,1.3915478E-1,6.5273947E-1,-2.7530682E-1,-4.6479666E-1,-4.3760952E-1,1.6960001E-1,5.0097543E-1,6.767491E-1,2.5236732E-1,4.2508906E-1,-9.635158E-2,3.945211E-1,-3.8311073E-1,-1.3397694E-1,6.1934546E-2,5.3585684E-1,-1.2835731E-2,-4.372098E-1,5.0459903E-1,2.9948893E-1,-1.4437622E-1,2.0422359E-1,5.3643465E-1,6.8107456E-1,7.340424E-2,5.203892E-1,-9.351096E-2,6.8985516E-1,2.0232776E-1,-3.7454295E-1,1.976796E-1,5.847088E-1],"split_indices":[0,1,1,0,0,1,1,0,0,1,1,1,1,1,1,1,1,0,1,1,0,0,0,1,0,0,1,1,0,0,1,1,1,0,0,0,0,0,0,0,0,0,0,0,0,0,0,0,0,0,0,0,0,0,0,0,0,0,0,0,0,0,0,0,0],"split_type":[0,0,0,0,0,0,0,0,0,0,0,0,0,0,0,0,0,0,0,0,0,0,0,0,0,0,0,0,0,0,0,0,0,0,0,0,0,0,0,0,0,0,0,0,0,0,0,0,0,0,0,0,0,0,0,0,0,0,0,0,0,0,0,0,0],"sum_hessian":[4.4271668E4,1.1743109E4,3.2528559E4,7.4414635E1,1.1668695E4,1.5696447E4,1.6832111E4,3.1102917E3,1.2586155E4,1.509801E4,1.7341011E3,5.521086E2,2.558183E3,4.7769395E3,7.809216E3,1.1291581E4,3.8064287E3,1.2129586E3,5.211425E2,3.216633E1,5.1994226E2,1.2952948E3,1.2628884E3,1.4645281E3,3.3124116E3,2.4309583E3,5.378258E3,1.0601205E4,6.903758E2,1.2117583E3,2.5946704E3,2.49169E2,9.6378955E2,1.7355414E2,3.4758838E2,1.05620775E1,2.160425E1,2.6165146E1,4.9377713E2,7.297435E2,5.655513E2,5.043392E2,7.585492E2,1.3425841E3,1.21943985E2,2.7730254E3,5.393861E2,1.2871332E3,1.143825E3,5.2236675E3,1.5459041E2,6.560491E2,9.945156E3,4.666518E2,2.23724E2,2.2492424E2,9.868341E2,8.6441003E2,1.7302604E3,1.5218994E2,9.697907E1,2.3500623E2,7.287833E2,7.5374825E1,9.817931E1],"tree_param":{"num_deleted":"0","num_feature":"2","num_nodes":"65","size_leaf_vector":"1"}},{"base_weights":[-1.9303123E-2,-1.397714E0,4.030652E-1,-3.284825E-1,-4.198826E-1,6.483623E-2,6.8220246E-1,8.558776E-1,-2.0140004E-1,7.325488E-1,1.3238652E-1,1.1736093E0,6.436172E-1,-7.2104204E-1,1.3802196E-1,6.3678914E-1,1.0069512E0,-5.085828E-1,1.29319E0,1.6187805E-1,1.2915148E0,-4.1988406E-1,6.661493E-1,-4.4928738E-1,-9.969125E-1,6.107111E-1,-2.377947E-1,6.8256724E-1,-3.9742598E-1,1.4086795E0,8.079436E-1,7.0531374E-1,-8.358864E-1,9.400684E-1,1.467468E0,1.7309949E-1,-3.8963044E-1,5.043003E-1,3.54719E-1,1.5183301E-1,2.5535905E-1,-1.539248E-1,-3.1396918E-2,-3.538779E-1,-3.679807E-2,4.3372964E-3,2.13632E-1,-4.1847818E-2,-3.733889E-1,1.9771159E-1,4.2808577E-1,-2.2168355E-1,5.1698834E-2,2.7698186E-1,4.4174352E-1,5.05774E-2,3.276116E-1,-1.4177777E-1,4.8678455E-1,6.494857E-2,-3.1999576E-1,1.3414684E-1,3.9284113E-1,5.029692E-1,4.2206207E-1],"categories":[],"categories_nodes":[],"categories_segments":[],"categories_sizes":[],"default_left":[0,0,0,0,0,0,0,0,0,0,0,0,0,0,0,0,0,0,0,0,0,0,0,0,0,0,0,0,0,0,0,0,0,0,0,0,0,0,0,0,0,0,0,0,0,0,0,0,0,0,0,0,0,0,0,0,0,0,0,0,0,0,0,0,0],"id":1,"left_children":[1,3,5,-1,-1,7,9,11,13,15,17,19,21,23,25,27,29,31,33,35,37,-1,39,41,43,45,47,49,51,53,55,57,59,61,63,-1,-1,-1,-1,-1,-1,-1,-1,-1,-1,-1,-1,-1,-1,-1,-1,-1,-1,-1,-1,-1,-1,-1,-1,-1,-1,-1,-1,-1,-1],"loss_changes":[2.4928457E4,4.2285156E0,3.0943286E3,0E0,0E0,3.1213442E3,4.9694727E2,2.5094336E2,1.9559579E3,4.3159668E2,1.1223054E3,1.779458E2,1.0403998E2,3.2802954E2,1.1918751E3,5.777202E2,3.3893262E2,3.8675427E2,3.1641724E1,9.596016E1,5.4854004E1,0E0,6.519159E1,4.8513824E1,3.4697778E2,1.7964429E2,3.6978336E2,2.0363037E2,1.0084746E2,4.2237793E1,5.1692017E2,2.2437845E2,1.8625433E2,3.2205902E1,2.1704712E0,0E0,0E0,0E0,0E0,0E0,0E0,0E0,0E0,0E0,0E0,0E0,0E0,0E0,0E0,0E0,0E0,0E0,0E0,0E0,0E0,0E0,0E0,0E0,0E0,0E0,0E0,0E0,0E0,0E0,0E0],"parents":[2147483647,0,0,1,1,2,2,5,5,6,6,7,7,8,8,9,9,10,10,11,11,12,12,13,13,14,14,15,15,16,16,17,17,18,18,19,19,20,20,22,22,23,23,24,24,25,25,26,26,27,27,28,28,29,29,30,30,31,31,32,32,33,33,34,34],"right_children":[2,4,6,-1,-1,8,10,12,14,16,18,20,22,24,26,28,30,32,34,36,38,-1,40,42,44,46,48,50,52,54,56,58,60,62,64,-1,-1,-1,-1,-1,-1,-1,-1,-1,-1,-1,-1,-1,-1,-1,-1,-1,-1,-1,-1,-1,-1,-1,-1,-1,-1,-1,-1,-1,-1],"split_conditions":[-4.009946E-1,-2.6933355E0,1.8465991E-1,-3.284825E-1,-4.198826E-1,-9.871382E-1,2.0991142E0,-1.6937879E0,3.5890493E-1,4.8011157E-1,3.35451E0,-2.034205E-1,-3.7820685E-1,-3.4016797E-1,-1.4045845E-1,4.554288E-1,7.196487E-1,-2.034205E-1,3.6693122E0,-1.7872784E0,1.6540898E-2,-4.1988406E-1,2.7308333E-1,-3.9635044E-1,1.21836886E-1,4.568086E-1,1.3345978E-1,4.4723547E-1,9.3463224E-1,4.9241874E-1,1.1690744E0,2.4441097E0,2.231275E0,1.3915478E-1,5.740305E-3,1.7309949E-1,-3.8963044E-1,5.043003E-1,3.54719E-1,1.5183301E-1,2.5535905E-1,-1.539248E-1,-3.1396918E-2,-3.538779E-1,-3.679807E-2,4.3372964E-3,2.13632E-1,-4.1847818E-2,-3.733889E-1,1.9771159E-1,4.2808577E-1,-2.2168355E-1,5.1698834E-2,2.7698186E-1,4.4174352E-1,5.05774E-2,3.276116E-1,-1.4177777E-1,4.8678455E-1,6.494857E-2,-3.1999576E-1,1.3414684E-1,3.9284113E-1,5.029692E-1,4.2206207E-1],"split_indices":[0,1,1,0,0,1,1,1,0,1,1,0,0,1,1,1,1,0,1,1,0,0,0,1,0,0,1,1,0,1,1,1,1,0,0,0,0,0,0,0,0,0,0,0,0,0,0,0,0,0,0,0,0,0,0,0,0,0,0,0,0,0,0,0,0],"split_type":[0,0,0,0,0,0,0,0,0,0,0,0,0,0,0,0,0,0,0,0,0,0,0,0,0,0,0,0,0,0,0,0,0,0,0,0,0,0,0,0,0,0,0,0,0,0,0,0,0,0,0,0,0,0,0,0,0,0,0,0,0,0,0,0,0],"sum_hessian":[4.281593E4,1.0041829E4,3.27741E4,6.60457E1,9.975783E3,1.4819106E4,1.7954994E4,3.7310862E3,1.10880205E4,1.6448482E4,1.5065112E3,1.4924758E3,2.2386104E3,4.380508E3,6.7075127E3,1.2195778E4,4.252705E3,9.7094135E2,5.355699E2,1.5602443E2,1.3364514E3,2.3750778E1,2.2148596E3,2.2080393E3,2.1724683E3,2.970587E3,3.7369258E3,1.1679156E4,5.16622E2,1.406793E3,2.845912E3,2.059529E2,7.6498846E2,1.7909079E2,3.5647906E2,1.2196622E2,3.4058212E1,2.89326E2,1.0471254E3,1.1896871E3,1.0251725E3,1.8627362E3,3.4530316E2,1.7966895E3,3.7577872E2,4.3190802E2,2.5386787E3,3.4055632E3,3.3136246E2,1.1323138E4,3.56018E2,3.2282147E2,1.9380052E2,1.6521855E2,1.2415745E3,8.760243E2,1.9698878E3,9.038034E1,1.1557255E2,1.3758954E2,6.273989E2,7.766664E1,1.0142415E2,7.410235E1,2.8237674E2],"tree_param":{"num_deleted":"0","num_feature":"2","num_nodes":"65","size_leaf_vector":"1"}},{"base_weights":[-2.4906754E-2,-1.2570587E0,2.8854325E-1,-9.17685E-1,-1.2593386E0,4.3563485E-2,4.87651E-1,-9.6223134E-1,-1.8792705E-1,-3.7854376E-1,-1.1692246E0,6.1658126E-1,-1.520036E-1,5.24937E-1,1.0093127E-1,-1.4799356E-1,-2.987753E-1,1.6357115E-1,-3.607748E-1,8.841139E-1,4.4887456E-1,-6.945199E-1,4.1192904E-2,4.4553718E-1,7.732607E-1,-3.200634E-1,9.975072E-1,-1.504313E-1,1.3413207E-1,6.39589E-1,1.2793308E0,-3.71704E-1,4.6430257E-1,-3.453745E-1,-1.0008514E0,3.1431773E-1,-1.2419411E-1,4.7695282E-1,-2.9512247E-1,6.2864476E-1,1.1243255E0,-4.3806568E-1,1.8114816E0,6.917889E-1,1.1586351E0,7.323142E-2,-1.24366015E-1,3.2071337E-2,2.2684553E-1,4.4016066E-1,3.3449712E-1,1.069263E-1,1.8612447E-1,-1.23785876E-1,6.7901485E-2,-3.3629802E-1,-1.9576079E-1,-3.3159424E-2,3.107594E-1,-6.765816E-2,1.7657626E-1,1.3918246E-1,3.9466402E-1,-1.690223E-1,3.6070637E-2,7.7987745E-2,2.7703586E-1,1.83704E-1,3.6471295E-1,9.570516E-2,-1.9266154E-1,4.908367E-1,9.661103E-1,5.197976E-1,1.7094663E-1,4.168577E-1,3.3235735E-1],"categories":[],"categories_nodes":[],"categories_segments":[],"categories_sizes":[],"default_left":[0,0,0,0,0,0,0,0,0,0,0,0,0,0,0,0,0,0,0,0,0,0,0,0,0,0,0,0,0,0,0,0,0,0,0,0,0,0,0,0,0,0,0,0,0,0,0,0,0,0,0,0,0,0,0,0,0,0,0,0,0,0,0,0,0,0,0,0,0,0,0,0,0,0,0,0,0],"id":2,"left_children":[1,3,5,7,9,11,13,15,-1,-1,17,19,21,23,25,-1,-1,27,-1,29,31,33,35,37,39,41,43,45,-1,47,49,-1,51,53,55,57,59,61,63,65,67,69,71,73,75,-1,-1,-1,-1,-1,-1,-1,-1,-1,-1,-1,-1,-1,-1,-1,-1,-1,-1,-1,-1,-1,-1,-1,-1,-1,-1,-1,-1,-1,-1,-1,-1],"loss_changes":[1.5484562E4,5.1367188E0,1.559001E3,1.4905548E-1,3.2421875E-1,1.6061125E3,2.5418164E2,2.731285E-1,0E0,0E0,1.0393616E1,1.632251E2,1.120002E3,3.167207E2,5.86022E2,0E0,0E0,6.442223E-1,0E0,1.3488074E2,5.900177E1,2.997732E2,3.560101E2,2.837173E2,1.9702466E2,2.6657385E2,2.3633911E1,4.9960187E-1,0E0,5.3904785E1,1.4903992E1,0E0,3.723575E1,5.0568054E1,6.179419E1,9.1131274E2,3.547037E2,1.2696045E2,5.539663E1,2.9982068E2,5.235913E1,1.5507112E2,8.473434E0,2.106298E1,2.251709E0,0E0,0E0,0E0,0E0,0E0,0E0,0E0,0E0,0E0,0E0,0E0,0E0,0E0,0E0,0E0,0E0,0E0,0E0,0E0,0E0,0E0,0E0,0E0,0E0,0E0,0E0,0E0,0E0,0E0,0E0,0E0,0E0],"parents":[2147483647,0,0,1,1,2,2,3,3,4,4,5,5,6,6,7,7,10,10,11,11,12,12,13,13,14,14,17,17,19,19,20,20,21,21,22,22,23,23,24,24,25,25,26,26,27,27,29,29,30,30,32,32,33,33,34,34,35,35,36,36,37,37,38,38,39,39,40,40,41,41,42,42,43,43,44,44],"right_children":[2,4,6,8,10,12,14,16,-1,-1,18,20,22,24,26,-1,-1,28,-1,30,32,34,36,38,40,42,44,46,-1,48,50,-1,52,54,56,58,60,62,64,66,68,70,72,74,76,-1,-1,-1,-1,-1,-1,-1,-1,-1,-1,-1,-1,-1,-1,-1,-1,-1,-1,-1,-1,-1,-1,-1,-1,-1,-1,-1,-1,-1,-1,-1,-1],"split_conditions":[-4.009946E-1,-2.6933355E0,1.8465991E-1,-9.988706E-1,-4.5725948E-1,-9.871382E-1,1.8621143E0,-1.4949633E0,-1.8792705E-1,-3.7854376E-1,-1.7442513E0,-1.6937879E0,3.038649E-2,4.8011157E-1,3.35451E0,-1.4799356E-1,-2.987753E-1,-4.2861766E-1,-3.607748E-1,2.4440852E-1,-3.7820685E-1,-3.4194207E-1,-2.3566234E-1,4.554288E-1,8.912338E-1,6.341067E-1,3.6693122E0,-1.8384573E0,1.3413207E-1,-2.034205E-1,4.8476395E-1,-3.71704E-1,3.1604695E-1,-3.69438E-1,-4.7818E-2,6.6778606E-1,8.927471E-1,4.5292476E-1,9.3463224E-1,1.2426867E0,4.9241874E-1,-2.4772502E-1,2.8385546E0,-1.2277365E-1,-2.6980514E-2,7.323142E-2,-1.24366015E-1,3.2071337E-2,2.2684553E-1,4.4016066E-1,3.3449712E-1,1.069263E-1,1.8612447E-1,-1.23785876E-1,6.7901485E-2,-3.3629802E-1,-1.9576079E-1,-3.3159424E-2,3.107594E-1,-6.765816E-2,1.7657626E-1,1.3918246E-1,3.9466402E-1,-1.690223E-1,3.6070637E-2,7.7987745E-2,2.7703586E-1,1.83704E-1,3.6471295E-1,9.570516E-2,-1.9266154E-1,4.908367E-1,9.661103E-1,5.197976E-1,1.7094663E-1,4.168577E-1,3.3235735E-1],"split_indices":[0,1,1,0,0,1,1,0,0,0,1,1,0,1,1,0,0,0,0,0,0,1,1,1,0,0,1,1,0,0,0,0,0,1,0,0,0,1,0,1,1,0,1,0,0,0,0,0,0,0,0,0,0,0,0,0,0,0,0,0,0,0,0,0,0,0,0,0,0,0,0,0,0,0,0,0,0],"split_type":[0,0,0,0,0,0,0,0,0,0,0,0,0,0,0,0,0,0,0,0,0,0,0,0,0,0,0,0,0,0,0,0,0,0,0,0,0,0,0,0,0,0,0,0,0,0,0,0,0,0,0,0,0,0,0,0,0,0,0,0,0,0,0,0,0,0,0,0,0,0,0,0,0,0,0,0,0],"sum_hessian":[4.009086E4,8.1298657E3,3.1960994E4,5.694537E1,8.0729204E3,1.4330339E4,1.7630656E4,4.739324E1,9.552126E0,7.844567E3,2.2835355E2,3.6458193E3,1.068452E4,1.6079936E4,1.5507205E3,4.224979E0,4.3168262E1,5.480485E0,2.2287306E2,1.4031637E3,2.2426555E3,2.8050493E3,7.87947E3,1.2186259E4,3.893677E3,1.0556665E3,4.9505396E2,2.82328E0,2.6572049E0,8.684578E2,5.347058E2,1.9594807E1,2.2230608E3,1.3119099E3,1.4931393E3,2.9714434E3,4.908027E3,1.1690743E4,4.9551547E2,2.7596646E3,1.1340122E3,1.0010433E3,5.462325E1,1.7269055E2,3.223634E2,1.1625271E0,1.660753E0,1.5626294E2,7.121949E2,2.4579218E2,2.889136E2,1.3165446E3,9.0651624E2,1.1740911E3,1.378188E2,1.1085549E3,3.8458438E2,1.870773E3,1.1006704E3,4.2977217E3,6.1030493E2,1.1513655E4,1.770881E2,3.0084152E2,1.9467395E2,1.2270294E3,1.5326353E3,1.7292166E2,9.610906E2,2.1247691E2,7.885664E2,5.049909E1,4.1241603E0,1.6727915E1,1.5596265E2,5.3360767E1,2.6900262E2],"tree_param":{"num_deleted":"0","num_feature":"2","num_nodes":"77","size_leaf_vector":"1"}},{"base_weights":[-2.6583804E-2,-1.1708177E0,2.1035093E-1,-7.801225E-1,-1.1737088E0,3.5797257E-2,3.642508E-1,-8.241342E-1,-5.098038E-1,-3.530023E-1,-1.0679096E0,4.5543647E-1,-9.8147675E-2,8.252251E-1,3.4513938E-1,-1.6222598E-1,-2.6643658E-1,-2.3711644E-1,-1.8176249E-1,1.21205434E-1,-3.318183E-1,6.9211674E-1,3.182198E-1,-5.6952626E-1,3.3537813E-2,1.0170751E-1,1.0925931E0,-8.15369E-1,3.5847363E-1,-1.0680881E-1,-1.0913825E-2,-1.2335169E-1,9.822895E-2,4.7926262E-1,1.0699778E0,-3.4093502E-1,3.290945E-1,-2.5831452E-1,-8.8430965E-1,5.9232324E-2,-1.3893619E0,4.5790234E-1,-1.0767778E0,1.2974114E0,1.7716558E-1,-1.830921E0,1.4250085E0,3.8694993E-1,7.9289086E-2,5.980742E-2,-1.06701545E-1,2.2352022E-1,6.699518E-2,3.7953743E-1,2.7228954E-1,-3.7410535E-2,1.0671348E-1,-1.5955694E-2,-1.4590605E-1,-2.6998428E-1,5.733841E-1,1.3940815E-3,1.2692463E-1,-4.4533402E-1,4.3123153E-1,-4.8831585E-1,-2.6724368E-1,4.2507663E-1,3.1426656E-1,-3.7981933E-1,3.0844438E-1,-5.783474E-1,-3.5850325E-1,1.7169234E-1,5.2461463E-1,9.5589586E-2,1.7898457E-1,-9.770329E-2,2.0948815E-1],"categories":[],"categories_nodes":[],"categories_segments":[],"categories_sizes":[],"default_left":[0,0,0,0,0,0,0,0,0,0,0,0,0,0,0,0,0,0,0,0,0,0,0,0,0,0,0,0,0,0,0,0,0,0,0,0,0,0,0,0,0,0,0,0,0,0,0,0,0,0,0,0,0,0,0,0,0,0,0,0,0,0,0,0,0,0,0,0,0,0,0,0,0,0,0,0,0,0,0],"id":3,"left_children":[1,3,5,7,9,11,13,15,17,-1,19,21,23,25,27,-1,-1,29,-1,31,-1,33,35,37,39,41,43,45,47,-1,-1,49,-1,51,53,-1,55,57,59,61,63,-1,65,67,69,71,73,75,77,-1,-1,-1,-1,-1,-1,-1,-1,-1,-1,-1,-1,-1,-1,-1,-1,-1,-1,-1,-1,-1,-1,-1,-1,-1,-1,-1,-1,-1,-1],"loss_changes":[1.0106448E4,6.3085938E0,8.296306E2,1.7420197E-1,7.34375E-1,8.1348254E2,1.443081E2,2.6936722E-1,1.0827017E-1,0E0,8.474533E0,1.1350464E2,6.810311E2,1.26138916E2,2.4418506E2,0E0,0E0,8.607158E-2,0E0,3.7407818E-1,0E0,1.0277954E2,3.546855E1,2.3446411E2,3.1363882E2,2.9915048E2,8.910034E1,4.1065042E2,1.2385303E2,0E0,0E0,3.522941E-1,0E0,5.5844757E1,1.3486938E1,0E0,2.665158E1,5.6392075E1,5.376996E1,1.6732913E2,4.3033325E1,0E0,8.546211E0,1.0136475E1,1.0970765E2,5.327545E0,1.4594742E1,2.0235059E2,3.6208908E2,0E0,0E0,0E0,0E0,0E0,0E0,0E0,0E0,0E0,0E0,0E0,0E0,0E0,0E0,0E0,0E0,0E0,0E0,0E0,0E0,0E0,0E0,0E0,0E0,0E0,0E0,0E0,0E0,0E0,0E0],"parents":[2147483647,0,0,1,1,2,2,3,3,4,4,5,5,6,6,7,7,8,8,10,10,11,11,12,12,13,13,14,14,17,17,19,19,21,21,22,22,23,23,24,24,25,25,26,26,27,27,28,28,31,31,33,33,34,34,36,36,37,37,38,38,39,39,40,40,42,42,43,43,44,44,45,45,46,46,47,47,48,48],"right_children":[2,4,6,8,10,12,14,16,18,-1,20,22,24,26,28,-1,-1,30,-1,32,-1,34,36,38,40,42,44,46,48,-1,-1,50,-1,52,54,-1,56,58,60,62,64,-1,66,68,70,72,74,76,78,-1,-1,-1,-1,-1,-1,-1,-1,-1,-1,-1,-1,-1,-1,-1,-1,-1,-1,-1,-1,-1,-1,-1,-1,-1,-1,-1,-1,-1,-1],"split_conditions":[-4.009946E-1,-2.6933355E0,2.5224262E-1,-9.988706E-1,-4.5725948E-1,-9.871382E-1,3.280462E-1,-1.372939E0,-9.1621786E-1,-3.530023E-1,-1.7442513E0,-1.6937879E0,5.740305E-3,-3.867801E-1,3.315601E-1,-1.6222598E-1,-2.6643658E-1,-9.582976E-1,-1.8176249E-1,-4.2861766E-1,-3.318183E-1,2.4440852E-1,-3.7820685E-1,-3.4194207E-1,2.160068E-1,3.1055644E-1,-3.7820685E-1,-3.810047E-1,1.8621143E0,-1.0680881E-1,-1.0913825E-2,-1.8384573E0,9.822895E-2,1.6540898E-2,4.8476395E-1,-3.4093502E-1,-1.6457663E0,-5.883641E-1,1.8465991E-1,8.8486785E-1,9.189073E-1,4.5790234E-1,-3.8965747E-1,-3.810047E-1,9.0958154E-1,-3.8244352E-1,-3.79552E-1,4.9241874E-1,3.1086907E0,5.980742E-2,-1.06701545E-1,2.2352022E-1,6.699518E-2,3.7953743E-1,2.7228954E-1,-3.7410535E-2,1.0671348E-1,-1.5955694E-2,-1.4590605E-1,-2.6998428E-1,5.733841E-1,1.3940815E-3,1.2692463E-1,-4.4533402E-1,4.3123153E-1,-4.8831585E-1,-2.6724368E-1,4.2507663E-1,3.1426656E-1,-3.7981933E-1,3.0844438E-1,-5.783474E-1,-3.5850325E-1,1.7169234E-1,5.2461463E-1,9.5589586E-2,1.7898457E-1,-9.770329E-2,2.0948815E-1],"split_indices":[0,1,1,0,0,1,1,0,0,0,1,1,0,0,1,0,0,0,0,0,0,0,0,1,1,1,0,0,1,0,0,1,0,0,0,0,1,1,1,0,0,0,0,0,0,0,0,1,1,0,0,0,0,0,0,0,0,0,0,0,0,0,0,0,0,0,0,0,0,0,0,0,0,0,0,0,0,0,0],"split_type":[0,0,0,0,0,0,0,0,0,0,0,0,0,0,0,0,0,0,0,0,0,0,0,0,0,0,0,0,0,0,0,0,0,0,0,0,0,0,0,0,0,0,0,0,0,0,0,0,0,0,0,0,0,0,0,0,0,0,0,0,0,0,0,0,0,0,0,0,0,0,0,0,0,0,0,0,0,0,0],"sum_hessian":[3.7276297E4,6.393945E3,3.0882352E4,4.8957134E1,6.3449873E3,1.4470782E4,1.641157E4,4.034041E1,8.616728E0,6.1621406E3,1.8284695E2,3.5007622E3,1.09700205E4,6.5163916E2,1.5759931E4,9.1719E0,3.1168509E1,3.1484199E0,5.468308E0,5.616401E0,1.7723055E2,1.2832628E3,2.2174995E3,2.3946953E3,8.575325E3,1.7620247E2,4.754367E2,1.7834149E2,1.5581589E4,1.4913567E0,1.657063E0,2.753244E0,2.8631573E0,8.2231195E2,4.6095084E2,1.5686317E1,2.2018132E3,1.2050947E3,1.1896006E3,8.424161E3,1.511639E2,7.963684E1,9.6565636E1,3.8816998E2,8.7266716E1,1.2284103E2,5.550046E1,1.4139048E4,1.4425415E3,1.2118194E0,1.5414245E0,4.0244897E2,4.1986295E2,2.0624388E2,2.5470694E2,1.2178638E2,2.0800269E3,6.350651E2,5.700296E2,1.1836575E3,5.9430556E0,7.3260996E3,1.0980616E3,1.4670409E2,4.459804E0,2.2412764E1,7.415287E1,2.5941583E2,1.2875418E2,3.2188545E1,5.5078175E1,1.04834206E2,1.8006817E1,1.6033466E1,3.9466995E1,1.0666095E4,3.472953E3,8.7232245E2,5.70219E2],"tree_param":{"num_deleted":"0","num_feature":"2","num_nodes":"79","size_leaf_vector":"1"}},{"base_weights":[-2.678421E-2,-1.1132741E0,1.5166682E-1,-6.636783E-1,-1.1170285E0,1.6718052E-2,2.6273772E-1,-9.068278E-2,-6.881995E-1,-1.1207527E0,-9.879772E-1,1.9177589E-1,-2.0391463E-1,2.5361538E-1,8.489622E-1,-2.2220728E-1,-4.2376795E-1,-1.0360552E0,-3.3743906E-1,8.931358E-2,-3.0973107E-1,9.898374E-2,7.461208E-1,-8.7878525E-1,-1.1091412E-1,2.806832E-1,-2.6939252E-1,3.3329368E-1,7.8065455E-1,-2.0053037E-1,-1.5152733E-1,-1.0909848E0,8.225951E-2,-1.0226103E-1,7.301061E-2,3.307297E-1,-1.5963513E-1,8.6825E-1,-3.4845054E-2,-2.485588E-1,-9.142457E-1,2.395666E-1,-1.9204414E-1,2.3461269E-1,4.2124382E-1,7.3180777E-1,-5.304938E-1,5.467748E-1,9.5136946E-1,-9.161507E-2,-8.913595E-3,-2.3774777E-1,-3.352256E-1,-1.5226826E-2,7.857379E-2,4.8927765E-2,-9.156457E-2,4.793116E-3,1.2484412E-1,-7.8613065E-2,3.8360883E-2,8.105563E-2,2.792783E-1,2.072801E-1,-3.1159517E-1,-2.4034885E-1,2.5645882E-1,-3.1949773E-1,-2.2700353E-1,-2.8834885E-2,2.926472E-1,-9.414821E-2,6.0158964E-2,9.00114E-2,-1.3518636E-2,-8.017948E-2,1.582569E-1,-1.7270485E-1,3.8491762E-1,-3.4368315E-1,5.9306566E-2,3.3007926E-1,-2.538444E-2,2.055196E-1,3.3623737E-1],"categories":[],"categories_nodes":[],"categories_segments":[],"categories_sizes":[],"default_left":[0,0,0,0,0,0,0,0,0,0,0,0,0,0,0,0,0,0,0,0,0,0,0,0,0,0,0,0,0,0,0,0,0,0,0,0,0,0,0,0,0,0,0,0,0,0,0,0,0,0,0,0,0,0,0,0,0,0,0,0,0,0,0,0,0,0,0,0,0,0,0,0,0,0,0,0,0,0,0,0,0,0,0,0,0],"id":4,"left_children":[1,3,5,7,9,11,13,-1,15,17,19,21,23,25,27,-1,29,31,-1,33,-1,35,37,39,41,43,45,-1,47,49,-1,51,53,55,-1,57,59,61,63,65,67,69,71,73,75,77,79,81,83,-1,-1,-1,-1,-1,-1,-1,-1,-1,-1,-1,-1,-1,-1,-1,-1,-1,-1,-1,-1,-1,-1,-1,-1,-1,-1,-1,-1,-1,-1,-1,-1,-1,-1,-1,-1],"loss_changes":[6.7948516E3,7.604004E0,4.5118805E2,1.7666435E-1,1.2490234E0,5.2497784E2,8.808484E1,0E0,2.3949242E-1,4.638672E-1,7.081558E0,3.897714E2,3.7732166E2,2.3026404E2,3.6532745E0,0E0,6.1019182E-2,1.4184418E1,0E0,2.2274527E-1,0E0,3.8921823E2,1.0366522E2,1.6045898E1,1.5035675E2,1.0001819E2,2.096835E2,0E0,7.6133194E0,6.3387334E-2,0E0,8.406677E-1,2.922231E-1,2.4862568E-1,0E0,9.207214E1,9.0404854E1,3.4971924E1,1.0847003E2,2.5173847E1,1.5559814E1,2.4567227E2,2.0531213E2,2.1311395E2,2.7931488E2,1.2040277E2,2.8492242E2,3.0952904E1,4.484146E0,0E0,0E0,0E0,0E0,0E0,0E0,0E0,0E0,0E0,0E0,0E0,0E0,0E0,0E0,0E0,0E0,0E0,0E0,0E0,0E0,0E0,0E0,0E0,0E0,0E0,0E0,0E0,0E0,0E0,0E0,0E0,0E0,0E0,0E0,0E0,0E0],"parents":[2147483647,0,0,1,1,2,2,3,3,4,4,5,5,6,6,8,8,9,9,10,10,11,11,12,12,13,13,14,14,16,16,17,17,19,19,21,21,22,22,23,23,24,24,25,25,26,26,28,28,29,29,31,31,32,32,33,33,35,35,36,36,37,37,38,38,39,39,40,40,41,41,42,42,43,43,44,44,45,45,46,46,47,47,48,48],"right_children":[2,4,6,8,10,12,14,-1,16,18,20,22,24,26,28,-1,30,32,-1,34,-1,36,38,40,42,44,46,-1,48,50,-1,52,54,56,-1,58,60,62,64,66,68,70,72,74,76,78,80,82,84,-1,-1,-1,-1,-1,-1,-1,-1,-1,-1,-1,-1,-1,-1,-1,-1,-1,-1,-1,-1,-1,-1,-1,-1,-1,-1,-1,-1,-1,-1,-1,-1,-1,-1,-1,-1],"split_conditions":[-4.009946E-1,-2.6933355E0,1.9018605E-1,-1.4949633E0,-4.5725948E-1,-2.3566234E-1,3.6693122E0,-9.068278E-2,-9.988706E-1,-1.8384573E0,-1.7442513E0,6.6778606E-1,-3.6985997E-2,2.231275E0,5.740305E-3,-2.2220728E-1,-9.1621786E-1,-7.726076E-1,-3.3743906E-1,-4.2861766E-1,-3.0973107E-1,-9.4516206E-1,-2.6919308E-1,-3.7278616E-1,6.6778606E-1,4.8011157E-1,-1.8783376E-1,3.3329368E-1,2.859882E-1,-9.582976E-1,-1.5152733E-1,-1.5945783E0,-5.708302E-1,-1.8384573E0,7.301061E-2,-1.7677219E-1,4.008787E-1,-8.2955235E-1,7.741008E-1,-3.7820685E-1,-1.3395159E-1,4.008787E-1,8.7999225E-1,4.093606E-1,-1.7677219E-1,2.4441097E0,3.1086907E0,4.147273E0,4.147273E0,-9.161507E-2,-8.913595E-3,-2.3774777E-1,-3.352256E-1,-1.5226826E-2,7.857379E-2,4.8927765E-2,-9.156457E-2,4.793116E-3,1.2484412E-1,-7.8613065E-2,3.8360883E-2,8.105563E-2,2.792783E-1,2.072801E-1,-3.1159517E-1,-2.4034885E-1,2.5645882E-1,-3.1949773E-1,-2.2700353E-1,-2.8834885E-2,2.926472E-1,-9.414821E-2,6.0158964E-2,9.00114E-2,-1.3518636E-2,-8.017948E-2,1.582569E-1,-1.7270485E-1,3.8491762E-1,-3.4368315E-1,5.9306566E-2,3.3007926E-1,-2.538444E-2,2.055196E-1,3.3623737E-1],"split_indices":[0,1,1,0,0,1,1,0,0,1,1,0,0,1,0,0,0,0,0,0,0,1,1,0,0,1,0,0,0,0,0,0,0,1,0,0,0,1,0,0,0,0,0,1,0,1,1,1,1,0,0,0,0,0,0,0,0,0,0,0,0,0,0,0,0,0,0,0,0,0,0,0,0,0,0,0,0,0,0,0,0,0,0,0,0],"split_type":[0,0,0,0,0,0,0,0,0,0,0,0,0,0,0,0,0,0,0,0,0,0,0,0,0,0,0,0,0,0,0,0,0,0,0,0,0,0,0,0,0,0,0,0,0,0,0,0,0,0,0,0,0,0,0,0,0,0,0,0,0,0,0,0,0,0,0,0,0,0,0,0,0,0,0,0,0,0,0,0,0,0,0,0,0],"sum_hessian":[3.504387E4,4.943061E3,3.010081E4,4.2408825E1,4.9006523E3,1.3590183E4,1.6510627E4,3.5414102E0,3.8867413E1,4.7557246E3,1.4492754E2,7.577809E3,6.012373E3,1.625905E4,2.5157791E2,3.0927118E1,7.940295E0,2.2844797E2,4.527277E3,5.704092E0,1.3922343E2,6.4922466E3,1.0855626E3,7.2716364E2,5.2852095E3,1.5459424E4,7.996257E2,4.8867184E1,2.0271072E2,3.0456421E0,4.8946533E0,2.1777565E2,1.0672316E1,2.692299E0,3.011793E0,3.42387E3,3.0683767E3,9.386609E2,1.4690169E2,3.9161964E1,6.8800165E2,9.930955E2,4.2921143E3,1.1645225E4,3.8141992E3,1.6502599E2,6.345997E2,8.730523E1,1.15405495E2,1.3990796E0,1.6465626E0,2.0237127E1,1.9753851E2,6.5443444E0,4.127971E0,1.2519013E0,1.4403976E0,7.3108765E2,2.6927825E3,2.2625508E3,8.0582587E2,8.954457E1,8.4911633E2,8.543879E1,6.146289E1,2.6276415E1,1.288555E1,3.4866782E2,3.3933383E2,6.826036E2,3.1049197E2,3.276033E3,1.01608124E3,9.437422E3,2.2078025E3,5.0983282E2,3.3043665E3,4.8928967E1,1.1609702E2,3.4369626E2,2.9090344E2,4.612685E1,4.1178375E1,4.6833775E1,6.857172E1],"tree_param":{"num_deleted":"0","num_feature":"2","num_nodes":"85","size_leaf_vector":"1"}},{"base_weights":[-2.5828348E-2,-1.0722135E0,1.09546535E-1,-5.586689E-1,-1.0771526E0,1.1441288E-2,1.8967552E-1,-9.9524714E-2,-6.0269237E-1,-1.0819457E0,-9.172966E-1,4.1542405E-1,-4.4733033E-2,8.264824E-1,1.824441E-1,-2.1341679E-1,-1.1955833E-1,-9.773948E-1,-3.2612023E-1,6.5215714E-2,-9.6940637E-1,-2.7282095E-1,5.64358E-1,-2.8757048E-1,1.4429413E-2,1.5385646E0,5.2421206E-1,1.749699E-1,7.2035855E-1,-1.0445886E0,6.1165962E-2,-8.561874E-2,1.8264633E-1,-3.1433234E-1,-8.5011846E-1,-4.2028764E-1,-1.2378402E-1,1.1409055E0,4.2264327E-1,-6.9389544E-2,-7.539608E-1,4.5436125E-2,-5.161201E-1,4.8708048E-1,3.1131315E-1,-2.7813596E-1,9.7290456E-1,1.9412751E-1,-2.2432409E-1,3.1592607E-1,6.578919E-1,-2.1029308E-1,-3.2336083E-1,7.929336E-2,-8.1673395E-3,4.008197E-2,-7.856646E-2,1.7976668E-2,6.651011E-2,1.3641353E-2,-2.935674E-1,2.0018281E-1,-1.7792423E-1,2.1760179E-1,4.2760414E-1,-1.4238431E-2,2.4024186E-1,-3.8185665E-1,-1.0639914E-2,-4.743142E-2,-2.3818773E-1,4.5952415E-3,4.79747E-1,-2.0485426E-1,2.6225618E-1,1.752666E-1,-2.4421501E-1,2.3196472E-1,4.5681855E-1,5.007004E-2,1.2629467E-1,1.7139843E-1,-1.3108782E-1,1.4156395E-1,2.4530306E-1],"categories":[],"categories_nodes":[],"categories_segments":[],"categories_sizes":[],"default_left":[0,0,0,0,0,0,0,0,0,0,0,0,0,0,0,0,0,0,0,0,0,0,0,0,0,0,0,0,0,0,0,0,0,0,0,0,0,0,0,0,0,0,0,0,0,0,0,0,0,0,0,0,0,0,0,0,0,0,0,0,0,0,0,0,0,0,0,0,0,0,0,0,0,0,0,0,0,0,0,0,0,0,0,0,0],"id":5,"left_children":[1,3,5,7,9,11,13,-1,15,17,19,21,23,25,27,-1,-1,29,-1,31,33,35,37,39,41,43,45,47,49,51,53,55,57,-1,59,-1,61,63,65,67,69,71,73,-1,-1,75,77,79,81,-1,83,-1,-1,-1,-1,-1,-1,-1,-1,-1,-1,-1,-1,-1,-1,-1,-1,-1,-1,-1,-1,-1,-1,-1,-1,-1,-1,-1,-1,-1,-1,-1,-1,-1,-1],"loss_changes":[4.677672E3,8.993164E0,2.2984909E2,1.8078613E-1,1.8774414E0,2.9835022E2,7.39624E1,0E0,3.9767456E-1,8.8183594E-1,5.982315E0,1.6466437E2,1.6582956E2,3.8028214E1,6.3858276E1,0E0,0E0,1.25889435E1,0E0,1.3537177E-1,1.3619995E-1,4.7945107E1,1.07347595E2,2.300411E2,1.5271829E2,5.830841E-1,4.6414852E1,1.2012424E2,3.8335724E0,1.1728363E0,2.1999803E-1,1.7564535E-1,6.461516E-3,0E0,5.6642914E0,0E0,9.465099E1,2.9675537E1,1.886481E2,6.289231E1,1.7047913E1,4.103963E2,1.1941753E2,0E0,0E0,2.2080448E1,7.8725815E0,9.245404E1,1.2191704E2,0E0,5.143036E0,0E0,0E0,0E0,0E0,0E0,0E0,0E0,0E0,0E0,0E0,0E0,0E0,0E0,0E0,0E0,0E0,0E0,0E0,0E0,0E0,0E0,0E0,0E0,0E0,0E0,0E0,0E0,0E0,0E0,0E0,0E0,0E0,0E0,0E0],"parents":[2147483647,0,0,1,1,2,2,3,3,4,4,5,5,6,6,8,8,9,9,10,10,11,11,12,12,13,13,14,14,17,17,19,19,20,20,21,21,22,22,23,23,24,24,25,25,26,26,27,27,28,28,29,29,30,30,31,31,32,32,34,34,36,36,37,37,38,38,39,39,40,40,41,41,42,42,45,45,46,46,47,47,48,48,50,50],"right_children":[2,4,6,8,10,12,14,-1,16,18,20,22,24,26,28,-1,-1,30,-1,32,34,36,38,40,42,44,46,48,50,52,54,56,58,-1,60,-1,62,64,66,68,70,72,74,-1,-1,76,78,80,82,-1,84,-1,-1,-1,-1,-1,-1,-1,-1,-1,-1,-1,-1,-1,-1,-1,-1,-1,-1,-1,-1,-1,-1,-1,-1,-1,-1,-1,-1,-1,-1,-1,-1,-1,-1],"split_conditions":[-4.009946E-1,-2.6933355E0,1.9018605E-1,-1.372939E0,-4.5725948E-1,-1.4892952E0,1.9509439E-1,-9.9524714E-2,-1.0822421E0,-1.8384573E0,-1.7442513E0,-2.034205E-1,-2.6980514E-2,7.741008E-1,3.6693122E0,-2.1341679E-1,-1.1955833E-1,-7.726076E-1,-3.2612023E-1,-4.2861766E-1,-3.346054E-1,-2.0812802E0,1.6540898E-2,-3.4194207E-1,1.3345978E-1,7.690546E-1,8.003526E-1,2.231275E0,-2.6980514E-2,-1.5945783E0,-6.8630975E-1,-1.8384573E0,-1.8384573E0,-3.1433234E-1,-3.3245462E-1,-4.2028764E-1,-1.7872784E0,-2.1721163E0,2.4440852E-1,-3.7820685E-1,-3.7278616E-1,1.2968624E-1,9.1695505E-1,4.8708048E-1,3.1131315E-1,7.8986925E-1,8.5088825E-1,1.2426867E0,-1.8783376E-1,3.1592607E-1,2.859882E-1,-2.1029308E-1,-3.2336083E-1,7.929336E-2,-8.1673395E-3,4.008197E-2,-7.856646E-2,1.7976668E-2,6.651011E-2,1.3641353E-2,-2.935674E-1,2.0018281E-1,-1.7792423E-1,2.1760179E-1,4.2760414E-1,-1.4238431E-2,2.4024186E-1,-3.8185665E-1,-1.0639914E-2,-4.743142E-2,-2.3818773E-1,4.5952415E-3,4.79747E-1,-2.0485426E-1,2.6225618E-1,1.752666E-1,-2.4421501E-1,2.3196472E-1,4.5681855E-1,5.007004E-2,1.2629467E-1,1.7139843E-1,-1.3108782E-1,1.4156395E-1,2.4530306E-1],"split_indices":[0,1,1,0,0,1,1,0,0,1,1,0,0,0,1,0,0,0,0,0,1,1,0,1,1,0,0,1,0,0,0,1,1,0,1,0,1,1,0,0,0,1,0,0,0,0,0,1,0,0,0,0,0,0,0,0,0,0,0,0,0,0,0,0,0,0,0,0,0,0,0,0,0,0,0,0,0,0,0,0,0,0,0,0,0],"split_type":[0,0,0,0,0,0,0,0,0,0,0,0,0,0,0,0,0,0,0,0,0,0,0,0,0,0,0,0,0,0,0,0,0,0,0,0,0,0,0,0,0,0,0,0,0,0,0,0,0,0,0,0,0,0,0,0,0,0,0,0,0,0,0,0,0,0,0,0,0,0,0,0,0,0,0,0,0,0,0,0,0,0,0,0,0],"sum_hessian":[3.301992E4,3.7817585E3,2.9238164E4,3.7111797E1,3.7446467E3,1.3145152E4,1.6093012E4,7.4169116E0,2.9694887E1,3.6300361E3,1.1461068E2,1.6039321E3,1.154122E4,1.7942421E2,1.5913588E4,1.7756805E1,1.1938082E1,1.7848102E2,3.451555E3,5.7598186E0,1.0885086E2,2.851912E2,1.318741E3,2.260194E3,9.281025E3,5.2248425E1,1.2717579E2,1.569681E4,2.1677843E2,1.6762976E2,1.0851258E1,2.6398926E0,3.1199262E0,6.0995415E1,4.7855446E1,3.229949E1,2.5289171E2,2.5879935E2,1.0599417E3,1.5406262E3,7.195679E2,8.769432E3,5.1159436E2,4.274871E1,9.499714E0,4.574862E1,8.142717E1,1.4978666E4,7.181435E2,3.175851E1,1.8501993E2,1.6750471E1,1.5087929E2,2.6865551E0,8.164703E0,1.2844553E0,1.3554372E0,1.3649677E0,1.7549585E0,6.083319E0,4.1772125E1,9.400773E1,1.5888397E2,1.06603226E2,1.5219612E2,4.729183E2,5.870233E2,4.12352E1,1.4993911E3,4.5575787E1,6.7399207E2,8.60366E3,1.657709E2,4.5726715E2,5.4327213E1,1.7499472E1,2.8249147E1,6.1498146E1,1.9929028E1,1.33751045E4,1.6035613E3,1.510918E2,5.670517E2,8.732018E1,9.769974E1],"tree_param":{"num_deleted":"0","num_feature":"2","num_nodes":"85","size_leaf_vector":"1"}},{"base_weights":[-2.361701E-2,-1.0408446E0,7.830076E-2,-4.625855E-1,-1.0473864E0,2.2190496E-2,1.6328529E-1,-2.6260614E-1,-5.040214E-1,-1.0536122E0,-8.504201E-1,2.7483836E-1,-1.1854675E-2,1.22101724E-1,8.235689E-1,-9.0371445E-2,-2.9754931E-2,-1.83776E-1,-3.1622657E-1,-9.231151E-1,-3.1806773E-1,5.1521976E-2,-9.112757E-1,1.6337796E-1,5.227785E-1,-5.065998E-2,1.955561E-1,4.353231E-1,7.453528E-2,6.1177844E-1,1.0242554E0,-3.8704496E-2,-1.03077896E-1,-1.0057205E0,4.7765322E-2,-7.2313495E-2,1.455814E-1,-3.0212203E-1,-7.7326834E-1,6.8029225E-2,1.2155571E0,7.083431E-1,-1.5539704E-1,-2.00554E-2,-6.0107464E-1,-7.641765E-1,4.158603E-1,9.758931E-2,1.144604E0,-2.0960062E0,8.9793555E-2,8.7063825E-1,1.04214445E-1,1.612942E-1,1.1336464E0,-1.8347433E-1,-3.145267E-1,-1.8630529E-2,5.8494832E-2,3.287087E-2,-6.739911E-2,1.4779274E-2,5.257196E-2,1.0010131E-2,-2.7657694E-1,9.1297925E-2,-3.8811497E-2,5.105579E-1,2.7524543E-1,2.8917947E-1,1.6527225E-1,-2.285413E-1,4.118272E-2,-1.8526329E-2,1.4409743E-1,4.7518203E-1,-3.8582388E-1,-5.8395404E-1,8.972104E-3,2.3813821E-1,-1.3522922E-2,1.2403407E-1,-1.3587296E-1,4.2757145E-1,1.0122345E-1,2.6833725E-1,-7.599497E-1,-8.55279E-2,3.805121E-2,3.2757092E-1,1.9177584E-1,-6.833754E-2,3.5504538E-1,-2.5635928E-1,3.3331436E-1,2.8985873E-1,3.6705077E-1],"categories":[],"categories_nodes":[],"categories_segments":[],"categories_sizes":[],"default_left":[0,0,0,0,0,0,0,0,0,0,0,0,0,0,0,0,0,0,0,0,0,0,0,0,0,0,0,0,0,0,0,0,0,0,0,0,0,0,0,0,0,0,0,0,0,0,0,0,0,0,0,0,0,0,0,0,0,0,0,0,0,0,0,0,0,0,0,0,0,0,0,0,0,0,0,0,0,0,0,0,0,0,0,0,0,0,0,0,0,0,0,0,0,0,0,0,0],"id":6,"left_children":[1,3,5,7,9,11,13,15,17,19,21,23,25,27,29,-1,-1,-1,31,33,-1,35,37,39,41,43,45,47,49,51,53,-1,-1,55,57,59,61,-1,63,65,67,69,71,73,75,77,79,81,83,85,87,89,91,93,95,-1,-1,-1,-1,-1,-1,-1,-1,-1,-1,-1,-1,-1,-1,-1,-1,-1,-1,-1,-1,-1,-1,-1,-1,-1,-1,-1,-1,-1,-1,-1,-1,-1,-1,-1,-1,-1,-1,-1,-1,-1,-1],"loss_changes":[3.2742598E3,1.0395264E1,1.3688336E2,1.4908028E-1,2.590332E0,1.4873682E2,3.1032654E2,2.010721E-2,3.5771704E-1,1.3962402E0,5.1131744E0,5.666284E1,1.22665146E2,1.6008105E2,2.7852966E1,0E0,0E0,0E0,1.7023563E-2,1.1313568E1,0E0,8.950647E-2,3.6512756E-1,1.4218407E2,8.01956E1,2.1625076E2,5.0818323E2,3.3924316E2,3.0922134E2,4.306897E1,3.215509E1,0E0,0E0,1.5383453E0,2.05699E-1,1.2423634E-1,3.3231378E-3,0E0,4.798086E0,6.0739082E1,1.5509613E1,1.958194E1,2.4514858E1,2.538158E2,1.01414606E3,4.2141635E2,3.4046838E2,1.67246E2,1.0301239E2,8.747348E1,1.2872757E2,1.0432678E1,4.0431927E1,3.925578E1,3.389801E0,0E0,0E0,0E0,0E0,0E0,0E0,0E0,0E0,0E0,0E0,0E0,0E0,0E0,0E0,0E0,0E0,0E0,0E0,0E0,0E0,0E0,0E0,0E0,0E0,0E0,0E0,0E0,0E0,0E0,0E0,0E0,0E0,0E0,0E0,0E0,0E0,0E0,0E0,0E0,0E0,0E0,0E0],"parents":[2147483647,0,0,1,1,2,2,3,3,4,4,5,5,6,6,7,7,8,8,9,9,10,10,11,11,12,12,13,13,14,14,18,18,19,19,21,21,22,22,23,23,24,24,25,25,26,26,27,27,28,28,29,29,30,30,33,33,34,34,35,35,36,36,38,38,39,39,40,40,41,41,42,42,43,43,44,44,45,45,46,46,47,47,48,48,49,49,50,50,51,51,52,52,53,53,54,54],"right_children":[2,4,6,8,10,12,14,16,18,20,22,24,26,28,30,-1,-1,-1,32,34,-1,36,38,40,42,44,46,48,50,52,54,-1,-1,56,58,60,62,-1,64,66,68,70,72,74,76,78,80,82,84,86,88,90,92,94,96,-1,-1,-1,-1,-1,-1,-1,-1,-1,-1,-1,-1,-1,-1,-1,-1,-1,-1,-1,-1,-1,-1,-1,-1,-1,-1,-1,-1,-1,-1,-1,-1,-1,-1,-1,-1,-1,-1,-1,-1,-1,-1],"split_conditions":[-4.009946E-1,-2.6933355E0,8.912338E-1,-1.372939E0,-4.5725948E-1,-1.3225523E0,4.9241874E-1,-1.4154692E0,-1.0822421E0,-1.8384573E0,-1.7442513E0,3.1604695E-1,1.2426867E0,3.5117528E-1,5.2180386E-1,-9.0371445E-2,-2.9754931E-2,-1.83776E-1,-1.0402641E0,-7.726076E-1,-3.1806773E-1,-4.2861766E-1,-3.346054E-1,-1.3780935E0,-1.4100026E0,8.882761E-1,-2.034205E-1,9.324521E-1,3.532939E-1,5.0770223E-1,8.927471E-1,-3.8704496E-2,-1.03077896E-1,-1.5945783E0,-5.708302E-1,-1.8384573E0,-1.8384573E0,-3.0212203E-1,-3.3245462E-1,-1.8384573E0,-2.034205E-1,4.8476395E-1,4.568086E-1,3.4244707E-1,-2.034205E-1,1.8621143E0,2.0991142E0,9.146915E-2,3.4663573E-1,9.396074E-1,3.72337E-1,5.0300634E-1,9.3463224E-1,8.882761E-1,5.3981626E-1,-1.8347433E-1,-3.145267E-1,-1.8630529E-2,5.8494832E-2,3.287087E-2,-6.739911E-2,1.4779274E-2,5.257196E-2,1.0010131E-2,-2.7657694E-1,9.1297925E-2,-3.8811497E-2,5.105579E-1,2.7524543E-1,2.8917947E-1,1.6527225E-1,-2.285413E-1,4.118272E-2,-1.8526329E-2,1.4409743E-1,4.7518203E-1,-3.8582388E-1,-5.8395404E-1,8.972104E-3,2.3813821E-1,-1.3522922E-2,1.2403407E-1,-1.3587296E-1,4.2757145E-1,1.0122345E-1,2.6833725E-1,-7.599497E-1,-8.55279E-2,3.805121E-2,3.2757092E-1,1.9177584E-1,-6.833754E-2,3.5504538E-1,-2.5635928E-1,3.3331436E-1,2.8985873E-1,3.6705077E-1],"split_indices":[0,1,0,0,0,1,1,0,0,1,1,0,1,1,1,0,0,0,0,0,0,0,1,1,1,1,0,0,1,1,0,0,0,0,0,1,1,0,1,1,0,0,0,1,0,1,1,1,1,0,1,1,0,1,1,0,0,0,0,0,0,0,0,0,0,0,0,0,0,0,0,0,0,0,0,0,0,0,0,0,0,0,0,0,0,0,0,0,0,0,0,0,0,0,0,0,0],"split_type":[0,0,0,0,0,0,0,0,0,0,0,0,0,0,0,0,0,0,0,0,0,0,0,0,0,0,0,0,0,0,0,0,0,0,0,0,0,0,0,0,0,0,0,0,0,0,0,0,0,0,0,0,0,0,0,0,0,0,0,0,0,0,0,0,0,0,0,0,0,0,0,0,0,0,0,0,0,0,0,0,0,0,0,0,0,0,0,0,0,0,0,0,0,0,0,0,0],"sum_hessian":[3.1580607E4,2.875128E3,2.870548E4,3.2964306E1,2.8421636E3,1.7290709E4,1.1414771E4,6.9173203E0,2.6046986E1,2.750863E3,9.130065E1,2.0524543E3,1.5238254E4,1.0745719E4,6.690528E2,4.912692E0,2.0046282E0,1.5071857E1,1.0975128E1,1.3946797E2,2.611395E3,5.7805376E0,8.552011E1,1.4170739E3,6.353804E2,1.283724E4,2.4010144E3,1.4156461E3,9.330072E3,3.2749063E2,3.4156216E2,2.1285098E0,8.846619E0,1.28499E2,1.0968965E1,2.5951042E0,3.1854334E0,4.6762634E1,3.8757477E1,1.3003046E3,1.16769264E2,4.9884128E2,1.3653906E2,1.2162033E4,6.752063E2,4.4779083E2,1.9532235E3,9.597741E2,4.5587198E2,6.417791E1,9.265895E3,2.1640688E2,1.11083755E2,3.8704605E1,3.0285754E2,1.4058721E1,1.1444028E2,6.6123724E0,4.356592E0,1.3108966E0,1.2842076E0,1.376439E0,1.8089943E0,6.151817E0,3.2605663E1,5.915967E2,7.0870795E2,4.2584118E1,7.418514E1,1.8819458E2,3.106467E2,4.392505E1,9.261401E1,1.1227288E4,9.347459E2,1.6084236E2,5.1436395E2,1.7932971E2,2.6846115E2,1.0728469E3,8.803766E2,6.100165E2,3.4975763E2,3.3769937E2,1.1817261E2,8.051841E0,5.612607E1,8.326551E2,8.433239E3,1.087217E2,1.0768517E2,8.555437E1,2.5529388E1,1.8750235E1,1.995437E1,1.09867546E2,1.9299002E2],"tree_param":{"num_deleted":"0","num_feature":"2","num_nodes":"97","size_leaf_vector":"1"}},{"base_weights":[-1.8437115E-2,-1.0149466E0,5.8432307E-2,-3.7886333E-1,-1.023602E0,-4.1127373E-2,9.56162E-2,-4.1920283E-1,-1.9273388E-1,-1.0376495E0,-8.78704E-1,7.726909E-2,-1.1926609E-1,7.253469E-2,5.518196E-1,-2.1012521E-1,-4.8405272E-1,-1.6198829E-2,-8.51853E-2,-9.1351116E-1,-3.1326053E-1,-4.9168147E-2,-9.322143E-1,1.7962202E-2,1.1686816E0,-4.0274262E-1,3.2465667E-2,9.816966E-2,-8.342032E-1,3.31687E-1,9.717748E-1,-2.4096876E-1,-2.422073E-2,-1.9204463E-1,-1.07229225E-1,-4.6991423E-2,3.4249946E-2,-9.6986574E-1,-4.6612144E-2,1.3182952E-1,-3.0350235E-1,-2.8910723E-1,-7.6862335E-1,1.066985E-1,-1.9372876E-1,1.294946E0,8.70858E-2,-2.6428655E-1,-5.3995794E-1,1.9203812E-1,-2.2583213E-1,7.515978E-2,4.9612862E-1,-4.334097E-1,-1.0301442E0,-1.706399E0,4.2337415E-1,8.029905E-1,3.7594348E-1,-3.5314545E-2,-9.986932E-2,-1.5739068E-1,-3.074987E-1,5.2606333E-2,-9.199162E-2,-5.9892223E-3,5.2426673E-2,-1.6583203E-1,4.1681137E-2,-2.5697088E-1,-5.3489543E-2,1.9003417E-2,1.2905031E-1,-2.0852883E-1,-6.9318037E-3,2.8217846E-1,6.7592454E-1,6.749692E-2,-2.88918E-1,-1.6739589E-1,4.3664496E-2,-1.99969E-1,-5.1406898E-2,2.309029E-3,2.539857E-1,-4.8366097E-1,-4.2399533E-2,8.506259E-2,1.0238125E-2,6.7610525E-2,2.274442E-1,7.9519366E-4,-3.2873255E-1,-3.2709867E-1,2.5120607E-1,-1.4261574E-1,-5.737985E-1,1.875164E-1,5.242191E-2,3.677496E-1,1.6001579E-1],"categories":[],"categories_nodes":[],"categories_segments":[],"categories_sizes":[],"default_left":[0,0,0,0,0,0,0,0,0,0,0,0,0,0,0,0,0,0,0,0,0,0,0,0,0,0,0,0,0,0,0,0,0,0,0,0,0,0,0,0,0,0,0,0,0,0,0,0,0,0,0,0,0,0,0,0,0,0,0,0,0,0,0,0,0,0,0,0,0,0,0,0,0,0,0,0,0,0,0,0,0,0,0,0,0,0,0,0,0,0,0,0,0,0,0,0,0,0,0,0,0],"id":7,"left_children":[1,3,5,7,9,11,13,15,17,19,21,23,25,27,29,31,33,35,-1,37,-1,39,41,43,45,47,49,51,53,55,57,59,-1,-1,-1,-1,-1,61,63,65,67,-1,69,71,73,75,77,79,81,83,85,87,89,91,93,95,97,99,-1,-1,-1,-1,-1,-1,-1,-1,-1,-1,-1,-1,-1,-1,-1,-1,-1,-1,-1,-1,-1,-1,-1,-1,-1,-1,-1,-1,-1,-1,-1,-1,-1,-1,-1,-1,-1,-1,-1,-1,-1,-1,-1],"loss_changes":[2.3311475E3,1.1611084E1,1.04597466E2,1.5080547E-1,3.463379E0,7.109111E1,2.1656693E2,2.3047876E-1,1.13682926E-1,6.3549805E-1,8.676666E0,1.9774901E2,1.9911844E2,4.5523187E2,9.124509E1,1.0744959E-2,1.2563896E-1,8.311385E-2,0E0,5.131172E0,0E0,6.3675904E-1,2.0951843E-1,5.447614E1,2.1390488E1,3.05195E1,1.243577E2,1.743461E2,4.1841217E1,1.2244231E2,1.5146484E1,2.4340987E-2,0E0,0E0,0E0,0E0,0E0,1.9030151E0,4.8768786E-1,5.7379827E-2,7.046162E-1,0E0,1.6497173E0,2.8627577E1,7.3261826E1,4.5726807E1,2.755624E0,9.701375E1,3.766948E1,2.2502007E2,1.3475243E2,1.5393323E2,7.3663605E1,5.157041E1,4.148065E1,6.261368E0,3.1187775E1,2.3899384E1,0E0,0E0,0E0,0E0,0E0,0E0,0E0,0E0,0E0,0E0,0E0,0E0,0E0,0E0,0E0,0E0,0E0,0E0,0E0,0E0,0E0,0E0,0E0,0E0,0E0,0E0,0E0,0E0,0E0,0E0,0E0,0E0,0E0,0E0,0E0,0E0,0E0,0E0,0E0,0E0,0E0,0E0,0E0],"parents":[2147483647,0,0,1,1,2,2,3,3,4,4,5,5,6,6,7,7,8,8,9,9,10,10,11,11,12,12,13,13,14,14,15,15,16,16,17,17,19,19,21,21,22,22,23,23,24,24,25,25,26,26,27,27,28,28,29,29,30,30,31,31,37,37,38,38,39,39,40,40,42,42,43,43,44,44,45,45,46,46,47,47,48,48,49,49,50,50,51,51,52,52,53,53,54,54,55,55,56,56,57,57],"right_children":[2,4,6,8,10,12,14,16,18,20,22,24,26,28,30,32,34,36,-1,38,-1,40,42,44,46,48,50,52,54,56,58,60,-1,-1,-1,-1,-1,62,64,66,68,-1,70,72,74,76,78,80,82,84,86,88,90,92,94,96,98,100,-1,-1,-1,-1,-1,-1,-1,-1,-1,-1,-1,-1,-1,-1,-1,-1,-1,-1,-1,-1,-1,-1,-1,-1,-1,-1,-1,-1,-1,-1,-1,-1,-1,-1,-1,-1,-1,-1,-1,-1,-1,-1,-1],"split_conditions":[-4.009946E-1,-2.6933355E0,3.1604695E-1,-9.988706E-1,-5.708302E-1,-5.883641E-1,1.2426867E0,-1.372939E0,-9.1621786E-1,-1.8384573E0,-1.7442513E0,-6.4060056E-1,4.299843E-2,8.882761E-1,7.1939373E-1,-1.4154692E0,-1.2479192E0,-9.582976E-1,-8.51853E-2,-7.726076E-1,-3.1326053E-1,-1.8384573E0,-4.2861766E-1,-9.871382E-1,1.0282941E-1,-3.4016797E-1,1.4857627E0,4.9241874E-1,9.453706E-1,1.3021241E0,1.5680288E0,-1.4949633E0,-2.422073E-2,-1.9204463E-1,-1.07229225E-1,-4.6991423E-2,3.4249946E-2,-1.5945783E0,-6.5740776E-1,-1.8870096E0,-4.2861766E-1,-2.8910723E-1,2.3342455E-2,-1.0653954E0,-2.1878752E-1,5.740305E-3,-6.3201624E-1,-4.0996882E-1,1.21836886E-1,3.552707E-1,1.5680288E0,-2.6919308E-1,8.927471E-1,8.358981E-1,8.8944376E-1,6.578008E-1,2.231275E0,1.3021241E0,3.7594348E-1,-3.5314545E-2,-9.986932E-2,-1.5739068E-1,-3.074987E-1,5.2606333E-2,-9.199162E-2,-5.9892223E-3,5.2426673E-2,-1.6583203E-1,4.1681137E-2,-2.5697088E-1,-5.3489543E-2,1.9003417E-2,1.2905031E-1,-2.0852883E-1,-6.9318037E-3,2.8217846E-1,6.7592454E-1,6.749692E-2,-2.88918E-1,-1.6739589E-1,4.3664496E-2,-1.99969E-1,-5.1406898E-2,2.309029E-3,2.539857E-1,-4.8366097E-1,-4.2399533E-2,8.506259E-2,1.0238125E-2,6.7610525E-2,2.274442E-1,7.9519366E-4,-3.2873255E-1,-3.2709867E-1,2.5120607E-1,-1.4261574E-1,-5.737985E-1,1.875164E-1,5.242191E-2,3.677496E-1,1.6001579E-1],"split_indices":[0,1,0,0,0,1,1,0,0,1,1,1,1,1,0,0,0,0,0,0,0,1,0,1,0,1,1,1,1,1,1,0,0,0,0,0,0,0,0,1,0,0,1,1,0,0,1,1,0,1,1,1,0,0,0,0,1,1,0,0,0,0,0,0,0,0,0,0,0,0,0,0,0,0,0,0,0,0,0,0,0,0,0,0,0,0,0,0,0,0,0,0,0,0,0,0,0,0,0,0,0],"split_type":[0,0,0,0,0,0,0,0,0,0,0,0,0,0,0,0,0,0,0,0,0,0,0,0,0,0,0,0,0,0,0,0,0,0,0,0,0,0,0,0,0,0,0,0,0,0,0,0,0,0,0,0,0,0,0,0,0,0,0,0,0,0,0,0,0,0,0,0,0,0,0,0,0,0,0,0,0,0,0,0,0,0,0,0,0,0,0,0,0,0,0,0,0,0,0,0,0,0,0,0,0],"sum_hessian":[3.0430521E4,2.1783906E3,2.825213E4,2.9845589E1,2.1485452E3,7.68241E3,2.056972E4,2.3500217E1,6.3453712E0,1.9530425E3,1.955027E2,3.0543872E3,4.628023E3,1.9580223E4,9.8949817E2,6.5672917E0,1.6932926E1,2.5629008E0,3.7824702E0,1.0495668E2,1.8480857E3,1.196324E1,1.8353947E2,2.8979314E3,1.5645589E2,1.612945E3,3.015078E3,1.9042744E4,5.3747815E2,6.5037415E2,3.3912402E2,4.606785E0,1.9605073E0,5.7674217E0,1.11655035E1,1.136763E0,1.4261378E0,9.843869E1,6.5179896E0,7.270696E0,4.692543E0,1.4982158E2,3.371789E1,2.0423275E3,8.5560376E2,1.3992406E2,1.6531828E1,8.042991E2,8.086459E2,1.8638662E3,1.1512117E3,1.8003004E4,1.0397402E3,1.775385E2,3.5993964E2,2.7240566E1,6.2313354E2,2.1437914E2,1.247449E2,2.942343E0,1.6644416E0,1.2004712E1,8.643398E1,3.692008E0,2.8259816E0,1.7207522E0,5.549944E0,2.8419874E0,1.8505559E0,2.8953415E1,4.7644773E0,1.8020051E3,2.4032245E2,2.1646301E2,6.3914075E2,1.0359341E2,3.6330654E1,1.5307427E1,1.2244002E0,4.6832333E2,3.3597574E2,6.0130457E2,2.0734126E2,1.4550973E3,4.0876892E2,6.509754E1,1.0861141E3,2.9608066E3,1.5042197E4,5.122552E2,5.274851E2,1.076587E2,6.987981E1,3.4910504E2,1.0834595E1,4.3835397E0,2.2857027E1,3.4321768E2,2.799159E2,8.208779E1,1.3229134E2],"tree_param":{"num_deleted":"0","num_feature":"2","num_nodes":"101","size_leaf_vector":"1"}},{"base_weights":[-1.5753418E-2,-9.9153984E-1,4.2122792E-2,-3.1105864E-1,-1.002918E0,3.601201E-2,5.1864254E-1,-3.4243166E-1,-1.361785E-1,-1.0213674E0,-8.220127E-1,-7.0494134E-3,9.9441424E-2,3.5630405E-1,4.615254E-1,-2.8017612E-2,-3.7244347E-1,2.7774325E-2,-6.895447E-2,-8.6460453E-1,-3.0900744E-1,-4.377183E-2,-8.8574773E-1,6.861989E-2,-7.868429E-2,8.290512E-2,8.487383E-1,5.8398858E-2,6.425452E-1,-4.4151565E-1,-2.700535E-1,-9.3376845E-1,-3.9864875E-2,9.526622E-2,-2.5488254E-1,-9.2518455E-1,-6.942725E-1,4.818967E-2,9.467482E-1,-5.669129E-1,-1.9025035E-2,1.3079107E-1,-6.912552E-2,3.791482E-2,9.882114E-1,-4.018034E-1,5.996581E-1,7.406268E-1,5.7052326E-1,-6.1735697E-2,-1.5749046E-1,-3.277117E-2,-8.914329E-2,-1.325297E-1,-3.0144793E-1,3.8689487E-2,-7.627644E-2,-4.867752E-3,3.7814207E-2,-1.8155614E-1,6.118145E-3,-2.147477E-1,-2.867668E-1,-2.3799619E-1,-4.217415E-2,2.0120608E-2,-1.5684547E-1,4.0284997E-1,-4.7528303E-1,-9.398762E-2,-2.0516221E-1,-5.3461086E-2,1.3017102E-2,3.751489E-1,3.7480816E-2,1.11421935E-1,-5.1342502E-2,-3.4124535E-1,1.6104747E-1,2.2849868E-1,3.3540702E-1,-4.3442164E-2,-4.5204416E-1,2.8245664E-1,4.5967676E-2,5.268931E-2,2.4041371E-1,1.1665136E-1,2.042889E-1],"categories":[],"categories_nodes":[],"categories_segments":[],"categories_sizes":[],"default_left":[0,0,0,0,0,0,0,0,0,0,0,0,0,0,0,0,0,0,0,0,0,0,0,0,0,0,0,0,0,0,0,0,0,0,0,0,0,0,0,0,0,0,0,0,0,0,0,0,0,0,0,0,0,0,0,0,0,0,0,0,0,0,0,0,0,0,0,0,0,0,0,0,0,0,0,0,0,0,0,0,0,0,0,0,0,0,0,0,0],"id":8,"left_children":[1,3,5,7,9,11,13,15,17,19,21,23,25,-1,27,-1,29,-1,-1,31,-1,33,35,37,39,41,43,45,47,49,51,53,55,57,59,61,63,65,67,69,71,73,75,77,79,81,83,85,87,-1,-1,-1,-1,-1,-1,-1,-1,-1,-1,-1,-1,-1,-1,-1,-1,-1,-1,-1,-1,-1,-1,-1,-1,-1,-1,-1,-1,-1,-1,-1,-1,-1,-1,-1,-1,-1,-1,-1,-1],"loss_changes":[1.6641245E3,1.2462402E1,8.098204E1,1.1019039E-1,4.574951E0,7.502004E1,1.2907906E1,1.4142013E-1,1.5001836E-1,1.1019287E0,7.662285E0,8.868867E1,1.3754451E2,0E0,2.3756836E1,0E0,2.719903E-2,0E0,0E0,4.7005424E0,0E0,4.0012905E-1,4.4091797E-1,1.4270142E2,2.447981E2,7.912718E1,2.7070557E1,2.5683872E1,1.1663208E0,1.042161E-1,1.50972605E-2,2.2336197E0,3.0320495E-1,3.103774E-2,5.2888E-1,6.109619E-2,1.4518547E0,8.3870544E1,1.8343614E2,2.693277E1,7.442845E1,5.4027603E1,1.17081276E2,2.1851433E1,5.1621094E0,1.5629358E1,7.080656E0,3.012951E0,2.4248505E0,0E0,0E0,0E0,0E0,0E0,0E0,0E0,0E0,0E0,0E0,0E0,0E0,0E0,0E0,0E0,0E0,0E0,0E0,0E0,0E0,0E0,0E0,0E0,0E0,0E0,0E0,0E0,0E0,0E0,0E0,0E0,0E0,0E0,0E0,0E0,0E0,0E0,0E0,0E0,0E0],"parents":[2147483647,0,0,1,1,2,2,3,3,4,4,5,5,6,6,7,7,8,8,9,9,10,10,11,11,12,12,14,14,16,16,19,19,21,21,22,22,23,23,24,24,25,25,26,26,27,27,28,28,29,29,30,30,31,31,32,32,33,33,34,34,35,35,36,36,37,37,38,38,39,39,40,40,41,41,42,42,43,43,44,44,45,45,46,46,47,47,48,48],"right_children":[2,4,6,8,10,12,14,16,18,20,22,24,26,-1,28,-1,30,-1,-1,32,-1,34,36,38,40,42,44,46,48,50,52,54,56,58,60,62,64,66,68,70,72,74,76,78,80,82,84,86,88,-1,-1,-1,-1,-1,-1,-1,-1,-1,-1,-1,-1,-1,-1,-1,-1,-1,-1,-1,-1,-1,-1,-1,-1,-1,-1,-1,-1,-1,-1,-1,-1,-1,-1,-1,-1,-1,-1,-1,-1],"split_conditions":[-4.009946E-1,-2.6933355E0,3.35451E0,-9.582976E-1,-5.708302E-1,8.912338E-1,-1.2277365E-1,-1.4949633E0,-9.1621786E-1,-1.8384573E0,-1.7442513E0,-1.4045845E-1,5.2180386E-1,3.5630405E-1,1.0282941E-1,-2.8017612E-2,-1.206043E0,2.7774325E-2,-6.895447E-2,-7.726076E-1,-3.0900744E-1,-1.8384573E0,-4.2861766E-1,-1.4461309E-1,-5.9099488E-2,4.093606E-1,8.927471E-1,3.6693122E0,3.6693122E0,-1.372939E0,-1.1643522E0,-1.5945783E0,-6.5740776E-1,-1.8870096E0,-4.5725948E-1,-1.1681688E0,2.3342455E-2,-1.6682197E-1,7.261593E-1,4.9923185E-1,1.1011277E-1,-4.6269286E-1,9.021524E-1,7.184026E-1,5.3981626E-1,6.630742E-2,4.147273E0,1.5690047E-1,2.859882E-1,-6.1735697E-2,-1.5749046E-1,-3.277117E-2,-8.914329E-2,-1.325297E-1,-3.0144793E-1,3.8689487E-2,-7.627644E-2,-4.867752E-3,3.7814207E-2,-1.8155614E-1,6.118145E-3,-2.147477E-1,-2.867668E-1,-2.3799619E-1,-4.217415E-2,2.0120608E-2,-1.5684547E-1,4.0284997E-1,-4.7528303E-1,-9.398762E-2,-2.0516221E-1,-5.3461086E-2,1.3017102E-2,3.751489E-1,3.7480816E-2,1.11421935E-1,-5.1342502E-2,-3.4124535E-1,1.6104747E-1,2.2849868E-1,3.3540702E-1,-4.3442164E-2,-4.5204416E-1,2.8245664E-1,4.5967676E-2,5.268931E-2,2.4041371E-1,1.1665136E-1,2.042889E-1],"split_indices":[0,1,1,0,0,0,0,0,0,1,1,1,1,0,0,0,0,0,0,0,0,1,0,1,1,1,0,1,1,0,0,0,0,1,0,1,1,1,0,0,1,1,0,1,1,0,1,0,0,0,0,0,0,0,0,0,0,0,0,0,0,0,0,0,0,0,0,0,0,0,0,0,0,0,0,0,0,0,0,0,0,0,0,0,0,0,0,0,0],"split_type":[0,0,0,0,0,0,0,0,0,0,0,0,0,0,0,0,0,0,0,0,0,0,0,0,0,0,0,0,0,0,0,0,0,0,0,0,0,0,0,0,0,0,0,0,0,0,0,0,0,0,0,0,0,0,0,0,0,0,0,0,0,0,0,0,0,0,0,0,0,0,0,0,0,0,0,0,0,0,0,0,0,0,0,0,0,0,0,0,0],"sum_hessian":[2.9464926E4,1.648879E3,2.7816047E4,2.7583178E1,1.6212959E3,2.7464918E4,3.5112845E2,2.2575163E1,5.008015E0,1.4670364E3,1.5425945E2,1.635953E4,1.1105388E4,2.606179E1,3.2506668E2,2.8701692E0,1.9704994E1,1.458267E0,3.5497482E0,8.205727E1,1.3849791E3,1.1804646E1,1.4245479E2,7.955755E3,8.403775E3,1.0866681E4,2.3870724E2,1.01144035E2,2.2392264E2,9.7891445E0,9.91585E0,7.558629E1,6.4709754E0,7.448067E0,4.3565784E0,1.14947876E2,2.750692E1,7.7758984E3,1.7985641E2,9.141575E2,7.489618E3,8.263895E3,2.602786E3,3.5221233E1,2.0348601E2,5.48045E1,4.6339535E1,9.087837E1,1.3304427E2,3.465626E0,6.3235183E0,2.1550875E0,7.7607617E0,1.0449732E1,6.513656E1,3.843061E0,2.6279144E0,1.7137115E0,5.734356E0,1.3896718E0,2.9669065E0,1.7811832E1,9.713605E1,2.2965855E1,4.5410643E0,7.5278896E3,2.4800917E2,1.5592488E2,2.3931534E1,2.8968256E2,6.244749E2,2.1090444E3,5.380573E3,4.188196E1,8.222013E3,4.8890927E2,2.1138767E3,1.0113814E1,2.5107418E1,7.662566E1,1.2686035E2,4.5381104E1,9.423399E0,2.5615213E1,2.0724323E1,9.200897E0,8.1677475E1,5.2007317E1,8.103695E1],"tree_param":{"num_deleted":"0","num_feature":"2","num_nodes":"89","size_leaf_vector":"1"}},{"base_weights":[-1.3255784E-2,-9.6837175E-1,3.0103223E-2,-6.00091E-1,-9.9922323E-1,-4.7119237E-2,5.533538E-2,-7.0277745E-1,2.262682E-2,-3.0368775E-1,-6.701157E-1,-1.5536074E-2,-2.2029519E-1,3.896127E-2,3.8016698E-1,-2.5126278E-1,-8.949282E-1,1.3484272E-1,-1.6846031E-2,1.5772175E-2,-7.168853E-1,-8.330973E-2,4.9498364E-1,-5.439058E-1,-1.3928656E-3,5.688738E-2,-6.176887E-1,1.9690406E-1,8.486734E-1,-2.979398E-1,-1.4671761E-1,-3.6502936E-1,-9.858595E-1,-3.9814577E-2,8.51155E-2,-7.205E-2,6.9267176E-2,-3.5035428E-2,3.186809E-2,-2.6997253E-1,-4.9141818E-1,-4.7016975E-2,-7.6669794E-1,1.05208E0,1.22251645E-1,-9.594581E-1,1.0181115E0,8.9670384E-1,-2.2377557E-1,4.9762234E-2,8.4897393E-1,-8.065466E-1,-3.3318436E-1,-9.001418E-1,2.548627E-1,6.736189E-1,3.500261E-1,-4.180769E-2,-1.1115464E-1,5.772814E-3,-5.5067915E-2,-2.7619386E-1,3.4246993E-1,-3.0148813E-1,-1.08612955E-1,3.971497E-2,9.274651E-3,1.7244785E-1,-2.2698744E-1,-2.2947842E-3,-2.1414036E-1,3.5367215E-1,-7.111523E-2,-3.0066392E-1,1.9864349E-1,-4.7471765E-1,-1.2786095E-1,1.9925168E-1,4.2321032E-1,3.6384535E-1,2.4035648E-1,-1.9487874E-1,6.4020626E-2,1.7042829E-2,-2.1336621E-1,2.941103E-1,-4.7878337E-1,-9.8057486E-2,-2.8581607E-1,-1.5157695E-1,3.702863E-1,-1.9621189E-1,-3.468216E-1,1.5060112E-1,-6.1724694E-3,3.439104E-1,1.2353496E-1],"categories":[],"categories_nodes":[],"categories_segments":[],"categories_sizes":[],"default_left":[0,0,0,0,0,0,0,0,0,0,0,0,0,0,0,0,0,0,0,0,0,0,0,0,0,0,0,0,0,0,0,0,0,0,0,0,0,0,0,0,0,0,0,0,0,0,0,0,0,0,0,0,0,0,0,0,0,0,0,0,0,0,0,0,0,0,0,0,0,0,0,0,0,0,0,0,0,0,0,0,0,0,0,0,0,0,0,0,0,0,0,0,0,0,0,0,0],"id":9,"left_children":[1,3,5,7,9,11,13,15,17,-1,19,21,23,25,27,29,31,33,35,37,39,41,43,45,47,49,51,53,55,57,59,61,63,-1,-1,-1,65,-1,-1,-1,67,69,-1,71,73,75,77,79,81,83,85,87,89,91,93,95,-1,-1,-1,-1,-1,-1,-1,-1,-1,-1,-1,-1,-1,-1,-1,-1,-1,-1,-1,-1,-1,-1,-1,-1,-1,-1,-1,-1,-1,-1,-1,-1,-1,-1,-1,-1,-1,-1,-1,-1,-1],"loss_changes":[1.1924005E3,1.3606689E1,5.366973E1,6.3560524E0,4.277466E0,3.709974E1,1.1040525E2,7.162327E0,6.8732895E-2,0E0,1.5179043E0,1.9858989E2,7.41169E1,2.3269342E2,8.536197E1,8.7109566E-2,2.4992752E0,1.9760332E-1,2.4719043E-1,6.0086157E-2,1.3730087E0,4.54513E2,1.3954881E2,2.7500665E2,1.250489E2,1.0854743E2,2.7957138E1,4.5841225E1,1.4793259E1,1.505065E-1,6.617424E-2,9.655402E0,2.3263168E-1,0E0,0E0,0E0,1.8730111E-2,0E0,0E0,0E0,6.6311545E0,1.3109863E2,0E0,4.4344147E1,2.4602043E2,1.1026535E2,1.1457199E1,2.7803879E0,9.356186E1,1.0231035E2,5.664987E1,2.1777664E1,5.7612694E1,1.5250626E0,4.6444744E1,2.215995E1,0E0,0E0,0E0,0E0,0E0,0E0,0E0,0E0,0E0,0E0,0E0,0E0,0E0,0E0,0E0,0E0,0E0,0E0,0E0,0E0,0E0,0E0,0E0,0E0,0E0,0E0,0E0,0E0,0E0,0E0,0E0,0E0,0E0,0E0,0E0,0E0,0E0,0E0,0E0,0E0,0E0],"parents":[2147483647,0,0,1,1,2,2,3,3,4,4,5,5,6,6,7,7,8,8,10,10,11,11,12,12,13,13,14,14,15,15,16,16,17,17,18,18,19,19,20,20,21,21,22,22,23,23,24,24,25,25,26,26,27,27,28,28,29,29,30,30,31,31,32,32,36,36,40,40,41,41,43,43,44,44,45,45,46,46,47,47,48,48,49,49,50,50,51,51,52,52,53,53,54,54,55,55],"right_children":[2,4,6,8,10,12,14,16,18,-1,20,22,24,26,28,30,32,34,36,38,40,42,44,46,48,50,52,54,56,58,60,62,64,-1,-1,-1,66,-1,-1,-1,68,70,-1,72,74,76,78,80,82,84,86,88,90,92,94,96,-1,-1,-1,-1,-1,-1,-1,-1,-1,-1,-1,-1,-1,-1,-1,-1,-1,-1,-1,-1,-1,-1,-1,-1,-1,-1,-1,-1,-1,-1,-1,-1,-1,-1,-1,-1,-1,-1,-1,-1,-1],"split_conditions":[-4.009946E-1,-1.8384573E0,2.4440852E-1,-7.726076E-1,-4.5725948E-1,1.4857627E0,1.2426867E0,-2.6933355E0,-6.8630975E-1,-3.0368775E-1,-1.7442513E0,3.4244707E-1,-2.034205E-1,8.882761E-1,7.1939373E-1,-1.0822421E0,-1.5945783E0,-7.4360657E-1,-5.998037E-1,-4.2861766E-1,-3.346054E-1,3.3860567E-1,-3.8244352E-1,2.4441097E0,1.7868223E0,8.321107E-1,8.003526E-1,1.3021241E0,1.5680288E0,-1.372939E0,-1.0402641E0,-1.7412077E0,-8.3547866E-1,-3.9814577E-2,8.51155E-2,-7.205E-2,-5.427428E-1,-3.5035428E-2,3.186809E-2,-2.6997253E-1,-3.3245462E-1,3.280462E-1,-7.6669794E-1,3.8132557E-1,3.552707E-1,1.8621143E0,2.6729605E0,1.6902648E0,3.1086907E0,7.196487E-1,8.154491E-1,9.453706E-1,1.1690744E0,6.9030803E-1,2.231275E0,1.3021241E0,3.500261E-1,-4.180769E-2,-1.1115464E-1,5.772814E-3,-5.5067915E-2,-2.7619386E-1,3.4246993E-1,-3.0148813E-1,-1.08612955E-1,3.971497E-2,9.274651E-3,1.7244785E-1,-2.2698744E-1,-2.2947842E-3,-2.1414036E-1,3.5367215E-1,-7.111523E-2,-3.0066392E-1,1.9864349E-1,-4.7471765E-1,-1.2786095E-1,1.9925168E-1,4.2321032E-1,3.6384535E-1,2.4035648E-1,-1.9487874E-1,6.4020626E-2,1.7042829E-2,-2.1336621E-1,2.941103E-1,-4.7878337E-1,-9.8057486E-2,-2.8581607E-1,-1.5157695E-1,3.702863E-1,-1.9621189E-1,-3.468216E-1,1.5060112E-1,-6.1724694E-3,3.439104E-1,1.2353496E-1],"split_indices":[0,1,0,0,0,1,1,1,0,0,1,1,0,1,0,0,0,0,0,0,1,1,0,1,1,1,0,1,1,0,0,0,0,0,0,0,0,0,0,0,1,1,0,1,1,1,1,1,1,1,0,1,1,0,1,1,0,0,0,0,0,0,0,0,0,0,0,0,0,0,0,0,0,0,0,0,0,0,0,0,0,0,0,0,0,0,0,0,0,0,0,0,0,0,0,0,0],"split_type":[0,0,0,0,0,0,0,0,0,0,0,0,0,0,0,0,0,0,0,0,0,0,0,0,0,0,0,0,0,0,0,0,0,0,0,0,0,0,0,0,0,0,0,0,0,0,0,0,0,0,0,0,0,0,0,0,0,0,0,0,0,0,0,0,0,0,0,0,0,0,0,0,0,0,0,0,0,0,0,0,0,0,0,0,0,0,0,0,0,0,0,0,0,0,0,0,0],"sum_hessian":[2.8791281E4,1.2493417E3,2.754194E4,9.815053E1,1.1511912E3,6.7827173E3,2.0759223E4,8.414622E1,1.40043125E1,1.1052256E3,4.5965637E1,5.7374355E3,1.0452816E3,1.9764076E4,9.9514764E2,2.580871E1,5.8337505E1,3.0155187E0,1.0988794E1,2.9765508E0,4.2989086E1,5.06577E3,6.7166565E2,4.211689E2,6.241127E2,1.9239756E4,5.2431934E2,7.163554E2,2.7879224E2,1.6563585E1,9.245127E0,9.278973E0,4.9058533E1,1.1168588E0,1.89866E0,2.5602467E0,8.428548E0,1.08924E0,1.8873109E0,2.2076864E1,2.091222E1,4.9934873E3,7.228267E1,2.68514E2,4.0315167E2,3.329722E2,8.819673E1,1.2326647E2,5.0084622E2,1.9069283E4,1.7047327E2,3.1402817E2,2.1029117E2,3.5217865E1,6.811375E2,1.8183672E2,9.695551E1,6.1172714E0,1.0446313E1,1.766297E0,7.4788294E0,7.0630984E0,2.2158742E0,4.700818E1,2.0503566E0,2.2590172E0,6.1695304E0,3.9328814E0,1.697934E1,4.7160576E3,2.774299E2,2.4454109E2,2.3972925E1,1.304987E2,2.7265295E2,1.526653E2,1.803069E2,4.779705E1,4.0399677E1,2.5888742E1,9.737773E1,2.5347264E2,2.4737358E2,1.8895227E4,1.7405655E2,1.6234747E2,8.125788E0,7.409885E1,2.3992932E2,1.9010023E2,2.0190935E1,1.976623E1,1.5451638E1,3.585763E2,3.2256122E2,6.360984E1,1.1822688E2],"tree_param":{"num_deleted":"0","num_feature":"2","num_nodes":"97","size_leaf_vector":"1"}},{"base_weights":[-1.029105E-2,-9.550649E-1,2.1794165E-2,-5.3195906E-1,-9.957603E-1,2.5889778E-1,1.4143968E-2,-6.3037854E-1,1.9919438E-2,-3.026602E-1,-8.0046284E-1,1.14928745E-1,6.9491124E-1,-4.252935E-2,5.7230514E-2,-1.964989E-1,-8.5310847E-1,-1.8910011E-2,1.257208E-1,-6.734628E-1,-2.9258314E-1,3.6445126E-1,-9.917497E-2,-3.2250702E-1,7.7620804E-1,-2.0209381E-2,-6.5767545E-1,2.3812945E-1,2.8634215E-2,-2.2793838E-1,-7.373422E-2,-3.072393E-1,-9.666673E-1,7.6123126E-2,-1.0963419E-1,4.780412E-2,1.1774142E-2,-7.218706E-1,-1.9576238E-1,-9.8898776E-2,9.8312855E-1,2.4453301E-2,-9.077462E-1,-1.2257305E0,2.3002313E-1,1.0064985E0,6.202944E-1,-4.5534562E-2,7.1775585E-1,-7.790225E-1,1.7939843E0,9.247791E-2,9.631189E-1,8.601628E-1,1.7879812E-2,-1.334603E-2,-7.644257E-2,1.1872029E-2,-4.440391E-2,-2.6356488E-1,2.0873727E-1,-2.9740605E-1,-9.400646E-2,-3.4134023E-2,4.2835355E-2,-8.085491E-2,1.8699429E-3,-1.554276E-1,-2.3885843E-1,-1.9284585E-1,7.91897E-2,-2.926644E-1,6.2317207E-2,1.9906591E-1,3.5405385E-1,-5.490593E-2,8.3364695E-2,-5.108111E-1,2.753255E-1,-5.81174E-1,-1.0608592E-1,1.2952699E-1,-1.0057279E-1,3.2697743E-1,1.1355541E-1,1.4956E-1,2.5112703E-1,5.2564926E-3,-5.486619E-2,4.3663856E-1,-1.269207E-1,-6.167327E-2,-3.2451466E-1,6.3148886E-1,2.3539919E-1,8.004962E-2,-1.10977374E-1,4.034135E-1,5.526578E-2,3.1191707E-1,-4.9136918E-2,-5.282618E-1,9.439531E-3],"categories":[],"categories_nodes":[],"categories_segments":[],"categories_sizes":[],"default_left":[0,0,0,0,0,0,0,0,0,0,0,0,0,0,0,0,0,0,0,0,0,0,0,0,0,0,0,0,0,0,0,0,0,0,0,0,0,0,0,0,0,0,0,0,0,0,0,0,0,0,0,0,0,0,0,0,0,0,0,0,0,0,0,0,0,0,0,0,0,0,0,0,0,0,0,0,0,0,0,0,0,0,0,0,0,0,0,0,0,0,0,0,0,0,0,0,0,0,0,0,0,0,0],"id":10,"left_children":[1,3,5,7,9,11,13,15,17,-1,19,21,23,25,27,29,31,33,35,37,-1,39,41,43,45,47,49,51,53,55,57,59,61,63,65,-1,-1,67,69,71,73,75,77,79,81,83,85,87,89,91,93,95,97,99,101,-1,-1,-1,-1,-1,-1,-1,-1,-1,-1,-1,-1,-1,-1,-1,-1,-1,-1,-1,-1,-1,-1,-1,-1,-1,-1,-1,-1,-1,-1,-1,-1,-1,-1,-1,-1,-1,-1,-1,-1,-1,-1,-1,-1,-1,-1,-1,-1],"loss_changes":[8.562955E2,1.5445984E1,4.9553066E1,4.5509987E0,1.3561401E0,5.3521343E1,6.463303E1,6.6880207E0,5.8311895E-2,0E0,6.308937E-1,3.439466E1,1.7765984E1,1.5694972E2,7.777872E1,8.108765E-2,2.590294E0,1.017131E-1,4.7552213E-3,7.102699E-1,0E0,8.529784E1,3.4700947E1,8.45427E0,6.4271164E0,2.0622658E2,1.2047159E2,2.1663467E2,1.1610709E2,8.584297E-2,6.1820496E-2,6.0477533E0,3.036766E-1,9.0672165E-2,1.1190455E-1,0E0,0E0,8.8300705E-2,1.1480861E0,4.612682E1,7.2374268E0,1.59238205E1,6.836766E1,3.2697268E0,1.3993545E0,3.65699E0,2.7427406E0,9.239573E1,3.087381E2,6.6096054E1,4.3681602E0,1.3797379E2,1.0177173E2,3.0650436E1,3.098622E2,0E0,0E0,0E0,0E0,0E0,0E0,0E0,0E0,0E0,0E0,0E0,0E0,0E0,0E0,0E0,0E0,0E0,0E0,0E0,0E0,0E0,0E0,0E0,0E0,0E0,0E0,0E0,0E0,0E0,0E0,0E0,0E0,0E0,0E0,0E0,0E0,0E0,0E0,0E0,0E0,0E0,0E0,0E0,0E0,0E0,0E0,0E0,0E0],"parents":[2147483647,0,0,1,1,2,2,3,3,4,4,5,5,6,6,7,7,8,8,10,10,11,11,12,12,13,13,14,14,15,15,16,16,17,17,18,18,19,19,21,21,22,22,23,23,24,24,25,25,26,26,27,27,28,28,29,29,30,30,31,31,32,32,33,33,34,34,37,37,38,38,39,39,40,40,41,41,42,42,43,43,44,44,45,45,46,46,47,47,48,48,49,49,50,50,51,51,52,52,53,53,54,54],"right_children":[2,4,6,8,10,12,14,16,18,-1,20,22,24,26,28,30,32,34,36,38,-1,40,42,44,46,48,50,52,54,56,58,60,62,64,66,-1,-1,68,70,72,74,76,78,80,82,84,86,88,90,92,94,96,98,100,102,-1,-1,-1,-1,-1,-1,-1,-1,-1,-1,-1,-1,-1,-1,-1,-1,-1,-1,-1,-1,-1,-1,-1,-1,-1,-1,-1,-1,-1,-1,-1,-1,-1,-1,-1,-1,-1,-1,-1,-1,-1,-1,-1,-1,-1,-1,-1,-1],"split_conditions":[-4.2861766E-1,-1.8384573E0,-1.7442513E0,-7.726076E-1,-5.427428E-1,2.4440852E-1,1.8465991E-1,-2.6933355E0,-4.8581898E-1,-3.026602E-1,-3.3245462E-1,1.6540898E-2,-2.5181823E0,1.3345978E-1,3.5117528E-1,-9.988706E-1,-1.5945783E0,-6.291714E-1,-4.5725948E-1,-3.346054E-1,-2.9258314E-1,-1.66471E-1,-1.8384573E0,5.5092883E-1,4.568086E-1,1.1011277E-1,9.1695505E-1,9.384068E-1,-3.8244352E-1,-1.4949633E0,-9.1621786E-1,-1.7412077E0,-8.3547866E-1,-7.4360657E-1,-5.708302E-1,4.780412E-2,1.1774142E-2,-1.1681688E0,-4.5725948E-1,-2.1721163E0,-2.3662474E0,1.3915478E-1,-1.7872784E0,-2.6933355E0,6.578008E-1,-1.7872784E0,6.0285485E-1,-1.3149011E-1,8.6551124E-1,3.038649E-2,9.189073E-1,3.280462E-1,3.4663573E-1,3.8132557E-1,3.532939E-1,-1.334603E-2,-7.644257E-2,1.1872029E-2,-4.440391E-2,-2.6356488E-1,2.0873727E-1,-2.9740605E-1,-9.400646E-2,-3.4134023E-2,4.2835355E-2,-8.085491E-2,1.8699429E-3,-1.554276E-1,-2.3885843E-1,-1.9284585E-1,7.91897E-2,-2.926644E-1,6.2317207E-2,1.9906591E-1,3.5405385E-1,-5.490593E-2,8.3364695E-2,-5.108111E-1,2.753255E-1,-5.81174E-1,-1.0608592E-1,1.2952699E-1,-1.0057279E-1,3.2697743E-1,1.1355541E-1,1.4956E-1,2.5112703E-1,5.2564926E-3,-5.486619E-2,4.3663856E-1,-1.269207E-1,-6.167327E-2,-3.2451466E-1,6.3148886E-1,2.3539919E-1,8.004962E-2,-1.10977374E-1,4.034135E-1,5.526578E-2,3.1191707E-1,-4.9136918E-2,-5.282618E-1,9.439531E-3],"split_indices":[0,1,1,0,0,0,1,1,0,0,1,0,1,1,1,0,0,0,0,1,0,0,1,0,0,1,0,0,0,0,0,0,0,0,0,0,0,1,0,1,1,0,1,1,0,1,0,1,0,0,0,1,1,1,1,0,0,0,0,0,0,0,0,0,0,0,0,0,0,0,0,0,0,0,0,0,0,0,0,0,0,0,0,0,0,0,0,0,0,0,0,0,0,0,0,0,0,0,0,0,0,0,0],"split_type":[0,0,0,0,0,0,0,0,0,0,0,0,0,0,0,0,0,0,0,0,0,0,0,0,0,0,0,0,0,0,0,0,0,0,0,0,0,0,0,0,0,0,0,0,0,0,0,0,0,0,0,0,0,0,0,0,0,0,0,0,0,0,0,0,0,0,0,0,0,0,0,0,0,0,0,0,0,0,0,0,0,0,0,0,0,0,0,0,0,0,0,0,0,0,0,0,0,0,0,0,0,0,0],"sum_hessian":[2.824652E4,9.268202E2,2.73197E4,8.255691E1,8.4426324E2,8.5289716E2,2.6466803E4,6.9941605E1,1.2615306E1,7.872622E2,5.7001038E1,6.4213245E2,2.1076471E2,1.1431086E4,1.5035716E4,2.4363516E1,4.5578087E1,9.829219E0,2.7860875E0,3.5826244E1,2.1174791E1,2.9621402E2,3.4591843E2,1.5375492E1,1.9538922E2,1.103184E4,3.9924655E2,2.0513892E3,1.2984326E4,1.8714188E1,5.6493278E0,8.487039E0,3.709105E1,4.8792095E0,4.9500093E0,1.3992493E0,1.3868381E0,3.2065727E1,3.760517E0,1.6984845E2,1.2636558E2,3.0088388E2,4.5034542E1,5.373315E0,1.0002177E1,7.667776E1,1.18711464E2,1.0666722E4,3.651178E2,3.8106754E2,1.8179028E1,1.7091465E3,3.422427E2,1.6477748E2,1.2819549E4,2.7301514E0,1.5984036E1,2.4219804E0,3.2273474E0,5.486257E0,3.0007815E0,3.5241966E1,1.8490841E0,1.0840784E0,3.795131E0,1.5227422E0,3.4272673E0,1.069991E1,2.1365816E1,1.7046195E0,2.0558972E0,4.344773E1,1.2640072E2,4.9864002E1,7.650158E1,1.6559508E2,1.352888E2,3.1419447E1,1.3615094E1,2.2865171E0,3.086798E0,7.545506E0,2.4566712E0,6.703646E1,9.641293E0,7.813007E1,4.058139E1,7.311167E3,3.3555547E3,2.215672E2,1.4355061E2,1.3223346E2,2.4883408E2,1.306736E1,5.1116686E0,1.2414619E3,4.6768448E2,2.2921901E2,1.1302369E2,1.4018004E2,2.4597439E1,9.61928E1,1.2723356E4],"tree_param":{"num_deleted":"0","num_feature":"2","num_nodes":"103","size_leaf_vector":"1"}},{"base_weights":[-8.120272E-3,-9.1604203E-1,1.6344752E-2,-4.4977462E-1,-9.676171E-1,1.2070769E-2,3.8147718E-1,-5.563698E-1,3.704269E-3,-3.0013427E-1,-6.6659164E-1,1.8865049E-2,-3.4509897E-1,3.063786E-1,3.327411E-1,-1.5068536E-1,-8.071188E-1,1.1230331E-1,-2.4283716E-2,-1.2699816E-1,-6.944652E-1,6.170572E-3,1.2039391E-1,3.3214974E-1,-5.902804E-1,-2.3461541E-2,5.005483E-1,-2.2322987E-1,-9.016548E-2,-2.6127332E-1,-9.457134E-1,-2.9263321E-2,7.6713935E-2,-1.6400102E-1,4.092798E-2,-8.164639E-2,1.275189E-2,-7.53679E-1,-5.2258676E-1,1.1861437E-2,-8.036126E-1,8.253409E-2,3.4925005E-1,-4.652478E-1,7.608671E-1,-9.862182E-1,1.07331134E-1,-3.6289045E-1,4.5176893E-1,3.2935372E-1,5.473611E-1,-2.0859733E-2,-1.1929197E-1,-2.0051508E-3,-3.276993E-2,-2.505076E-1,1.3726431E-1,-2.9324815E-1,-8.1019826E-2,-4.5459894E-3,-7.895386E-2,3.7251614E-2,-6.0279254E-4,-1.8315306E-1,-2.8682017E-1,-1.9851042E-1,3.3959016E-2,4.9331386E-2,7.906574E-4,-4.3418077E-1,4.3252206E-1,-4.9535822E-2,4.481139E-2,7.466475E-2,-3.2233924E-1,1.5158823E-1,4.4612014E-1,-3.2150146E-1,6.0099006E-1,-3.505377E-2,5.0155926E-1,1.1332092E-2,-2.4903485E-1,2.4755241E-1,1.410164E-2,1.984238E-1,-1.1356237E-1,2.001646E-1,1.3375734E-1],"categories":[],"categories_nodes":[],"categories_segments":[],"categories_sizes":[],"default_left":[0,0,0,0,0,0,0,0,0,0,0,0,0,0,0,0,0,0,0,0,0,0,0,0,0,0,0,0,0,0,0,0,0,0,0,0,0,0,0,0,0,0,0,0,0,0,0,0,0,0,0,0,0,0,0,0,0,0,0,0,0,0,0,0,0,0,0,0,0,0,0,0,0,0,0,0,0,0,0,0,0,0,0,0,0,0,0,0,0],"id":11,"left_children":[1,3,5,7,9,11,13,15,17,-1,19,21,23,-1,25,27,29,31,33,35,37,39,41,43,45,47,49,51,53,55,57,-1,-1,59,61,-1,-1,63,65,67,69,71,-1,73,75,77,79,81,83,85,87,-1,-1,-1,-1,-1,-1,-1,-1,-1,-1,-1,-1,-1,-1,-1,-1,-1,-1,-1,-1,-1,-1,-1,-1,-1,-1,-1,-1,-1,-1,-1,-1,-1,-1,-1,-1,-1,-1],"loss_changes":[6.164149E2,1.707544E1,4.216697E1,3.5980062E0,5.804138E0,6.482777E1,9.407925E0,6.0061874E0,4.8780154E-2,0E0,9.253025E-1,3.3785164E1,8.300273E1,0E0,1.7464184E1,8.6295545E-2,2.5519257E0,1.2372796E-1,1.23965725E-1,1.2311843E-1,2.5598717E-1,1.0739181E2,1.150284E2,4.5886456E1,1.0133641E2,1.5400501E1,1.410675E0,2.4972117E-1,2.2976346E-2,4.0418315E0,3.613968E-1,0E0,0E0,5.9415273E-2,3.447056E-2,0E0,0E0,7.268543E-1,1.810432E0,3.2572712E1,2.371209E2,4.6576664E1,0E0,2.0798542E1,1.539547E1,6.189972E1,4.705263E1,1.0450165E1,5.976783E0,1.0860863E1,1.580658E0,0E0,0E0,0E0,0E0,0E0,0E0,0E0,0E0,0E0,0E0,0E0,0E0,0E0,0E0,0E0,0E0,0E0,0E0,0E0,0E0,0E0,0E0,0E0,0E0,0E0,0E0,0E0,0E0,0E0,0E0,0E0,0E0,0E0,0E0,0E0,0E0,0E0,0E0],"parents":[2147483647,0,0,1,1,2,2,3,3,4,4,5,5,6,6,7,7,8,8,10,10,11,11,12,12,14,14,15,15,16,16,17,17,18,18,19,19,20,20,21,21,22,22,23,23,24,24,25,25,26,26,27,27,28,28,29,29,30,30,33,33,34,34,37,37,38,38,39,39,40,40,41,41,43,43,44,44,45,45,46,46,47,47,48,48,49,49,50,50],"right_children":[2,4,6,8,10,12,14,16,18,-1,20,22,24,-1,26,28,30,32,34,36,38,40,42,44,46,48,50,52,54,56,58,-1,-1,60,62,-1,-1,64,66,68,70,72,-1,74,76,78,80,82,84,86,88,-1,-1,-1,-1,-1,-1,-1,-1,-1,-1,-1,-1,-1,-1,-1,-1,-1,-1,-1,-1,-1,-1,-1,-1,-1,-1,-1,-1,-1,-1,-1,-1,-1,-1,-1,-1,-1,-1],"split_conditions":[-4.009946E-1,-1.8384573E0,3.35451E0,-7.726076E-1,-5.427428E-1,2.231275E0,-1.2277365E-1,-2.6933355E0,-7.140611E-1,-3.0013427E-1,-1.7442513E0,4.8011157E-1,-1.8783376E-1,3.063786E-1,1.0282941E-1,-1.2479192E0,-1.5945783E0,-7.4360657E-1,-5.998037E-1,-4.2861766E-1,-4.2861766E-1,4.773755E-1,9.3463224E-1,2.4441097E0,3.1086907E0,3.6693122E0,2.0872062E-1,-1.372939E0,-1.1643522E0,-1.7412077E0,-8.3547866E-1,-2.9263321E-2,7.6713935E-2,-6.5740776E-1,-5.427428E-1,-8.164639E-2,1.275189E-2,-3.3245462E-1,2.3342455E-2,-1.4892952E0,9.3463224E-1,-1.5215639E-2,3.4925005E-1,-3.1167933E-1,2.8385546E0,6.341067E-1,5.2002275E-1,5.740305E-3,4.147273E0,4.147273E0,4.008787E-1,-2.0859733E-2,-1.1929197E-1,-2.0051508E-3,-3.276993E-2,-2.505076E-1,1.3726431E-1,-2.9324815E-1,-8.1019826E-2,-4.5459894E-3,-7.895386E-2,3.7251614E-2,-6.0279254E-4,-1.8315306E-1,-2.8682017E-1,-1.9851042E-1,3.3959016E-2,4.9331386E-2,7.906574E-4,-4.3418077E-1,4.3252206E-1,-4.9535822E-2,4.481139E-2,7.466475E-2,-3.2233924E-1,1.5158823E-1,4.4612014E-1,-3.2150146E-1,6.0099006E-1,-3.505377E-2,5.0155926E-1,1.1332092E-2,-2.4903485E-1,2.4755241E-1,1.410164E-2,1.984238E-1,-1.1356237E-1,2.001646E-1,1.3375734E-1],"split_indices":[0,1,1,0,0,1,0,1,0,0,1,1,0,0,0,0,0,0,0,0,0,1,0,1,1,1,0,0,0,0,0,0,0,0,0,0,0,1,1,1,0,0,0,0,1,0,0,0,1,1,0,0,0,0,0,0,0,0,0,0,0,0,0,0,0,0,0,0,0,0,0,0,0,0,0,0,0,0,0,0,0,0,0,0,0,0,0,0,0],"split_type":[0,0,0,0,0,0,0,0,0,0,0,0,0,0,0,0,0,0,0,0,0,0,0,0,0,0,0,0,0,0,0,0,0,0,0,0,0,0,0,0,0,0,0,0,0,0,0,0,0,0,0,0,0,0,0,0,0,0,0,0,0,0,0,0,0,0,0,0,0,0,0,0,0,0,0,0,0,0,0,0,0,0,0,0,0,0,0,0,0],"sum_hessian":[2.7749352E4,7.271628E2,2.702219E4,7.339066E1,6.537721E2,2.6710566E4,3.11622E2,5.9239E1,1.4151668E1,5.873871E2,6.638505E1,2.6212877E4,4.9768866E2,2.0645288E1,2.9097675E2,2.3240059E1,3.599894E1,2.2825105E0,1.1869157E1,3.5336976E0,6.285135E1,2.3300592E4,2.9122866E3,1.321911E2,3.6549756E2,9.345692E1,1.9751982E2,9.347169E0,1.389289E1,7.873778E0,2.8125162E1,1.0564525E0,1.2260581E0,3.2948902E0,8.574266E0,1.57734E0,1.9563575E0,4.422905E1,1.86223E1,2.3138965E4,1.6162695E2,2.8113906E3,1.0089591E2,4.61915E1,8.5999596E1,2.3289915E2,1.325984E2,5.4655865E1,3.880105E1,4.413895E1,1.5338087E2,5.7120996E0,3.63507E0,2.8343031E0,1.1058586E1,4.288835E0,3.5849426E0,2.643499E1,1.690172E0,1.778498E0,1.516392E0,2.273878E0,6.300389E0,2.8256798E1,1.5972254E1,1.5245659E1,3.37664E0,1.3184155E3,2.1820549E4,1.2589355E2,3.5733414E1,5.971789E2,2.2142117E3,2.1537025E1,2.4654474E1,6.486672E1,2.1132874E1,2.270506E2,5.8485546E0,1.16789345E2,1.5809065E1,2.9918634E1,2.4737232E1,1.9642046E1,1.9159002E1,3.0090012E1,1.4048941E1,6.777704E1,8.560383E1],"tree_param":{"num_deleted":"0","num_feature":"2","num_nodes":"89","size_leaf_vector":"1"}},{"base_weights":[-6.888127E-3,-9.008595E-1,1.110385E-2,-3.8722998E-1,-9.6902645E-1,5.98393E-3,2.3599318E-1,-4.9556705E-1,-2.935582E-2,-2.97655E-1,-6.7774785E-1,1.1972371E-2,-1.6408964E-1,3.6705083E-1,1.43033E-1,-1.2115886E-1,-7.7705634E-1,-7.851307E-2,1.31854145E-2,-5.233862E-1,-2.803833E-1,-2.1445125E-2,4.5907237E-2,3.7028378E-1,-3.2715303E-1,-4.2954716E-1,3.3343413E-1,-2.0034353E-1,-7.453532E-2,-2.2426215E-1,-2.8870106E-1,-1.7033493E-2,1.02365196E-1,-5.8450234E-1,-4.682457E-2,-7.682528E-3,-1.193322E0,4.649688E-1,2.689838E-2,-4.0200952E-1,3.8723668E-1,3.5738355E-1,-5.897425E-1,9.441481E-1,8.186727E-2,-1.5790632E-2,-1.6861373E-1,-2.7283618E-2,-4.0923394E-3,-2.3688826E-1,9.429921E-2,1.6447036E-2,-2.9499859E-2,3.8619086E-2,9.793043E-3,-1.3949144E-1,-2.5367564E-1,-1.64917E-1,1.0544901E-1,-5.773337E-3,1.14563085E-1,3.508814E-1,-3.8946456E-1,-3.7449438E-2,2.1326531E-1,-1.6091192E-1,1.352577E-2,-1.01406336E-1,-3.581074E-1,-1.1400977E-1,3.4391418E-1,4.202144E-1,2.3787417E-1,-4.4781885E-1,1.2853986E-1],"categories":[],"categories_nodes":[],"categories_segments":[],"categories_sizes":[],"default_left":[0,0,0,0,0,0,0,0,0,0,0,0,0,0,0,0,0,0,0,0,0,0,0,0,0,0,0,0,0,0,0,0,0,0,0,0,0,0,0,0,0,0,0,0,0,0,0,0,0,0,0,0,0,0,0,0,0,0,0,0,0,0,0,0,0,0,0,0,0,0,0,0,0,0,0],"id":12,"left_children":[1,3,5,7,9,11,13,15,17,-1,19,21,23,-1,25,27,29,-1,31,33,-1,35,37,-1,39,41,43,45,47,49,-1,51,53,55,57,59,61,63,65,67,-1,69,-1,71,73,-1,-1,-1,-1,-1,-1,-1,-1,-1,-1,-1,-1,-1,-1,-1,-1,-1,-1,-1,-1,-1,-1,-1,-1,-1,-1,-1,-1,-1,-1],"loss_changes":[4.406307E2,1.8548035E1,3.0919807E1,2.5052118E0,2.541504E0,2.6745304E1,5.4698395E1,5.1570415E0,1.6323964E-1,0E0,1.0272961E0,2.876651E1,2.040726E2,0E0,5.9827145E1,6.838584E-2,2.6783504E0,0E0,4.1131835E-2,7.3463106E-1,0E0,2.0612553E2,1.00245285E2,0E0,9.749538E1,1.6639232E2,6.3128944E1,3.8559875E-1,1.4545001E-2,2.8052063E0,0E0,7.4173465E-2,2.8598607E-3,3.2776976E-1,1.0066862E0,5.6910557E1,3.828856E1,7.929117E1,1.23376595E2,3.840403E1,0E0,5.3658497E1,0E0,7.170372E0,1.6025809E2,0E0,0E0,0E0,0E0,0E0,0E0,0E0,0E0,0E0,0E0,0E0,0E0,0E0,0E0,0E0,0E0,0E0,0E0,0E0,0E0,0E0,0E0,0E0,0E0,0E0,0E0,0E0,0E0,0E0,0E0],"parents":[2147483647,0,0,1,1,2,2,3,3,4,4,5,5,6,6,7,7,8,8,10,10,11,11,12,12,14,14,15,15,16,16,18,18,19,19,21,21,22,22,24,24,25,25,26,26,27,27,28,28,29,29,31,31,32,32,33,33,34,34,35,35,36,36,37,37,38,38,39,39,41,41,43,43,44,44],"right_children":[2,4,6,8,10,12,14,16,18,-1,20,22,24,-1,26,28,30,-1,32,34,-1,36,38,-1,40,42,44,46,48,50,-1,52,54,56,58,60,62,64,66,68,-1,70,-1,72,74,-1,-1,-1,-1,-1,-1,-1,-1,-1,-1,-1,-1,-1,-1,-1,-1,-1,-1,-1,-1,-1,-1,-1,-1,-1,-1,-1,-1,-1,-1],"split_conditions":[-4.2861766E-1,-1.8384573E0,9.437979E-1,-8.3547866E-1,-5.427428E-1,9.406593E-1,3.4663573E-1,-2.6933355E0,-2.1721163E0,-2.97655E-1,-3.3245462E-1,2.5224262E-1,3.4663573E-1,3.6705083E-1,3.629282E-1,-1.3314458E0,-1.5945783E0,-7.851307E-2,-4.8581898E-1,-3.346054E-1,-2.803833E-1,2.160068E-1,3.280462E-1,3.7028378E-1,4.773755E-1,3.5739416E-1,3.6933902E-1,-1.372939E0,-9.582976E-1,-1.7412077E0,-2.8870106E-1,-6.291714E-1,-4.5725948E-1,-5.5500907E-1,-4.5725948E-1,1.9018605E-1,-3.7278616E-1,-3.867801E-1,3.4244707E-1,4.4296226E-1,3.8723668E-1,3.532939E-1,-5.897425E-1,9.442998E-1,3.72337E-1,-1.5790632E-2,-1.6861373E-1,-2.7283618E-2,-4.0923394E-3,-2.3688826E-1,9.429921E-2,1.6447036E-2,-2.9499859E-2,3.8619086E-2,9.793043E-3,-1.3949144E-1,-2.5367564E-1,-1.64917E-1,1.0544901E-1,-5.773337E-3,1.14563085E-1,3.508814E-1,-3.8946456E-1,-3.7449438E-2,2.1326531E-1,-1.6091192E-1,1.352577E-2,-1.01406336E-1,-3.581074E-1,-1.1400977E-1,3.4391418E-1,4.202144E-1,2.3787417E-1,-4.4781885E-1,1.2853986E-1],"split_indices":[0,1,0,0,0,0,1,1,1,0,1,1,1,0,1,0,0,0,0,1,0,1,1,0,1,1,1,0,0,0,0,0,0,1,0,1,0,0,1,1,0,1,0,0,1,0,0,0,0,0,0,0,0,0,0,0,0,0,0,0,0,0,0,0,0,0,0,0,0,0,0,0,0,0,0],"split_type":[0,0,0,0,0,0,0,0,0,0,0,0,0,0,0,0,0,0,0,0,0,0,0,0,0,0,0,0,0,0,0,0,0,0,0,0,0,0,0,0,0,0,0,0,0,0,0,0,0,0,0,0,0,0,0,0,0,0,0,0,0,0,0,0,0,0,0,0,0,0,0,0,0,0,0],"sum_hessian":[2.739344E4,5.394726E2,2.6853967E4,6.399075E1,4.7548187E2,2.625721E4,5.967555E2,4.8825382E1,1.5165368E1,4.3823557E2,3.72463E1,2.5365016E4,8.9219507E2,5.02966E1,5.4645886E2,2.156811E1,2.7257273E1,1.5496227E0,1.3615746E1,2.5162512E1,1.2083788E1,1.2780115E4,1.25849E4,9.24876E1,7.9970746E2,1.3605476E2,4.104041E2,6.7711143E0,1.4796996E1,7.3973327E0,1.985994E1,1.077395E1,2.8417957E0,2.2101612E1,3.0609002E0,1.2632762E4,1.4735342E2,5.4506903E2,1.2039832E4,7.650622E2,3.464522E1,9.0476616E1,4.5578156E1,1.189305E2,2.9147363E2,5.6211357E0,1.1499782E0,1.1267164E1,3.529832E0,3.3815734E0,4.0157595E0,5.8919625E0,4.881987E0,1.4479232E0,1.3938725E0,1.7068241E1,5.033371E0,1.1848599E0,1.8760402E0,1.2269558E4,3.6320364E2,5.8317337E0,1.4152168E2,1.6053546E2,3.8453357E2,3.757041E2,1.1664128E4,7.0916986E2,5.5892357E1,4.7034935E1,4.344168E1,2.7536802E1,9.13937E1,5.1987583E1,2.3948604E2],"tree_param":{"num_deleted":"0","num_feature":"2","num_nodes":"75","size_leaf_vector":"1"}},{"base_weights":[-5.134233E-3,-8.660721E-1,8.323919E-3,-3.2422563E-1,-9.528453E-1,5.268247E-3,2.9147586E-1,-4.1567189E-1,9.918121E-3,-2.9500052E-1,-6.1144865E-1,1.0532846E-2,-3.0440697E-1,2.7165645E-1,2.4962969E-1,-9.174547E-2,-7.0160776E-1,-5.2304924E-2,5.9055373E-2,-4.5213822E-1,-2.7298048E-1,-5.8198817E-2,2.3119034E-2,3.7404174E-1,-4.8940977E-1,-1.4224924E-3,4.0837216E-1,-1.7095788E-1,-4.9706962E-2,-1.9434068E-1,-8.942877E-1,3.8972944E-2,-6.7518525E-2,3.548719E-2,1.5505909E-2,-7.358607E-1,-3.0768043E-1,-5.349783E-3,-5.4283524E-1,1.1636302E-2,6.3272697E-1,-3.387459E-1,8.6458534E-1,-8.6569613E-1,8.7028846E-2,-2.6700255E-1,3.661761E-1,4.9427435E-1,3.4270185E-1,-2.6348177E-3,-7.684894E-2,-2.0286854E-2,-1.5591698E-4,-2.2278075E-1,6.654581E-2,-2.8347674E-1,-6.6645466E-2,-2.7434524E-2,2.835413E-2,5.820296E-2,-2.3875272E-2,-5.0062217E-2,-2.5087932E-1,4.0681505E-1,-1.533506E-1,-2.5456248E-2,1.3450147E-1,-2.1844995E-1,-5.5064175E-2,6.4264103E-3,-6.819178E-2,1.4271565E-1,3.2483476E-1,4.7540072E-2,-2.958923E-1,1.9434E-1,3.403989E-1,-2.92411E-1,2.951045E-1,-4.8615644E-3,5.706492E-1,2.517399E-2,-1.5127765E-1,2.2854953E-1,4.092831E-3,2.028891E-1,7.2484754E-2,3.0774256E-2,1.4187093E-1],"categories":[],"categories_nodes":[],"categories_segments":[],"categories_sizes":[],"default_left":[0,0,0,0,0,0,0,0,0,0,0,0,0,0,0,0,0,0,0,0,0,0,0,0,0,0,0,0,0,0,0,0,0,0,0,0,0,0,0,0,0,0,0,0,0,0,0,0,0,0,0,0,0,0,0,0,0,0,0,0,0,0,0,0,0,0,0,0,0,0,0,0,0,0,0,0,0,0,0,0,0,0,0,0,0,0,0,0,0],"id":13,"left_children":[1,3,5,7,9,11,13,15,17,-1,19,21,23,-1,25,27,29,31,33,35,-1,37,39,41,43,45,47,49,51,53,55,57,-1,-1,59,61,63,65,67,69,71,73,75,77,79,81,83,85,87,-1,-1,-1,-1,-1,-1,-1,-1,-1,-1,-1,-1,-1,-1,-1,-1,-1,-1,-1,-1,-1,-1,-1,-1,-1,-1,-1,-1,-1,-1,-1,-1,-1,-1,-1,-1,-1,-1,-1,-1],"loss_changes":[3.142019E2,1.9315186E1,2.3100365E1,1.8108959E0,3.138214E0,4.307056E1,7.098406E0,4.2377186E0,4.4920634E-2,0E0,1.1148977E0,2.2472353E1,5.5612732E1,0E0,1.0690773E1,6.785044E-2,2.222804E0,1.1233108E-1,1.9098394E-2,7.128072E-1,0E0,1.0297964E2,1.5368503E2,3.3575603E1,7.543511E1,1.0339416E1,7.576752E-1,1.01928174E-1,1.4406845E-2,1.9963144E0,3.8541794E-1,4.59438E-2,0E0,0E0,1.14351824E-1,2.6106668E-1,6.415676E0,1.3084448E2,2.6190903E1,5.0393127E1,2.8167282E1,1.2881506E1,2.582672E0,4.3354553E1,2.5913979E1,5.161172E0,6.1858625E0,3.007101E0,2.9652605E0,0E0,0E0,0E0,0E0,0E0,0E0,0E0,0E0,0E0,0E0,0E0,0E0,0E0,0E0,0E0,0E0,0E0,0E0,0E0,0E0,0E0,0E0,0E0,0E0,0E0,0E0,0E0,0E0,0E0,0E0,0E0,0E0,0E0,0E0,0E0,0E0,0E0,0E0,0E0,0E0],"parents":[2147483647,0,0,1,1,2,2,3,3,4,4,5,5,6,6,7,7,8,8,10,10,11,11,12,12,14,14,15,15,16,16,17,17,18,18,19,19,21,21,22,22,23,23,24,24,25,25,26,26,27,27,28,28,29,29,30,30,31,31,34,34,35,35,36,36,37,37,38,38,39,39,40,40,41,41,42,42,43,43,44,44,45,45,46,46,47,47,48,48],"right_children":[2,4,6,8,10,12,14,16,18,-1,20,22,24,-1,26,28,30,32,34,36,-1,38,40,42,44,46,48,50,52,54,56,58,-1,-1,60,62,64,66,68,70,72,74,76,78,80,82,84,86,88,-1,-1,-1,-1,-1,-1,-1,-1,-1,-1,-1,-1,-1,-1,-1,-1,-1,-1,-1,-1,-1,-1,-1,-1,-1,-1,-1,-1,-1,-1,-1,-1,-1,-1,-1,-1,-1,-1,-1,-1],"split_conditions":[-4.2861766E-1,-1.8384573E0,3.35451E0,-7.726076E-1,-5.427428E-1,2.231275E0,-1.2277365E-1,-2.6933355E0,-5.998037E-1,-2.9500052E-1,-3.3245462E-1,-4.7818E-2,-2.1878752E-1,2.7165645E-1,1.3915478E-1,-1.3314458E0,-1.5945783E0,-6.5740776E-1,-5.427428E-1,-1.2104626E0,-2.7298048E-1,1.3982911E0,1.5680288E0,2.4441097E0,3.1086907E0,3.6693122E0,3.6693122E0,-1.4949633E0,-9.582976E-1,-1.7412077E0,-8.3547866E-1,-7.4360657E-1,-6.7518525E-2,3.548719E-2,-1.8870096E0,-1.7442513E0,-1.1521577E0,3.4244707E-1,-2.1878752E-1,8.882761E-1,6.578008E-1,-3.1167933E-1,2.6729605E0,6.187774E-1,6.0285485E-1,-5.073357E-3,4.147273E0,4.434375E-1,2.859882E-1,-2.6348177E-3,-7.684894E-2,-2.0286854E-2,-1.5591698E-4,-2.2278075E-1,6.654581E-2,-2.8347674E-1,-6.6645466E-2,-2.7434524E-2,2.835413E-2,5.820296E-2,-2.3875272E-2,-5.0062217E-2,-2.5087932E-1,4.0681505E-1,-1.533506E-1,-2.5456248E-2,1.3450147E-1,-2.1844995E-1,-5.5064175E-2,6.4264103E-3,-6.819178E-2,1.4271565E-1,3.2483476E-1,4.7540072E-2,-2.958923E-1,1.9434E-1,3.403989E-1,-2.92411E-1,2.951045E-1,-4.8615644E-3,5.706492E-1,2.517399E-2,-1.5127765E-1,2.2854953E-1,4.092831E-3,2.028891E-1,7.2484754E-2,3.0774256E-2,1.4187093E-1],"split_indices":[0,1,1,0,0,1,0,1,0,0,1,0,0,0,0,0,0,0,0,1,0,1,1,1,1,1,1,0,0,0,0,0,0,0,1,1,1,1,0,1,0,0,1,0,0,0,1,0,0,0,0,0,0,0,0,0,0,0,0,0,0,0,0,0,0,0,0,0,0,0,0,0,0,0,0,0,0,0,0,0,0,0,0,0,0,0,0,0,0],"split_type":[0,0,0,0,0,0,0,0,0,0,0,0,0,0,0,0,0,0,0,0,0,0,0,0,0,0,0,0,0,0,0,0,0,0,0,0,0,0,0,0,0,0,0,0,0,0,0,0,0,0,0,0,0,0,0,0,0,0,0,0,0,0,0,0,0,0,0,0,0,0,0,0,0,0,0,0,0,0,0,0,0,0,0,0,0,0,0,0,0],"sum_hessian":[2.7115996E4,4.1637723E2,2.669962E4,5.8129528E1,3.5824768E2,2.641557E4,2.840486E2,4.544771E1,1.2681821E1,3.2714987E2,3.1097801E1,2.5974951E4,4.4061826E2,1.6805626E1,2.67243E2,2.1927591E1,2.3520117E1,5.5673537E0,7.114467E0,2.1915604E1,9.182198E0,4.0197817E3,2.195517E4,9.418777E1,3.464305E2,1.0390603E2,1.6333698E2,6.5392E0,1.53883915E1,7.027497E0,1.649262E1,4.1493874E0,1.4179662E0,2.2872083E0,4.827259E0,6.0126E0,1.5903005E1,3.6254426E3,3.9433923E2,2.1550262E4,4.0490723E2,3.8522232E1,5.566554E1,2.0930139E2,1.3712912E2,6.0482624E1,4.3423405E1,6.793967E1,9.539731E1,2.6322303E0,3.9069695E0,1.1005104E1,4.3832874E0,2.693967E0,4.3335295E0,1.4959789E1,1.5328318E0,1.0461956E0,3.1031916E0,1.3162018E0,3.5110574E0,1.3011309E0,4.711469E0,1.1158375E0,1.4787167E1,3.0855442E3,5.398984E2,2.5947025E2,1.34869E2,2.0703338E4,8.469243E2,3.017089E2,1.0319833E2,2.2218014E1,1.6304216E1,3.276465E1,2.2900888E1,1.9809795E2,1.1203448E1,1.3068747E2,6.441651E0,2.4658133E1,3.5824493E1,1.9913284E1,2.351012E1,3.8515358E1,2.9424309E1,3.4169243E1,6.122806E1],"tree_param":{"num_deleted":"0","num_feature":"2","num_nodes":"89","size_leaf_vector":"1"}},{"base_weights":[-4.031002E-3,-8.3831775E-1,5.8809933E-3,-2.7650377E-1,-9.489629E-1,1.702868E-1,8.652853E-4,-7.043747E-2,-4.134902E-1,-2.9302454E-1,-6.0845464E-1,5.6766126E-2,5.7013845E-1,-4.2816374E-2,2.3048129E-2,-1.35982E-1,-3.658996E-2,-8.45556E-1,-1.3085288E-1,-2.627269E-1,-2.7575126E-1,2.7286497E-1,-1.1574344E-1,-2.8762174E-1,6.567012E-1,1.4940666E-2,-3.4766E-1,3.593542E-1,1.1260365E-2,-2.0654632E-3,-6.2175788E-2,-9.030792E-3,-6.6141926E-2,-2.7450833E-1,-4.744836E-2,-2.0840797E-1,-2.563924E-2,-5.4109496E-1,3.2828477E-1,-8.4801026E-2,8.738362E-1,-3.1600524E-2,-6.201979E-1,-3.3125433E-1,7.4871224E-3,9.3426466E-1,4.8742405E-1,-5.2573882E-2,2.3297162E-1,-5.9861183E-1,-2.0514022E-1,7.084386E-2,7.0187175E-1,-4.55797E-1,1.7653733E-2,-1.4669375E-2,3.5645764E-2,-5.636605E-2,-3.2131772E-3,5.3146493E-2,-4.1812956E-2,-4.483569E-2,-2.511523E-1,1.2743492E-1,-1.2038216E-1,1.6253915E-1,3.3842528E-1,-3.3155642E-2,1.05996996E-1,-3.1986362E-1,2.1956752E-1,-9.1646865E-2,9.06358E-2,3.1251466E-1,8.033137E-2,2.200485E-1,1.0191685E-1,-1.998197E-2,1.8910152E-1,1.8840456E-1,-1.9486437E-2,-1.4194793E-1,-3.836029E-1,-3.514659E-2,-3.0545005E-1,-3.810318E-1,9.133587E-2,1.5865569E-1,5.6191456E-1,-2.6534867E-1,2.6803365E-1,1.4174572E-1,4.0978994E-3],"categories":[],"categories_nodes":[],"categories_segments":[],"categories_sizes":[],"default_left":[0,0,0,0,0,0,0,0,0,0,0,0,0,0,0,0,0,0,0,0,0,0,0,0,0,0,0,0,0,0,0,0,0,0,0,0,0,0,0,0,0,0,0,0,0,0,0,0,0,0,0,0,0,0,0,0,0,0,0,0,0,0,0,0,0,0,0,0,0,0,0,0,0,0,0,0,0,0,0,0,0,0,0,0,0,0,0,0,0,0,0,0,0],"id":14,"left_children":[1,3,5,7,9,11,13,15,17,-1,19,21,23,25,27,29,31,33,35,37,-1,39,41,43,45,47,49,51,53,-1,-1,55,57,-1,-1,-1,59,61,-1,63,65,67,69,-1,71,73,75,77,79,81,83,85,87,89,91,-1,-1,-1,-1,-1,-1,-1,-1,-1,-1,-1,-1,-1,-1,-1,-1,-1,-1,-1,-1,-1,-1,-1,-1,-1,-1,-1,-1,-1,-1,-1,-1,-1,-1,-1,-1,-1,-1],"loss_changes":[2.2207393E2,1.933789E1,2.1884912E1,1.4752078E0,1.894165E0,3.563188E1,2.495729E1,4.4909008E-2,3.7734566E0,0E0,2.1750145E0,2.2886452E1,1.3080936E1,1.5273694E2,6.771242E1,6.56399E-2,1.2593428E-2,4.471941E-1,1.1930523E0,5.1431947E0,0E0,5.863672E1,1.4481015E1,4.0112023E0,6.9691544E0,1.0737864E2,4.929712E1,5.7109085E1,4.9290646E1,0E0,0E0,5.4429702E-2,4.96639E-2,0E0,0E0,0E0,4.4539365E-1,1.1117191E0,0E0,2.786233E1,7.9776917E0,8.965177E0,3.0198996E1,0E0,1.3090438E0,3.9300041E0,3.3942928E0,5.3420273E1,2.0303107E2,4.2050354E1,6.3031025E1,9.908535E1,5.257489E1,1.2972302E2,2.9572405E1,0E0,0E0,0E0,0E0,0E0,0E0,0E0,0E0,0E0,0E0,0E0,0E0,0E0,0E0,0E0,0E0,0E0,0E0,0E0,0E0,0E0,0E0,0E0,0E0,0E0,0E0,0E0,0E0,0E0,0E0,0E0,0E0,0E0,0E0,0E0,0E0,0E0,0E0],"parents":[2147483647,0,0,1,1,2,2,3,3,4,4,5,5,6,6,7,7,8,8,10,10,11,11,12,12,13,13,14,14,15,15,16,16,17,17,18,18,19,19,21,21,22,22,23,23,24,24,25,25,26,26,27,27,28,28,31,31,32,32,36,36,37,37,39,39,40,40,41,41,42,42,44,44,45,45,46,46,47,47,48,48,49,49,50,50,51,51,52,52,53,53,54,54],"right_children":[2,4,6,8,10,12,14,16,18,-1,20,22,24,26,28,30,32,34,36,38,-1,40,42,44,46,48,50,52,54,-1,-1,56,58,-1,-1,-1,60,62,-1,64,66,68,70,-1,72,74,76,78,80,82,84,86,88,90,92,-1,-1,-1,-1,-1,-1,-1,-1,-1,-1,-1,-1,-1,-1,-1,-1,-1,-1,-1,-1,-1,-1,-1,-1,-1,-1,-1,-1,-1,-1,-1,-1,-1,-1,-1,-1,-1,-1],"split_conditions":[-4.5725948E-1,-1.8384573E0,-1.7442513E0,-2.6933355E0,-5.708302E-1,2.4440852E-1,-2.808821E-2,-1.3314458E0,-1.9630058E0,-2.9302454E-1,-5.5500907E-1,1.6540898E-2,-2.5181823E0,-1.3149011E-1,1.9806875E-2,-1.4949633E0,-1.0402641E0,-8.3547866E-1,-1.7412077E0,-6.68275E-1,-2.7575126E-1,-1.66471E-1,-1.8384573E0,5.2002275E-1,4.568086E-1,6.578008E-1,-7.509557E-2,-3.1367962E-3,3.9903812E-2,-2.0654632E-3,-6.2175788E-2,-1.0822421E0,-9.988706E-1,-2.7450833E-1,-4.744836E-2,-2.0840797E-1,-1.8870096E0,-1.1681688E0,3.2828477E-1,-2.7466035E-1,-8.004328E-2,-1.9630058E0,-1.7872784E0,-3.3125433E-1,-2.6933355E0,-1.7872784E0,-2.0812802E0,-1.4461309E-1,7.585274E-1,8.604274E-1,8.965568E-1,7.8416455E-1,8.984869E-1,8.7999225E-1,4.299843E-2,-1.4669375E-2,3.5645764E-2,-5.636605E-2,-3.2131772E-3,5.3146493E-2,-4.1812956E-2,-4.483569E-2,-2.511523E-1,1.2743492E-1,-1.2038216E-1,1.6253915E-1,3.3842528E-1,-3.3155642E-2,1.05996996E-1,-3.1986362E-1,2.1956752E-1,-9.1646865E-2,9.06358E-2,3.1251466E-1,8.033137E-2,2.200485E-1,1.0191685E-1,-1.998197E-2,1.8910152E-1,1.8840456E-1,-1.9486437E-2,-1.4194793E-1,-3.836029E-1,-3.514659E-2,-3.0545005E-1,-3.810318E-1,9.133587E-2,1.5865569E-1,5.6191456E-1,-2.6534867E-1,2.6803365E-1,1.4174572E-1,4.0978994E-3],"split_indices":[0,1,1,1,0,0,1,0,1,0,1,0,1,1,1,0,0,0,0,1,0,0,1,0,0,0,1,1,1,0,0,0,0,0,0,0,1,1,0,0,0,1,1,0,1,1,1,1,0,0,0,0,0,0,1,0,0,0,0,0,0,0,0,0,0,0,0,0,0,0,0,0,0,0,0,0,0,0,0,0,0,0,0,0,0,0,0,0,0,0,0,0,0],"split_type":[0,0,0,0,0,0,0,0,0,0,0,0,0,0,0,0,0,0,0,0,0,0,0,0,0,0,0,0,0,0,0,0,0,0,0,0,0,0,0,0,0,0,0,0,0,0,0,0,0,0,0,0,0,0,0,0,0,0,0,0,0,0,0,0,0,0,0,0,0,0,0,0,0,0,0,0,0,0,0,0,0,0,0,0,0,0,0,0,0,0,0,0,0],"sum_hessian":[2.6853154E4,3.1430978E2,2.6538844E4,5.2291676E1,2.6201813E2,7.8470447E2,2.575414E4,2.148554E1,3.0806133E1,2.4052292E2,2.1495201E1,6.120743E2,1.726302E2,8.673556E3,1.7080584E4,6.289211E0,1.519633E1,1.1395002E1,1.941113E1,1.1047935E1,1.0447267E1,2.7145145E2,3.4062283E2,1.561149E1,1.570187E2,7.292783E3,1.3807723E3,5.7741425E2,1.650317E4,2.6271265E0,3.662084E0,8.538862E0,6.657468E0,1.0048315E1,1.3466872E0,2.1714783E0,1.7239653E1,9.66631E0,1.3816246E0,1.7071179E2,1.00739655E2,2.9283984E2,4.7782997E1,3.4165022E0,1.2194988E1,5.777159E1,9.9247116E1,5.5690527E3,1.7237305E3,4.9897195E2,8.818004E2,3.140715E2,2.6334274E2,2.2190575E2,1.6281265E4,6.979882E0,1.5589808E0,1.3352628E0,5.322205E0,5.9942646E0,1.1245388E1,4.8093944E0,4.8569155E0,6.527072E1,1.0544107E2,4.504431E1,5.569534E1,2.4360754E2,4.9232296E1,3.6089558E1,1.16934395E1,5.895534E0,6.299454E0,4.926603E1,8.50556E0,3.573926E1,6.3507854E1,5.4578066E3,1.1124609E2,7.406017E2,9.831288E2,4.226931E2,7.627883E1,7.967238E2,8.507656E1,4.5938866E1,2.6813263E2,2.3071106E2,3.2631683E1,1.6866106E2,5.32447E1,1.4070694E2,1.6140558E4],"tree_param":{"num_deleted":"0","num_feature":"2","num_nodes":"93","size_leaf_vector":"1"}},{"base_weights":[-3.2426731E-3,-6.3625485E-1,6.1756107E-3,-8.281317E-1,-3.7261033E-1,1.680751E-1,-1.6095995E-3,-2.5873613E-1,-2.8967568E-1,-5.65445E-1,1.0505155E0,5.7205623E-1,-1.3974416E-1,-1.038138E-1,9.107511E-3,-5.5055577E-2,-4.3639812E-1,-2.4522813E-1,-1.1383244E0,3.413143E-1,-7.495126E-2,-5.5210803E-2,7.8025025E-1,-4.2565265E-1,1.12829626E-1,6.8250835E-2,-2.0594971E-1,-2.659802E-4,1.6878298E-1,2.1817945E-2,-8.006521E-2,-8.0469596E-1,-1.6347788E-1,-5.699413E-1,3.649867E-1,-1.204743E0,-2.4656814E-3,9.355881E-1,-7.6456106E-1,-9.625319E-3,8.267014E-1,-1.1491084E-1,-4.5889512E-1,6.6887194E-1,-4.3534803E-1,-5.08166E-2,2.3523269E0,-1.0062907E0,-1.3391283E-1,8.974067E-3,-5.838201E-1,4.0918168E-1,-7.699219E-2,-3.613653E-2,5.9028577E-2,-9.240925E-2,-9.895295E-3,-2.665798E-1,-4.0504273E-2,-1.9407189E-1,-1.4986249E-2,-1.1600558E-1,-2.6841468E-1,-2.1615241E-1,-4.0965456E-1,-2.5291073E-1,3.5162255E-1,-2.70904E-1,-1.6807874E-1,1.0094307E-1,-4.1817456E-1,2.186956E-1,3.7348345E-1,-1.1831029E-1,1.5849712E-1,2.3936868E-1,-5.955028E-2,2.28601E-1,-2.3401986E-1,7.7424664E-3,-2.2536096E-1,9.6618444E-1,-7.838166E-3,-3.7172875E-1,-1.6175596E-1,1.4717059E-1,-6.2617294E-2,1.7773596E-4,5.2443754E-2,-2.4669525E-1,-2.128165E-2,7.916066E-2,2.0906797E-1,-1.2100627E-1,4.543152E-2],"categories":[],"categories_nodes":[],"categories_segments":[],"categories_sizes":[],"default_left":[0,0,0,0,0,0,0,0,0,0,0,0,0,0,0,0,0,0,0,0,0,0,0,0,0,0,0,0,0,0,0,0,0,0,0,0,0,0,0,0,0,0,0,0,0,0,0,0,0,0,0,0,0,0,0,0,0,0,0,0,0,0,0,0,0,0,0,0,0,0,0,0,0,0,0,0,0,0,0,0,0,0,0,0,0,0,0,0,0,0,0,0,0,0,0],"id":15,"left_children":[1,3,5,7,9,11,13,15,-1,17,19,21,23,25,27,29,31,33,35,-1,-1,37,39,41,43,45,47,49,51,53,55,57,59,61,-1,63,-1,65,67,69,71,73,-1,75,77,79,81,83,85,87,89,91,93,-1,-1,-1,-1,-1,-1,-1,-1,-1,-1,-1,-1,-1,-1,-1,-1,-1,-1,-1,-1,-1,-1,-1,-1,-1,-1,-1,-1,-1,-1,-1,-1,-1,-1,-1,-1,-1,-1,-1,-1,-1,-1],"loss_changes":[1.5873096E2,1.9436768E1,3.3066544E1,1.736705E1,4.621257E1,1.497577E2,2.7418947E1,1.6093221E0,0E0,2.6695599E1,2.5731735E0,6.804524E1,4.943692E1,4.1765938E1,3.3910946E1,4.4376493E-2,2.2772207E0,4.607157E1,3.9268494E0,0E0,0E0,9.257071E1,1.4354813E1,1.0994827E2,1.1121968E2,2.4099251E2,8.5832214E1,1.15404E2,7.425809E1,1.7873412E-1,1.7170085E-1,4.3881083E-1,7.919492E-1,4.3500805E0,0E0,2.8720932E0,0E0,2.4113575E1,1.6640244E0,1.1347881E1,1.4186066E1,4.543148E1,0E0,2.042128E1,7.648451E1,4.524947E1,9.07545E1,1.2704506E1,6.406497E1,2.9285635E1,4.0748825E1,2.6374702E1,4.643477E1,0E0,0E0,0E0,0E0,0E0,0E0,0E0,0E0,0E0,0E0,0E0,0E0,0E0,0E0,0E0,0E0,0E0,0E0,0E0,0E0,0E0,0E0,0E0,0E0,0E0,0E0,0E0,0E0,0E0,0E0,0E0,0E0,0E0,0E0,0E0,0E0,0E0,0E0,0E0,0E0,0E0,0E0],"parents":[2147483647,0,0,1,1,2,2,3,3,4,4,5,5,6,6,7,7,9,9,10,10,11,11,12,12,13,13,14,14,15,15,16,16,17,17,18,18,21,21,22,22,23,23,24,24,25,25,26,26,27,27,28,28,29,29,30,30,31,31,32,32,33,33,35,35,37,37,38,38,39,39,40,40,41,41,43,43,44,44,45,45,46,46,47,47,48,48,49,49,50,50,51,51,52,52],"right_children":[2,4,6,8,10,12,14,16,-1,18,20,22,24,26,28,30,32,34,36,-1,-1,38,40,42,44,46,48,50,52,54,56,58,60,62,-1,64,-1,66,68,70,72,74,-1,76,78,80,82,84,86,88,90,92,94,-1,-1,-1,-1,-1,-1,-1,-1,-1,-1,-1,-1,-1,-1,-1,-1,-1,-1,-1,-1,-1,-1,-1,-1,-1,-1,-1,-1,-1,-1,-1,-1,-1,-1,-1,-1,-1,-1,-1,-1,-1,-1],"split_conditions":[-3.8965747E-1,-5.708302E-1,-3.7278616E-1,-1.8384573E0,3.4663573E-1,3.280462E-1,-1.0154589E-1,-2.6933355E0,-2.8967568E-1,3.1055644E-1,3.5739416E-1,-3.867801E-1,3.4244707E-1,-8.2955235E-1,1.2426867E0,-1.372939E0,-1.9630058E0,3.7106458E-2,3.4244707E-1,3.413143E-1,-7.495126E-2,3.1055644E-1,-1.1521577E0,3.3860567E-1,-3.8244352E-1,-8.602718E-1,-6.890415E-1,9.453706E-1,2.0991142E0,-1.4560754E0,-1.2886215E0,-8.3547866E-1,-1.7412077E0,-4.009946E-1,3.649867E-1,3.203157E-1,-2.4656814E-3,2.4654645E-2,3.203157E-1,-1.3225523E0,-3.7820685E-1,-3.810047E-1,-4.5889512E-1,3.5739416E-1,3.5117528E-1,-9.793073E-1,-2.034205E-1,-1.8783376E-1,-5.883641E-1,4.9241874E-1,1.1690744E0,7.1939373E-1,3.1086907E0,-3.613653E-2,5.9028577E-2,-9.240925E-2,-9.895295E-3,-2.665798E-1,-4.0504273E-2,-1.9407189E-1,-1.4986249E-2,-1.1600558E-1,-2.6841468E-1,-2.1615241E-1,-4.0965456E-1,-2.5291073E-1,3.5162255E-1,-2.70904E-1,-1.6807874E-1,1.0094307E-1,-4.1817456E-1,2.186956E-1,3.7348345E-1,-1.1831029E-1,1.5849712E-1,2.3936868E-1,-5.955028E-2,2.28601E-1,-2.3401986E-1,7.7424664E-3,-2.2536096E-1,9.6618444E-1,-7.838166E-3,-3.7172875E-1,-1.6175596E-1,1.4717059E-1,-6.2617294E-2,1.7773596E-4,5.2443754E-2,-2.4669525E-1,-2.128165E-2,7.916066E-2,2.0906797E-1,-1.2100627E-1,4.543152E-2],"split_indices":[0,0,0,1,1,1,0,1,0,1,1,0,1,1,1,0,1,1,1,0,0,1,1,1,0,1,1,1,1,0,0,0,0,0,0,1,0,1,1,1,0,0,0,1,1,1,0,0,1,1,1,0,1,0,0,0,0,0,0,0,0,0,0,0,0,0,0,0,0,0,0,0,0,0,0,0,0,0,0,0,0,0,0,0,0,0,0,0,0,0,0,0,0,0,0],"split_type":[0,0,0,0,0,0,0,0,0,0,0,0,0,0,0,0,0,0,0,0,0,0,0,0,0,0,0,0,0,0,0,0,0,0,0,0,0,0,0,0,0,0,0,0,0,0,0,0,0,0,0,0,0,0,0,0,0,0,0,0,0,0,0,0,0,0,0,0,0,0,0,0,0,0,0,0,0,0,0,0,0,0,0,0,0,0,0,0,0,0,0,0,0,0,0],"sum_hessian":[2.6622617E4,3.8932236E2,2.6233295E4,2.2409094E2,1.6523141E2,1.2026508E3,2.5030645E4,4.413722E1,1.7995372E2,1.4604489E2,1.9186525E1,5.197171E2,6.8293365E2,2.3747783E3,2.2655865E4,2.1173153E1,2.2964066E1,9.459698E1,5.1447906E1,1.8097988E1,1.0885373E0,1.2969484E2,3.9002225E2,3.200069E2,3.6292673E2,8.846957E2,1.4900826E3,2.1400578E4,1.2552881E3,5.2287793E0,1.5944374E1,8.944823E0,1.4019242E1,7.790293E1,1.6694046E1,4.852967E1,2.9182358E0,5.3979282E1,7.571556E1,2.1706596E1,3.6831564E2,2.5058026E2,6.942665E1,1.8006161E2,1.8286511E2,8.417914E2,4.2904297E1,1.21973114E2,1.3681095E3,2.106797E4,3.3260748E2,6.3424884E2,6.210392E2,3.0554235E0,2.1733556E0,1.7805188E0,1.4163855E1,7.6584153E0,1.2864081E0,1.7725613E0,1.224668E1,5.1202316E1,2.6700615E1,1.3462635E1,3.5067036E1,6.0338383E0,4.7945446E1,4.3092136E1,3.2623425E1,1.7970514E1,3.7360833E0,3.0078485E2,6.753079E1,1.7495639E2,7.562386E1,1.5681511E2,2.3246492E1,4.0607533E1,1.4225758E2,7.596465E2,8.214491E1,3.1170862E1,1.1733436E1,8.0299194E1,4.1673923E1,1.4576799E2,1.2223416E3,2.005536E4,1.01261115E3,2.266217E2,1.0598579E2,4.2268362E2,2.1156525E2,2.5539168E2,3.656475E2],"tree_param":{"num_deleted":"0","num_feature":"2","num_nodes":"95","size_leaf_vector":"1"}},{"base_weights":[-2.8234236E-3,-7.797151E-1,2.4503726E-3,-2.1264061E-1,-2.855143E-1,-1.3597701E-3,1.7395866E-1,-4.3121565E-2,-3.743444E-1,5.9465426E-3,-9.4397E-2,3.4228805E-1,1.00172706E-1,-1.00659624E-1,-1.4871145E-2,-7.5867724E-1,-1.34518E-1,-2.3418128E-1,8.781677E-3,7.6534253E-1,-1.9908838E-1,-3.0494058E-1,2.3857935E-1,6.2455023E-3,-5.228188E-2,3.2555863E-2,-4.2977158E-2,-2.5729787E-1,-3.4545884E-2,-1.8008465E-1,-3.6583357E-2,-4.0667453E-1,5.167895E-1,1.6577521E-1,1.754007E-3,2.2362934E-1,3.5279265E-1,-2.6737988E-1,5.2727395E-1,2.6200256E-1,-1.3139843E0,7.270261E-1,4.9614318E-2,-3.2797167E-3,2.1238446E-2,-4.7269236E-2,-2.8796475E-3,3.732077E-2,-4.2502783E-2,1.1066174E-2,-2.3682214E-1,2.4586867E-1,-4.9883977E-1,1.522541E-1,-2.523461E-2,-6.459548E-3,1.1003656E-2,2.0074935E-1,-8.350706E-2,1.0389601E-2,-9.6453875E-2,-9.2585586E-2,3.4377834E-1,-8.27852E-2,2.7229092E-1,-4.5531476E-1,-3.0524805E-1,2.9772788E-1,1.359164E-1,-2.9917145E-1,9.05233E-2],"categories":[],"categories_nodes":[],"categories_segments":[],"categories_sizes":[],"default_left":[0,0,0,0,0,0,0,0,0,0,0,0,0,0,0,0,0,0,0,0,0,0,0,0,0,0,0,0,0,0,0,0,0,0,0,0,0,0,0,0,0,0,0,0,0,0,0,0,0,0,0,0,0,0,0,0,0,0,0,0,0,0,0,0,0,0,0,0,0,0,0],"id":16,"left_children":[1,3,5,7,-1,9,11,13,15,17,19,-1,21,23,25,27,29,31,33,35,37,39,41,-1,-1,43,45,-1,-1,-1,47,49,51,53,55,57,-1,59,61,63,65,67,69,-1,-1,-1,-1,-1,-1,-1,-1,-1,-1,-1,-1,-1,-1,-1,-1,-1,-1,-1,-1,-1,-1,-1,-1,-1,-1,-1,-1],"loss_changes":[1.0792467E2,1.7120811E1,1.7097786E1,1.1521794E0,0E0,1.740007E1,4.045786E1,3.4162525E-2,1.8965476E0,1.6159876E1,1.6791003E2,0E0,2.9756989E1,6.6679664E-2,2.2576287E-2,4.1820621E-1,6.4251196E-1,3.6090126E1,2.5880642E1,4.4788643E1,8.2598015E1,7.771827E1,3.6436737E1,0E0,0E0,1.1550802E-2,3.8289256E-2,0E0,0E0,0E0,2.392767E-1,3.8363388E1,3.5796265E1,8.5872314E1,1.8261362E1,1.9993233E1,0E0,2.4863007E1,7.440217E1,3.0616993E1,1.404808E0,7.560089E0,7.5788895E1,0E0,0E0,0E0,0E0,0E0,0E0,0E0,0E0,0E0,0E0,0E0,0E0,0E0,0E0,0E0,0E0,0E0,0E0,0E0,0E0,0E0,0E0,0E0,0E0,0E0,0E0,0E0,0E0],"parents":[2147483647,0,0,1,1,2,2,3,3,5,5,6,6,7,7,8,8,9,9,10,10,12,12,13,13,14,14,15,15,16,16,17,17,18,18,19,19,20,20,21,21,22,22,25,25,26,26,30,30,31,31,32,32,33,33,34,34,35,35,37,37,38,38,39,39,40,40,41,41,42,42],"right_children":[2,4,6,8,-1,10,12,14,16,18,20,-1,22,24,26,28,30,32,34,36,38,40,42,-1,-1,44,46,-1,-1,-1,48,50,52,54,56,58,-1,60,62,64,66,68,70,-1,-1,-1,-1,-1,-1,-1,-1,-1,-1,-1,-1,-1,-1,-1,-1,-1,-1,-1,-1,-1,-1,-1,-1,-1,-1,-1,-1],"split_conditions":[-5.708302E-1,-1.8384573E0,9.437979E-1,-2.6933355E0,-2.855143E-1,9.301223E-1,3.4663573E-1,-1.3314458E0,-1.9630058E0,-3.881414E-1,3.4663573E-1,3.4228805E-1,3.629282E-1,-1.4949633E0,-1.1236432E0,-8.3547866E-1,-1.7412077E0,3.4244707E-1,-3.7278616E-1,3.1055644E-1,4.773755E-1,3.5739416E-1,3.6933902E-1,6.2455023E-3,-5.228188E-2,-1.206043E0,-1.0822421E0,-2.5729787E-1,-3.4545884E-2,-1.8008465E-1,-1.5945783E0,3.1055644E-1,4.093606E-1,3.280462E-1,8.6551124E-1,5.7098273E-2,3.5279265E-1,3.5739416E-1,9.3463224E-1,3.532939E-1,9.448266E-1,3.6342442E-1,3.72337E-1,-3.2797167E-3,2.1238446E-2,-4.7269236E-2,-2.8796475E-3,3.732077E-2,-4.2502783E-2,1.1066174E-2,-2.3682214E-1,2.4586867E-1,-4.9883977E-1,1.522541E-1,-2.523461E-2,-6.459548E-3,1.1003656E-2,2.0074935E-1,-8.350706E-2,1.0389601E-2,-9.6453875E-2,-9.2585586E-2,3.4377834E-1,-8.27852E-2,2.7229092E-1,-4.5531476E-1,-3.0524805E-1,2.9772788E-1,1.359164E-1,-2.9917145E-1,9.05233E-2],"split_indices":[0,1,0,1,0,0,1,0,1,0,1,0,1,0,0,0,0,1,0,1,1,1,1,0,0,0,0,0,0,0,0,1,1,1,0,1,0,1,0,1,0,1,1,0,0,0,0,0,0,0,0,0,0,0,0,0,0,0,0,0,0,0,0,0,0,0,0,0,0,0,0],"split_type":[0,0,0,0,0,0,0,0,0,0,0,0,0,0,0,0,0,0,0,0,0,0,0,0,0,0,0,0,0,0,0,0,0,0,0,0,0,0,0,0,0,0,0,0,0,0,0,0,0,0,0,0,0,0,0,0,0,0,0,0,0,0,0,0,0,0,0,0,0,0,0],"sum_hessian":[2.6339814E4,1.7660759E2,2.6163207E4,4.162101E1,1.3498659E2,2.559558E4,5.676266E2,2.0937868E1,2.0683142E1,2.3732758E4,1.8628226E3,3.9216167E1,5.284104E2,6.0508633E0,1.4887006E1,7.115993E0,1.3567148E1,2.7598535E2,2.3456771E4,2.01529E2,1.6612936E3,1.3425261E2,3.9415778E2,2.5537739E0,3.4970896E0,5.480577E0,9.406428E0,5.8789773E0,1.2370161E0,1.465936E0,1.21012125E1,2.2480707E2,5.1178295E1,1.0040636E3,2.2452709E4,8.7561356E1,1.1396766E2,1.5191018E3,1.4219179E2,8.643079E1,4.7821823E1,1.0915661E2,2.8500116E2,2.8983996E0,2.5821774E0,1.2826328E0,8.1237955E0,4.7070227E0,7.39419E0,1.04547295E2,1.2025977E2,4.5483974E1,5.694322E0,4.2365805E2,5.804055E2,1.3471253E4,8.981455E3,4.621259E1,4.1348766E1,2.3095395E2,1.2881478E3,6.069077E1,8.150102E1,4.7459396E1,3.8971397E1,2.5903486E1,2.1918335E1,5.4113598E1,5.504301E1,5.4744568E1,2.3025659E2],"tree_param":{"num_deleted":"0","num_feature":"2","num_nodes":"71","size_leaf_vector":"1"}},{"base_weights":[-1.6744325E-3,-6.779951E-1,2.5691069E-3,-1.3897988E-1,-8.7711775E-1,8.225792E-2,-5.419562E-3,-2.105779E-1,1.18508235E-1,-2.8025398E-1,-4.9165598E-1,6.0478993E-2,6.258996E-1,-5.793678E-1,-1.2461379E-3,-3.4286648E-2,-4.52345E-1,7.237969E-2,7.58468E-2,-1.3413702E-1,-2.6457542E-1,-1.5658127E-1,1.21167414E-1,1.9978462E-1,1.3598324E0,1.3840749E0,-9.282929E-1,-1.3246847E-2,5.026888E-2,3.8289864E-2,-5.9098605E-2,-9.988701E-2,-6.80961E-1,-6.686097E-2,4.583926E-2,-4.2471594E-1,2.494089E-1,-4.786198E-1,1.0251937E-1,4.733469E-1,6.298286E-2,7.296629E-1,-1.8681865E0,4.1696686E-1,9.1967024E-2,1.7586992E0,4.293113E-1,-1.3838232E0,-3.833806E-1,4.1547706E-3,-9.5475876E-1,3.496393E-1,-1.1239809E-3,-2.8294943E-2,5.7417862E-2,-7.577897E-2,-6.5208874E-3,-1.6671525E-1,2.7289849E-2,-2.5605223E-1,-3.3633634E-2,6.7327367E-3,-4.3511584E-2,-1.1531408E-2,-2.336965E-1,-2.8715255E-3,-2.9619113E-1,-5.821201E-2,2.0883782E-1,1.82406E-1,-5.580715E-1,-6.534477E-2,3.6220152E-2,5.2729124E-1,9.4747834E-2,-6.217525E-1,-6.1949357E-2,5.9320664E-1,3.3803654E-1,-3.1293017E-1,5.2283114E-1,-5.1528096E-1,-5.915867E-2,2.0529209E-2,-3.5393026E-1,-6.6740713E-3,1.6055195E-2,-4.3211374E-1,4.0520725E-1,1.841253E-1,-2.5630733E-1,-1.0507017E-1,1.4565246E-2],"categories":[],"categories_nodes":[],"categories_segments":[],"categories_sizes":[],"default_left":[0,0,0,0,0,0,0,0,0,0,0,0,0,0,0,0,0,0,0,0,0,0,0,0,0,0,0,0,0,0,0,0,0,0,0,0,0,0,0,0,0,0,0,0,0,0,0,0,0,0,0,0,0,0,0,0,0,0,0,0,0,0,0,0,0,0,0,0,0,0,0,0,0,0,0,0,0,0,0,0,0,0,0,0,0,0,0,0,0,0,0,0,0],"id":17,"left_children":[1,3,5,7,9,11,13,15,17,-1,19,21,23,25,27,29,31,-1,33,35,-1,37,39,41,43,45,47,49,51,53,55,57,59,61,-1,63,-1,65,67,69,71,73,75,-1,-1,77,79,81,83,85,87,89,91,-1,-1,-1,-1,-1,-1,-1,-1,-1,-1,-1,-1,-1,-1,-1,-1,-1,-1,-1,-1,-1,-1,-1,-1,-1,-1,-1,-1,-1,-1,-1,-1,-1,-1,-1,-1,-1,-1,-1,-1],"loss_changes":[7.518198E1,1.7409386E1,1.65732E1,8.591937E-1,2.1600876E0,2.8046848E1,5.667731E1,1.508903E0,3.661111E-2,0E0,2.31882E0,3.0076874E1,2.8268707E1,1.18306854E2,1.4523863E1,4.1458376E-2,1.1406689E0,0E0,1.1167928E-1,3.2414956E0,0E0,4.1686356E1,3.6522083E1,6.59147E1,6.2971497E-1,8.607571E0,3.5619713E1,3.121857E2,6.829385E1,1.4295672E-1,1.14619434E-1,6.659293E-1,7.8049564E-1,3.0709112E-2,0E0,1.1435965E0,0E0,5.311617E1,4.895936E1,8.056705E1,2.4869898E1,1.9700136E1,3.7469444E0,0E0,0E0,3.248825E-1,1.8642136E1,3.0927322E1,2.44386E1,2.4384382E1,3.8907843E2,2.0733429E2,6.573357E1,0E0,0E0,0E0,0E0,0E0,0E0,0E0,0E0,0E0,0E0,0E0,0E0,0E0,0E0,0E0,0E0,0E0,0E0,0E0,0E0,0E0,0E0,0E0,0E0,0E0,0E0,0E0,0E0,0E0,0E0,0E0,0E0,0E0,0E0,0E0,0E0,0E0,0E0,0E0,0E0],"parents":[2147483647,0,0,1,1,2,2,3,3,4,4,5,5,6,6,7,7,8,8,10,10,11,11,12,12,13,13,14,14,15,15,16,16,18,18,19,19,21,21,22,22,23,23,24,24,25,25,26,26,27,27,28,28,29,29,30,30,31,31,32,32,33,33,35,35,37,37,38,38,39,39,40,40,41,41,42,42,45,45,46,46,47,47,48,48,49,49,50,50,51,51,52,52],"right_children":[2,4,6,8,10,12,14,16,18,-1,20,22,24,26,28,30,32,-1,34,36,-1,38,40,42,44,46,48,50,52,54,56,58,60,62,-1,64,-1,66,68,70,72,74,76,-1,-1,78,80,82,84,86,88,90,92,-1,-1,-1,-1,-1,-1,-1,-1,-1,-1,-1,-1,-1,-1,-1,-1,-1,-1,-1,-1,-1,-1,-1,-1,-1,-1,-1,-1,-1,-1,-1,-1,-1,-1,-1,-1,-1,-1,-1,-1],"split_conditions":[-4.5725948E-1,-1.8384573E0,-1.1041119E0,-7.4360657E-1,-5.708302E-1,-1.1521577E0,-1.050729E0,-2.6933355E0,-7.140611E-1,-2.8025398E-1,-5.5500907E-1,-2.034205E-1,2.4440852E-1,-2.034205E-1,4.372549E-1,-1.372939E0,-1.5945783E0,7.237969E-2,-5.998037E-1,-6.68275E-1,-2.6457542E-1,-1.5916896E0,1.6540898E-2,-2.034205E-1,6.464634E-1,-2.7466035E-1,2.4440852E-1,4.3050674E-1,4.554288E-1,-1.4560754E0,-1.2886215E0,-1.7412077E0,-8.3547866E-1,-6.5740776E-1,4.583926E-2,-1.1681688E0,2.494089E-1,-1.7872784E0,-2.7466035E-1,-1.3780935E0,1.0282941E-1,-2.7466035E-1,-1.4440441E-1,4.1696686E-1,9.1967024E-2,-1.0653954E0,-2.621589E-1,-1.0653954E0,4.568086E-1,3.72337E-1,9.3657684E-1,9.3463224E-1,4.8011157E-1,-2.8294943E-2,5.7417862E-2,-7.577897E-2,-6.5208874E-3,-1.6671525E-1,2.7289849E-2,-2.5605223E-1,-3.3633634E-2,6.7327367E-3,-4.3511584E-2,-1.1531408E-2,-2.336965E-1,-2.8715255E-3,-2.9619113E-1,-5.821201E-2,2.0883782E-1,1.82406E-1,-5.580715E-1,-6.534477E-2,3.6220152E-2,5.2729124E-1,9.4747834E-2,-6.217525E-1,-6.1949357E-2,5.9320664E-1,3.3803654E-1,-3.1293017E-1,5.2283114E-1,-5.1528096E-1,-5.915867E-2,2.0529209E-2,-3.5393026E-1,-6.6740713E-3,1.6055195E-2,-4.3211374E-1,4.0520725E-1,1.841253E-1,-2.5630733E-1,-1.0507017E-1,1.4565246E-2],"split_indices":[0,1,1,0,0,1,1,1,0,0,1,0,0,0,1,0,0,0,0,1,0,1,0,0,0,0,0,1,1,0,0,0,0,0,0,1,0,1,0,1,0,0,0,0,0,1,0,1,0,1,0,0,1,0,0,0,0,0,0,0,0,0,0,0,0,0,0,0,0,0,0,0,0,0,0,0,0,0,0,0,0,0,0,0,0,0,0,0,0,0,0,0,0],"split_type":[0,0,0,0,0,0,0,0,0,0,0,0,0,0,0,0,0,0,0,0,0,0,0,0,0,0,0,0,0,0,0,0,0,0,0,0,0,0,0,0,0,0,0,0,0,0,0,0,0,0,0,0,0,0,0,0,0,0,0,0,0,0,0,0,0,0,0,0,0,0,0,0,0,0,0,0,0,0,0,0,0,0,0,0,0,0,0,0,0,0,0,0,0],"sum_hessian":[2.6194264E4,1.6233978E2,2.6031924E4,4.42514E1,1.1808838E2,2.3710325E3,2.366089E4,3.476634E1,9.485062E0,1.0162126E2,1.6467117E1,2.2807734E3,9.02592E1,1.6981155E2,2.349108E4,2.0766026E1,1.4000312E1,1.2455786E0,8.239483E0,9.295355E0,7.1717625E0,4.9800647E2,1.782767E3,5.7909603E1,3.23496E1,2.517608E1,1.4463548E2,1.905326E4,4.43782E3,5.1522303E0,1.5613795E1,6.073578E0,7.926734E0,2.9323885E0,5.307094E0,7.5755186E0,1.7198364E0,2.2165822E2,