{"learner":{"attributes":{"scikit_learn":"{\"_estimator_type\": \"classifier\"}"},"feature_names":[],"feature_types":[],"gradient_booster":{"model":{"gbtree_model_param":{"num_parallel_tree":"1","num_trees":"100"},"iteration_indptr":[0,1,2,3,4,5,6,7,8,9,10,11,12,13,14,15,16,17,18,19,20,21,22,23,24,25,26,27,28,29,30,31,32,33,34,35,36,37,38,39,40,41,42,43,44,45,46,47,48,49,50,51,52,53,54,55,56,57,58,59,60,61,62,63,64,65,66,67,68,69,70,71,72,73,74,75,76,77,78,79,80,81,82,83,84,85,86,87,88,89,90,91,92,93,94,95,96,97,98,99,100],"tree_info":[0,0,0,0,0,0,0,0,0,0,0,0,0,0,0,0,0,0,0,0,0,0,0,0,0,0,0,0,0,0,0,0,0,0,0,0,0,0,0,0,0,0,0,0,0,0,0,0,0,0,0,0,0,0,0,0,0,0,0,0,0,0,0,0,0,0,0,0,0,0,0,0,0,0,0,0,0,0,0,0,0,0,0,0,0,0,0,0,0,0,0,0,0,0,0,0,0,0,0,0],"trees":[{"base_weights":[-1.8363079E-2,9.8074067E-1,-8.052757E-1,1.2516857E0,-1.4316267E0,1.7187002E-1,-1.35918E0,7.76419E-2,1.7159044E0,-6.7956895E-1,-1.4876217E0,2.2193353E0,-2.0996696E-1,-1.1689025E0,-1.5327194E0,1.5471495E0,-6.5265626E-2,1.8165488E0,-9.5379204E-1,-1.2330536E0,2.2584635E-1,-1.3903922E0,-4.6487516E-1,1.7334166E0,8.3264005E-1,1.2954509E0,-7.238097E-1,2.625642E0,-1.3236815E0,-1.547883E0,-1.4160352E0,2.2750795E0,8.429617E-1,-3.1785798E-1,5.983323E-1,2.2092173E0,1.4660139E0,-4.6551466E-1,-1.4718056E0,-1.2988328E0,-9.6189564E-1,9.2746097E-1,-4.4088715E-1,-1.2096715E0,-4.624952E-1,4.6285254E-1,2.7320325E0,2.138614E0,9.676716E-2,-9.143813E-1,1.3891464E0,-2.9508856E-1,8.336065E-1,-1.4293735E0,-4.5155007E-1,-1.4608742E0,-4.6496812E-1,-8.836309E-1,-1.5422832E0,7.476703E-1,4.5767966E-1,4.9207434E-3,8.3220994E-1,-2.1987613E-1,9.237174E-3,3.3011484E-1,1.332447E-1,7.1151084E-1,1.9559188E-1,2.4059358E-1,4.8993117E-1,-3.91938E-1,4.733454E-2,-4.083494E-1,-4.6203887E-1,-3.656987E-1,-4.55562E-1,3.8696566E-1,-4.54247E-1,6.425524E-1,8.5755184E-2,-4.221764E-1,-2.0214078E-1,3.5397354E-1,-1.6149889E-1,6.288388E-1,8.362101E-1,6.7811716E-1,-1.0540779E-1,-8.422158E-2,3.0635107E-1,-3.700642E-1,-1.7055929E-1,1.8339825E-1,5.212292E-1,-3.194195E-1,2.023941E-1,-3.5625374E-1,-4.4445708E-1,8.267316E-2,-1.9402812E-1,-4.4693366E-1,-3.2244426E-1,-1.7456344E-1,-3.0045137E-1,-4.217201E-1,-4.6546924E-1],"categories":[],"categories_nodes":[],"categories_segments":[],"categories_sizes":[],"default_left":[0,0,0,0,0,0,0,0,0,0,0,0,0,0,0,0,0,0,0,0,0,0,0,0,0,0,0,0,0,0,0,0,0,0,0,0,0,0,0,0,0,0,0,0,0,0,0,0,0,0,0,0,0,0,0,0,0,0,0,0,0,0,0,0,0,0,0,0,0,0,0,0,0,0,0,0,0,0,0,0,0,0,0,0,0,0,0,0,0,0,0,0,0,0,0,0,0,0,0,0,0,0,0,0,0,0,0],"id":0,"left_children":[1,3,5,7,9,11,13,15,17,19,21,23,25,27,29,31,33,35,37,39,41,43,-1,45,-1,47,49,51,53,55,57,59,61,63,65,67,69,71,73,75,77,79,-1,81,-1,83,85,87,89,91,93,95,-1,97,99,101,-1,103,105,-1,-1,-1,-1,-1,-1,-1,-1,-1,-1,-1,-1,-1,-1,-1,-1,-1,-1,-1,-1,-1,-1,-1,-1,-1,-1,-1,-1,-1,-1,-1,-1,-1,-1,-1,-1,-1,-1,-1,-1,-1,-1,-1,-1,-1,-1,-1,-1],"loss_changes":[9.6693125E4,3.541982E4,3.723749E4,2.6551023E4,2.2942285E2,1.9460293E4,1.4481094E3,2.8992837E3,9.382281E3,1.9122528E2,2.852246E1,1.0524727E3,1.6229705E4,1.2306986E4,3.8433594E1,6.253008E2,2.1093132E3,4.627672E3,3.2028564E2,2.9713135E0,1.7432858E2,5.2578613E1,0E0,2.651434E3,0E0,5.395911E3,6.29966E3,3.6796436E2,1.8547344E3,1.2890625E0,1.769248E2,9.402417E1,9.952047E2,1.3189727E3,2.6806995E2,4.0131328E3,1.9713086E3,3.433758E2,2.5548096E0,1.439148E0,6.419491E1,7.9997025E1,0E0,9.562463E1,0E0,6.6202637E2,3.5341797E1,9.511787E2,7.7002814E2,1.5831016E3,3.4960156E2,3.1915264E1,0E0,2.2467578E2,3.0920428E2,3.7121582E0,0E0,1.7584412E1,5.3466797E-1,0E0,0E0,0E0,0E0,0E0,0E0,0E0,0E0,0E0,0E0,0E0,0E0,0E0,0E0,0E0,0E0,0E0,0E0,0E0,0E0,0E0,0E0,0E0,0E0,0E0,0E0,0E0,0E0,0E0,0E0,0E0,0E0,0E0,0E0,0E0,0E0,0E0,0E0,0E0,0E0,0E0,0E0,0E0,0E0,0E0,0E0,0E0,0E0],"parents":[2147483647,0,0,1,1,2,2,3,3,4,4,5,5,6,6,7,7,8,8,9,9,10,10,11,11,12,12,13,13,14,14,15,15,16,16,17,17,18,18,19,19,20,20,21,21,23,23,25,25,26,26,27,27,28,28,29,29,30,30,31,31,32,32,33,33,34,34,35,35,36,36,37,37,38,38,39,39,40,40,41,41,43,43,45,45,46,46,47,47,48,48,49,49,50,50,51,51,53,53,54,54,55,55,57,57,58,58],"right_children":[2,4,6,8,10,12,14,16,18,20,22,24,26,28,30,32,34,36,38,40,42,44,-1,46,-1,48,50,52,54,56,58,60,62,64,66,68,70,72,74,76,78,80,-1,82,-1,84,86,88,90,92,94,96,-1,98,100,102,-1,104,106,-1,-1,-1,-1,-1,-1,-1,-1,-1,-1,-1,-1,-1,-1,-1,-1,-1,-1,-1,-1,-1,-1,-1,-1,-1,-1,-1,-1,-1,-1,-1,-1,-1,-1,-1,-1,-1,-1,-1,-1,-1,-1,-1,-1,-1,-1,-1,-1],"split_conditions":[-3.8188225E-1,5.607883E-1,3.5257977E-2,-1.0888203E0,-1.9081128E0,-3.0699265E-1,4.520316E-1,1.9027622E-1,5.20655E-1,-5.925993E-1,-8.32031E-1,-2.3880643E-1,-7.067578E-1,-1.0480781E0,1.9477518E0,-3.2660913E-1,4.5363906E-1,-8.4641516E-1,1.502069E0,-7.6659703E-1,5.7890946E-1,-1.7291343E0,-4.6487516E-1,-2.0064442E-1,8.3264005E-1,2.4075058E-1,-1.7585212E-1,-8.32031E-1,1.266268E-1,-1.8524857E0,2.0024683E0,1.7199467E-1,-3.8348645E-2,-1.511811E0,-1.725328E0,4.654638E-1,-8.3668303E-1,-1.3844493E-1,4.654638E-1,-5.4233545E-1,-5.053845E-1,-4.6359432E-1,-4.4088715E-1,-8.3788687E-1,-4.624952E-1,-3.770338E-1,-4.3069878E-1,2.7868462E-1,3.6418056E-1,2.8366458E-1,-1.2543142E-1,-8.403368E-1,8.336065E-1,-7.692181E-1,-1.0070931E0,-2.5404218E-1,-4.6496812E-1,1.996344E0,2.119596E0,7.476703E-1,4.5767966E-1,4.9207434E-3,8.3220994E-1,-2.1987613E-1,9.237174E-3,3.3011484E-1,1.332447E-1,7.1151084E-1,1.9559188E-1,2.4059358E-1,4.8993117E-1,-3.91938E-1,4.733454E-2,-4.083494E-1,-4.6203887E-1,-3.656987E-1,-4.55562E-1,3.8696566E-1,-4.54247E-1,6.425524E-1,8.5755184E-2,-4.221764E-1,-2.0214078E-1,3.5397354E-1,-1.6149889E-1,6.288388E-1,8.362101E-1,6.7811716E-1,-1.0540779E-1,-8.422158E-2,3.0635107E-1,-3.700642E-1,-1.7055929E-1,1.8339825E-1,5.212292E-1,-3.194195E-1,2.023941E-1,-3.5625374E-1,-4.4445708E-1,8.267316E-2,-1.9402812E-1,-4.4693366E-1,-3.2244426E-1,-1.7456344E-1,-3.0045137E-1,-4.217201E-1,-4.6546924E-1],"split_indices":[3,0,0,0,2,2,0,2,2,1,1,0,0,2,1,1,1,1,2,1,0,2,0,1,0,2,0,1,0,2,1,2,1,0,0,0,1,0,0,3,3,3,0,1,0,2,0,3,2,1,0,1,0,2,2,3,0,1,1,0,0,0,0,0,0,0,0,0,0,0,0,0,0,0,0,0,0,0,0,0,0,0,0,0,0,0,0,0,0,0,0,0,0,0,0,0,0,0,0,0,0,0,0,0,0,0,0],"split_type":[0,0,0,0,0,0,0,0,0,0,0,0,0,0,0,0,0,0,0,0,0,0,0,0,0,0,0,0,0,0,0,0,0,0,0,0,0,0,0,0,0,0,0,0,0,0,0,0,0,0,0,0,0,0,0,0,0,0,0,0,0,0,0,0,0,0,0,0,0,0,0,0,0,0,0,0,0,0,0,0,0,0,0,0,0,0,0,0,0,0,0,0,0,0,0,0,0,0,0,0,0,0,0,0,0,0,0],"sum_hessian":[1.2298479E5,5.4186562E4,6.879823E4,4.8715555E4,5.471008E3,2.4890117E4,4.390811E4,1.3804388E4,3.4911168E4,3.800298E2,5.090978E3,3.9114646E3,2.0978652E4,2.0947709E4,2.29604E4,1.2226049E3,1.2581782E4,3.364318E4,1.2679884E3,2.3562764E2,1.4440215E2,1.9906868E3,3.1002913E3,2.0897053E3,1.8217593E3,5.3380664E3,1.5640587E4,8.2034174E2,2.0127367E4,2.0308902E4,2.6514985E3,6.0007117E2,6.2253375E2,9.11338E3,3.468402E3,1.5865441E4,1.7777738E4,6.5370624E2,6.1428217E2,1.8657675E2,4.9050888E1,1.02456764E2,4.194539E1,9.111088E2,1.079578E3,9.202772E2,1.1694282E3,3.1332976E3,2.2047688E3,1.4347156E4,1.2934307E3,4.079934E1,7.795424E2,1.795125E4,2.1761174E3,4.7515186E2,1.983375E4,5.097625E2,2.141736E3,4.6346216E2,1.3660902E2,4.366446E2,1.8588911E2,4.159928E3,4.953452E3,8.1346545E2,2.6549368E3,1.4365951E4,1.4994902E3,3.5752139E3,1.4202524E4,2.7780225E2,3.7590402E2,2.4250394E2,3.7177823E2,1.4165164E2,4.4925114E1,9.3976E0,3.965329E1,3.4610676E1,6.784609E1,6.644791E2,2.4662971E2,5.3612164E2,3.8415558E2,9.6726524E1,1.0727017E3,2.9872908E3,1.4600662E2,1.565961E3,6.388076E2,7.4600903E3,6.887066E3,4.0088788E2,8.9254285E2,2.2691767E1,1.810757E1,3.1883079E3,1.4762942E4,4.6048242E2,1.7156351E3,4.393951E2,3.5756725E1,1.4486057E2,3.6490195E2,1.4600662E2,1.9957294E3],"tree_param":{"num_deleted":"0","num_feature":"4","num_nodes":"107","size_leaf_vector":"1"}},{"base_weights":[-4.180246E-2,5.0746363E-1,-8.364904E-1,7.1788144E-1,-1.264103E0,-9.901907E-2,-1.200363E0,1.3698125E0,4.6539807E-1,-6.411741E-1,-1.3002608E0,1.6544577E0,-4.383924E-1,-1.073039E0,-1.324298E0,1.4294404E0,-1.0440102E0,5.484364E-1,-8.167012E-1,-1.0268375E0,-2.4467246E-1,-1.2086946E0,-1.3391931E0,1.18858E0,1.8835518E0,1.0803359E0,-7.2503275E-1,1.3343393E0,-1.1533822E0,-1.3436037E0,-1.2035363E0,5.656653E-1,1.2759538E0,-2.932329E-1,-1.5239645E0,6.421782E-2,7.981244E-1,-4.1070443E-1,-6.5384847E-1,-9.6442693E-1,-3.9337972E-1,3.543399E-1,-1.2446346E0,-1.006856E0,-4.03937E-1,-4.0356547E-1,-1.234823E0,1.69306E0,7.7977036E-3,1.7649997E0,2.5026007E0,1.5298159E0,-1.4549091E-1,-9.138478E-1,9.727316E-1,-4.6306938E-1,2.0282967E0,-1.2092054E0,2.4377905E-1,-2.172865E-1,-1.3437953E0,-6.921398E-1,-1.3359344E0,2.1201439E-1,4.4864723E-1,-2.6370752E-1,7.2142905E-1,-4.268835E-1,-4.967045E-1,2.9319474E-1,-1.4955546E-2,3.6994774E-2,2.866514E-1,7.0908256E-2,-3.0866373E-1,-3.251432E-1,2.587756E-1,-3.3549063E-2,7.6276934E-1,-3.9981493E-1,-2.5524622E-1,-3.599594E-1,-1.6608827E-1,-3.034367E-1,-3.8226572E-1,1.3490544E-1,5.304182E-1,-3.4950283E-1,1.2777787E-1,2.4864556E-1,5.301535E-1,6.5266216E-1,9.1600746E-1,3.8755718E-1,6.5366703E-1,-2.112497E-1,7.426189E-2,-3.4062743E-1,-1.4695938E-1,1.9821684E-1,4.6443465E-1,3.8599285E-1,-3.9470366E-1,5.3376496E-1,7.429763E-1,-2.4163982E-1,-3.7769666E-1,1.6448958E-1,-3.834693E-1,-3.859051E-1,-4.0381208E-1,-1.3119982E-1,-2.3903196E-1,-3.5756212E-1,-4.0379217E-1],"categories":[],"categories_nodes":[],"categories_segments":[],"categories_sizes":[],"default_left":[0,0,0,0,0,0,0,0,0,0,0,0,0,0,0,0,0,0,0,0,0,0,0,0,0,0,0,0,0,0,0,0,0,0,0,0,0,0,0,0,0,0,0,0,0,0,0,0,0,0,0,0,0,0,0,0,0,0,0,0,0,0,0,0,0,0,0,0,0,0,0,0,0,0,0,0,0,0,0,0,0,0,0,0,0,0,0,0,0,0,0,0,0,0,0,0,0,0,0,0,0,0,0,0,0,0,0,0,0,0,0,0,0,0,0],"id":1,"left_children":[1,3,5,7,9,11,13,15,17,19,21,23,25,27,29,31,33,35,37,39,41,43,45,47,49,51,53,55,57,59,61,-1,63,65,67,69,71,-1,73,75,-1,77,79,81,-1,-1,83,85,87,89,91,93,95,97,99,101,103,105,107,-1,109,111,113,-1,-1,-1,-1,-1,-1,-1,-1,-1,-1,-1,-1,-1,-1,-1,-1,-1,-1,-1,-1,-1,-1,-1,-1,-1,-1,-1,-1,-1,-1,-1,-1,-1,-1,-1,-1,-1,-1,-1,-1,-1,-1,-1,-1,-1,-1,-1,-1,-1,-1,-1,-1],"loss_changes":[5.128604E4,2.589927E4,1.2885715E4,1.0221184E4,1.6530566E2,9.442464E3,5.0597266E2,2.4966719E3,4.76633E3,6.1930054E1,2.3231445E1,2.723833E2,5.7881284E3,3.0701973E3,3.635742E1,1.1819961E3,1.50354E2,5.0831025E3,2.4406189E2,2.3890228E0,1.213254E2,5.6753906E1,1.4082031E0,5.0685522E2,1.2204443E2,1.1634258E3,3.5860894E3,6.406374E2,1.197793E3,6.953125E-1,1.5174463E2,0E0,1.5812656E3,2.620083E2,1.0378418E0,1.489998E3,2.9458242E3,0E0,7.0305945E2,3.8574448E1,0E0,1.29823E2,1.4963226E0,7.384235E1,0E0,0E0,1.1630249E0,5.4801514E1,1.2589804E2,1.4912109E0,4.2814697E1,2.3578589E2,1.2474532E2,9.450215E2,2.0001294E2,2.1601913E2,3.6929077E1,2.9573438E2,2.7448746E2,0E0,7.6171875E-2,1.2069992E1,9.84375E-1,0E0,0E0,0E0,0E0,0E0,0E0,0E0,0E0,0E0,0E0,0E0,0E0,0E0,0E0,0E0,0E0,0E0,0E0,0E0,0E0,0E0,0E0,0E0,0E0,0E0,0E0,0E0,0E0,0E0,0E0,0E0,0E0,0E0,0E0,0E0,0E0,0E0,0E0,0E0,0E0,0E0,0E0,0E0,0E0,0E0,0E0,0E0,0E0,0E0,0E0,0E0,0E0],"parents":[2147483647,0,0,1,1,2,2,3,3,4,4,5,5,6,6,7,7,8,8,9,9,10,10,11,11,12,12,13,13,14,14,15,15,16,16,17,17,18,18,19,19,20,20,21,21,22,22,23,23,24,24,25,25,26,26,27,27,28,28,29,29,30,30,32,32,33,33,34,34,35,35,36,36,38,38,39,39,41,41,42,42,43,43,46,46,47,47,48,48,49,49,50,50,51,51,52,52,53,53,54,54,55,55,56,56,57,57,58,58,60,60,61,61,62,62],"right_children":[2,4,6,8,10,12,14,16,18,20,22,24,26,28,30,32,34,36,38,40,42,44,46,48,50,52,54,56,58,60,62,-1,64,66,68,70,72,-1,74,76,-1,78,80,82,-1,-1,84,86,88,90,92,94,96,98,100,102,104,106,108,-1,110,112,114,-1,-1,-1,-1,-1,-1,-1,-1,-1,-1,-1,-1,-1,-1,-1,-1,-1,-1,-1,-1,-1,-1,-1,-1,-1,-1,-1,-1,-1,-1,-1,-1,-1,-1,-1,-1,-1,-1,-1,-1,-1,-1,-1,-1,-1,-1,-1,-1,-1,-1,-1,-1],"split_conditions":[-2.2452164E-1,5.607883E-1,3.5257977E-2,-8.4641516E-1,-1.9081128E0,-2.6734605E-1,4.520316E-1,5.106027E-1,5.20655E-1,-5.925993E-1,-8.32031E-1,-1.0290794E-1,-8.377232E-1,-1.0258621E0,1.9477518E0,-2.021498E-1,5.261127E-1,-1.1179135E0,-2.3880643E-1,-5.053845E-1,-3.986939E-1,-1.7031977E0,4.5363906E-1,-3.9290223E-1,-3.0699265E-1,2.8099763E-1,-1.7585212E-1,-3.905721E-1,1.698737E-1,-1.8524857E0,2.0024683E0,5.656653E-1,-4.7987353E-2,-9.7217E-1,-1.0755646E0,1.9027622E-1,-8.3668303E-1,-4.1070443E-1,5.9914697E-2,-7.6659703E-1,-3.9337972E-1,-4.2090634E-1,1.1599484E-1,-8.3788687E-1,-4.03937E-1,-4.0356547E-1,-1.877344E0,-2.1996708E-1,-1.950244E-1,-5.605875E-1,-4.5208228E-1,1.744615E0,1.581568E0,1.0479101E0,-5.1867466E-2,-1.0480781E0,-1.0480781E0,-8.317665E-1,1.502069E0,-2.172865E-1,-1.7530105E0,1.996344E0,2.119596E0,2.1201439E-1,4.4864723E-1,-2.6370752E-1,7.2142905E-1,-4.268835E-1,-4.967045E-1,2.9319474E-1,-1.4955546E-2,3.6994774E-2,2.866514E-1,7.0908256E-2,-3.0866373E-1,-3.251432E-1,2.587756E-1,-3.3549063E-2,7.6276934E-1,-3.9981493E-1,-2.5524622E-1,-3.599594E-1,-1.6608827E-1,-3.034367E-1,-3.8226572E-1,1.3490544E-1,5.304182E-1,-3.4950283E-1,1.2777787E-1,2.4864556E-1,5.301535E-1,6.5266216E-1,9.1600746E-1,3.8755718E-1,6.5366703E-1,-2.112497E-1,7.426189E-2,-3.4062743E-1,-1.4695938E-1,1.9821684E-1,4.6443465E-1,3.8599285E-1,-3.9470366E-1,5.3376496E-1,7.429763E-1,-2.4163982E-1,-3.7769666E-1,1.6448958E-1,-3.834693E-1,-3.859051E-1,-4.0381208E-1,-1.3119982E-1,-2.3903196E-1,-3.5756212E-1,-4.0379217E-1],"split_indices":[3,0,0,1,2,2,0,0,2,1,1,1,0,2,1,0,0,0,0,3,3,2,1,2,2,2,0,1,0,2,1,0,0,1,1,2,1,0,0,1,0,3,1,1,0,0,2,3,3,0,0,1,1,1,0,2,2,2,2,0,2,1,1,0,0,0,0,0,0,0,0,0,0,0,0,0,0,0,0,0,0,0,0,0,0,0,0,0,0,0,0,0,0,0,0,0,0,0,0,0,0,0,0,0,0,0,0,0,0,0,0,0,0,0,0],"split_type":[0,0,0,0,0,0,0,0,0,0,0,0,0,0,0,0,0,0,0,0,0,0,0,0,0,0,0,0,0,0,0,0,0,0,0,0,0,0,0,0,0,0,0,0,0,0,0,0,0,0,0,0,0,0,0,0,0,0,0,0,0,0,0,0,0,0,0,0,0,0,0,0,0,0,0,0,0,0,0,0,0,0,0,0,0,0,0,0,0,0,0,0,0,0,0,0,0,0,0,0,0,0,0,0,0,0,0,0,0,0,0,0,0,0,0],"sum_hessian":[1.1749313E5,6.947459E4,4.801854E4,6.209934E4,7.3752534E3,1.586525E4,3.2153287E4,1.73349E4,4.476444E4,4.056365E2,6.969617E3,2.572056E3,1.3293194E4,1.5864568E4,1.628872E4,1.6917402E4,4.1749753E2,4.2042055E4,2.7223857E3,2.0482274E2,2.0081377E2,2.088843E3,4.880774E3,8.4990576E2,1.7221501E3,2.1101355E3,1.1183059E4,5.118559E2,1.5352712E4,1.4034902E4,2.2538176E3,4.256685E3,1.2660717E4,1.6344176E2,2.5405579E2,1.4303877E4,2.7738178E4,6.1823627E2,2.1041497E3,1.7156738E2,3.3255356E1,1.2598812E2,7.482565E1,8.507285E2,1.2381144E3,4.603153E3,2.7762134E2,5.9518414E2,2.5472165E2,1.4485868E3,2.735633E2,1.5438107E3,5.6632477E2,1.0064237E4,1.1188217E3,1.4266757E2,3.6918832E2,1.4762995E4,5.89717E2,5.5108128E0,1.4029392E4,4.6478473E2,1.7890328E3,3.5249814E3,9.135735E3,1.3483945E2,2.8602306E1,1.5046255E2,1.0359323E2,1.5876425E3,1.2716234E4,5.2460728E3,2.2492105E4,6.2380194E2,1.4803477E3,1.6142601E2,1.0141373E1,1.0464408E2,2.134404E1,5.9200546E1,1.5625104E1,5.9549E2,2.5523859E2,4.5622948E1,2.3199838E2,3.425718E1,5.6092694E2,6.6476295E1,1.8824535E2,4.24868E0,1.4443381E3,1.7474396E2,9.881933E1,1.1318505E3,4.1196017E2,2.3355107E2,3.3277368E2,6.6087666E3,3.4554702E3,7.26835E2,3.919867E2,4.657598E1,9.609159E1,2.4051935E2,1.2866898E2,1.6224288E3,1.3140566E4,4.919323E2,9.7784706E1,5.492273E2,1.3480164E4,1.3680695E2,3.2797775E2,1.2435319E2,1.6646797E3],"tree_param":{"num_deleted":"0","num_feature":"4","num_nodes":"115","size_leaf_vector":"1"}},{"base_weights":[-4.548976E-2,3.4885746E-1,-7.5389135E-1,5.2837974E-1,-9.2534715E-1,-1.1791041E-1,-1.0864072E0,1.0939571E0,3.3509937E-1,-1.8682164E-1,-1.1821852E0,1.1417133E0,-4.310643E-1,-9.673834E-1,-1.2047043E0,1.1193496E0,-1.5565281E0,6.601487E-1,1.5355757E-1,-7.24639E-4,-1.2130189E0,-1.0884352E0,-1.2242635E0,1.2389092E0,-3.4160444E-1,6.681666E-1,-7.423285E-1,-1.1121557E0,3.7833888E-3,-1.2283037E0,-1.0662247E0,1.501083E0,9.9244535E-1,-4.7804895E-1,-3.5667458E-1,1.5955589E0,3.4093353E-1,-7.0261486E-2,4.900086E-1,-9.9213654E-1,1.6482063E-1,-1.8895165E0,-8.3950764E-1,-9.815436E-1,-1.2248738E0,-3.6933175E-1,-1.0944667E0,1.1139129E0,2.2274063E0,7.9965746E-1,-1.3321953E0,-9.736363E-1,7.217876E-1,-9.378164E-1,-1.173688E0,9.9200135E-1,-3.0988818E-1,-1.1541889E0,-3.6929786E-1,-5.4455596E-1,-1.2183152E0,4.5142683E-1,3.9645773E-1,3.141477E-1,-4.054614E-1,5.2376467E-1,4.2508268E-1,3.2717514E-1,4.1912455E-2,3.7213713E-2,-3.48403E-1,2.3233508E-1,-1.7983271E-1,5.682109E-1,-4.2413375E-1,8.2441255E-2,-1.3867715E-1,-1.3212238E-1,-6.2274754E-1,2.9692912E-1,-3.3117142E-1,-2.4910627E-1,-3.7001783E-1,-3.6952513E-1,-2.3001191E-1,-1.9835062E-1,-3.3700544E-1,4.0079832E-1,8.7809905E-2,5.1003927E-1,9.1455984E-1,3.1083888E-1,9.8580025E-2,-3.1058383E-1,-4.5217815E-1,-1.6144855E-1,-3.4780863E-1,7.072653E-2,3.2220685E-1,-2.374946E-1,-3.4605768E-1,-3.7107763E-1,-3.3646396E-1,-1.4498292E-1,4.606995E-1,-1.9978203E-1,1.1066739E-1,-3.596525E-1,-2.119143E-1,-1.2619832E-1,-2.2449818E-1,-3.1436113E-1,-3.691949E-1],"categories":[],"categories_nodes":[],"categories_segments":[],"categories_sizes":[],"default_left":[0,0,0,0,0,0,0,0,0,0,0,0,0,0,0,0,0,0,0,0,0,0,0,0,0,0,0,0,0,0,0,0,0,0,0,0,0,0,0,0,0,0,0,0,0,0,0,0,0,0,0,0,0,0,0,0,0,0,0,0,0,0,0,0,0,0,0,0,0,0,0,0,0,0,0,0,0,0,0,0,0,0,0,0,0,0,0,0,0,0,0,0,0,0,0,0,0,0,0,0,0,0,0,0,0,0,0,0,0,0,0,0,0],"id":2,"left_children":[1,3,5,7,9,11,13,15,17,19,21,23,25,27,29,31,33,35,37,39,41,43,45,47,-1,49,51,53,55,57,59,61,63,-1,-1,65,67,69,71,73,75,77,79,81,83,-1,85,87,89,91,93,95,97,99,101,103,105,107,-1,109,111,-1,-1,-1,-1,-1,-1,-1,-1,-1,-1,-1,-1,-1,-1,-1,-1,-1,-1,-1,-1,-1,-1,-1,-1,-1,-1,-1,-1,-1,-1,-1,-1,-1,-1,-1,-1,-1,-1,-1,-1,-1,-1,-1,-1,-1,-1,-1,-1,-1,-1,-1,-1],"loss_changes":[3.004903E4,1.5806891E4,8.134365E3,6.6205195E3,1.6184341E3,5.210324E3,3.5448633E2,1.0399473E3,2.6637363E3,4.2073685E2,2.3643555E1,5.843457E2,3.6199797E3,1.7709697E3,4.0078125E1,7.387344E2,1.005249E-1,4.829805E3,2.1813179E3,3.0640768E2,8.386948E1,2.7534668E1,2.5263672E0,3.092561E2,0E0,6.15235E2,2.7928384E3,1.16493164E2,5.0714468E2,7.3535156E-1,1.4623853E2,5.2441406E-1,1.4725078E3,0E0,0E0,1.0803125E2,1.8194148E3,3.688099E3,3.5863662E3,3.2776123E2,1.1046266E2,3.1349945E1,1.07348236E2,4.1236694E1,1.7700195E0,0E0,2.1038513E0,4.0845532E2,1.1700757E2,2.4378503E2,5.9451294E0,5.7525195E2,1.9241168E2,8.9407715E1,2.531543E1,3.1690286E2,3.003883E2,7.0443726E0,0E0,1.0282608E1,1.7224121E0,0E0,0E0,0E0,0E0,0E0,0E0,0E0,0E0,0E0,0E0,0E0,0E0,0E0,0E0,0E0,0E0,0E0,0E0,0E0,0E0,0E0,0E0,0E0,0E0,0E0,0E0,0E0,0E0,0E0,0E0,0E0,0E0,0E0,0E0,0E0,0E0,0E0,0E0,0E0,0E0,0E0,0E0,0E0,0E0,0E0,0E0,0E0,0E0,0E0,0E0,0E0,0E0],"parents":[2147483647,0,0,1,1,2,2,3,3,4,4,5,5,6,6,7,7,8,8,9,9,10,10,11,11,12,12,13,13,14,14,15,15,16,16,17,17,18,18,19,19,20,20,21,21,22,22,23,23,25,25,26,26,27,27,28,28,29,29,30,30,31,31,32,32,35,35,36,36,37,37,38,38,39,39,40,40,41,41,42,42,43,43,44,44,46,46,47,47,48,48,49,49,50,50,51,51,52,52,53,53,54,54,55,55,56,56,57,57,59,59,60,60],"right_children":[2,4,6,8,10,12,14,16,18,20,22,24,26,28,30,32,34,36,38,40,42,44,46,48,-1,50,52,54,56,58,60,62,64,-1,-1,66,68,70,72,74,76,78,80,82,84,-1,86,88,90,92,94,96,98,100,102,104,106,108,-1,110,112,-1,-1,-1,-1,-1,-1,-1,-1,-1,-1,-1,-1,-1,-1,-1,-1,-1,-1,-1,-1,-1,-1,-1,-1,-1,-1,-1,-1,-1,-1,-1,-1,-1,-1,-1,-1,-1,-1,-1,-1,-1,-1,-1,-1,-1,-1,-1,-1,-1,-1,-1,-1],"split_conditions":[-1.950244E-1,4.8462522E-1,4.2947408E-2,-8.4641516E-1,-1.9081128E0,-2.0580211E-1,4.520316E-1,-3.7496817E-1,1.5025438E-1,-3.6851797E-1,-4.7853982E-1,-5.1867466E-2,-6.9060475E-1,1.266268E-1,1.9477518E0,-2.021498E-1,1.2029025E-1,-7.067578E-1,-9.1537523E-1,-1.1613612E0,5.42874E-1,-8.32031E-1,5.633349E-1,9.62803E-1,-3.4160444E-1,4.079219E-1,-1.8913339E-1,-5.401604E-1,-1.0258621E0,-1.7530105E0,2.0024683E0,-2.1615177E-1,-1.05421185E-1,-4.7804895E-1,-3.5667458E-1,-4.3832126E-1,-4.99835E-1,2.4991323E-1,5.20655E-1,-6.589919E-1,5.607883E-1,-3.4443954E-1,-4.9210596E-1,-1.7031977E0,3.425679E-1,-3.6933175E-1,-1.877344E0,-2.8636146E-1,-2.6734605E-1,2.8099763E-1,-8.2149327E-1,3.487911E-2,-1.00586876E-1,1.9758523E-1,1.1599484E-1,-3.905721E-1,1.8299513E-1,1.3631976E0,-3.6929786E-1,1.9996514E0,2.119596E0,4.5142683E-1,3.9645773E-1,3.141477E-1,-4.054614E-1,5.2376467E-1,4.2508268E-1,3.2717514E-1,4.1912455E-2,3.7213713E-2,-3.48403E-1,2.3233508E-1,-1.7983271E-1,5.682109E-1,-4.2413375E-1,8.2441255E-2,-1.3867715E-1,-1.3212238E-1,-6.2274754E-1,2.9692912E-1,-3.3117142E-1,-2.4910627E-1,-3.7001783E-1,-3.6952513E-1,-2.3001191E-1,-1.9835062E-1,-3.3700544E-1,4.0079832E-1,8.7809905E-2,5.1003927E-1,9.1455984E-1,3.1083888E-1,9.8580025E-2,-3.1058383E-1,-4.5217815E-1,-1.6144855E-1,-3.4780863E-1,7.072653E-2,3.2220685E-1,-2.374946E-1,-3.4605768E-1,-3.7107763E-1,-3.3646396E-1,-1.4498292E-1,4.606995E-1,-1.9978203E-1,1.1066739E-1,-3.596525E-1,-2.119143E-1,-1.2619832E-1,-2.2449818E-1,-3.1436113E-1,-3.691949E-1],"split_indices":[3,0,0,1,2,2,0,3,2,1,3,0,0,0,1,0,0,0,0,1,0,1,1,1,0,3,0,2,2,2,1,0,2,0,0,3,3,2,2,3,0,1,3,2,1,0,2,2,2,2,0,3,0,1,1,1,0,1,0,1,1,0,0,0,0,0,0,0,0,0,0,0,0,0,0,0,0,0,0,0,0,0,0,0,0,0,0,0,0,0,0,0,0,0,0,0,0,0,0,0,0,0,0,0,0,0,0,0,0,0,0,0,0],"split_type":[0,0,0,0,0,0,0,0,0,0,0,0,0,0,0,0,0,0,0,0,0,0,0,0,0,0,0,0,0,0,0,0,0,0,0,0,0,0,0,0,0,0,0,0,0,0,0,0,0,0,0,0,0,0,0,0,0,0,0,0,0,0,0,0,0,0,0,0,0,0,0,0,0,0,0,0,0,0,0,0,0,0,0,0,0,0,0,0,0,0,0,0,0,0,0,0,0,0,0,0,0,0,0,0,0,0,0,0,0,0,0,0,0],"sum_hessian":[1.07563336E5,6.90986E4,3.846474E4,6.0566055E4,8.532546E3,1.3206638E4,2.52581E4,1.5424933E4,4.514112E4,2.2021355E3,6.33041E3,2.6290315E3,1.0577606E4,1.2594952E4,1.2663147E4,1.5279131E4,1.4580162E2,1.617581E4,2.8965312E4,1.8649369E3,3.3719855E2,1.9694279E3,4.3609824E3,2.5219944E3,1.0703694E2,2.3339846E3,8.243622E3,1.0960866E4,1.634086E3,1.0812619E4,1.8505289E3,3.8094163E3,1.1469714E4,1.294491E2,1.6352518E1,4.1146045E3,1.2061205E4,1.7394602E4,1.157071E4,2.6613336E2,1.5988036E3,1.1850514E2,2.1869342E2,1.1088798E3,8.6054816E2,4.134544E3,2.2643837E2,2.2407734E3,2.8122107E2,2.1905896E3,1.4339502E2,7.1192285E3,1.1243934E3,2.863624E3,8.097242E3,3.931885E2,1.2408976E3,3.9364093E2,1.0418978E4,4.1876166E2,1.4317673E3,3.7258188E3,8.35976E1,1.1208634E4,2.6108014E2,2.2294941E3,1.8851105E3,2.5514705E3,9.509734E3,1.4765881E4,2.6287212E3,9.175416E3,2.395294E3,3.3478523E1,2.3265483E2,1.3607096E3,2.3809392E2,1.3883448E1,1.046217E2,2.7271059E1,1.9142236E2,6.9559753E2,4.1328217E2,8.4615985E2,1.4388325E1,1.5644645E1,2.1079372E2,1.7632966E3,4.7747684E2,1.7312294E2,1.08098114E2,1.4576471E3,7.3294244E2,5.5751842E1,8.764318E1,2.1296638E3,4.9895645E3,4.7316504E2,6.512284E2,1.7097452E3,1.1538787E3,3.6490007E3,4.448241E3,1.059083E2,2.872802E2,8.1395746E2,4.2694016E2,3.564234E2,3.721752E1,2.6232806E2,1.564336E2,1.0241863E2,1.3293486E3],"tree_param":{"num_deleted":"0","num_feature":"4","num_nodes":"113","size_leaf_vector":"1"}},{"base_weights":[-4.4696573E-2,1.4284062E-1,-1.1150817E0,3.4313866E-1,-5.640535E-1,-1.1321845E0,-9.549046E-1,8.222526E-1,2.0286995E-1,-2.5233346E-1,-8.789733E-1,-9.642992E-1,-1.1541042E0,-4.1926438E-1,-1.1417532E0,9.4131315E-1,5.3603195E-2,2.8778043E-1,-3.453012E-1,8.5056245E-1,-5.4029906E-1,-1.0144604E0,-7.061352E-2,-8.2838124E-1,-1.1489431E0,-1.1174573E0,-3.4786066E-1,4.3282634E-1,-4.4987735E-1,-9.312634E-1,-3.4766304E-1,9.638392E-1,-1.3241345E0,2.6283437E-1,-1.2109922E0,1.5212628E0,2.2271086E-1,6.4953923E-1,-8.797018E-1,-5.295718E-1,9.710412E-1,3.8197443E-1,-7.3791975E-1,-7.438372E-1,-1.0607061E0,1.0217874E0,-3.3558875E-1,-1.0030413E0,-4.9651748E-1,-3.4731063E-1,-6.5139323E-1,-1.132162E0,-7.029381E-1,-1.6168739E-1,5.7422143E-1,-2.3195064E-1,-5.4673344E-1,-9.633506E-1,1.5707636E-1,3.951631E-1,2.5354415E-1,-4.0893933E-1,-2.8929037E-1,2.0588305E-2,4.008353E-1,-3.8764593E-1,-2.4976765E-1,2.9843196E-1,4.845934E-1,-1.3517118E-1,8.8227E-2,-3.2834005E-1,3.166368E-1,-3.4524795E-1,-1.6436754E-1,-3.96759E-1,3.846169E-1,3.1726345E-1,-3.0608684E-1,-1.19440965E-1,2.5074708E-1,-3.06242E-1,5.719126E-2,-1.2437061E-1,-3.2779104E-1,-3.4163627E-1,-3.033613E-1,-1.8069242E-1,3.9880088E-1,-2.5361273E-1,-1.29545685E-2,-2.2999099E-1,-3.4148115E-1,-4.15605E-2,-3.4489453E-1,-2.0469718E-1,-4.984462E-2,-3.44378E-1,-3.0340174E-1,-2.386498E-1,-2.9056044E-2,-1.9280379E-1,6.0845535E-2,-1.8540299E-1,-1.1172655E-2,1.4108182E-1,-1.73901E-1,-2.0890678E-1,-3.020111E-1],"categories":[],"categories_nodes":[],"categories_segments":[],"categories_sizes":[],"default_left":[0,0,0,0,0,0,0,0,0,0,0,0,0,0,0,0,0,0,0,0,0,0,0,0,0,0,0,0,0,0,0,0,0,0,0,0,0,0,0,0,0,0,0,0,0,0,0,0,0,0,0,0,0,0,0,0,0,0,0,0,0,0,0,0,0,0,0,0,0,0,0,0,0,0,0,0,0,0,0,0,0,0,0,0,0,0,0,0,0,0,0,0,0,0,0,0,0,0,0,0,0,0,0,0,0,0,0,0,0],"id":3,"left_children":[1,3,5,7,9,11,13,15,17,19,21,23,25,27,29,31,33,35,37,39,41,43,45,47,49,51,-1,53,55,57,-1,59,61,63,65,67,69,71,73,75,77,79,81,83,85,87,89,91,93,-1,95,97,99,101,-1,103,105,107,-1,-1,-1,-1,-1,-1,-1,-1,-1,-1,-1,-1,-1,-1,-1,-1,-1,-1,-1,-1,-1,-1,-1,-1,-1,-1,-1,-1,-1,-1,-1,-1,-1,-1,-1,-1,-1,-1,-1,-1,-1,-1,-1,-1,-1,-1,-1,-1,-1,-1,-1],"loss_changes":[1.9537758E4,1.172662E4,3.866992E1,4.3368735E3,1.7948662E3,4.7115234E1,1.402655E2,1.3374141E3,2.3237065E3,2.9195293E3,9.9613916E2,3.7183105E1,1.0107422E0,9.722694E0,2.6763916E0,6.470488E2,5.192327E2,3.4690908E3,3.5604624E3,3.1699426E2,1.3287422E3,9.6706055E1,3.7860223E2,5.044226E1,2.0424194E0,8.488159E0,0E0,1.1913782E1,7.326004E0,4.401512E0,0E0,5.244385E2,4.39682E-1,3.5083267E2,7.4810486E0,1.0563672E2,1.9734683E3,1.6580651E3,3.9128687E2,2.2214594E2,3.026797E2,4.5595227E2,1.5770264E3,1.3050781E2,2.4555664E1,1.2834283E2,1.5684482E2,1.750354E1,7.115767E1,0E0,8.757067E-2,1.6375732E0,2.9982529E0,1.9406424E0,0E0,8.274082E0,8.43605E0,2.4851227E-1,0E0,0E0,0E0,0E0,0E0,0E0,0E0,0E0,0E0,0E0,0E0,0E0,0E0,0E0,0E0,0E0,0E0,0E0,0E0,0E0,0E0,0E0,0E0,0E0,0E0,0E0,0E0,0E0,0E0,0E0,0E0,0E0,0E0,0E0,0E0,0E0,0E0,0E0,0E0,0E0,0E0,0E0,0E0,0E0,0E0,0E0,0E0,0E0,0E0,0E0,0E0],"parents":[2147483647,0,0,1,1,2,2,3,3,4,4,5,5,6,6,7,7,8,8,9,9,10,10,11,11,12,12,13,13,14,14,15,15,16,16,17,17,18,18,19,19,20,20,21,21,22,22,23,23,24,24,25,25,27,27,28,28,29,29,31,31,32,32,33,33,34,34,35,35,36,36,37,37,38,38,39,39,40,40,41,41,42,42,43,43,44,44,45,45,46,46,47,47,48,48,50,50,51,51,52,52,53,53,55,55,56,56,57,57],"right_children":[2,4,6,8,10,12,14,16,18,20,22,24,26,28,30,32,34,36,38,40,42,44,46,48,50,52,-1,54,56,58,-1,60,62,64,66,68,70,72,74,76,78,80,82,84,86,88,90,92,94,-1,96,98,100,102,-1,104,106,108,-1,-1,-1,-1,-1,-1,-1,-1,-1,-1,-1,-1,-1,-1,-1,-1,-1,-1,-1,-1,-1,-1,-1,-1,-1,-1,-1,-1,-1,-1,-1,-1,-1,-1,-1,-1,-1,-1,-1,-1,-1,-1,-1,-1,-1,-1,-1,-1,-1,-1,-1],"split_conditions":[5.7890946E-1,-8.9960195E-2,1.9477518E0,-8.4641516E-1,4.2947408E-2,-4.7853982E-1,2.0024683E0,4.587126E-1,4.2947408E-2,-1.6399E-1,1.266268E-1,-8.32031E-1,-1.7530105E0,-1.6133083E0,2.119596E0,-3.7496817E-1,5.261127E-1,-4.3892723E-1,-1.0480781E0,-7.162526E-2,-7.067578E-1,-7.36367E-1,-1.0070931E0,-8.3788687E-1,3.425679E-1,1.2288299E0,-3.4786066E-1,1.996344E0,1.996344E0,2.3630247E0,-3.4766304E-1,-2.021498E-1,1.2029025E-1,-6.257967E-1,5.607883E-1,-2.021498E-1,-8.934476E-2,-1.9341501E0,1.05990484E-1,-3.658769E-1,-1.00586876E-1,1.2933396E0,-3.132962E-1,1.9758523E-1,1.3321712E-2,-4.995335E-2,1.6265737E-1,-8.4641516E-1,-1.7031977E0,-3.4731063E-1,4.595783E-1,7.175824E-1,1.581568E0,2.5476912E-1,5.7422143E-1,-6.265657E-1,-1.4939111E0,-1.4939111E0,1.5707636E-1,3.951631E-1,2.5354415E-1,-4.0893933E-1,-2.8929037E-1,2.0588305E-2,4.008353E-1,-3.8764593E-1,-2.4976765E-1,2.9843196E-1,4.845934E-1,-1.3517118E-1,8.8227E-2,-3.2834005E-1,3.166368E-1,-3.4524795E-1,-1.6436754E-1,-3.96759E-1,3.846169E-1,3.1726345E-1,-3.0608684E-1,-1.19440965E-1,2.5074708E-1,-3.06242E-1,5.719126E-2,-1.2437061E-1,-3.2779104E-1,-3.4163627E-1,-3.033613E-1,-1.8069242E-1,3.9880088E-1,-2.5361273E-1,-1.29545685E-2,-2.2999099E-1,-3.4148115E-1,-4.15605E-2,-3.4489453E-1,-2.0469718E-1,-4.984462E-2,-3.44378E-1,-3.0340174E-1,-2.386498E-1,-2.9056044E-2,-1.9280379E-1,6.0845535E-2,-1.8540299E-1,-1.1172655E-2,1.4108182E-1,-1.73901E-1,-2.0890678E-1,-3.020111E-1],"split_indices":[0,3,1,1,0,3,1,0,0,2,0,1,2,2,1,3,0,2,2,3,0,2,2,1,1,1,0,1,1,0,0,0,0,3,0,0,2,2,0,0,0,1,0,1,1,3,0,1,2,0,1,1,1,3,0,2,2,2,0,0,0,0,0,0,0,0,0,0,0,0,0,0,0,0,0,0,0,0,0,0,0,0,0,0,0,0,0,0,0,0,0,0,0,0,0,0,0,0,0,0,0,0,0,0,0,0,0,0,0],"split_type":[0,0,0,0,0,0,0,0,0,0,0,0,0,0,0,0,0,0,0,0,0,0,0,0,0,0,0,0,0,0,0,0,0,0,0,0,0,0,0,0,0,0,0,0,0,0,0,0,0,0,0,0,0,0,0,0,0,0,0,0,0,0,0,0,0,0,0,0,0,0,0,0,0,0,0,0,0,0,0,0,0,0,0,0,0,0,0,0,0,0,0,0,0,0,0,0,0,0,0,0,0,0,0,0,0,0,0,0,0],"sum_hessian":[9.7328336E4,8.281889E4,1.4509445E4,6.453379E4,1.8285098E4,1.3104181E4,1.4052653E3,1.4613566E4,4.9920223E4,9.19014E3,9.094958E3,1.5185334E3,1.1585646E4,3.6426584E2,1.0409994E3,1.2653385E4,1.9601815E3,4.322521E4,6.6950137E3,1.9023325E3,7.2878066E3,7.7891787E3,1.3057795E3,8.7783655E2,6.4069696E2,1.5221312E3,1.0063516E4,1.2177416E1,3.520884E2,8.248204E1,9.585174E2,1.2529376E4,1.2400886E2,1.6825848E3,2.7759665E2,2.1648655E3,4.1060344E4,2.339529E3,4.3554844E3,1.5245871E2,1.7498738E3,1.285869E3,6.0019375E3,1.1392897E3,6.649889E3,2.5434544E2,1.0514341E3,5.7381494E2,3.040216E2,6.2830914E2,1.2387835E1,1.468313E3,5.3818207E1,9.325406E0,2.8520093E0,1.0937924E2,2.4270917E2,8.103268E1,1.4493649E0,3.1477546E3,9.381622E3,1.0936797E2,1.4640889E1,1.4256776E3,2.5690723E2,2.265871E2,5.1009537E1,3.2986096E2,1.8350044E3,3.9353127E3,3.712503E4,4.4139505E2,1.898134E3,2.3955735E3,1.9599111E3,1.0623091E2,4.6227795E1,1.6774731E3,7.2400665E1,4.7298636E2,8.128827E2,4.6003364E3,1.4016011E3,5.8717865E2,5.52111E2,2.5715928E3,4.0782961E3,4.0343285E1,2.1400215E2,3.8256787E2,6.688663E2,2.1122507E2,3.6258987E2,1.9716638E2,1.0685522E2,1.1263713E1,1.1241208E0,1.2913245E3,1.7698857E2,4.6416897E1,7.40131E0,3.6913066E0,5.6340995E0,3.594167E1,7.343758E1,7.197221E0,2.3551195E2,1.3703087E1,6.732959E1],"tree_param":{"num_deleted":"0","num_feature":"4","num_nodes":"109","size_leaf_vector":"1"}},{"base_weights":[-4.2389248E-2,1.0726982E-1,-1.0396042E0,2.3844959E-1,-5.695898E-1,-4.566842E-1,-1.0565329E0,6.72935E-1,1.305272E-1,-1.96499E-1,-7.2027993E-1,-8.214499E-1,-1.1095345E-1,-1.0784461E0,-8.637808E-1,1.2108783E0,5.432864E-1,1.8499799E-1,-5.5150956E-1,7.161293E-1,-6.956991E-1,1.2102802E0,-7.5740665E-1,-7.399274E-1,-1.1468735E0,1.1950026E0,-4.957679E-1,-8.805067E-1,-1.105319E0,-3.2281092E-1,-1.0900489E0,3.6485583E-1,9.653147E-1,3.681937E-2,7.4460125E-1,1.1603608E-1,1.0848277E0,-1.1194968E0,-2.668969E-1,5.3879845E-1,2.4619439E0,-8.130035E-1,1.1453909E0,7.527577E-1,1.3059499E0,-9.3796647E-1,-3.740783E-1,-8.445567E-1,4.6347022E-1,-3.613739E-1,-1.372076E-1,-5.101626E-3,5.2805805E-1,-1.080013E-1,-1.0472333E0,-7.3179233E-1,-1.1001406E0,-1.0525403E0,-3.335327E-1,-7.8999236E-2,-3.912479E-1,-8.335396E-1,-3.336541E-1,1.8429266E-1,3.577862E-1,2.2087957E-1,-4.306961E-1,3.024438E-1,3.5889406E-2,6.429651E-2,-2.1386252E-1,1.5077922E-1,6.122066E-1,-3.650988E-1,-2.2775902E-1,1.7894074E-1,-1.9796209E-1,2.8070962E-1,-1.6450498E-1,4.9322233E-1,1.0168676E0,-1.8389332E-1,-2.940694E-1,4.0661177E-1,-4.315999E-1,2.94231E-1,4.9705293E-2,4.1547653E-1,2.1406941E-1,-6.736093E-2,-3.0227554E-1,1.1002848E-1,-2.039016E-1,-2.1089508E-1,-3.6677104E-1,4.1747022E-1,-4.0975634E-2,5.6997627E-2,-1.7877632E-1,-2.586118E-1,5.130162E-1,-3.3466718E-1,-6.302236E-2,-2.776452E-1,-1.2522808E-1,-3.3342642E-1,-1.6536234E-1,-3.215266E-1,-1.2622E-1,1.317498E-1,-5.2605566E-2,-3.7265528E-2,-1.5248391E-1,-2.6071435E-1,1.1984042E-1],"categories":[],"categories_nodes":[],"categories_segments":[],"categories_sizes":[],"default_left":[0,0,0,0,0,0,0,0,0,0,0,0,0,0,0,0,0,0,0,0,0,0,0,0,0,0,0,0,0,0,0,0,0,0,0,0,0,0,0,0,0,0,0,0,0,0,0,0,0,0,0,0,0,0,0,0,0,0,0,0,0,0,0,0,0,0,0,0,0,0,0,0,0,0,0,0,0,0,0,0,0,0,0,0,0,0,0,0,0,0,0,0,0,0,0,0,0,0,0,0,0,0,0,0,0,0,0,0,0,0,0,0,0,0,0],"id":4,"left_children":[1,3,5,7,9,11,13,15,17,19,21,23,25,27,29,31,33,35,37,39,41,43,45,47,49,51,53,55,57,59,61,-1,63,65,67,69,71,73,75,77,79,81,83,85,87,89,91,93,95,-1,-1,97,-1,99,101,103,105,107,-1,109,111,113,-1,-1,-1,-1,-1,-1,-1,-1,-1,-1,-1,-1,-1,-1,-1,-1,-1,-1,-1,-1,-1,-1,-1,-1,-1,-1,-1,-1,-1,-1,-1,-1,-1,-1,-1,-1,-1,-1,-1,-1,-1,-1,-1,-1,-1,-1,-1,-1,-1,-1,-1,-1,-1],"loss_changes":[1.3279448E4,6.869683E3,1.1409668E2,3.0388389E3,7.060242E2,4.1455566E1,4.6723633E1,8.9866455E2,1.9288018E3,1.6474325E3,6.421616E2,3.4001617E0,8.617303E1,5.289453E1,1.4124292E2,2.0891113E0,1.0595662E3,2.9831953E3,6.2042834E2,3.9454126E2,5.0571265E2,6.4225464E0,6.072295E2,1.6871758E1,6.532974E-1,2.6496994E1,2.8165325E1,3.8894287E1,1.8671875E0,5.6851234E0,3.7008057E0,0E0,3.879963E0,3.0464592E3,1.224706E3,3.6382075E3,1.9034868E3,4.4093018E1,8.687258E2,5.0193433E2,8.366699E1,7.291797E1,7.81398E1,4.070238E0,5.4942627E0,2.9613232E2,6.369942E2,5.6039276E0,6.3803997E0,0E0,0E0,1.6693089E0,0E0,1.09444466E2,2.881878E0,4.392386E1,2.4137573E0,1.1570435E1,0E0,3.8881855E0,8.288189E0,3.3567467E0,0E0,0E0,0E0,0E0,0E0,0E0,0E0,0E0,0E0,0E0,0E0,0E0,0E0,0E0,0E0,0E0,0E0,0E0,0E0,0E0,0E0,0E0,0E0,0E0,0E0,0E0,0E0,0E0,0E0,0E0,0E0,0E0,0E0,0E0,0E0,0E0,0E0,0E0,0E0,0E0,0E0,0E0,0E0,0E0,0E0,0E0,0E0,0E0,0E0,0E0,0E0,0E0,0E0],"parents":[2147483647,0,0,1,1,2,2,3,3,4,4,5,5,6,6,7,7,8,8,9,9,10,10,11,11,12,12,13,13,14,14,15,15,16,16,17,17,18,18,19,19,20,20,21,21,22,22,23,23,24,24,25,25,26,26,27,27,28,28,29,29,30,30,32,32,33,33,34,34,35,35,36,36,37,37,38,38,39,39,40,40,41,41,42,42,43,43,44,44,45,45,46,46,47,47,48,48,51,51,53,53,54,54,55,55,56,56,57,57,59,59,60,60,61,61],"right_children":[2,4,6,8,10,12,14,16,18,20,22,24,26,28,30,32,34,36,38,40,42,44,46,48,50,52,54,56,58,60,62,-1,64,66,68,70,72,74,76,78,80,82,84,86,88,90,92,94,96,-1,-1,98,-1,100,102,104,106,108,-1,110,112,114,-1,-1,-1,-1,-1,-1,-1,-1,-1,-1,-1,-1,-1,-1,-1,-1,-1,-1,-1,-1,-1,-1,-1,-1,-1,-1,-1,-1,-1,-1,-1,-1,-1,-1,-1,-1,-1,-1,-1,-1,-1,-1,-1,-1,-1,-1,-1,-1,-1,-1,-1,-1,-1],"split_conditions":[5.607883E-1,2.7210565E-2,-1.9081128E0,-8.4641516E-1,-1.4478934E-1,-5.8243436E-1,1.9477518E0,-2.021498E-1,5.20655E-1,-1.00586876E-1,-1.1442503E0,-5.053845E-1,-4.6359432E-1,-4.7853982E-1,2.0024683E0,-2.1615177E-1,-4.7987353E-2,4.014288E-1,8.3277726E-1,1.4311142E0,1.2029025E-1,1.7425903E0,8.088845E-1,-7.6659703E-1,-5.925993E-1,-5.7888526E-1,-3.986939E-1,-8.32031E-1,-1.7764249E0,-8.317665E-1,2.119596E0,3.6485583E-1,-9.9173397E-1,-6.7866884E-2,4.5404384E-1,2.4991323E-1,2.2780153E-1,7.888754E-1,4.8161097E-2,-2.2510755E-1,-2.0580211E-1,1.9758523E-1,2.560694E-1,1.7365621E0,-1.1561184E0,-6.9060475E-1,4.7104273E-2,-5.4233545E-1,-6.797099E-1,-3.613739E-1,-1.372076E-1,5.7890946E-1,5.2805805E-1,-4.2090634E-1,1.8759476E-1,-8.3788687E-1,3.425679E-1,9.97819E-3,-3.335327E-1,1.4095471E0,1.996344E0,2.3630247E0,-3.336541E-1,1.8429266E-1,3.577862E-1,2.2087957E-1,-4.306961E-1,3.024438E-1,3.5889406E-2,6.429651E-2,-2.1386252E-1,1.5077922E-1,6.122066E-1,-3.650988E-1,-2.2775902E-1,1.7894074E-1,-1.9796209E-1,2.8070962E-1,-1.6450498E-1,4.9322233E-1,1.0168676E0,-1.8389332E-1,-2.940694E-1,4.0661177E-1,-4.315999E-1,2.94231E-1,4.9705293E-2,4.1547653E-1,2.1406941E-1,-6.736093E-2,-3.0227554E-1,1.1002848E-1,-2.039016E-1,-2.1089508E-1,-3.6677104E-1,4.1747022E-1,-4.0975634E-2,5.6997627E-2,-1.7877632E-1,-2.586118E-1,5.130162E-1,-3.3466718E-1,-6.302236E-2,-2.776452E-1,-1.2522808E-1,-3.3342642E-1,-1.6536234E-1,-3.215266E-1,-1.2622E-1,1.317498E-1,-5.2605566E-2,-3.7265528E-2,-1.5248391E-1,-2.6071435E-1,1.1984042E-1],"split_indices":[0,3,2,1,2,1,1,0,2,0,0,3,3,3,1,0,0,2,2,1,0,1,2,1,1,1,3,1,2,2,1,0,1,0,0,2,1,2,0,2,2,1,1,1,0,0,0,3,1,0,0,0,0,3,1,1,1,3,0,0,1,0,0,0,0,0,0,0,0,0,0,0,0,0,0,0,0,0,0,0,0,0,0,0,0,0,0,0,0,0,0,0,0,0,0,0,0,0,0,0,0,0,0,0,0,0,0,0,0,0,0,0,0,0,0],"split_type":[0,0,0,0,0,0,0,0,0,0,0,0,0,0,0,0,0,0,0,0,0,0,0,0,0,0,0,0,0,0,0,0,0,0,0,0,0,0,0,0,0,0,0,0,0,0,0,0,0,0,0,0,0,0,0,0,0,0,0,0,0,0,0,0,0,0,0,0,0,0,0,0,0,0,0,0,0,0,0,0,0,0,0,0,0,0,0,0,0,0,0,0,0,0,0,0,0,0,0,0,0,0,0,0,0,0,0,0,0,0,0,0,0,0,0],"sum_hessian":[8.897739E4,7.736724E4,1.1610154E4,6.480773E4,1.255951E4,3.2844632E2,1.1281708E4,1.2893694E4,5.1914035E4,3.6139946E3,8.945515E3,1.5915392E2,1.6929242E2,1.0125928E4,1.1557806E3,2.5023792E3,1.0391315E4,4.8075242E4,3.8387944E3,1.2776974E3,2.3362974E3,1.6818959E2,8.777325E3,1.2988895E2,2.9264969E1,3.805128E1,1.3124113E2,1.2144323E3,8.911495E3,3.4156992E2,8.1421075E2,2.4455667E3,5.6812366E1,2.955945E3,7.43537E3,4.465413E4,3.4211118E3,1.2804769E3,2.5583176E3,1.1610706E3,1.1662694E2,2.196882E3,1.3941515E2,3.0620626E1,1.3756897E2,5.965798E3,2.811527E3,1.1977344E2,1.01154995E1,2.63156E1,2.9493694E0,1.2500078E1,2.5551203E1,7.775971E1,5.3481422E1,7.2670886E2,4.877234E2,9.892258E2,7.9222695E3,7.533563E1,2.6623428E2,6.7740616E1,7.4647015E2,2.3785444E1,3.3026924E1,2.00435E3,9.5159503E2,5.2295137E3,2.2058562E3,3.992132E4,4.7328076E3,2.1270295E3,1.294082E3,1.005898E3,2.7457898E2,8.000649E2,1.7582527E3,8.5065094E2,3.104196E2,6.345319E1,5.317375E1,1.0024684E3,1.1944138E3,1.2937738E2,1.0037775E1,2.1571795E1,9.048831E0,1.20206245E2,1.7362724E1,5.307773E2,5.4350205E3,8.210017E2,1.9905254E3,8.921894E1,3.0554497E1,3.4540732E0,6.6614265E0,9.907095E0,2.592983E0,5.533527E1,2.2424444E1,4.913848E1,4.3429384E0,4.4845557E2,2.7825333E2,4.768983E2,1.0825109E1,9.593529E2,2.987291E1,1.1254309E1,6.408132E1,8.1755516E1,1.8447876E2,6.613135E1,1.6092701E0],"tree_param":{"num_deleted":"0","num_feature":"4","num_nodes":"115","size_leaf_vector":"1"}},{"base_weights":[-3.8082734E-2,7.638515E-2,-1.0056844E0,1.8953279E-1,-4.1774625E-1,-7.821944E-1,-1.0346637E0,-3.2061785E-1,2.667063E-1,-1.7611799E-1,-7.014562E-1,-6.136494E-1,-1.060091E0,-1.0702039E0,-7.7545077E-1,-5.828585E-1,5.232461E-1,5.063238E-1,1.4954157E-2,5.7523215E-1,-3.7248805E-1,-8.639319E-1,6.588696E-2,-4.4531006E-1,-3.258081E-1,-3.2235035E-1,-4.5749164E-1,-1.0070728E0,-3.2395935E-1,-2.4543051E-1,-1.0494721E0,-2.1786948E-1,-8.040061E-1,1.2172117E0,2.6834655E-1,5.690273E-1,-7.6879513E-1,-1.8323082E-1,6.688712E-1,3.54783E-1,3.1797892E-1,-7.37104E-1,1.7146455E-1,-6.2905115E-1,-9.548009E-1,2.4072751E-1,-1.056905E0,-7.391597E-1,2.2433834E-2,-1.8993941E-1,-5.581214E-1,-1.0308481E0,-4.4843307E-1,-4.9163827E-1,-1.896193E-1,-7.377419E-1,-3.2371902E-1,-1.536735E-1,5.9157526E-1,-3.7453452E-1,-1.3100605E-1,-6.323983E-2,4.89612E-1,1.06119245E-1,-3.254897E-4,1.9332367E-1,-7.4485843E-3,-4.685779E-2,-3.7840706E-1,2.6867634E-2,-2.198356E-1,2.2151393E-1,-2.4823286E-1,-4.1188765E-1,1.5447874E-1,-2.6063034E-1,1.8401273E-1,3.381897E-1,-1.4342529E-1,-1.3391104E-1,-2.6851237E-1,-3.268472E-1,-2.6085204E-1,-3.9163497E-3,4.015831E-1,-2.8061146E-1,-3.4377527E-1,-1.649449E-1,-3.2838053E-1,-3.1597325E-1,1.1943289E-1,-7.241814E-2,-2.5653E-2,-2.106304E-1,-4.5954913E-2,-3.2121736E-1,-2.67559E-1,-1.6981815E-1,5.4259937E-2,-7.73873E-2,-2.5308257E-1,-3.776922E-2,-9.656897E-2,-2.3294936E-1,9.2366904E-2],"categories":[],"categories_nodes":[],"categories_segments":[],"categories_sizes":[],"default_left":[0,0,0,0,0,0,0,0,0,0,0,0,0,0,0,0,0,0,0,0,0,0,0,0,0,0,0,0,0,0,0,0,0,0,0,0,0,0,0,0,0,0,0,0,0,0,0,0,0,0,0,0,0,0,0,0,0,0,0,0,0,0,0,0,0,0,0,0,0,0,0,0,0,0,0,0,0,0,0,0,0,0,0,0,0,0,0,0,0,0,0,0,0,0,0,0,0,0,0,0,0,0,0,0,0],"id":5,"left_children":[1,3,5,7,9,11,13,15,17,19,21,23,25,27,29,31,33,35,37,39,41,43,45,47,-1,-1,49,51,-1,53,55,57,59,61,63,65,67,69,71,-1,73,75,77,79,81,83,85,87,89,91,93,95,97,99,101,103,-1,-1,-1,-1,-1,-1,-1,-1,-1,-1,-1,-1,-1,-1,-1,-1,-1,-1,-1,-1,-1,-1,-1,-1,-1,-1,-1,-1,-1,-1,-1,-1,-1,-1,-1,-1,-1,-1,-1,-1,-1,-1,-1,-1,-1,-1,-1,-1,-1],"loss_changes":[9.124315E3,4.1186953E3,5.5631836E1,2.3599612E3,9.4079663E2,4.639325E1,7.020996E1,1.7433569E3,3.1407852E3,1.0940745E3,7.870918E2,4.942128E1,2.7891846E0,3.0463867E0,1.3530957E2,4.849015E2,3.3009708E2,2.1332607E3,3.2906753E3,2.3971179E2,1.165991E3,1.1059204E2,2.1698155E2,6.384475E1,0E0,0E0,1.7844558E-1,1.1683899E1,0E0,4.2959747E0,4.877075E0,1.4635168E3,6.103196E2,2.9743134E2,3.1458397E1,1.1382715E3,3.7719495E2,2.9212742E3,6.148408E2,0E0,3.6063232E2,6.2632825E2,1.4656586E3,7.035901E1,4.2185547E1,2.6640033E2,5.393524E-1,1.8594925E1,7.321782E1,3.020063E-3,3.099985E-1,3.9021606E0,2.9967895E0,4.585618E0,2.1680374E0,2.5278893E0,0E0,0E0,0E0,0E0,0E0,0E0,0E0,0E0,0E0,0E0,0E0,0E0,0E0,0E0,0E0,0E0,0E0,0E0,0E0,0E0,0E0,0E0,0E0,0E0,0E0,0E0,0E0,0E0,0E0,0E0,0E0,0E0,0E0,0E0,0E0,0E0,0E0,0E0,0E0,0E0,0E0,0E0,0E0,0E0,0E0,0E0,0E0,0E0,0E0],"parents":[2147483647,0,0,1,1,2,2,3,3,4,4,5,5,6,6,7,7,8,8,9,9,10,10,11,11,12,12,13,13,14,14,15,15,16,16,17,17,18,18,19,19,20,20,21,21,22,22,23,23,26,26,27,27,29,29,30,30,31,31,32,32,33,33,34,34,35,35,36,36,37,37,38,38,40,40,41,41,42,42,43,43,44,44,45,45,46,46,47,47,48,48,49,49,50,50,51,51,52,52,53,53,54,54,55,55],"right_children":[2,4,6,8,10,12,14,16,18,20,22,24,26,28,30,32,34,36,38,40,42,44,46,48,-1,-1,50,52,-1,54,56,58,60,62,64,66,68,70,72,-1,74,76,78,80,82,84,86,88,90,92,94,96,98,100,102,104,-1,-1,-1,-1,-1,-1,-1,-1,-1,-1,-1,-1,-1,-1,-1,-1,-1,-1,-1,-1,-1,-1,-1,-1,-1,-1,-1,-1,-1,-1,-1,-1,-1,-1,-1,-1,-1,-1,-1,-1,-1,-1,-1,-1,-1,-1,-1,-1,-1],"split_conditions":[5.7890946E-1,-8.9960195E-2,-4.7853982E-1,-1.3926841E0,4.2947408E-2,-8.32031E-1,1.9477518E0,9.473405E-1,-5.1315457E-1,-1.8571469E-1,1.266268E-1,-1.7031977E0,3.425679E-1,-1.7530105E0,2.0024683E0,-3.2660913E-1,-1.7394623E0,9.666181E-1,1.9418555E-1,-3.6072996E-1,1.3631976E0,-5.401604E-1,1.502069E0,-8.3788687E-1,-3.258081E-1,-3.2235035E-1,-1.8993762E0,1.2288299E0,-3.2395935E-1,9.597494E-1,2.119596E0,-5.718857E-1,-1.6877319E0,1.0961735E0,1.996344E0,4.587126E-1,-1.1039969E0,1.4009887E-1,5.9914697E-2,3.54783E-1,-1.2392743E-1,-1.00586876E-1,2.7868462E-1,1.9758523E-1,1.1599484E-1,1.9255099E-1,2.0024683E0,7.183638E-1,7.183638E-1,3.6887935E-1,4.4994652E-1,4.9384663E-1,1.581568E0,8.6219406E-1,1.9996514E0,2.3630247E0,-3.2371902E-1,-1.536735E-1,5.9157526E-1,-3.7453452E-1,-1.3100605E-1,-6.323983E-2,4.89612E-1,1.06119245E-1,-3.254897E-4,1.9332367E-1,-7.4485843E-3,-4.685779E-2,-3.7840706E-1,2.6867634E-2,-2.198356E-1,2.2151393E-1,-2.4823286E-1,-4.1188765E-1,1.5447874E-1,-2.6063034E-1,1.8401273E-1,3.381897E-1,-1.4342529E-1,-1.3391104E-1,-2.6851237E-1,-3.268472E-1,-2.6085204E-1,-3.9163497E-3,4.015831E-1,-2.8061146E-1,-3.4377527E-1,-1.649449E-1,-3.2838053E-1,-3.1597325E-1,1.1943289E-1,-7.241814E-2,-2.5653E-2,-2.106304E-1,-4.5954913E-2,-3.2121736E-1,-2.67559E-1,-1.6981815E-1,5.4259937E-2,-7.73873E-2,-2.5308257E-1,-3.776922E-2,-9.656897E-2,-2.3294936E-1,9.2366904E-2],"split_indices":[0,3,3,0,0,1,1,1,3,2,0,2,1,2,1,1,0,1,1,2,1,2,2,1,0,0,2,1,0,0,1,1,0,1,1,0,0,2,0,0,1,0,3,1,1,0,1,0,0,1,1,1,1,0,1,0,0,0,0,0,0,0,0,0,0,0,0,0,0,0,0,0,0,0,0,0,0,0,0,0,0,0,0,0,0,0,0,0,0,0,0,0,0,0,0,0,0,0,0,0,0,0,0,0,0],"split_type":[0,0,0,0,0,0,0,0,0,0,0,0,0,0,0,0,0,0,0,0,0,0,0,0,0,0,0,0,0,0,0,0,0,0,0,0,0,0,0,0,0,0,0,0,0,0,0,0,0,0,0,0,0,0,0,0,0,0,0,0,0,0,0,0,0,0,0,0,0,0,0,0,0,0,0,0,0,0,0,0,0,0,0,0,0,0,0,0,0,0,0,0,0,0,0,0,0,0,0,0,0,0,0,0,0],"sum_hessian":[8.237798E4,7.366436E4,8.713619E3,5.993979E4,1.3724571E4,1.0033913E3,7.7102275E3,7.875583E3,5.2064207E4,7.412857E3,6.311714E3,6.265783E2,3.76813E2,6.777806E3,9.3242163E2,6.0086377E3,1.8669456E3,2.6674463E4,2.5389744E4,1.5355632E3,5.877294E3,5.208707E3,1.103007E3,4.6338593E2,1.6319235E2,3.6724777E2,9.565223E0,9.134979E2,5.864308E3,3.1841998E2,6.140017E2,2.26779E3,3.7408477E3,5.0051505E2,1.3664305E3,2.5424762E4,1.2497003E3,1.9485059E4,5.904686E3,4.5580515E2,1.079758E3,3.5184753E3,2.3588186E3,1.4551964E3,3.7535105E3,9.550697E2,1.4793732E2,2.8423892E2,1.79147E2,3.4035203E0,6.161702E0,8.753964E2,3.810153E1,5.739896E1,2.61021E2,5.5479782E1,5.585219E2,1.9997301E3,2.680599E2,1.6916351E3,2.0492124E3,1.1277806E2,3.8773697E2,1.0373698E3,3.2906076E2,2.256078E4,2.8639827E3,5.575672E2,6.921332E2,1.3021995E4,6.4630625E3,5.643055E3,2.6163116E2,1.120207E2,9.6773737E2,3.2062424E3,3.12233E2,9.540962E2,1.4047224E3,8.642858E2,5.909105E2,1.4507802E3,2.3027302E3,7.7655304E2,1.7851666E2,6.7408745E1,8.052857E1,1.8711172E2,9.7127205E1,4.590447E1,1.3324254E2,1.4014496E0,2.002071E0,4.004142E0,2.1575603E0,6.7502136E2,2.0037506E2,3.2185894E1,5.9156337E0,3.5537647E1,2.1861313E1,1.7747685E2,8.354415E1,5.3745125E1,1.7346562E0],"tree_param":{"num_deleted":"0","num_feature":"4","num_nodes":"105","size_leaf_vector":"1"}},{"base_weights":[-3.5219062E-2,5.4297905E-2,-9.613814E-1,1.1666861E-1,-5.223122E-1,-9.965645E-1,-6.890022E-1,4.636291E-1,5.070753E-2,-5.694622E-1,2.5220636E-1,-7.0116794E-1,-1.0441122E0,-1.83734E-1,-1.0169632E0,1.1150472E0,3.4614483E-1,1.1584357E-1,-3.3518335E-1,-2.3452732E-1,-7.0278984E-1,-7.491928E-1,7.965424E-1,-5.254973E-1,-1.0303875E0,-9.615852E-1,-1.0570425E0,-5.7841282E-2,-2.7536312E-1,-6.451227E-1,-3.16827E-1,3.3701032E-1,8.07276E-1,-1.5623434E-1,5.687352E-1,1.0855846E0,5.6087203E-2,-9.570194E-1,8.787178E-2,5.02616E-1,-6.351481E-1,-8.8424903E-1,-3.4913054E-1,-1.1679704E0,-1.84888E-1,1.1998969E0,5.4684174E-1,-3.6581355E-1,-3.175089E-1,-3.147326E-1,-3.903275E-1,-1.0204852E0,-6.1563087E-1,-3.1745097E-1,-8.521193E-1,3.463435E-1,-1.0070142E-1,-1.4077681E-1,-5.04084E-1,-6.861271E-1,7.173452E-2,1.12602785E-1,3.312105E-1,-2.5125116E-1,2.4159105E-1,2.9332128E-1,6.335721E-2,1.8625918E-1,3.8060477E-1,-1.3341594E-1,3.494899E-2,-1.1766518E0,-2.7205628E-1,1.4818385E-1,-1.2987523E-1,7.288134E-2,4.484141E-1,-9.162155E-2,-2.5260937E-1,-5.1639613E-2,-2.8664818E-1,9.9492304E-2,-2.5079316E-1,-2.8369164E-1,-3.8417068E-1,1.3195816E-1,-3.2167634E-1,3.7313583E-1,-8.984326E-2,9.7946934E-2,2.5050193E-1,-1.934684E-1,1.1696735E-3,-4.806753E-2,-1.4472777E-1,-2.711425E-1,-3.1752488E-1,3.9603673E-2,-2.170548E-1,3.62311E-1,-3.0610216E-1,-3.7978098E-2,3.6229813E-1,-2.1243142E-1,-2.1011537E-2,-2.7422383E-1,-9.807311E-3,-1.6514578E-1,8.9074716E-2,-9.105782E-2,-2.2798203E-1],"categories":[],"categories_nodes":[],"categories_segments":[],"categories_sizes":[],"default_left":[0,0,0,0,0,0,0,0,0,0,0,0,0,0,0,0,0,0,0,0,0,0,0,0,0,0,0,0,0,0,0,0,0,0,0,0,0,0,0,0,0,0,0,0,0,0,0,0,0,0,0,0,0,0,0,0,0,0,0,0,0,0,0,0,0,0,0,0,0,0,0,0,0,0,0,0,0,0,0,0,0,0,0,0,0,0,0,0,0,0,0,0,0,0,0,0,0,0,0,0,0,0,0,0,0,0,0,0,0,0,0],"id":6,"left_children":[1,3,5,7,9,11,13,15,17,19,21,23,25,27,29,31,33,35,37,39,41,43,45,47,49,51,53,55,57,59,-1,-1,61,63,65,67,69,71,73,75,77,79,81,83,85,87,89,91,-1,-1,93,95,97,-1,99,101,103,105,107,109,-1,-1,-1,-1,-1,-1,-1,-1,-1,-1,-1,-1,-1,-1,-1,-1,-1,-1,-1,-1,-1,-1,-1,-1,-1,-1,-1,-1,-1,-1,-1,-1,-1,-1,-1,-1,-1,-1,-1,-1,-1,-1,-1,-1,-1,-1,-1,-1,-1,-1,-1],"loss_changes":[6.3298555E3,2.5038462E3,6.3797363E1,1.4377883E3,2.483153E2,8.293701E1,1.2790454E2,7.6766235E2,1.3269497E3,2.8590698E2,2.1354254E2,4.7400513E1,4.456543E0,3.5078335E0,6.1351013E0,3.0187988E0,9.5102136E2,2.617309E3,2.0057671E3,5.394177E2,2.9371484E2,3.241635E1,2.4882858E1,4.5780228E1,3.0341187E0,1.3754272E1,1.2011719E-1,2.285942E0,5.363077E0,1.8745556E0,0E0,0E0,5.2134686E0,1.711533E3,8.615719E2,2.2228687E2,1.287238E3,4.556162E2,9.599447E2,1.6537816E2,8.045615E1,1.5342603E2,5.15746E2,7.6864624E-1,3.3740395E1,6.6976013E0,9.788769E0,4.3234474E1,0E0,0E0,1.2952375E-1,1.7059937E0,8.5815735E0,0E0,1.13995075E1,5.3194923E0,2.1529717E0,9.375027E0,2.5796337E0,1.0498829E0,0E0,0E0,0E0,0E0,0E0,0E0,0E0,0E0,0E0,0E0,0E0,0E0,0E0,0E0,0E0,0E0,0E0,0E0,0E0,0E0,0E0,0E0,0E0,0E0,0E0,0E0,0E0,0E0,0E0,0E0,0E0,0E0,0E0,0E0,0E0,0E0,0E0,0E0,0E0,0E0,0E0,0E0,0E0,0E0,0E0,0E0,0E0,0E0,0E0,0E0,0E0],"parents":[2147483647,0,0,1,1,2,2,3,3,4,4,5,5,6,6,7,7,8,8,9,9,10,10,11,11,12,12,13,13,14,14,15,15,16,16,17,17,18,18,19,19,20,20,21,21,22,22,23,23,24,24,25,25,26,26,27,27,28,28,29,29,32,32,33,33,34,34,35,35,36,36,37,37,38,38,39,39,40,40,41,41,42,42,43,43,44,44,45,45,46,46,47,47,50,50,51,51,52,52,54,54,55,55,56,56,57,57,58,58,59,59],"right_children":[2,4,6,8,10,12,14,16,18,20,22,24,26,28,30,32,34,36,38,40,42,44,46,48,50,52,54,56,58,60,-1,-1,62,64,66,68,70,72,74,76,78,80,82,84,86,88,90,92,-1,-1,94,96,98,-1,100,102,104,106,108,110,-1,-1,-1,-1,-1,-1,-1,-1,-1,-1,-1,-1,-1,-1,-1,-1,-1,-1,-1,-1,-1,-1,-1,-1,-1,-1,-1,-1,-1,-1,-1,-1,-1,-1,-1,-1,-1,-1,-1,-1,-1,-1,-1,-1,-1,-1,-1,-1,-1,-1,-1],"split_conditions":[5.7890946E-1,1.895398E-1,1.9477518E0,-8.872736E-1,1.5561527E-1,-4.7853982E-1,2.0024683E0,-2.021498E-1,4.2947408E-2,-1.2192926E-1,4.079219E-1,-8.32031E-1,-1.7530105E0,8.088845E-1,2.119596E0,-2.1615177E-1,-4.7987353E-2,-4.101722E-1,1.05990484E-1,-1.2543142E-1,7.888754E-1,6.816128E-1,6.421971E-1,-1.7031977E0,3.425679E-1,8.060493E-1,1.8364333E0,1.4095471E0,1.9996514E0,2.3630247E0,-3.16827E-1,3.3701032E-1,-9.9173397E-1,-1.1840723E0,-1.2715929E0,-2.3219542E-1,-8.2409546E-2,-8.4641516E-1,2.130501E-1,1.4311142E0,2.560694E-1,-6.9060475E-1,4.622135E-2,2.3172767E-1,2.0024683E0,1.502069E0,1.068552E0,-8.3788687E-1,-3.175089E-1,-3.147326E-1,-1.8993762E0,7.183638E-1,8.027535E-1,-3.1745097E-1,-1.7031977E0,1.996344E0,1.449956E0,9.760059E-1,2.1546707E0,-1.4939111E0,7.173452E-2,1.12602785E-1,3.312105E-1,-2.5125116E-1,2.4159105E-1,2.9332128E-1,6.335721E-2,1.8625918E-1,3.8060477E-1,-1.3341594E-1,3.494899E-2,-1.1766518E0,-2.7205628E-1,1.4818385E-1,-1.2987523E-1,7.288134E-2,4.484141E-1,-9.162155E-2,-2.5260937E-1,-5.1639613E-2,-2.8664818E-1,9.9492304E-2,-2.5079316E-1,-2.8369164E-1,-3.8417068E-1,1.3195816E-1,-3.2167634E-1,3.7313583E-1,-8.984326E-2,9.7946934E-2,2.5050193E-1,-1.934684E-1,1.1696735E-3,-4.806753E-2,-1.4472777E-1,-2.711425E-1,-3.1752488E-1,3.9603673E-2,-2.170548E-1,3.62311E-1,-3.0610216E-1,-3.7978098E-2,3.6229813E-1,-2.1243142E-1,-2.1011537E-2,-2.7422383E-1,-9.807311E-3,-1.6514578E-1,8.9074716E-2,-9.105782E-2,-2.2798203E-1],"split_indices":[0,3,1,1,0,3,1,0,0,2,3,1,2,2,1,0,0,2,0,0,2,1,3,2,1,1,1,0,1,0,0,0,1,1,1,0,2,1,0,1,1,0,0,3,1,2,3,1,0,0,2,0,0,0,2,1,0,2,0,2,0,0,0,0,0,0,0,0,0,0,0,0,0,0,0,0,0,0,0,0,0,0,0,0,0,0,0,0,0,0,0,0,0,0,0,0,0,0,0,0,0,0,0,0,0,0,0,0,0,0,0],"split_type":[0,0,0,0,0,0,0,0,0,0,0,0,0,0,0,0,0,0,0,0,0,0,0,0,0,0,0,0,0,0,0,0,0,0,0,0,0,0,0,0,0,0,0,0,0,0,0,0,0,0,0,0,0,0,0,0,0,0,0,0,0,0,0,0,0,0,0,0,0,0,0,0,0,0,0,0,0,0,0,0,0,0,0,0,0,0,0,0,0,0,0,0,0,0,0,0,0,0,0,0,0,0,0,0,0,0,0,0,0,0,0],"sum_hessian":[7.634701E4,6.9619016E4,6.7279907E3,6.2824246E4,6.7947695E3,5.9559976E3,7.719933E2,1.0034733E4,5.278951E4,6.4051133E3,3.8965622E2,8.2795544E2,5.128042E3,3.0447253E2,4.6752078E2,1.5319573E3,8.502776E3,4.51664E4,7.6231147E3,1.8245034E3,4.58061E3,1.3708626E2,2.5256995E2,5.41571E2,2.863845E2,7.048338E2,4.423208E3,1.2894347E2,1.7552907E2,4.6175915E1,4.2134488E2,1.4890514E3,4.29059E1,2.6107336E3,5.892043E3,2.6206514E3,4.2545746E4,3.0859326E3,4.537182E3,6.423405E2,1.1821628E3,3.0263293E3,1.5542806E3,7.8075615E1,5.9010647E1,9.511704E1,1.5745291E2,4.1799652E2,1.2357445E2,2.7762515E2,8.759343E0,6.006254E2,1.0420837E2,4.394866E3,2.83422E1,1.1683506E1,1.1725996E2,1.11521774E2,6.400729E1,4.4343628E1,1.8322848E0,1.8395704E1,2.4510197E1,1.5281422E3,1.0825914E3,2.7474473E3,3.1445955E3,7.4193536E2,1.8787161E3,4.5789453E3,3.79668E4,5.005585E1,3.0358767E3,2.5493958E3,1.9877861E3,5.1007498E2,1.3226556E2,4.567087E2,7.254541E2,2.7554816E2,2.7507812E3,6.4820123E2,9.0607947E2,2.9407421E1,4.866819E1,3.4925632E1,2.4085012E1,9.257761E1,2.5394368E0,9.043365E1,6.701926E1,2.3776953E2,1.8022697E2,3.2869086E0,5.4724345E0,1.5344702E2,4.4717844E2,1.3112835E1,9.109553E1,1.6733402E0,2.666886E1,8.092855E0,3.5906508E0,4.5733447E0,1.12686615E2,1.2761598E1,9.876018E1,6.079802E1,3.2092764E0,7.998163E0,3.6345467E1],"tree_param":{"num_deleted":"0","num_feature":"4","num_nodes":"111","size_leaf_vector":"1"}},{"base_weights":[-2.9130176E-2,4.0106546E-2,-9.172523E-1,1.6515793E-1,-1.4523739E-1,-9.616722E-1,-6.0424477E-1,-1.240218E-1,3.620872E-1,-9.2876583E-1,-6.10651E-2,-6.1683875E-1,-1.0232594E0,-1.884872E-1,-3.1181985E-1,1.0445328E0,-2.2131889E-1,4.4760352E-1,-1.3352874E-1,-9.78054E-1,2.5321987E0,5.920335E-2,-4.6184638E-1,-4.3799213E-1,-1.0047846E0,-9.1600007E-1,-1.0406001E0,-1.3770176E-1,-5.559127E-1,1.069676E0,-1.2592428E0,-1.3786288E-1,-1.2541393E0,4.8837537E-1,-8.3021694E-1,-2.955618E-2,-1.262505E0,-1.3814212E0,-6.9640344E-1,1.6764169E0,3.4869902E0,-1.2480079E-1,5.135371E-1,-5.806359E-1,-1.4582399E-1,-2.896429E-1,-3.1127566E-1,-3.088211E-1,-3.2156086E-1,-9.752166E-1,-4.1172114E-1,-3.126209E-1,-7.901513E-1,-3.3950895E-1,-9.49824E-2,-5.9781367E-1,5.602338E-2,2.1887395E-1,3.58402E-1,-7.298812E-1,3.312944E-1,-8.358682E-2,4.0752936E-2,-1.8664113E-1,-3.9088804E-1,3.519494E-1,1.2926656E-1,4.4128102E-1,-2.781277E-1,-5.8597285E-1,6.029643E-3,-2.786475E-1,-5.278473E-1,-4.3995902E-1,-3.5389376E-1,1.5600917E-1,-3.0037087E-1,7.21121E-1,3.8867295E-1,1.2573202E0,6.350836E-1,9.872649E-2,-1.2535723E-1,1.7028645E-1,-2.5245318E-1,-7.566035E-2,-2.3847017E-1,1.1713817E-1,-1.2102457E-1,-1.6483833E-1,8.2003593E-4,-1.8014304E-1,-6.0570307E-2,-3.072169E-1,-2.3732527E-1,7.319805E-2,-1.7117515E-1,2.2921868E-1,-2.981986E-1,-3.5517294E-2,-2.0890656E-1,3.3810993E-3,-4.6133548E-2,-1.3569608E-1,-2.669388E-1],"categories":[],"categories_nodes":[],"categories_segments":[],"categories_sizes":[],"default_left":[0,0,0,0,0,0,0,0,0,0,0,0,0,0,0,0,0,0,0,0,0,0,0,0,0,0,0,0,0,0,0,0,0,0,0,0,0,0,0,0,0,0,0,0,0,0,0,0,0,0,0,0,0,0,0,0,0,0,0,0,0,0,0,0,0,0,0,0,0,0,0,0,0,0,0,0,0,0,0,0,0,0,0,0,0,0,0,0,0,0,0,0,0,0,0,0,0,0,0,0,0,0,0,0,0],"id":7,"left_children":[1,3,5,7,9,11,13,15,17,19,21,23,25,27,-1,29,31,33,35,37,39,41,43,45,47,49,51,53,55,57,59,61,63,65,67,69,71,73,75,77,79,81,83,85,87,89,-1,-1,91,93,95,-1,97,99,101,103,-1,-1,-1,-1,-1,-1,-1,-1,-1,-1,-1,-1,-1,-1,-1,-1,-1,-1,-1,-1,-1,-1,-1,-1,-1,-1,-1,-1,-1,-1,-1,-1,-1,-1,-1,-1,-1,-1,-1,-1,-1,-1,-1,-1,-1,-1,-1,-1,-1],"loss_changes":[4.428646E3,1.5485883E3,7.183887E1,2.2720474E3,1.7752289E3,9.620264E1,1.1740166E2,1.8379377E3,1.0059807E3,4.478982E2,1.1717028E3,4.7674316E1,6.239746E0,6.1489573E0,0E0,7.331958E1,1.286002E3,1.0549741E3,4.100186E2,2.9160352E2,2.4339645E1,1.5632103E3,2.1054797E2,4.2076607E1,3.3365784E0,1.5919312E1,3.9868164E-1,2.5061913E0,1.3621254E0,5.14021E1,4.1173782E1,5.3198566E2,3.360669E1,7.7171826E2,1.4097165E2,3.0568292E2,4.7214355E1,1.6435547E1,5.635597E2,2.8153915E0,7.0778503E0,1.7704459E3,3.9549512E2,2.8675183E2,2.1209647E2,2.9119701E1,0E0,0E0,1.8040526E-1,3.5818481E0,6.3024864E0,0E0,8.209274E0,3.945816E0,1.5285211E0,1.2235937E0,0E0,0E0,0E0,0E0,0E0,0E0,0E0,0E0,0E0,0E0,0E0,0E0,0E0,0E0,0E0,0E0,0E0,0E0,0E0,0E0,0E0,0E0,0E0,0E0,0E0,0E0,0E0,0E0,0E0,0E0,0E0,0E0,0E0,0E0,0E0,0E0,0E0,0E0,0E0,0E0,0E0,0E0,0E0,0E0,0E0,0E0,0E0,0E0,0E0],"parents":[2147483647,0,0,1,1,2,2,3,3,4,4,5,5,6,6,7,7,8,8,9,9,10,10,11,11,12,12,13,13,15,15,16,16,17,17,18,18,19,19,20,20,21,21,22,22,23,23,24,24,25,25,26,26,27,27,28,28,29,29,30,30,31,31,32,32,33,33,34,34,35,35,36,36,37,37,38,38,39,39,40,40,41,41,42,42,43,43,44,44,45,45,48,48,49,49,50,50,52,52,53,53,54,54,55,55],"right_children":[2,4,6,8,10,12,14,16,18,20,22,24,26,28,-1,30,32,34,36,38,40,42,44,46,48,50,52,54,56,58,60,62,64,66,68,70,72,74,76,78,80,82,84,86,88,90,-1,-1,92,94,96,-1,98,100,102,104,-1,-1,-1,-1,-1,-1,-1,-1,-1,-1,-1,-1,-1,-1,-1,-1,-1,-1,-1,-1,-1,-1,-1,-1,-1,-1,-1,-1,-1,-1,-1,-1,-1,-1,-1,-1,-1,-1,-1,-1,-1,-1,-1,-1,-1,-1,-1,-1,-1],"split_conditions":[5.7890946E-1,-4.1167006E-1,1.9477518E0,-9.5324355E-1,-8.32031E-1,-4.7853982E-1,2.119596E0,1.5025438E-1,4.5404384E-1,1.698737E-1,2.1017899E-1,-8.32031E-1,-1.7530105E0,2.0024683E0,-3.1181985E-1,9.0048784E-1,2.7150872E-1,9.473405E-1,-3.6851797E-1,-2.6407593E-1,1.9255099E-1,4.5363906E-1,8.3277726E-1,-1.7031977E0,3.425679E-1,9.6993107E-1,1.8364333E0,9.597494E-1,2.3630247E0,-1.1179135E0,9.9771196E-1,3.1402248E-1,-1.1672753E0,-1.1073825E0,7.067614E-3,-1.4552529E0,-2.2230056E-1,-5.328333E-1,4.2947408E-2,-8.3902663E-1,-8.382582E-1,-3.0699265E-1,1.502069E0,-9.495245E-2,4.8161097E-2,-8.3788687E-1,-3.1127566E-1,-3.088211E-1,-4.99835E-1,4.595783E-1,8.6219406E-1,-3.126209E-1,-1.7031977E0,8.6219406E-1,1.996344E0,3.1499827E0,5.602338E-2,2.1887395E-1,3.58402E-1,-7.298812E-1,3.312944E-1,-8.358682E-2,4.0752936E-2,-1.8664113E-1,-3.9088804E-1,3.519494E-1,1.2926656E-1,4.4128102E-1,-2.781277E-1,-5.8597285E-1,6.029643E-3,-2.786475E-1,-5.278473E-1,-4.3995902E-1,-3.5389376E-1,1.5600917E-1,-3.0037087E-1,7.21121E-1,3.8867295E-1,1.2573202E0,6.350836E-1,9.872649E-2,-1.2535723E-1,1.7028645E-1,-2.5245318E-1,-7.566035E-2,-2.3847017E-1,1.1713817E-1,-1.2102457E-1,-1.6483833E-1,8.2003593E-4,-1.8014304E-1,-6.0570307E-2,-3.072169E-1,-2.3732527E-1,7.319805E-2,-1.7117515E-1,2.2921868E-1,-2.981986E-1,-3.5517294E-2,-2.0890656E-1,3.3810993E-3,-4.6133548E-2,-1.3569608E-1,-2.669388E-1],"split_indices":[0,3,1,0,1,3,1,2,0,0,3,1,2,1,0,1,2,1,1,0,0,1,2,2,1,1,1,0,0,0,1,1,0,2,2,1,1,0,0,1,1,2,2,2,0,1,0,0,3,1,0,0,2,0,1,3,0,0,0,0,0,0,0,0,0,0,0,0,0,0,0,0,0,0,0,0,0,0,0,0,0,0,0,0,0,0,0,0,0,0,0,0,0,0,0,0,0,0,0,0,0,0,0,0,0],"split_type":[0,0,0,0,0,0,0,0,0,0,0,0,0,0,0,0,0,0,0,0,0,0,0,0,0,0,0,0,0,0,0,0,0,0,0,0,0,0,0,0,0,0,0,0,0,0,0,0,0,0,0,0,0,0,0,0,0,0,0,0,0,0,0,0,0,0,0,0,0,0,0,0,0,0,0,0,0,0,0,0,0,0,0,0,0,0,0,0,0,0,0,0,0,0,0,0,0,0,0,0,0,0,0,0,0],"sum_hessian":[7.201984E4,6.681222E4,5.2076294E3,3.989512E4,2.6917092E4,4.558628E3,6.490015E2,1.6162198E4,2.3732924E4,2.6101494E3,2.4306943E4,6.924634E2,3.8661646E3,3.3263092E2,3.1637057E2,1.2415259E3,1.4920673E4,2.0240596E4,3.4923284E3,2.5742073E3,3.5942284E1,1.8697082E4,5.6098613E3,4.754196E2,2.170438E2,5.455477E2,3.3206167E3,2.9344574E2,3.91852E1,1.2286521E3,1.2873736E1,1.3806209E4,1.1144633E3,1.961534E4,6.252553E2,3.1987659E3,2.9356268E2,1.0568004E3,1.5174069E3,2.0407122E1,1.5535161E1,1.3308069E4,5.3890127E3,4.0766528E3,1.5332085E3,3.8231232E2,9.310726E1,2.0900583E2,8.037956E0,4.8738147E2,5.8166252E1,3.2981023E3,2.2514511E1,5.0051926E1,2.433938E2,3.727705E1,1.9081504E0,3.3204642E2,8.966057E2,8.582491E0,4.2912455E0,9.117367E3,4.6888423E3,8.090188E1,1.0335614E3,1.5176403E3,1.8097701E4,2.4686008E1,6.0056934E2,7.952555E1,3.1192402E3,1.7735445E2,1.16208244E2,7.3887524E2,3.1792517E2,3.0391788E2,1.2134889E3,5.187843E0,1.5219279E1,8.901524E0,6.6336374E0,5.221239E3,8.0868306E3,5.182734E3,2.0627875E2,1.6103739E3,2.466279E3,4.9731735E2,1.0358911E3,2.0196144E2,1.8035088E2,1.206806E0,6.83115E0,3.8160275E2,1.0577874E2,1.1239347E1,4.6926903E1,2.2918644E0,2.0222647E1,3.1725285E1,1.8326643E1,8.699323E1,1.5640057E2,2.6580997E1,1.0696052E1],"tree_param":{"num_deleted":"0","num_feature":"4","num_nodes":"105","size_leaf_vector":"1"}},{"base_weights":[-2.4830347E-2,2.8963545E-2,-8.7025213E-1,1.5539527E-1,-9.098134E-2,-9.258095E-1,-5.1979524E-1,-2.151485E-1,3.0728135E-1,-6.1012024E-1,-1.1518306E-2,-5.3288484E-1,-1.0052674E0,-1.4206861E-1,-3.08074E-1,-4.3277287E-1,9.413149E-2,3.502765E-1,-5.776943E-1,-7.9471946E-1,1.2584101E0,9.686878E-2,-3.471753E-1,-3.5779253E-1,-9.8078555E-1,-8.673592E-1,-1.0284876E0,-1.0134347E-1,-4.7143683E-1,-2.0792419E-1,-8.520152E-1,-1.03501484E-1,2.9098123E-1,5.0281376E-1,1.4016646E-1,-2.4002744E-1,-8.125667E-1,-1.3997221E0,-4.3753386E-1,1.1547799E0,2.3423955E0,8.7071717E-1,-2.2023444E-3,-6.2452644E-1,2.7329385E-1,-2.2481266E-1,-3.0632934E-1,-1.0130574E0,-2.692823E-1,-9.71725E-1,-4.6390384E-1,-3.091215E-1,-7.269854E-1,3.0136924E-2,-1.4382677E-1,-2.538665E-1,-3.1590652E-1,-1.6328219E-1,5.7780474E-2,-3.4227467E-1,-9.308865E-2,-1.7291205E-1,5.0210446E-2,2.3429142E-1,3.0794322E-2,9.283348E-2,3.0441803E-1,8.899773E-2,-3.8263148E-1,9.663987E-2,-2.3707584E-1,-3.133216E-1,5.87468E-2,3.177021E-1,-4.4542482E-1,1.1093449E-1,-3.4921962E-1,3.771323E-1,2.1030097E-1,8.5287386E-1,3.8914764E-1,1.8555948E-1,3.7685317E-1,-1.9791111E-1,2.5453283E-2,-8.698509E-2,-2.0989415E-1,2.2614048E-1,-1.9921558E-1,-1.3716128E-1,5.750366E-4,-1.9125004E-1,-3.074044E-1,-1.6532776E-1,-4.7060523E-2,-2.289114E-1,-3.0869174E-1,2.1654294E-1,-1.638098E-1,1.540718E-1,-2.9065156E-1,-5.2762553E-2,6.287836E-2,1.7547956E-2,-7.37855E-2,-1.4589939E-1,2.6361036E-1],"categories":[],"categories_nodes":[],"categories_segments":[],"categories_sizes":[],"default_left":[0,0,0,0,0,0,0,0,0,0,0,0,0,0,0,0,0,0,0,0,0,0,0,0,0,0,0,0,0,0,0,0,0,0,0,0,0,0,0,0,0,0,0,0,0,0,0,0,0,0,0,0,0,0,0,0,0,0,0,0,0,0,0,0,0,0,0,0,0,0,0,0,0,0,0,0,0,0,0,0,0,0,0,0,0,0,0,0,0,0,0,0,0,0,0,0,0,0,0,0,0,0,0,0,0,0,0],"id":8,"left_children":[1,3,5,7,9,11,13,15,17,19,21,23,25,27,-1,29,31,33,35,37,39,41,43,45,47,49,51,53,55,57,59,61,63,65,67,69,71,73,75,77,79,81,83,85,87,89,-1,91,93,95,97,-1,99,101,103,-1,105,-1,-1,-1,-1,-1,-1,-1,-1,-1,-1,-1,-1,-1,-1,-1,-1,-1,-1,-1,-1,-1,-1,-1,-1,-1,-1,-1,-1,-1,-1,-1,-1,-1,-1,-1,-1,-1,-1,-1,-1,-1,-1,-1,-1,-1,-1,-1,-1,-1,-1],"loss_changes":[3.0840564E3,9.668801E2,7.8506836E1,1.7469877E3,1.3497084E3,1.0875049E2,1.0662483E2,6.074669E2,8.378982E2,1.4991265E3,1.0323855E3,4.5991455E1,8.428223E0,4.2527995E0,0E0,4.9919513E2,1.4507414E2,6.728567E2,8.073349E1,8.5370825E2,4.1205933E1,1.6445364E3,1.1921528E3,3.738308E1,3.52742E0,1.7478882E1,6.879883E-1,1.605243E0,1.773221E0,4.6480716E2,2.890194E2,2.3848677E2,1.7231018E2,1.203825E3,1.9571537E3,1.301754E2,1.4080154E2,3.0828906E2,1.4593075E3,1.5777405E1,1.3648163E1,2.3587646E2,1.0884668E3,1.2011572E2,9.645548E2,1.8784204E1,0E0,3.6331177E-2,1.8419254E-1,3.245575E0,9.102465E0,0E0,6.229395E0,2.6550543E0,4.493656E0,0E0,5.7890186E0,0E0,0E0,0E0,0E0,0E0,0E0,0E0,0E0,0E0,0E0,0E0,0E0,0E0,0E0,0E0,0E0,0E0,0E0,0E0,0E0,0E0,0E0,0E0,0E0,0E0,0E0,0E0,0E0,0E0,0E0,0E0,0E0,0E0,0E0,0E0,0E0,0E0,0E0,0E0,0E0,0E0,0E0,0E0,0E0,0E0,0E0,0E0,0E0,0E0,0E0],"parents":[2147483647,0,0,1,1,2,2,3,3,4,4,5,5,6,6,7,7,8,8,9,9,10,10,11,11,12,12,13,13,15,15,16,16,17,17,18,18,19,19,20,20,21,21,22,22,23,23,24,24,25,25,26,26,27,27,28,28,29,29,30,30,31,31,32,32,33,33,34,34,35,35,36,36,37,37,38,38,39,39,40,40,41,41,42,42,43,43,44,44,45,45,47,47,48,48,49,49,50,50,52,52,53,53,54,54,56,56],"right_children":[2,4,6,8,10,12,14,16,18,20,22,24,26,28,-1,30,32,34,36,38,40,42,44,46,48,50,52,54,56,58,60,62,64,66,68,70,72,74,76,78,80,82,84,86,88,90,-1,92,94,96,98,-1,100,102,104,-1,106,-1,-1,-1,-1,-1,-1,-1,-1,-1,-1,-1,-1,-1,-1,-1,-1,-1,-1,-1,-1,-1,-1,-1,-1,-1,-1,-1,-1,-1,-1,-1,-1,-1,-1,-1,-1,-1,-1,-1,-1,-1,-1,-1,-1,-1,-1,-1,-1,-1,-1],"split_conditions":[5.7890946E-1,-5.096497E-1,1.9477518E0,-1.2599045E0,-8.32031E-1,-4.7853982E-1,2.119596E0,2.2780153E-1,9.666181E-1,1.4853515E-1,4.2947408E-2,-8.32031E-1,-1.7530105E0,2.0024683E0,-3.08074E-1,-2.7235964E-1,9.6993107E-1,-2.2851363E-1,1.4786574E0,-3.5477865E-1,1.980199E-1,-3.6072996E-1,1.4124697E-1,-1.7031977E0,3.425679E-1,7.175824E-1,1.8364333E0,-8.317665E-1,3.459799E-1,-5.799059E-1,-1.511811E0,-1.6877319E0,-1.725328E0,-5.605875E-1,-1.05421185E-1,-1.0249317E0,2.7690794E0,-8.0284274E-1,4.2947408E-2,-3.2592028E-1,-4.1167006E-1,-3.2596758E-1,-5.718857E-1,-9.616546E-1,2.130501E-1,-8.3788687E-1,-3.0632934E-1,-1.9081128E0,-4.99835E-1,6.9223243E-1,7.4498963E-1,-3.091215E-1,-1.7031977E0,1.996344E0,1.996344E0,-2.538665E-1,1.6060752E0,-1.6328219E-1,5.7780474E-2,-3.4227467E-1,-9.308865E-2,-1.7291205E-1,5.0210446E-2,2.3429142E-1,3.0794322E-2,9.283348E-2,3.0441803E-1,8.899773E-2,-3.8263148E-1,9.663987E-2,-2.3707584E-1,-3.133216E-1,5.87468E-2,3.177021E-1,-4.4542482E-1,1.1093449E-1,-3.4921962E-1,3.771323E-1,2.1030097E-1,8.5287386E-1,3.8914764E-1,1.8555948E-1,3.7685317E-1,-1.9791111E-1,2.5453283E-2,-8.698509E-2,-2.0989415E-1,2.2614048E-1,-1.9921558E-1,-1.3716128E-1,5.750366E-4,-1.9125004E-1,-3.074044E-1,-1.6532776E-1,-4.7060523E-2,-2.289114E-1,-3.0869174E-1,2.1654294E-1,-1.638098E-1,1.540718E-1,-2.9065156E-1,-5.2762553E-2,6.287836E-2,1.7547956E-2,-7.37855E-2,-1.4589939E-1,2.6361036E-1],"split_indices":[0,3,1,0,1,3,1,1,1,0,0,1,2,1,0,1,1,0,1,0,0,2,0,2,1,1,1,2,3,1,0,0,0,0,2,0,1,0,0,3,3,1,1,2,0,1,0,2,3,0,0,0,2,1,1,0,2,0,0,0,0,0,0,0,0,0,0,0,0,0,0,0,0,0,0,0,0,0,0,0,0,0,0,0,0,0,0,0,0,0,0,0,0,0,0,0,0,0,0,0,0,0,0,0,0,0,0],"split_type":[0,0,0,0,0,0,0,0,0,0,0,0,0,0,0,0,0,0,0,0,0,0,0,0,0,0,0,0,0,0,0,0,0,0,0,0,0,0,0,0,0,0,0,0,0,0,0,0,0,0,0,0,0,0,0,0,0,0,0,0,0,0,0,0,0,0,0,0,0,0,0,0,0,0,0,0,0,0,0,0,0,0,0,0,0,0,0,0,0,0,0,0,0,0,0,0,0,0,0,0,0,0,0,0,0,0,0],"sum_hessian":[6.781191E4,6.375609E4,4.055812E3,3.1038586E4,3.2717506E4,3.4994138E3,5.563981E2,9.0237295E3,2.2014855E4,4.342287E3,2.8375219E4,5.899209E2,2.909493E3,3.1961395E2,2.3678412E2,5.2964746E3,3.7272551E3,2.099543E4,1.0194258E3,3.9523901E3,3.8989694E2,2.1449625E4,6.925593E3,4.254168E2,1.645041E2,4.2481256E2,2.4846804E3,2.8560736E2,3.4006584E1,3.4484775E3,1.8479968E3,1.8601641E3,1.8670911E3,1.2163494E4,8.831937E3,4.190278E2,6.00398E2,1.4661313E3,2.4862588E3,3.5776E2,3.213693E1,2.4335198E3,1.9016105E4,4.786161E3,2.1394314E3,3.554874E2,6.9929405E1,1.5696097E2,7.54314E0,3.3638745E2,8.842513E1,2.4665764E3,1.8103992E1,6.981852E1,2.1578883E2,8.671003E0,2.533558E1,1.8742113E3,1.5742662E3,1.2045183E3,6.434785E2,6.770583E2,1.1831057E3,5.175158E2,1.3495752E3,8.829764E3,3.33373E3,7.953483E3,8.7845325E2,2.0747102E2,2.1155676E2,4.8813522E2,1.1226278E2,4.862381E1,1.4175076E3,1.1778894E3,1.3083694E3,2.9048468E2,6.7275314E1,2.056797E1,1.1568959E1,1.4726497E3,9.608702E2,2.2224426E3,1.6793664E4,8.784661E2,3.907695E3,1.4145118E3,7.249196E2,1.7504967E2,1.8043773E2,6.388808E0,1.5057216E2,1.0381793E0,6.504961E0,7.5498276E1,2.6088916E2,5.223499E0,8.320164E1,2.7703428E0,1.5333649E1,3.2513702E1,3.730482E1,7.2528885E1,1.4325995E2,2.2691298E1,2.6442835E0],"tree_param":{"num_deleted":"0","num_feature":"4","num_nodes":"107","size_leaf_vector":"1"}},{"base_weights":[-2.1471318E-2,2.0326855E-2,-8.184016E-1,6.9322295E-2,-2.379122E-1,-8.8654083E-1,-4.387886E-1,-1.8486975E-1,1.1409479E-1,-7.7365136E-1,-1.4091401E-1,-4.513538E-1,-9.8828274E-1,-1.0609226E-1,-3.0516368E-1,-3.1866142E-1,2.089486E-1,1.7009482E-1,-1.0508998E-1,-3.4064272E-1,-1.0161959E0,2.4621609E-1,-2.6135093E-1,-2.8649884E-1,-9.56442E-1,-8.133824E-1,-1.0193166E0,-3.1736693E-1,-6.210682E-2,-4.2322915E-2,-4.9603167E-1,9.649441E-1,1.0513779E-1,1.8509945E-2,3.0247116E-1,-8.465348E-1,2.2304194E-1,-1.0216155E0,6.565331E-2,-1.0736693E0,3.7334332E-1,6.2711346E-1,-1.5108521E-1,-4.340004E-1,2.6713616E-1,-1.712522E-1,-3.0212215E-1,-9.9856335E-1,-2.2550063E-1,-9.846592E-1,-4.6530047E-1,-3.065477E-1,-6.619308E-1,-1.1497861E-1,-5.4940754E-1,1.8269429E-3,-1.6968459E-1,-8.332786E-2,3.908071E-1,-2.9526883E-1,-7.599192E-2,3.4695577E-2,3.7899446E-1,9.663908E-2,7.524081E-3,6.398872E-2,-1.326485E-1,1.7922324E-1,4.132325E-2,-5.36141E-2,-3.0258656E-1,1.4461482E-1,-5.7985898E-2,-3.2345465E-1,2.957815E-1,-3.1960383E-2,3.5521072E-1,-3.2502112E-1,-1.292909E-1,2.759351E-1,-7.05756E-4,8.362104E-2,3.2177263E-1,1.3570015E-1,-2.0118605E-1,1.1984254E-3,-1.7115423E-1,2.626889E-1,-9.439944E-2,-1.1127356E-1,4.0328535E-4,-1.6914757E-1,-3.0424255E-1,-8.9951046E-2,1.0199755E-2,-2.055035E-1,-3.0568987E-1,2.4412958E-1,-1.63673E-1,1.0763019E-1,-2.8289604E-1,1.9863567E-1,-9.8801605E-2,-1.8185757E-1,-3.7099537E-2,4.887821E-2,-2.380424E-2,-9.492925E-2,1.8510321E-2],"categories":[],"categories_nodes":[],"categories_segments":[],"categories_sizes":[],"default_left":[0,0,0,0,0,0,0,0,0,0,0,0,0,0,0,0,0,0,0,0,0,0,0,0,0,0,0,0,0,0,0,0,0,0,0,0,0,0,0,0,0,0,0,0,0,0,0,0,0,0,0,0,0,0,0,0,0,0,0,0,0,0,0,0,0,0,0,0,0,0,0,0,0,0,0,0,0,0,0,0,0,0,0,0,0,0,0,0,0,0,0,0,0,0,0,0,0,0,0,0,0,0,0,0,0,0,0,0,0],"id":9,"left_children":[1,3,5,7,9,11,13,15,17,19,21,23,25,27,-1,29,31,33,35,37,39,41,43,45,47,49,51,53,55,57,59,61,63,65,67,69,71,73,75,77,79,81,83,85,87,89,-1,91,93,95,97,-1,99,101,103,105,107,-1,-1,-1,-1,-1,-1,-1,-1,-1,-1,-1,-1,-1,-1,-1,-1,-1,-1,-1,-1,-1,-1,-1,-1,-1,-1,-1,-1,-1,-1,-1,-1,-1,-1,-1,-1,-1,-1,-1,-1,-1,-1,-1,-1,-1,-1,-1,-1,-1,-1,-1,-1],"loss_changes":[2.1317666E3,7.693986E2,8.2107666E1,5.8171735E2,5.0382935E2,1.19233154E2,9.367412E1,4.033974E2,5.3343896E2,1.5576105E2,3.8295212E2,4.2526993E1,1.1057861E1,2.86576E0,0E0,2.8005212E2,1.5228603E2,6.945844E2,2.151945E3,1.4813535E2,7.644745E1,2.9505524E2,5.716626E2,3.2128723E1,3.6559982E0,1.9512268E1,9.8791504E-1,2.4380755E0,1.7764356E0,7.08089E2,4.1214508E2,5.923062E1,2.9670164E1,1.4481691E3,8.976677E2,2.9354688E2,6.612991E2,2.3780167E1,6.4854004E1,5.255615E0,7.919042E0,1.5415884E2,2.9963586E2,2.823371E2,5.465606E2,1.1597788E1,0E0,2.3345184E-1,1.6760746E-1,1.6006775E0,1.1981371E1,0E0,4.864853E0,5.167562E0,5.1849604E-1,2.1440604E0,3.2884805E0,0E0,0E0,0E0,0E0,0E0,0E0,0E0,0E0,0E0,0E0,0E0,0E0,0E0,0E0,0E0,0E0,0E0,0E0,0E0,0E0,0E0,0E0,0E0,0E0,0E0,0E0,0E0,0E0,0E0,0E0,0E0,0E0,0E0,0E0,0E0,0E0,0E0,0E0,0E0,0E0,0E0,0E0,0E0,0E0,0E0,0E0,0E0,0E0,0E0,0E0,0E0,0E0],"parents":[2147483647,0,0,1,1,2,2,3,3,4,4,5,5,6,6,7,7,8,8,9,9,10,10,11,11,12,12,13,13,15,15,16,16,17,17,18,18,19,19,20,20,21,21,22,22,23,23,24,24,25,25,26,26,27,27,28,28,29,29,30,30,31,31,32,32,33,33,34,34,35,35,36,36,37,37,38,38,39,39,40,40,41,41,42,42,43,43,44,44,45,45,47,47,48,48,49,49,50,50,52,52,53,53,54,54,55,55,56,56],"right_children":[2,4,6,8,10,12,14,16,18,20,22,24,26,28,-1,30,32,34,36,38,40,42,44,46,48,50,52,54,56,58,60,62,64,66,68,70,72,74,76,78,80,82,84,86,88,90,-1,92,94,96,98,-1,100,102,104,106,108,-1,-1,-1,-1,-1,-1,-1,-1,-1,-1,-1,-1,-1,-1,-1,-1,-1,-1,-1,-1,-1,-1,-1,-1,-1,-1,-1,-1,-1,-1,-1,-1,-1,-1,-1,-1,-1,-1,-1,-1,-1,-1,-1,-1,-1,-1,-1,-1,-1,-1,-1,-1],"split_conditions":[5.7890946E-1,-9.704486E-2,1.9477518E0,-1.3500166E0,-1.2392743E-1,-4.7853982E-1,2.119596E0,9.473405E-1,2.4991323E-1,-4.3892723E-1,-2.0580211E-1,-8.32031E-1,-1.7530105E0,9.597494E-1,-3.0516368E-1,-3.2660913E-1,-1.7586731E0,-8.2409546E-2,3.6418056E-1,-3.6851797E-1,1.698737E-1,-8.903319E-2,1.8364333E0,-1.7031977E0,3.425679E-1,4.9384663E-1,1.8364333E0,2.2170441E-1,3.4753737E0,-5.718857E-1,-1.7083544E0,1.0479101E0,-1.7083544E0,-3.6072996E-1,1.4009887E-1,-1.1672753E0,5.0594556E-1,1.4124697E-1,1.3369243E-1,1.5561527E-1,-3.230678E-1,-4.5208228E-1,1.9758523E-1,4.286862E-2,5.3849024E-1,-8.3788687E-1,-3.0212215E-1,-1.9081128E0,4.4994652E-1,6.436919E-1,6.9223243E-1,-3.065477E-1,-1.7031977E0,1.996344E0,4.348636E-1,1.996344E0,2.316468E0,-8.332786E-2,3.908071E-1,-2.9526883E-1,-7.599192E-2,3.4695577E-2,3.7899446E-1,9.663908E-2,7.524081E-3,6.398872E-2,-1.326485E-1,1.7922324E-1,4.132325E-2,-5.36141E-2,-3.0258656E-1,1.4461482E-1,-5.7985898E-2,-3.2345465E-1,2.957815E-1,-3.1960383E-2,3.5521072E-1,-3.2502112E-1,-1.292909E-1,2.759351E-1,-7.05756E-4,8.362104E-2,3.2177263E-1,1.3570015E-1,-2.0118605E-1,1.1984254E-3,-1.7115423E-1,2.626889E-1,-9.439944E-2,-1.1127356E-1,4.0328535E-4,-1.6914757E-1,-3.0424255E-1,-8.9951046E-2,1.0199755E-2,-2.055035E-1,-3.0568987E-1,2.4412958E-1,-1.63673E-1,1.0763019E-1,-2.8289604E-1,1.9863567E-1,-9.8801605E-2,-1.8185757E-1,-3.7099537E-2,4.887821E-2,-2.380424E-2,-9.492925E-2,1.8510321E-2],"split_indices":[0,3,1,0,1,3,1,1,2,2,2,1,2,0,0,1,0,2,2,1,0,0,1,2,1,1,1,3,3,1,0,1,0,2,2,0,2,0,0,0,1,0,1,3,3,1,0,2,1,0,0,0,2,1,3,1,0,0,0,0,0,0,0,0,0,0,0,0,0,0,0,0,0,0,0,0,0,0,0,0,0,0,0,0,0,0,0,0,0,0,0,0,0,0,0,0,0,0,0,0,0,0,0,0,0,0,0,0,0],"split_type":[0,0,0,0,0,0,0,0,0,0,0,0,0,0,0,0,0,0,0,0,0,0,0,0,0,0,0,0,0,0,0,0,0,0,0,0,0,0,0,0,0,0,0,0,0,0,0,0,0,0,0,0,0,0,0,0,0,0,0,0,0,0,0,0,0,0,0,0,0,0,0,0,0,0,0,0,0,0,0,0,0,0,0,0,0,0,0,0,0,0,0,0,0,0,0,0,0,0,0,0,0,0,0,0,0,0,0,0,0],"sum_hessian":[6.399585E4,6.0807535E4,3.188318E3,5.1111023E4,9.696512E3,2.7019854E3,4.8633267E2,7.6538433E3,4.345718E4,1.4853989E3,8.211113E3,5.130256E2,2.18896E3,3.094991E2,1.7683354E2,5.713119E3,1.9407239E3,3.4613832E4,8.843346E3,5.341675E2,9.512315E2,1.9481079E3,6.263005E3,3.879654E2,1.2506017E2,3.3397107E2,1.8549888E3,5.2260704E1,2.572384E2,2.2339375E3,3.4791816E3,2.3331647E2,1.7074073E3,1.6136723E4,1.847711E4,2.7125364E3,6.1308096E3,1.9904445E2,3.3512305E2,9.1366815E2,3.7563354E1,9.942911E2,9.5381683E2,4.7209233E3,1.542082E3,3.3553806E2,5.242732E1,1.1789992E2,7.160257E0,2.2260669E2,1.1136439E2,1.84021E3,1.4778885E1,2.8712696E1,2.354801E1,1.6196512E2,9.527329E1,1.9018274E3,3.3211014E2,1.154354E3,2.3248276E3,6.1018642E1,1.7229782E2,4.59346E2,1.2480614E3,1.1341663E4,4.7950596E3,6.620551E3,1.185656E4,5.3018835E2,2.182348E3,3.7794E3,2.35141E3,1.9403995E2,5.004503E0,2.9119495E2,4.392809E1,8.993605E2,1.4307652E1,1.4713995E1,2.284936E1,5.58858E2,4.354331E2,4.4134344E2,5.124734E2,1.1220072E3,3.598916E3,7.535034E2,7.885786E2,1.5503941E2,1.8049864E2,5.3653445E0,1.1253458E2,5.4450336E0,1.7152233E0,2.5022245E1,1.9758444E2,6.037048E0,1.0532734E2,3.1311462E0,1.1647738E1,5.756269E0,2.2956427E1,2.0402884E1,3.1451256E0,5.3929123E1,1.08035995E2,5.8074528E1,3.719877E1],"tree_param":{"num_deleted":"0","num_feature":"4","num_nodes":"109","size_leaf_vector":"1"}},{"base_weights":[-1.8739741E-2,1.3030117E-2,-7.7021873E-1,1.0994612E-1,-8.150709E-2,-8.5588276E-1,-3.6138618E-1,2.7204192E-1,-4.6031553E-2,-5.3219163E-1,-1.5661271E-2,-3.9976013E-1,-9.7370094E-1,-7.725357E-2,-3.027562E-1,1.7775208E-1,8.1490755E-1,-4.7825927E-1,1.9038457E-2,-1.2223581E0,-1.8031669E-1,5.344866E-2,-2.5201714E-1,-2.5847638E-1,-9.4203633E-1,-7.605861E-1,-1.0120802E0,-4.6660677E-2,-3.5512197E-1,1.5555164E0,1.431951E-1,2.0603715E-1,1.3785366E0,-1.2038532E0,5.081694E-1,-1.618743E0,3.3649735E-2,7.352164E-1,-1.2866299E0,-3.693236E-1,9.8593765E-1,9.5232475E-1,5.4579466E-3,5.350319E-1,-3.9922854E-1,-1.6437158E-1,-2.9778868E-1,-3.0131736E-1,-1.7821874E-1,-9.818254E-1,-3.5015616E-1,-3.0461803E-1,-5.955257E-1,-5.8285527E-2,2.2449687E-1,-2.2714344E-1,-2.1800599E-1,9.416011E-1,3.4062308E-1,-3.252917E-1,7.278044E-2,-1.1191436E0,1.0729455E-1,4.8746106E-1,3.8708562E-1,-3.7961793E-1,-2.6410657E-1,5.3571075E-2,3.3453235E-1,2.6633897E-1,-5.834301E-1,6.718417E-2,-3.6649097E-2,1.7180996E-1,3.2208925E-1,-4.159241E-1,-2.3319344E-1,9.739765E-2,-3.06005E-1,3.3543015E-1,1.7522995E-1,-5.3576846E-2,3.1909227E-1,-7.8714065E-2,4.311992E-2,3.5395497E-1,-1.391584E-1,-1.4901118E-1,-3.3049204E-3,-1.22397654E-1,7.2909374E-4,1.0746882E-2,-8.8291906E-2,-1.7964701E-1,-3.0343518E-1,-1.4562766E-1,1.4779152E-1,7.706793E-2,-2.7450055E-1,-8.918305E-2,-7.81355E-3,2.5264E-1,-2.1665627E-2,-1.1924575E-1,2.6355657E-1],"categories":[],"categories_nodes":[],"categories_segments":[],"categories_sizes":[],"default_left":[0,0,0,0,0,0,0,0,0,0,0,0,0,0,0,0,0,0,0,0,0,0,0,0,0,0,0,0,0,0,0,0,0,0,0,0,0,0,0,0,0,0,0,0,0,0,0,0,0,0,0,0,0,0,0,0,0,0,0,0,0,0,0,0,0,0,0,0,0,0,0,0,0,0,0,0,0,0,0,0,0,0,0,0,0,0,0,0,0,0,0,0,0,0,0,0,0,0,0,0,0,0,0,0,0],"id":10,"left_children":[1,3,5,7,9,11,13,15,17,19,21,23,25,27,-1,29,31,33,35,37,39,41,43,45,47,49,51,53,55,57,59,61,63,65,67,69,71,73,75,77,79,81,83,85,87,89,-1,-1,91,93,95,-1,97,99,101,-1,103,-1,-1,-1,-1,-1,-1,-1,-1,-1,-1,-1,-1,-1,-1,-1,-1,-1,-1,-1,-1,-1,-1,-1,-1,-1,-1,-1,-1,-1,-1,-1,-1,-1,-1,-1,-1,-1,-1,-1,-1,-1,-1,-1,-1,-1,-1,-1,-1],"loss_changes":[1.4596335E3,5.3745056E2,8.6541016E1,7.323542E2,8.811931E2,1.09751465E2,7.931305E1,7.269252E2,4.1519498E2,9.1905444E2,4.2324234E2,3.2120354E1,1.2546875E1,2.5413728E0,0E0,5.760427E2,7.209874E2,1.3831637E3,3.0711353E2,1.6174597E2,5.5326355E2,8.648574E2,6.79421E2,2.3084091E1,3.9613495E0,2.2582382E1,1.295166E0,8.71148E-1,1.4716899E0,1.9333722E2,1.4411492E3,6.0501904E2,2.1626465E1,2.1048706E1,1.6371252E2,9.446393E1,3.771579E2,1.6545582E0,6.1828857E1,9.753576E2,1.7939026E1,1.2811139E2,7.049587E2,5.957839E2,1.8689368E2,1.2169889E1,0E0,0E0,2.037784E-1,1.2494354E0,1.04978075E1,0E0,3.851892E0,2.0096035E0,2.1493678E0,0E0,4.983006E0,0E0,0E0,0E0,0E0,0E0,0E0,0E0,0E0,0E0,0E0,0E0,0E0,0E0,0E0,0E0,0E0,0E0,0E0,0E0,0E0,0E0,0E0,0E0,0E0,0E0,0E0,0E0,0E0,0E0,0E0,0E0,0E0,0E0,0E0,0E0,0E0,0E0,0E0,0E0,0E0,0E0,0E0,0E0,0E0,0E0,0E0,0E0,0E0],"parents":[2147483647,0,0,1,1,2,2,3,3,4,4,5,5,6,6,7,7,8,8,9,9,10,10,11,11,12,12,13,13,15,15,16,16,17,17,18,18,19,19,20,20,21,21,22,22,23,23,24,24,25,25,26,26,27,27,28,28,29,29,30,30,31,31,32,32,33,33,34,34,35,35,36,36,37,37,38,38,39,39,40,40,41,41,42,42,43,43,44,44,45,45,48,48,49,49,50,50,52,52,53,53,54,54,56,56],"right_children":[2,4,6,8,10,12,14,16,18,20,22,24,26,28,-1,30,32,34,36,38,40,42,44,46,48,50,52,54,56,58,60,62,64,66,68,70,72,74,76,78,80,82,84,86,88,90,-1,-1,92,94,96,-1,98,100,102,-1,104,-1,-1,-1,-1,-1,-1,-1,-1,-1,-1,-1,-1,-1,-1,-1,-1,-1,-1,-1,-1,-1,-1,-1,-1,-1,-1,-1,-1,-1,-1,-1,-1,-1,-1,-1,-1,-1,-1,-1,-1,-1,-1,-1,-1,-1,-1,-1,-1],"split_conditions":[5.9935755E-1,-5.096497E-1,1.9477518E0,-5.925993E-1,-8.32031E-1,-4.7853982E-1,2.119596E0,-8.32031E-1,-1.7083544E0,-3.2349616E-1,4.2947408E-2,-8.32031E-1,-1.7530105E0,2.0024683E0,-3.027562E-1,-1.725328E0,-5.7009544E-2,6.816128E-1,-1.9341501E0,-8.0284274E-1,1.4853515E-1,-4.3892723E-1,-1.0480781E0,-1.7031977E0,3.425679E-1,5.633349E-1,1.8364333E0,2.2972026E0,9.9408185E-1,-1.763507E0,-1.2599045E0,-3.4440348E-1,-9.5324355E-1,-1.725328E0,1.6726065E0,-1.9398775E0,-7.631837E-2,-8.3744913E-1,-4.4136944E-1,4.2947408E-2,-4.1167006E-1,-2.3880643E-1,-6.9054045E-2,1.8299513E-1,1.5561527E-1,-8.3788687E-1,-2.9778868E-1,-3.0131736E-1,-1.8993762E0,-1.8895451E0,1.3631976E0,-3.0461803E-1,-1.7031977E0,9.597494E-1,1.996344E0,-2.2714344E-1,1.6060752E0,9.416011E-1,3.4062308E-1,-3.252917E-1,7.278044E-2,-1.1191436E0,1.0729455E-1,4.8746106E-1,3.8708562E-1,-3.7961793E-1,-2.6410657E-1,5.3571075E-2,3.3453235E-1,2.6633897E-1,-5.834301E-1,6.718417E-2,-3.6649097E-2,1.7180996E-1,3.2208925E-1,-4.159241E-1,-2.3319344E-1,9.739765E-2,-3.06005E-1,3.3543015E-1,1.7522995E-1,-5.3576846E-2,3.1909227E-1,-7.8714065E-2,4.311992E-2,3.5395497E-1,-1.391584E-1,-1.4901118E-1,-3.3049204E-3,-1.22397654E-1,7.2909374E-4,1.0746882E-2,-8.8291906E-2,-1.7964701E-1,-3.0343518E-1,-1.4562766E-1,1.4779152E-1,7.706793E-2,-2.7450055E-1,-8.918305E-2,-7.81355E-3,2.5264E-1,-2.1665627E-2,-1.1924575E-1,2.6355657E-1],"split_indices":[0,3,1,1,1,3,1,1,0,0,0,1,2,1,0,0,2,1,2,0,0,2,2,2,1,1,1,2,0,0,0,0,0,0,1,2,1,1,0,0,3,0,1,0,0,1,0,0,2,2,1,0,2,0,1,0,2,0,0,0,0,0,0,0,0,0,0,0,0,0,0,0,0,0,0,0,0,0,0,0,0,0,0,0,0,0,0,0,0,0,0,0,0,0,0,0,0,0,0,0,0,0,0,0,0],"split_type":[0,0,0,0,0,0,0,0,0,0,0,0,0,0,0,0,0,0,0,0,0,0,0,0,0,0,0,0,0,0,0,0,0,0,0,0,0,0,0,0,0,0,0,0,0,0,0,0,0,0,0,0,0,0,0,0,0,0,0,0,0,0,0,0,0,0,0,0,0,0,0,0,0,0,0,0,0,0,0,0,0,0,0,0,0,0,0,0,0,0,0,0,0,0,0,0,0,0,0,0,0,0,0,0,0],"sum_hessian":[6.113665E4,5.865779E4,2.47886E3,2.8964404E4,2.9693385E4,2.048531E3,4.3032904E2,1.4203272E4,1.4761131E4,3.784325E3,2.5909059E4,4.214228E2,1.6271082E3,2.9990616E2,1.3042287E2,1.2102524E4,2.1007485E3,1.9306217E3,1.283051E4,1.2770497E3,2.5072751E3,2.0047879E4,5.8611807E3,3.3549112E2,8.593167E1,2.5148183E2,1.3756263E3,2.7121384E2,2.8692318E1,2.950503E2,1.1807474E4,1.0105015E3,1.0902471E3,1.1122535E3,8.183682E2,1.1248294E2,1.2718026E4,4.0263836E1,1.2367859E3,2.1581946E3,3.4908063E2,1.0151455E3,1.9032732E4,9.231309E2,4.93805E3,2.984582E2,3.703293E1,7.915484E1,6.776832E0,1.6249686E2,8.898496E1,1.3633451E3,1.2281196E1,2.6081735E2,1.0396503E1,6.147112E0,2.2545206E1,6.0518303E1,2.3453198E2,8.8382446E2,1.0923649E4,3.65998E1,9.7390173E2,2.8297473E2,8.0727234E2,9.320382E2,1.8021532E2,5.3119556E2,2.8717267E2,1.27483015E1,9.973464E1,5.7252476E3,6.992779E3,2.9019924E1,1.1243912E1,1.0327345E3,2.040513E2,1.0446002E3,1.1135944E3,2.6134338E2,8.773723E1,9.091285E1,9.2423267E2,6.4800376E3,1.2552695E4,5.608822E2,3.6224875E2,3.9467815E3,9.912683E2,1.2071026E2,1.7774794E2,2.6261554E0,4.1506767E0,1.3189728E1,1.4930713E2,7.704345E1,1.1941518E1,3.401441E0,8.879755E0,3.0025291E1,2.3079205E2,2.7772536E0,7.61925E0,1.9921894E1,2.6233134E0],"tree_param":{"num_deleted":"0","num_feature":"4","num_nodes":"105","size_leaf_vector":"1"}},{"base_weights":[-1.578318E-2,2.7499365E-2,-4.5119372E-1,8.8068205E-1,7.032765E-3,-2.735213E-1,-8.2797617E-1,3.2903844E-1,1.4879599E-2,3.9810225E-2,-2.1897319E-1,-2.1587555E-1,-6.8354243E-1,-1.0017923E0,-3.3330148E-1,-8.5439056E-1,3.4573257E-1,7.308133E-3,9.8917174E-1,1.0848175E0,-2.9513422E-1,-4.1787136E-1,-4.7941145E-2,-3.8667095E-1,-5.4992425E-1,-6.6665065E-1,-1.0102099E0,-3.940152E-2,-3.051622E-1,3.6682642E-1,-1.2884057E0,-3.8789167E0,1.9283837E-2,1.0865871E0,5.682943E-1,2.6829994E-1,3.3036175E-1,-8.261175E0,-2.3047207E-1,-2.0306337E-1,-1.164294E0,-5.770398E-1,6.502399E-2,-2.3672767E-2,-7.6189744E-1,2.8723365E-1,-9.109196E-1,-6.891623E-1,-3.0557615E-1,8.691973E-1,-4.9992777E-2,-6.887499E-1,-2.643551E-2,-1.2608907E0,-7.331463E-1,2.7688414E-1,-9.328705E-4,3.104594E-1,4.1647276E-1,-2.5013223E-1,2.2983137E-1,2.0934887E-1,-2.5724723E0,-1.5518305E-1,1.3292849E-1,-1.2003333E-2,-3.3940324E-1,-3.9473096E-1,-6.7841575E-2,3.3311598E-2,-5.093731E-1,1.013494E-1,-6.5716885E-2,1.3567317E-1,-2.956983E-1,-3.3661467E-1,-1.234428E-1,-1.942734E-1,1.9290863E-1,-2.9219505E-1,6.6656712E-3,-1.0502718E-2,-2.6251456E-1,3.0759978E-1,9.140919E-2,6.2853843E-3,-5.113737E-2],"categories":[],"categories_nodes":[],"categories_segments":[],"categories_sizes":[],"default_left":[0,0,0,0,0,0,0,0,0,0,0,0,0,0,0,0,0,0,0,0,0,0,0,0,0,0,0,0,0,0,0,0,0,0,0,0,0,0,0,0,0,0,0,0,0,0,0,0,0,0,0,0,0,0,0,0,0,0,0,0,0,0,0,0,0,0,0,0,0,0,0,0,0,0,0,0,0,0,0,0,0,0,0,0,0,0,0],"id":11,"left_children":[1,3,5,7,9,11,13,-1,15,17,19,21,23,25,27,29,-1,31,33,35,37,39,41,-1,43,45,47,49,-1,-1,51,53,55,57,59,-1,-1,61,63,65,67,69,71,73,75,77,79,81,-1,83,85,-1,-1,-1,-1,-1,-1,-1,-1,-1,-1,-1,-1,-1,-1,-1,-1,-1,-1,-1,-1,-1,-1,-1,-1,-1,-1,-1,-1,-1,-1,-1,-1,-1,-1,-1,-1],"loss_changes":[1.1028195E3,9.294416E2,3.539818E2,2.3329828E2,3.850841E2,8.4873474E1,1.4540833E2,0E0,2.4828459E2,1.4008217E3,6.541132E2,1.0701004E2,3.511824E1,2.8636475E0,8.8847336E1,1.2989279E2,0E0,2.0430428E3,6.099707E1,1.5020752E-1,3.2028232E3,2.293994E2,1.0307899E2,0E0,4.0651604E1,8.104556E0,2.5822754E0,3.0299778E0,0E0,0E0,1.4275215E2,5.244519E1,8.8559344E2,1.7586304E1,7.955777E1,0E0,0E0,1.4670703E2,1.192643E3,1.684705E2,4.515506E1,2.3419923E2,1.1024346E2,4.8846245E1,3.2334473E1,2.9516852E0,1.6127148E0,4.1213684E0,0E0,7.553816E-3,2.6333978E0,0E0,0E0,0E0,0E0,0E0,0E0,0E0,0E0,0E0,0E0,0E0,0E0,0E0,0E0,0E0,0E0,0E0,0E0,0E0,0E0,0E0,0E0,0E0,0E0,0E0,0E0,0E0,0E0,0E0,0E0,0E0,0E0,0E0,0E0,0E0,0E0],"parents":[2147483647,0,0,1,1,2,2,3,3,4,4,5,5,6,6,8,8,9,9,10,10,11,11,12,12,13,13,14,14,15,15,17,17,18,18,19,19,20,20,21,21,22,22,24,24,25,25,26,26,27,27,30,30,31,31,32,32,33,33,34,34,37,37,38,38,39,39,40,40,41,41,42,42,43,43,44,44,45,45,46,46,47,47,49,49,50,50],"right_children":[2,4,6,8,10,12,14,-1,16,18,20,22,24,26,28,30,-1,32,34,36,38,40,42,-1,44,46,48,50,-1,-1,52,54,56,58,60,-1,-1,62,64,66,68,70,72,74,76,78,80,82,-1,84,86,-1,-1,-1,-1,-1,-1,-1,-1,-1,-1,-1,-1,-1,-1,-1,-1,-1,-1,-1,-1,-1,-1,-1,-1,-1,-1,-1,-1,-1,-1,-1,-1,-1,-1,-1,-1],"split_conditions":[4.587126E-1,-1.1073825E0,-1.7291343E0,4.5404384E-1,4.2947408E-2,-3.2660913E-1,1.9477518E0,3.2903844E-1,-1.383562E0,-4.7987353E-2,-6.034115E-1,-6.257967E-1,5.42874E-1,-1.7031977E0,2.119596E0,-1.5034939E0,3.4573257E-1,-5.622957E-1,-1.0445513E-1,-7.0483726E-1,-1.2045115E0,4.9695256E-1,4.9695256E-1,-3.8667095E-1,-1.525846E-1,-4.9684888E-1,4.7441992E-1,-1.3250272E-1,-3.051622E-1,3.6682642E-1,-1.4552529E0,-6.7866884E-2,-4.5690328E-1,-5.796695E-1,5.466026E-1,2.6829994E-1,3.3036175E-1,-5.8098423E-1,1.4124697E-1,-9.9173397E-1,-1.0951854E0,-5.886715E-1,-5.547721E-1,5.7890946E-1,1.9758523E-1,-8.3775884E-1,1.8364333E0,-8.3668303E-1,-3.0557615E-1,5.106027E-1,1.9996514E0,-6.887499E-1,-2.643551E-2,-1.2608907E0,-7.331463E-1,2.7688414E-1,-9.328705E-4,3.104594E-1,4.1647276E-1,-2.5013223E-1,2.2983137E-1,2.0934887E-1,-2.5724723E0,-1.5518305E-1,1.3292849E-1,-1.2003333E-2,-3.3940324E-1,-3.9473096E-1,-6.7841575E-2,3.3311598E-2,-5.093731E-1,1.013494E-1,-6.5716885E-2,1.3567317E-1,-2.956983E-1,-3.3661467E-1,-1.234428E-1,-1.942734E-1,1.9290863E-1,-2.9219505E-1,6.6656712E-3,-1.0502718E-2,-2.6251456E-1,3.0759978E-1,9.140919E-2,6.2853843E-3,-5.113737E-2],"split_indices":[0,2,2,0,0,1,1,0,1,0,3,3,0,2,1,1,0,2,3,3,1,0,0,0,1,3,0,3,0,0,1,0,2,1,2,0,0,3,0,1,1,3,3,0,1,1,1,1,0,0,1,0,0,0,0,0,0,0,0,0,0,0,0,0,0,0,0,0,0,0,0,0,0,0,0,0,0,0,0,0,0,0,0,0,0,0,0],"split_type":[0,0,0,0,0,0,0,0,0,0,0,0,0,0,0,0,0,0,0,0,0,0,0,0,0,0,0,0,0,0,0,0,0,0,0,0,0,0,0,0,0,0,0,0,0,0,0,0,0,0,0,0,0,0,0,0,0,0,0,0,0,0,0,0,0,0,0,0,0,0,0,0,0,0,0,0,0,0,0,0,0,0,0,0,0,0,0],"sum_hessian":[5.8516773E4,5.322665E4,5.2901265E3,1.2459327E3,5.1980715E4,3.5961035E3,1.6940228E3,9.9684406E2,2.4908871E2,4.5397566E4,6.5831484E3,3.1541775E3,4.41926E2,1.2527968E3,4.412261E2,1.4133571E2,1.07753E2,4.389577E4,1.5017964E3,3.6260016E2,6.2205483E3,1.4312024E3,1.7229752E3,7.834333E1,3.6358264E2,3.2659924E1,1.2201367E3,3.093461E2,1.3188E2,2.4113588E1,1.1722212E2,1.3386069E2,4.376191E4,1.218243E3,2.8355338E2,3.312727E1,3.294729E2,4.9066376E1,6.171482E3,1.1123567E3,3.1884567E2,3.0241864E2,1.4205565E3,1.0471803E2,2.5886462E2,6.6225595E0,2.6037363E1,3.3145287E1,1.1869915E3,2.630314E0,3.067158E2,6.3234932E1,5.3987186E1,1.0762882E2,2.6231869E1,1.0572545E3,4.2704656E4,1.0437162E3,1.7452684E2,3.466125E1,2.4889212E2,1.6186845E0,4.744769E1,4.3285977E3,1.8428842E3,9.4705066E2,1.6530609E2,2.741746E2,4.4671078E1,1.8794449E2,1.14474144E2,7.245597E2,6.959968E2,7.041304E1,3.430499E1,1.26574066E2,1.3229056E2,1.5996287E0,5.0229306E0,2.4348087E1,1.6892766E0,7.5974374E0,2.5547848E1,1.4209403E0,1.209374E0,1.9355429E2,1.131615E2],"tree_param":{"num_deleted":"0","num_feature":"4","num_nodes":"87","size_leaf_vector":"1"}},{"base_weights":[-7.868661E-3,1.1260694E-2,-6.429724E-1,5.690184E-2,-1.450597E-1,-7.584676E-1,-2.3971458E-1,-1.1254698E-1,8.4624946E-2,-6.7143995E-1,7.960163E-2,-4.2501175E-1,-3.0235198E-1,-5.51259E-2,-2.9862294E-1,-2.711642E-1,5.6697525E-2,2.1024467E-1,1.7810278E-2,-7.443403E-2,-7.853206E-1,5.2864873E-1,-2.4691518E-1,-8.8806435E-2,-7.1838075E-1,-4.2412326E-1,-4.2946015E-2,-4.5994602E-2,-9.1784E-1,-3.3297136E-2,2.9782078E-1,8.6223495E-1,-1.0547682E-2,-6.7247194E-1,9.247598E-2,2.0243466E0,-4.910212E-1,-1.06865E0,-5.087893E-1,2.5186446E-1,9.6241367E-1,-1.0411216E0,-3.372881E-2,-3.4371024E-1,1.0114061E-1,-9.094824E-1,-2.994169E-1,2.420708E-1,-2.52942E-1,-2.2650035E-2,-2.4954028E-1,-2.8029181E-2,5.272256E-1,-3.2457918E-1,-6.8865344E-2,-9.029927E-2,2.268392E-2,2.857604E-1,3.3356946E-2,3.0489498E-1,2.0606256E-1,-6.1458465E-2,6.675797E-2,1.00796394E-1,-3.3358645E-1,-3.8819626E-4,1.9491024E-1,6.818036E-1,3.413833E-1,-3.6301303E-1,1.5279262E-1,-3.4645927E-1,-2.1684137E-1,-1.252802E-1,-3.2584688E-1,1.4022726E-1,-2.5961316E-1,3.132846E-1,-2.2496648E-1,-3.3825022E-1,-2.24894E-1,1.4937756E-2,-2.4103387E-1,7.1166225E-2,-2.8379828E-1,-2.9756862E-1,1.01528116E-1,-1.4399527E-1,-2.934619E-1,1.4179435E-1,-1.5478206E-1,1.12248585E-1,5.3896923E-3,-1.3145405E-2,3.7260845E-2,-2.8004585E-2,-1.899663E-1],"categories":[],"categories_nodes":[],"categories_segments":[],"categories_sizes":[],"default_left":[0,0,0,0,0,0,0,0,0,0,0,0,0,0,0,0,0,0,0,0,0,0,0,0,0,0,0,0,0,0,0,0,0,0,0,0,0,0,0,0,0,0,0,0,0,0,0,0,0,0,0,0,0,0,0,0,0,0,0,0,0,0,0,0,0,0,0,0,0,0,0,0,0,0,0,0,0,0,0,0,0,0,0,0,0,0,0,0,0,0,0,0,0,0,0,0,0],"id":12,"left_children":[1,3,5,7,9,11,13,15,17,19,21,23,-1,25,-1,27,29,31,33,35,37,39,41,43,45,47,49,51,53,55,57,59,61,63,65,67,69,71,73,75,77,79,81,83,85,87,89,91,-1,93,95,-1,-1,-1,-1,-1,-1,-1,-1,-1,-1,-1,-1,-1,-1,-1,-1,-1,-1,-1,-1,-1,-1,-1,-1,-1,-1,-1,-1,-1,-1,-1,-1,-1,-1,-1,-1,-1,-1,-1,-1,-1,-1,-1,-1,-1,-1],"loss_changes":[6.9278613E2,3.949579E2,7.747308E1,2.0129118E2,1.4794856E3,1.0731128E2,5.1930855E1,1.61755E2,3.09064E2,2.5437402E2,1.2858447E3,5.478515E1,0E0,1.3326719E0,0E0,4.5285104E2,6.3278805E1,1.8405061E3,1.2390492E3,5.2612286E2,2.4568774E2,4.4302747E2,8.5971533E2,1.2636598E1,2.3492874E1,2.8536725E0,1.2190614E0,1.976101E2,9.0470215E1,6.1951515E1,9.673498E1,8.66936E1,4.3264703E2,1.0403682E3,1.1335112E3,1.935257E1,3.6164435E2,4.5422363E1,8.3382904E1,5.435402E2,2.0234497E2,2.6209106E1,2.5746753E2,3.9187782E1,3.9216763E1,5.532852E0,1.6036514E1,1.2476629E-1,0E0,8.356041E-1,1.5006777E0,0E0,0E0,0E0,0E0,0E0,0E0,0E0,0E0,0E0,0E0,0E0,0E0,0E0,0E0,0E0,0E0,0E0,0E0,0E0,0E0,0E0,0E0,0E0,0E0,0E0,0E0,0E0,0E0,0E0,0E0,0E0,0E0,0E0,0E0,0E0,0E0,0E0,0E0,0E0,0E0,0E0,0E0,0E0,0E0,0E0,0E0],"parents":[2147483647,0,0,1,1,2,2,3,3,4,4,5,5,6,6,7,7,8,8,9,9,10,10,11,11,13,13,15,15,16,16,17,17,18,18,19,19,20,20,21,21,22,22,23,23,24,24,25,25,26,26,27,27,28,28,29,29,30,30,31,31,32,32,33,33,34,34,35,35,36,36,37,37,38,38,39,39,40,40,41,41,42,42,43,43,44,44,45,45,46,46,47,47,49,49,50,50],"right_children":[2,4,6,8,10,12,14,16,18,20,22,24,-1,26,-1,28,30,32,34,36,38,40,42,44,46,48,50,52,54,56,58,60,62,64,66,68,70,72,74,76,78,80,82,84,86,88,90,92,-1,94,96,-1,-1,-1,-1,-1,-1,-1,-1,-1,-1,-1,-1,-1,-1,-1,-1,-1,-1,-1,-1,-1,-1,-1,-1,-1,-1,-1,-1,-1,-1,-1,-1,-1,-1,-1,-1,-1,-1,-1,-1,-1,-1,-1,-1,-1,-1],"split_conditions":[5.9935755E-1,2.4991323E-1,1.8364333E0,-1.4335294E0,3.8230157E-1,-1.7031977E0,2.119596E0,1.9147414E-1,-7.067578E-1,-1.1672753E0,5.0594556E-1,-8.367732E-1,-3.0235198E-1,1.9477518E0,-2.9862294E-1,-2.7235964E-1,1.5001506E0,1.5025438E-1,-6.4756495E-1,-8.32031E-1,3.32444E-1,-5.516455E-1,-2.3880643E-1,-8.3788687E-1,4.5363906E-1,-1.7031977E0,2.0024683E0,-3.200496E-1,-1.511811E0,-1.725328E0,-1.7394623E0,7.61257E-2,-3.8348645E-2,-4.6826136E-1,-3.3322234E-2,2.7150872E-1,6.816128E-1,1.3631976E0,-8.377232E-1,4.4796595E-1,-1.8913339E-1,1.2933396E0,1.502069E0,-8.4641516E-1,7.183638E-1,-8.32031E-1,7.734166E-1,1.1359351E0,-2.52942E-1,2.316468E0,1.9066538E0,-2.8029181E-2,5.272256E-1,-3.2457918E-1,-6.8865344E-2,-9.029927E-2,2.268392E-2,2.857604E-1,3.3356946E-2,3.0489498E-1,2.0606256E-1,-6.1458465E-2,6.675797E-2,1.00796394E-1,-3.3358645E-1,-3.8819626E-4,1.9491024E-1,6.818036E-1,3.413833E-1,-3.6301303E-1,1.5279262E-1,-3.4645927E-1,-2.1684137E-1,-1.252802E-1,-3.2584688E-1,1.4022726E-1,-2.5961316E-1,3.132846E-1,-2.2496648E-1,-3.3825022E-1,-2.24894E-1,1.4937756E-2,-2.4103387E-1,7.1166225E-2,-2.8379828E-1,-2.9756862E-1,1.01528116E-1,-1.4399527E-1,-2.934619E-1,1.4179435E-1,-1.5478206E-1,1.12248585E-1,5.3896923E-3,-1.3145405E-2,3.7260845E-2,-2.8004585E-2,-1.899663E-1],"split_indices":[0,2,1,0,2,2,1,1,0,0,2,1,0,1,0,1,1,2,0,1,2,0,0,1,1,2,1,1,0,0,0,2,1,3,2,2,1,1,0,2,0,1,2,1,0,1,0,0,0,0,2,0,0,0,0,0,0,0,0,0,0,0,0,0,0,0,0,0,0,0,0,0,0,0,0,0,0,0,0,0,0,0,0,0,0,0,0,0,0,0,0,0,0,0,0,0,0],"split_type":[0,0,0,0,0,0,0,0,0,0,0,0,0,0,0,0,0,0,0,0,0,0,0,0,0,0,0,0,0,0,0,0,0,0,0,0,0,0,0,0,0,0,0,0,0,0,0,0,0,0,0,0,0,0,0,0,0,0,0,0,0,0,0,0,0,0,0,0,0,0,0,0,0,0,0,0,0,0,0,0,0,0,0,0,0,0,0,0,0,0,0,0,0,0,0,0,0],"sum_hessian":[5.7021945E4,5.5355617E4,1.6663314E3,4.2846332E4,1.2509283E4,1.2946545E3,3.716768E2,6.0239233E3,3.682241E4,3.741345E3,8.767938E3,5.5509564E2,7.395589E2,2.9957462E2,7.2102165E1,3.1092803E3,2.914643E3,1.2784271E4,2.4038137E4,5.9961053E2,3.1417344E3,3.6910913E3,5.076847E3,2.5927048E2,2.958252E2,8.491694E0,2.9108292E2,2.3070479E3,8.0223254E2,2.1230989E3,7.915443E2,3.2333687E3,9.550903E3,2.345554E3,2.1692584E4,9.866641E1,5.0094415E2,1.5503779E3,1.5913564E3,2.2542446E3,1.4368467E3,1.0735502E3,4.003297E3,1.1036035E2,1.4891011E2,2.0235457E2,9.347063E1,3.441827E0,5.0498676E0,2.660551E2,2.502782E1,2.2488435E3,5.8204166E1,6.4733386E2,1.5489865E2,6.134586E2,1.5096401E3,1.7467366E2,6.168706E2,1.718551E3,1.5148175E3,5.2086094E3,4.3422935E3,7.119992E2,1.6335547E3,1.8568814E4,3.1237688E3,7.585199E1,2.2814419E1,2.9133047E2,2.0961366E2,1.2391395E3,3.1123843E2,1.3757892E3,2.1556729E2,1.8901436E3,3.6410114E2,1.3716555E3,6.5191216E1,8.259193E2,2.476308E2,3.6122686E3,3.9102863E2,5.6484524E1,5.3875824E1,2.5993505E1,1.2291661E2,2.9013765E1,1.733408E2,2.0213118E1,7.325751E1,1.7441912E0,1.697636E0,2.3314958E2,3.290553E1,1.8670563E1,6.357258E0],"tree_param":{"num_deleted":"0","num_feature":"4","num_nodes":"97","size_leaf_vector":"1"}},{"base_weights":[-8.064241E-3,1.9608354E-2,-3.1395236E-1,6.8284947E-1,-4.786167E-3,-1.8837385E-1,-7.1235085E-1,3.7275404E-1,9.7762996E-1,2.453949E-2,-2.4071144E-1,6.2982035E-1,-2.1331857E-1,-9.7976226E-1,-2.0594765E-1,7.3500586E-1,-1.787507E0,4.568998E-1,3.309595E-1,-3.8288147E-4,8.509809E-1,1.0499878E0,-3.1133458E-1,-7.617508E-1,8.4184194E-1,-3.7056994E-1,-1.1187015E-1,-4.901178E-1,-9.9495906E-1,-5.4798746E-3,-3.0038518E-1,3.1770813E-1,5.5669792E-2,-1.9649367E0,2.9317752E-1,-8.9845884E-1,5.8729625E-1,2.0231139E-2,-9.741351E-1,1.0848358E0,5.564563E-1,2.4625315E-1,3.2126933E-1,-2.281329E0,-2.5987363E-1,3.7048924E-1,3.2104158E-1,-2.1363777E-1,-9.404564E-1,-1.5545195E-2,-5.379182E-1,1.991185E-1,-7.472621E-1,-5.4807985E-1,-3.0292124E-1,5.557359E-1,-3.5940148E-2,-1.4243115E-1,3.3040464E-1,-4.7324565E-1,-2.084016E0,-8.795653E-1,1.1411949E-1,3.6844265E-1,9.238781E-2,-4.3443297E-3,1.606661E-1,7.208385E-2,-6.0086507E-1,3.2840395E-1,2.7367425E-1,-2.6499218E-1,2.0423554E-1,-1.6987436E-1,-1.0568283E0,-1.0461193E-1,8.725444E-2,-7.5152713E-1,4.057235E-1,-2.3126524E-2,-1.9586852E-1,-3.445991E-1,-1.1472981E-1,3.7952712E-1,-1.366744E-2,-3.4779543E-1,-1.1290233E-1,-1.0172514E-1,1.3439834E-1,-2.882755E-1,-4.0291157E-2,5.76314E-2,-2.5501198E-1,3.5495365E-1,-3.6453884E-2,-5.714294E-2,-3.1643605E-3],"categories":[],"categories_nodes":[],"categories_segments":[],"categories_sizes":[],"default_left":[0,0,0,0,0,0,0,0,0,0,0,0,0,0,0,0,0,0,0,0,0,0,0,0,0,0,0,0,0,0,0,0,0,0,0,0,0,0,0,0,0,0,0,0,0,0,0,0,0,0,0,0,0,0,0,0,0,0,0,0,0,0,0,0,0,0,0,0,0,0,0,0,0,0,0,0,0,0,0,0,0,0,0,0,0,0,0,0,0,0,0,0,0,0,0,0,0],"id":13,"left_children":[1,3,5,7,9,11,13,15,17,19,21,23,25,27,29,31,33,35,-1,37,39,41,43,-1,45,47,49,51,53,55,-1,-1,57,59,-1,61,63,65,67,69,71,-1,-1,73,75,-1,77,79,81,83,85,87,89,91,-1,93,95,-1,-1,-1,-1,-1,-1,-1,-1,-1,-1,-1,-1,-1,-1,-1,-1,-1,-1,-1,-1,-1,-1,-1,-1,-1,-1,-1,-1,-1,-1,-1,-1,-1,-1,-1,-1,-1,-1,-1,-1],"loss_changes":[4.6258154E2,8.108329E2,2.2668698E2,1.6215143E2,3.3443964E2,7.051647E1,1.4688928E2,6.8061163E2,5.905255E1,8.855562E2,4.8747192E2,7.085762E1,5.335608E1,4.7997437E0,6.004422E1,1.637313E2,6.3214417E1,3.2104794E1,0E0,8.378056E2,8.6084045E1,4.5043945E-1,5.131659E2,0E0,1.9384354E1,1.17150406E2,8.354866E1,4.2890544E0,3.9916992E0,5.1794457E0,0E0,0E0,1.3439378E2,2.1631583E2,0E0,4.2920788E1,2.8907104E1,7.3114026E2,1.0814783E3,1.9146729E-1,1.0068199E2,0E0,0E0,2.7241803E2,2.41771E2,0E0,1.2846193E2,6.173771E1,3.244368E1,6.3923187E1,3.7256668E1,1.1078734E0,2.126583E0,5.576117E0,0E0,6.772168E0,1.1250386E0,0E0,0E0,0E0,0E0,0E0,0E0,0E0,0E0,0E0,0E0,0E0,0E0,0E0,0E0,0E0,0E0,0E0,0E0,0E0,0E0,0E0,0E0,0E0,0E0,0E0,0E0,0E0,0E0,0E0,0E0,0E0,0E0,0E0,0E0,0E0,0E0,0E0,0E0,0E0,0E0],"parents":[2147483647,0,0,1,1,2,2,3,3,4,4,5,5,6,6,7,7,8,8,9,9,10,10,11,11,12,12,13,13,14,14,15,15,16,16,17,17,19,19,20,20,21,21,22,22,24,24,25,25,26,26,27,27,28,28,29,29,32,32,33,33,35,35,36,36,37,37,38,38,39,39,40,40,43,43,44,44,46,46,47,47,48,48,49,49,50,50,51,51,52,52,53,53,55,55,56,56],"right_children":[2,4,6,8,10,12,14,16,18,20,22,24,26,28,30,32,34,36,-1,38,40,42,44,-1,46,48,50,52,54,56,-1,-1,58,60,-1,62,64,66,68,70,72,-1,-1,74,76,-1,78,80,82,84,86,88,90,92,-1,94,96,-1,-1,-1,-1,-1,-1,-1,-1,-1,-1,-1,-1,-1,-1,-1,-1,-1,-1,-1,-1,-1,-1,-1,-1,-1,-1,-1,-1,-1,-1,-1,-1,-1,-1,-1,-1,-1,-1,-1,-1],"split_conditions":[4.587126E-1,-1.0480781E0,-1.7291343E0,-1.1840723E0,4.2947408E-2,-1.383562E0,1.9477518E0,-5.8098423E-1,1.4853515E-1,-4.7987353E-2,-1.1401602E0,-1.9488088E0,-6.257967E-1,4.7441992E-1,2.119596E0,4.5404384E-1,-5.5167294E-1,1.4124697E-1,3.309595E-1,-5.9967678E-2,-5.518522E-1,-7.0483726E-1,-4.9684888E-1,-7.617508E-1,-1.4072949E0,4.9695256E-1,-3.4443954E-1,-8.3668303E-1,-1.7031977E0,6.208153E-1,-3.0038518E-1,3.1770813E-1,-1.383562E0,-1.2045115E0,2.9317752E-1,-1.0536358E0,-8.872736E-1,-1.5167221E-1,-1.1987988E-1,-3.3543015E-1,-3.2329166E-1,2.4625315E-1,3.2126933E-1,-5.1315457E-1,1.7692034E-1,3.7048924E-1,4.654638E-1,-1.0328442E0,-1.1183858E0,-1.9440386E0,5.42874E-1,-8.389015E-1,7.077436E-1,-4.9684888E-1,-3.0292124E-1,1.9996514E0,9.597494E-1,-1.4243115E-1,3.3040464E-1,-4.7324565E-1,-2.084016E0,-8.795653E-1,1.1411949E-1,3.6844265E-1,9.238781E-2,-4.3443297E-3,1.606661E-1,7.208385E-2,-6.0086507E-1,3.2840395E-1,2.7367425E-1,-2.6499218E-1,2.0423554E-1,-1.6987436E-1,-1.0568283E0,-1.0461193E-1,8.725444E-2,-7.5152713E-1,4.057235E-1,-2.3126524E-2,-1.9586852E-1,-3.445991E-1,-1.1472981E-1,3.7952712E-1,-1.366744E-2,-3.4779543E-1,-1.1290233E-1,-1.0172514E-1,1.3439834E-1,-2.882755E-1,-4.0291157E-2,5.76314E-2,-2.5501198E-1,3.5495365E-1,-3.6453884E-2,-5.714294E-2,-3.1643605E-3],"split_indices":[0,2,2,1,0,1,1,3,0,0,1,2,3,0,1,0,3,0,0,0,2,3,3,0,1,0,1,1,2,0,0,0,1,1,0,1,1,0,2,3,2,0,0,3,0,0,0,1,1,2,0,1,1,3,0,1,0,0,0,0,0,0,0,0,0,0,0,0,0,0,0,0,0,0,0,0,0,0,0,0,0,0,0,0,0,0,0,0,0,0,0,0,0,0,0,0,0],"split_type":[0,0,0,0,0,0,0,0,0,0,0,0,0,0,0,0,0,0,0,0,0,0,0,0,0,0,0,0,0,0,0,0,0,0,0,0,0,0,0,0,0,0,0,0,0,0,0,0,0,0,0,0,0,0,0,0,0,0,0,0,0,0,0,0,0,0,0,0,0,0,0,0,0,0,0,0,0,0,0,0,0,0,0,0,0,0,0,0,0,0,0,0,0,0,0,0,0],"sum_hessian":[5.4646465E4,5.0113785E4,4.5326777E3,1.7768762E3,4.833691E4,3.447477E3,1.0852006E3,8.670473E2,9.098289E2,4.2993668E4,5.343243E3,1.0127805E2,3.346199E3,7.0957007E2,3.7563052E2,7.430978E2,1.2394949E2,1.7767044E2,7.3215845E2,4.1736062E4,1.2576035E3,2.7647913E2,5.066764E3,5.6627984E0,9.561525E1,1.3111626E3,2.0350365E3,2.2360527E1,6.8720953E2,3.008156E2,7.4814926E1,5.0274557E2,2.4035222E2,1.16746544E2,7.202951E0,1.5076192E1,1.6259425E2,4.08718E4,8.642636E2,6.9950635E2,5.580971E2,2.648586E1,2.4999327E2,1.2788342E2,4.938881E3,5.370509E1,4.1910164E1,1.0291389E3,2.8202368E2,1.6606235E3,3.744129E2,6.136969E0,1.6223558E1,2.3217773E1,6.6399176E2,1.4598613E1,2.8621698E2,1.5982431E2,8.052791E1,1.09543594E2,7.202951E0,5.321789E0,9.754403E0,4.8327095E1,1.1426715E2,3.8293324E4,2.5784749E3,3.967158E2,4.675478E2,6.567067E2,4.279963E1,4.3877567E1,5.1421954E2,5.430932E1,7.3574104E1,4.2531963E3,6.856843E2,1.0823369E1,3.1086794E1,7.859811E2,2.4315788E2,2.0461882E2,7.740486E1,3.708478E1,1.6235388E3,7.59905E1,2.984224E2,1.825913E0,4.311056E0,1.1609286E1,4.614271E0,6.832732E0,1.638504E1,7.190176E0,7.408437E0,3.9474648E1,2.4674234E2],"tree_param":{"num_deleted":"0","num_feature":"4","num_nodes":"97","size_leaf_vector":"1"}},{"base_weights":[-3.943458E-3,2.0769391E-2,-2.4240245E-1,-1.0307474E-2,5.999135E-1,-9.8354095E-1,-9.462966E-2,3.299723E-2,-4.467325E-1,-2.7220516E-2,8.9667314E-1,-1.089706E0,-6.545512E-1,-9.009566E-3,-6.391927E-1,1.2430151E-1,-1.9441606E-2,-3.3162946E-1,-1.1103967E0,3.304543E-1,-3.741042E-1,1.0142757E0,-8.30393E-1,-3.73759E-1,-3.1767696E-1,-1.6983517E-1,-8.702889E-1,-7.34098E-2,6.5192026E-1,-8.230551E-1,-2.853765E-1,1.6565768E-2,5.309523E-1,-4.2283192E-1,3.7762042E-2,-5.110168E-1,2.111593E-1,-1.1580366E0,-6.729252E-1,3.3945996E-2,5.4786605E-1,6.5861183E-1,1.5872638E0,-9.002699E-1,1.2929491E0,-2.3997514E-1,4.495308E-1,-3.147626E-1,-2.0497389E-1,1.332008E-1,-3.4711316E-1,1.2779038E0,4.138425E-1,-5.1512575E-1,-3.0233797E-1,2.6391767E-2,-3.062743E-1,3.340243E-2,-1.18927285E-1,7.498418E-2,3.7100756E-1,-6.4846404E-2,-2.665807E-1,8.564508E-2,8.3578564E-4,-2.0401692E-1,-8.720341E-2,1.61792E-1,-9.219825E-2,-3.2748476E-1,-3.823105E-1,-2.950783E-1,-7.1614206E-2,7.1171105E-2,-4.227273E-1,1.3483864E-1,2.8951728E-1,2.6978102E-1,-1.7367584E-1,3.77175E-1,8.014614E-1,2.5098253E-2,-3.078971E-1,1.0282842E0,-2.062586E-1,1.1691068E-1,-1.2620047E-1,-1.6966179E-1,1.3176987E-1,-1.216872E-2,1.6609043E-1,-1.749557E-1,7.519365E-3,2.0663056E-1,8.2173467E-1,1.2687076E-3,2.0564231E-1,1.1692966E-1,-1.8622258E-1,1.1121888E-1,-3.6036566E-2],"categories":[],"categories_nodes":[],"categories_segments":[],"categories_sizes":[],"default_left":[0,0,0,0,0,0,0,0,0,0,0,0,0,0,0,0,0,0,0,0,0,0,0,0,0,0,0,0,0,0,0,0,0,0,0,0,0,0,0,0,0,0,0,0,0,0,0,0,0,0,0,0,0,0,0,0,0,0,0,0,0,0,0,0,0,0,0,0,0,0,0,0,0,0,0,0,0,0,0,0,0,0,0,0,0,0,0,0,0,0,0,0,0,0,0,0,0,0,0,0,0],"id":14,"left_children":[1,3,5,7,9,11,13,15,17,19,21,23,25,27,29,31,33,35,37,39,-1,41,43,-1,-1,45,47,49,51,53,55,57,59,61,63,65,67,69,71,73,75,77,79,81,83,85,-1,-1,87,89,91,93,95,97,-1,99,-1,-1,-1,-1,-1,-1,-1,-1,-1,-1,-1,-1,-1,-1,-1,-1,-1,-1,-1,-1,-1,-1,-1,-1,-1,-1,-1,-1,-1,-1,-1,-1,-1,-1,-1,-1,-1,-1,-1,-1,-1,-1,-1,-1,-1],"loss_changes":[3.144942E2,8.7031934E2,5.487565E2,8.673863E2,4.5834564E2,2.8380737E1,1.9486163E2,1.9990913E2,3.1610828E2,3.459493E2,3.4037097E2,1.7006836E0,2.1365631E1,1.5381427E2,3.670404E1,6.6731165E2,6.120149E2,3.4401797E2,1.1973511E1,3.9511322E1,0E0,3.179994E2,1.7058167E1,0E0,0E0,7.919357E0,1.6702965E1,1.862505E2,4.7288895E1,2.0706375E1,4.4904667E1,4.7141058E2,6.323611E2,3.1689777E2,2.012608E2,9.868884E1,1.4955786E2,2.8619385E0,8.193314E0,7.674782E1,1.408783E1,2.8871368E2,2.109353E2,1.3021973E1,1.8520922E1,7.316245E0,0E0,0E0,7.5333767E0,1.3715317E2,1.2448471E2,7.380551E1,2.6024769E1,1.3808941E1,0E0,7.0277796E0,0E0,0E0,0E0,0E0,0E0,0E0,0E0,0E0,0E0,0E0,0E0,0E0,0E0,0E0,0E0,0E0,0E0,0E0,0E0,0E0,0E0,0E0,0E0,0E0,0E0,0E0,0E0,0E0,0E0,0E0,0E0,0E0,0E0,0E0,0E0,0E0,0E0,0E0,0E0,0E0,0E0,0E0,0E0,0E0,0E0],"parents":[2147483647,0,0,1,1,2,2,3,3,4,4,5,5,6,6,7,7,8,8,9,9,10,10,11,11,12,12,13,13,14,14,15,15,16,16,17,17,18,18,19,19,21,21,22,22,25,25,26,26,27,27,28,28,29,29,30,30,31,31,32,32,33,33,34,34,35,35,36,36,37,37,38,38,39,39,40,40,41,41,42,42,43,43,44,44,45,45,48,48,49,49,50,50,51,51,52,52,53,53,55,55],"right_children":[2,4,6,8,10,12,14,16,18,20,22,24,26,28,30,32,34,36,38,40,-1,42,44,-1,-1,46,48,50,52,54,56,58,60,62,64,66,68,70,72,74,76,78,80,82,84,86,-1,-1,88,90,92,94,96,98,-1,100,-1,-1,-1,-1,-1,-1,-1,-1,-1,-1,-1,-1,-1,-1,-1,-1,-1,-1,-1,-1,-1,-1,-1,-1,-1,-1,-1,-1,-1,-1,-1,-1,-1,-1,-1,-1,-1,-1,-1,-1,-1,-1,-1,-1,-1],"split_conditions":[5.0594556E-1,4.1346768E-1,-2.3880643E-1,2.6265445E-1,-3.230678E-1,1.2933396E0,1.502069E0,-5.925993E-1,-7.067578E-1,-3.8188225E-1,4.6315187E-1,5.20655E-1,1.6726065E0,1.4655974E0,1.9477518E0,-8.32031E-1,-5.785699E-1,-8.563896E-1,-6.112489E-1,-8.3725184E-1,-3.741042E-1,9.9771196E-1,3.155594E0,-3.73759E-1,-3.1767696E-1,-2.6407593E-1,7.6346684E-1,4.4238858E-2,-2.3558733E-1,4.7441992E-1,2.119596E0,-5.1315457E-1,-5.7009544E-2,-4.3327472E-1,-3.4443954E-1,-1.0249317E0,4.595783E-1,-6.338549E-1,7.077436E-1,-5.1315457E-1,-3.2660913E-1,-1.4118408E-1,2.7210565E-2,7.175824E-1,8.9453995E-1,-5.516455E-1,4.495308E-1,-3.147626E-1,1.9477518E0,-5.9967678E-2,6.421427E-1,-5.810151E-1,6.019581E-1,-8.3853203E-1,-3.0233797E-1,1.996344E0,-3.062743E-1,3.340243E-2,-1.18927285E-1,7.498418E-2,3.7100756E-1,-6.4846404E-2,-2.665807E-1,8.564508E-2,8.3578564E-4,-2.0401692E-1,-8.720341E-2,1.61792E-1,-9.219825E-2,-3.2748476E-1,-3.823105E-1,-2.950783E-1,-7.1614206E-2,7.1171105E-2,-4.227273E-1,1.3483864E-1,2.8951728E-1,2.6978102E-1,-1.7367584E-1,3.77175E-1,8.014614E-1,2.5098253E-2,-3.078971E-1,1.0282842E0,-2.062586E-1,1.1691068E-1,-1.2620047E-1,-1.6966179E-1,1.3176987E-1,-1.216872E-2,1.6609043E-1,