{"learner":{"attributes":{"scikit_learn":"{\"_estimator_type\": \"classifier\"}"},"feature_names":[],"feature_types":[],"gradient_booster":{"model":{"gbtree_model_param":{"num_parallel_tree":"1","num_trees":"100"},"iteration_indptr":[0,1,2,3,4,5,6,7,8,9,10,11,12,13,14,15,16,17,18,19,20,21,22,23,24,25,26,27,28,29,30,31,32,33,34,35,36,37,38,39,40,41,42,43,44,45,46,47,48,49,50,51,52,53,54,55,56,57,58,59,60,61,62,63,64,65,66,67,68,69,70,71,72,73,74,75,76,77,78,79,80,81,82,83,84,85,86,87,88,89,90,91,92,93,94,95,96,97,98,99,100],"tree_info":[0,0,0,0,0,0,0,0,0,0,0,0,0,0,0,0,0,0,0,0,0,0,0,0,0,0,0,0,0,0,0,0,0,0,0,0,0,0,0,0,0,0,0,0,0,0,0,0,0,0,0,0,0,0,0,0,0,0,0,0,0,0,0,0,0,0,0,0,0,0,0,0,0,0,0,0,0,0,0,0,0,0,0,0,0,0,0,0,0,0,0,0,0,0,0,0,0,0,0,0],"trees":[{"base_weights":[-2.1663512E-1,-1.2633157E0,1.6338656E0,-1.2699136E0,-6.6873187E-1,2.5369601E0,1.4003209E0,-1.2505177E0,-3.8395673E-1,-5.4820395E-1,-3.7813416E-1,1.8750492E0,3.7052588E0,1.2935456E0,2.1928222E0,-1.2625751E0,-7.0199037E-1,-8.168752E-1,4.725707E-1,3.3844426E0,6.7926335E-1,3.8704302E0,3.3084748E0,1.4560401E0,-2.9777008E-1,2.8482082E0,1.3048549E0,-3.8389018E-1,-1.2220181E0,-6.155545E-1,-3.7294963E-1,-6.2158614E-1,-3.7312526E-1,7.130972E-1,3.8470647E0,4.4303668E-1,1.3653414E0,3.913401E0,2.8875744E0,2.946559E0,3.5434985E0,1.0338848E0,1.818059E0,-6.78644E-1,4.6602592E-1,2.922928E0,-4.2441264E-2,6.265184E-1,1.5523083E0,-3.8177857E-1,-3.4381083E-1,-2.5413054E-1,1.2937791E-3,-2.4017172E-1,3.3604315E-1,1.4336841E-1,8.328104E-1,1.1903553E0,9.0246296E-1,-9.79857E-3,2.6407355E-1,5.4256934E-1,1.11206226E-1,1.1603808E0,1.3509092E0,9.522155E-1,-2.8976104E-1,9.99739E-1,-9.34997E-3,1.1417985E0,9.946165E-1,3.9892063E-1,8.04766E-2,5.532185E-1,2.3679474E-1,8.24693E-2,-2.987538E-1,3.8615468E-1,1.0623357E-1,6.443835E-1,9.3562615E-1,-2.2080116E-1,2.73472E-1,1.1558876E0,1.2439337E-1,2.6262063E-1,6.5042794E-1],"categories":[],"categories_nodes":[],"categories_segments":[],"categories_sizes":[],"default_left":[0,0,0,0,0,0,0,0,0,0,0,0,0,0,0,0,0,0,0,0,0,0,0,0,0,0,0,0,0,0,0,0,0,0,0,0,0,0,0,0,0,0,0,0,0,0,0,0,0,0,0,0,0,0,0,0,0,0,0,0,0,0,0,0,0,0,0,0,0,0,0,0,0,0,0,0,0,0,0,0,0,0,0,0,0,0,0],"id":0,"left_children":[1,3,5,7,9,11,13,15,-1,17,-1,19,21,23,25,27,29,31,-1,33,35,37,39,41,43,45,47,-1,49,51,-1,53,-1,55,57,59,61,63,65,67,69,71,73,75,77,79,81,83,85,-1,-1,-1,-1,-1,-1,-1,-1,-1,-1,-1,-1,-1,-1,-1,-1,-1,-1,-1,-1,-1,-1,-1,-1,-1,-1,-1,-1,-1,-1,-1,-1,-1,-1,-1,-1,-1,-1],"loss_changes":[1.0804461E5,1.3892188E2,4.2469688E3,5.1953125E0,2.7347168E1,3.1942383E3,1.3522949E3,7.838281E1,0E0,1.886315E2,0E0,4.7707812E3,8.524414E1,3.6503887E3,1.1020234E3,6.548828E0,1.13984375E1,2.3582458E1,0E0,1.4415762E3,2.3873761E2,3.3066406E1,2.754834E1,1.9555E3,3.8101605E2,2.3605762E2,1.3477185E2,0E0,1.1969238E1,3.2470352E1,0E0,6.401063E1,0E0,8.297698E1,8.897754E1,2.2881064E2,1.6586798E2,9.487305E0,5.5852905E1,2.0898804E2,3.2995605E0,1.3394795E3,1.8294727E2,2.645141E2,3.9614853E1,1.5489941E2,1.9534912E1,1.473115E2,2.4480652E2,0E0,0E0,0E0,0E0,0E0,0E0,0E0,0E0,0E0,0E0,0E0,0E0,0E0,0E0,0E0,0E0,0E0,0E0,0E0,0E0,0E0,0E0,0E0,0E0,0E0,0E0,0E0,0E0,0E0,0E0,0E0,0E0,0E0,0E0,0E0,0E0,0E0,0E0],"parents":[2147483647,0,0,1,1,2,2,3,3,4,4,5,5,6,6,7,7,9,9,11,11,12,12,13,13,14,14,15,15,16,16,17,17,19,19,20,20,21,21,22,22,23,23,24,24,25,25,26,26,28,28,29,29,31,31,33,33,34,34,35,35,36,36,37,37,38,38,39,39,40,40,41,41,42,42,43,43,44,44,45,45,46,46,47,47,48,48],"right_children":[2,4,6,8,10,12,14,16,-1,18,-1,20,22,24,26,28,30,32,-1,34,36,38,40,42,44,46,48,-1,50,52,-1,54,-1,56,58,60,62,64,66,68,70,72,74,76,78,80,82,84,86,-1,-1,-1,-1,-1,-1,-1,-1,-1,-1,-1,-1,-1,-1,-1,-1,-1,-1,-1,-1,-1,-1,-1,-1,-1,-1,-1,-1,-1,-1,-1,-1,-1,-1,-1,-1,-1,-1],"split_conditions":[3.3238077E-1,2.72922E-1,-1.2280241E-1,8.623046E-2,-2.950047E-1,8.275811E-1,4.4095555E-1,4.6546556E-2,-3.8395673E-1,-4.6925524E-1,-3.7813416E-1,-1.0449861E0,1.0219098E0,4.391445E-1,4.456059E-1,-4.1135047E-2,-4.1135047E-2,-8.5167736E-1,4.725707E-1,4.0219787E-1,-4.6925524E-1,-1.4140803E-1,1.0507444E0,4.3029514E-1,4.4031954E-1,1.1160382E0,4.5267624E-1,-3.8389018E-1,-6.7395324E-1,-9.294504E-2,-3.7294963E-1,-8.9933693E-1,-3.7312526E-1,-1.1881429E0,-1.1881429E0,5.698924E-1,7.008634E-1,-1.6731282E-1,1.0100349E0,-1.6731282E-1,1.0738826E0,4.210029E-1,1.1155785E0,4.3932772E-1,1.1145993E0,4.4120964E-1,1.1169373E0,1.1160382E0,1.1145036E0,-3.8177857E-1,-3.4381083E-1,-2.5413054E-1,1.2937791E-3,-2.4017172E-1,3.3604315E-1,1.4336841E-1,8.328104E-1,1.1903553E0,9.0246296E-1,-9.79857E-3,2.6407355E-1,5.4256934E-1,1.11206226E-1,1.1603808E0,1.3509092E0,9.522155E-1,-2.8976104E-1,9.99739E-1,-9.34997E-3,1.1417985E0,9.946165E-1,3.9892063E-1,8.04766E-2,5.532185E-1,2.3679474E-1,8.24693E-2,-2.987538E-1,3.8615468E-1,1.0623357E-1,6.443835E-1,9.3562615E-1,-2.2080116E-1,2.73472E-1,1.1558876E0,1.2439337E-1,2.6262063E-1,6.5042794E-1],"split_indices":[0,0,1,1,1,0,1,1,0,1,0,1,0,1,1,0,0,1,0,0,1,1,0,1,1,0,1,0,1,0,0,1,0,1,1,0,0,1,0,1,0,1,0,1,0,1,0,0,0,0,0,0,0,0,0,0,0,0,0,0,0,0,0,0,0,0,0,0,0,0,0,0,0,0,0,0,0,0,0,0,0,0,0,0,0,0,0],"split_type":[0,0,0,0,0,0,0,0,0,0,0,0,0,0,0,0,0,0,0,0,0,0,0,0,0,0,0,0,0,0,0,0,0,0,0,0,0,0,0,0,0,0,0,0,0,0,0,0,0,0,0,0,0,0,0,0,0,0,0,0,0,0,0,0,0,0,0,0,0,0,0,0,0,0,0,0,0,0,0,0,0,0,0,0,0,0,0],"sum_hessian":[5.5780656E4,3.5628676E4,2.015198E4,3.5236535E4,3.9214166E2,4.13859E3,1.6013392E4,1.1984157E4,2.3252377E4,3.2738275E2,6.475891E1,2.643496E3,1.4950935E3,1.4114366E4,1.899025E3,1.1725121E4,2.5903564E2,2.9115878E2,3.622398E1,1.1677107E3,1.4757854E3,1.0494702E3,4.456233E2,1.2806715E4,1.3076515E3,1.0913329E3,8.0769226E2,8.23207E3,3.493051E3,2.252038E2,3.383183E1,2.0145317E2,8.970561E1,1.7274738E2,9.949634E2,1.0990219E3,3.7676358E2,1.0026524E3,4.6817787E1,1.8077817E2,2.6484512E2,5.914077E3,6.892637E3,8.72622E2,4.350295E2,1.0638231E3,2.750972E1,2.1683128E2,5.9086096E2,2.087663E3,1.405388E3,1.6369138E2,6.151242E1,1.8317032E2,1.8282858E1,1.561732E2,1.6574179E1,8.6647076E2,1.2849261E2,5.267855E2,5.722364E2,2.6006085E2,1.1670273E2,9.378935E2,6.475891E1,4.3742165E1,3.075621E0,1.599323E2,2.0845875E1,1.1584839E2,1.4899675E2,4.2652026E3,1.6488745E3,6.7219404E3,1.7069696E2,2.1785649E2,6.547655E2,5.0918613E1,3.8411087E2,2.1700215E2,8.46821E2,1.6061577E1,1.1448145E1,1.2302484E1,2.045288E2,2.826154E2,3.0824557E2],"tree_param":{"num_deleted":"0","num_feature":"2","num_nodes":"87","size_leaf_vector":"1"}},{"base_weights":[-2.2083636E-1,-1.1710732E0,8.5165864E-1,-1.1786736E0,-5.620789E-1,1.1865718E0,7.2923857E-1,-1.1555533E0,-3.5717976E-1,-4.5380813E-1,-3.5068056E-1,8.27796E-1,1.6049255E0,4.576193E-1,8.5466367E-1,-1.1697695E0,-5.7745516E-1,-6.9116026E-1,2.5448766E-1,1.4946712E0,2.679766E-1,1.3583145E0,1.7633561E0,9.4027394E-1,3.6305273E-1,9.600406E-1,6.1918753E-1,-3.571017E-1,-1.1214519E0,-4.9611712E-1,-3.4497398E-1,-5.0526667E-1,-3.4454277E-1,4.3484145E-1,1.634725E0,4.0943235E-1,-4.6224406E-1,1.6617721E0,6.437957E-1,1.5562499E0,2.2309656E0,1.403477E0,7.797308E-1,-4.966636E-2,4.7802097E-1,9.412877E-1,1.2853758E0,-1.17344774E-1,1.0914227E0,-3.5455638E-1,-3.0990914E-1,-2.2030751E-1,-6.4481352E-3,-2.0013396E-1,1.9722943E-1,9.162254E-2,3.983123E-1,5.440887E-1,4.6011695E-1,-2.9312747E-2,1.6910027E-1,-4.0200427E-1,9.054375E-2,5.098121E-1,4.5225722E-1,-1.2513979E-1,3.037371E-1,4.933436E-1,4.295691E-1,7.803492E-1,6.3885474E-1,2.1998139E-1,5.5698E-1,-5.6651298E-2,2.553593E-1,1.6900586E-1,-1.470079E-1,2.2532354E-1,5.0106335E-2,2.8970855E-1,9.0096835E-3,5.6914E-1,1.6678464E-1,9.489838E-2,-9.8827936E-2,3.883941E-1,2.1620117E-1],"categories":[],"categories_nodes":[],"categories_segments":[],"categories_sizes":[],"default_left":[0,0,0,0,0,0,0,0,0,0,0,0,0,0,0,0,0,0,0,0,0,0,0,0,0,0,0,0,0,0,0,0,0,0,0,0,0,0,0,0,0,0,0,0,0,0,0,0,0,0,0,0,0,0,0,0,0,0,0,0,0,0,0,0,0,0,0,0,0,0,0,0,0,0,0,0,0,0,0,0,0,0,0,0,0,0,0],"id":1,"left_children":[1,3,5,7,9,11,13,15,-1,17,-1,19,21,23,25,27,29,31,-1,33,35,37,39,41,43,45,47,-1,49,51,-1,53,-1,55,57,59,61,63,65,67,69,71,73,75,77,79,81,83,85,-1,-1,-1,-1,-1,-1,-1,-1,-1,-1,-1,-1,-1,-1,-1,-1,-1,-1,-1,-1,-1,-1,-1,-1,-1,-1,-1,-1,-1,-1,-1,-1,-1,-1,-1,-1,-1,-1],"loss_changes":[5.4090223E4,1.2958984E2,1.0214199E3,6.2890625E0,2.238723E1,1.0002158E3,6.2175684E2,7.7331055E1,0E0,9.256897E1,0E0,1.3414233E3,1.1792432E2,2.6306726E2,3.0937695E2,7.870117E0,1.0128952E1,2.0867188E1,0E0,2.4272705E2,2.0214525E2,2.6105054E2,1.7778516E2,6.916852E1,2.2907306E2,5.1430664E1,1.3443624E3,0E0,1.3643799E1,2.2933609E1,0E0,3.452896E1,0E0,2.187495E1,2.338794E1,1.282096E2,2.1351059E2,2.355957E0,1.420102E2,1.1912842E1,1.5950684E1,7.2112335E1,4.888556E1,2.8442993E2,3.2050122E2,1.8149805E2,2.0755963E2,1.3905638E2,1.7650708E2,0E0,0E0,0E0,0E0,0E0,0E0,0E0,0E0,0E0,0E0,0E0,0E0,0E0,0E0,0E0,0E0,0E0,0E0,0E0,0E0,0E0,0E0,0E0,0E0,0E0,0E0,0E0,0E0,0E0,0E0,0E0,0E0,0E0,0E0,0E0,0E0,0E0,0E0],"parents":[2147483647,0,0,1,1,2,2,3,3,4,4,5,5,6,6,7,7,9,9,11,11,12,12,13,13,14,14,15,15,16,16,17,17,19,19,20,20,21,21,22,22,23,23,24,24,25,25,26,26,28,28,29,29,31,31,33,33,34,34,35,35,36,36,37,37,38,38,39,39,40,40,41,41,42,42,43,43,44,44,45,45,46,46,47,47,48,48],"right_children":[2,4,6,8,10,12,14,16,-1,18,-1,20,22,24,26,28,30,32,-1,34,36,38,40,42,44,46,48,-1,50,52,-1,54,-1,56,58,60,62,64,66,68,70,72,74,76,78,80,82,84,86,-1,-1,-1,-1,-1,-1,-1,-1,-1,-1,-1,-1,-1,-1,-1,-1,-1,-1,-1,-1,-1,-1,-1,-1,-1,-1,-1,-1,-1,-1,-1,-1,-1,-1,-1,-1,-1,-1],"split_conditions":[3.3238077E-1,2.72922E-1,-1.396225E-2,8.623046E-2,-2.950047E-1,8.275811E-1,1.1113592E0,4.6546556E-2,-3.5717976E-1,-4.6925524E-1,-3.5068056E-1,-1.0449861E0,9.385014E-1,8.657301E-1,4.3881363E-1,-4.1135047E-2,-4.1135047E-2,-8.5167736E-1,2.5448766E-1,4.0219787E-1,-1.2280241E-1,-1.4140803E-1,-1.2280241E-1,1.1413969E-1,9.243848E-2,1.11498E0,4.4095555E-1,-3.571017E-1,-6.7395324E-1,-9.926387E-2,-3.4497398E-1,-8.9933693E-1,-3.4454277E-1,-1.1881429E0,-1.1976534E0,-8.5167736E-1,5.698924E-1,-1.7406982E-1,-1.1476875E-1,1.0336834E0,-1.074262E-1,7.0589244E-2,1.4926632E-1,2.4213327E-2,4.210029E-1,4.3842065E-1,1.1155785E0,4.3932772E-1,4.456059E-1,-3.5455638E-1,-3.0990914E-1,-2.2030751E-1,-6.4481352E-3,-2.0013396E-1,1.9722943E-1,9.162254E-2,3.983123E-1,5.440887E-1,4.6011695E-1,-2.9312747E-2,1.6910027E-1,-4.0200427E-1,9.054375E-2,5.098121E-1,4.5225722E-1,-1.2513979E-1,3.037371E-1,4.933436E-1,4.295691E-1,7.803492E-1,6.3885474E-1,2.1998139E-1,5.5698E-1,-5.6651298E-2,2.553593E-1,1.6900586E-1,-1.470079E-1,2.2532354E-1,5.0106335E-2,2.8970855E-1,9.0096835E-3,5.6914E-1,1.6678464E-1,9.489838E-2,-9.8827936E-2,3.883941E-1,2.1620117E-1],"split_indices":[0,0,1,1,1,0,0,1,0,1,0,1,0,0,1,0,0,1,0,0,1,1,1,1,1,0,1,0,1,0,0,1,0,1,1,1,0,1,1,0,1,1,1,1,1,1,0,1,1,0,0,0,0,0,0,0,0,0,0,0,0,0,0,0,0,0,0,0,0,0,0,0,0,0,0,0,0,0,0,0,0,0,0,0,0,0,0],"split_type":[0,0,0,0,0,0,0,0,0,0,0,0,0,0,0,0,0,0,0,0,0,0,0,0,0,0,0,0,0,0,0,0,0,0,0,0,0,0,0,0,0,0,0,0,0,0,0,0,0,0,0,0,0,0,0,0,0,0,0,0,0,0,0,0,0,0,0,0,0,0,0,0,0,0,0,0,0,0,0,0,0,0,0,0,0,0,0],"sum_hessian":[5.307322E4,2.8140488E4,2.493273E4,2.7792691E4,3.47798E2,6.671726E3,1.8261004E4,9.490721E3,1.8301969E4,2.966243E2,5.1173706E1,3.5932073E3,3.0785188E3,5.7700635E3,1.249094E4,9.261935E3,2.2878609E2,2.5128773E2,4.533656E1,1.6390488E3,1.9541586E3,1.2078969E3,1.870622E3,9.4384845E2,4.826215E3,8.627159E3,3.8637812E3,6.479764E3,2.7821707E3,2.0195747E2,2.6828613E1,1.8015973E2,7.112802E1,1.9179353E2,1.4472552E3,1.6374055E3,3.1675305E2,8.468936E2,3.610032E2,1.299428E3,5.7119403E2,2.4094003E2,7.029084E2,1.0516201E3,3.7745947E3,8.160657E3,4.665017E2,1.5097761E3,2.3540051E3,1.6456354E3,1.1365354E3,1.3409839E2,6.7859085E1,1.5852011E2,2.1639614E1,1.6868275E2,2.3110786E1,5.161121E2,9.311431E2,3.8193365E2,1.2554718E3,1.470565E2,1.6969656E2,6.7285345E2,1.7404015E2,9.306128E1,2.6794193E2,7.529701E2,5.464579E2,1.1756212E2,4.5363193E2,9.824538E1,1.4269466E2,4.8188007E1,6.547204E2,4.3950787E2,6.121123E2,2.0091492E3,1.7654456E3,7.947722E3,2.1293518E2,2.528446E2,2.1365712E2,4.9568628E2,1.0140898E3,1.5189276E3,8.350774E2],"tree_param":{"num_deleted":"0","num_feature":"2","num_nodes":"87","size_leaf_vector":"1"}},{"base_weights":[-1.9972457E-1,-1.1156645E0,5.541201E-1,-1.1182576E0,-7.442811E-1,7.8526175E-1,4.7120917E-1,-1.0893238E0,-3.399953E-1,-9.060714E-1,-4.2409304E-1,5.39992E-1,1.0776936E0,2.4734026E-1,5.475943E-1,-1.1068206E0,-4.7069898E-1,-8.2610416E-1,-3.283443E-1,4.4567835E-1,-3.2929632E-1,1.0215812E0,1.5843019E-1,1.0539724E0,1.7507582E0,6.167336E-1,1.6296084E-1,9.6930414E-1,5.2943623E-1,-3.398972E-1,-1.0464249E0,-3.950506E-1,-3.254103E-1,-9.3816733E-1,-6.994222E-2,1.00349516E-1,1.6993761E-1,1.6951554E-1,1.1843809E0,-1.1721185E-1,3.8829806E-1,1.1151344E0,4.7739825E-1,2.3090255E0,1.5318011E0,1.1172075E0,5.211755E-1,2.2954407E-1,-1.21742666E-1,1.2176714E0,6.7111003E-1,-1.1807424E-1,5.658682E-1,-3.366494E-1,-2.818814E-1,-2.0064601E-1,-2.2225352E-2,-3.0398303E-1,-1.8728629E-1,1.6238832E-1,-2.0559903E-2,3.7036127E-1,2.5641817E-1,3.5922462E-1,-1.6602506E-1,-2.6511306E-1,2.0199265E-1,3.2533908E-1,4.423429E-1,-8.3642654E-2,3.14564E-1,1.4845604E-1,7.937059E-1,1.02167346E-1,4.895257E-1,1.4500317E-1,5.484625E-1,-4.9055927E-3,1.6443431E-1,2.9697271E-2,1.937965E-1,-2.0711912E-1,4.836847E-2,4.5594636E-1,2.51143E-1,4.0769306E-1,1.428715E-1,-1.5620266E-2,-1.8349734E-1,3.2675374E-1,1.6414246E-1],"categories":[],"categories_nodes":[],"categories_segments":[],"categories_sizes":[],"default_left":[0,0,0,0,0,0,0,0,0,0,0,0,0,0,0,0,0,0,0,0,0,0,0,0,0,0,0,0,0,0,0,0,0,0,0,0,0,0,0,0,0,0,0,0,0,0,0,0,0,0,0,0,0,0,0,0,0,0,0,0,0,0,0,0,0,0,0,0,0,0,0,0,0,0,0,0,0,0,0,0,0,0,0,0,0,0,0,0,0,0,0],"id":2,"left_children":[1,3,5,7,9,11,13,15,-1,17,19,21,23,25,27,29,31,33,-1,35,-1,37,39,41,43,45,47,49,51,-1,53,55,-1,57,-1,-1,-1,59,61,63,65,67,69,71,73,75,77,79,81,83,85,87,89,-1,-1,-1,-1,-1,-1,-1,-1,-1,-1,-1,-1,-1,-1,-1,-1,-1,-1,-1,-1,-1,-1,-1,-1,-1,-1,-1,-1,-1,-1,-1,-1,-1,-1,-1,-1,-1,-1],"loss_changes":[3.315562E4,2.0042969E1,5.04417E2,8.146484E0,7.557747E0,4.980752E2,3.31417E2,7.95166E1,0E0,6.1707306E-1,3.174001E1,6.950044E2,4.8771484E1,1.5369931E2,1.1017822E2,1.01796875E1,9.099487E0,4.762371E0,0E0,1.3269281E-1,0E0,2.3175464E2,1.3386035E2,1.0754883E2,9.470947E0,4.3281677E1,7.619821E1,4.328839E1,3.270459E2,0E0,1.6638428E1,1.6136513E1,0E0,8.459549E-1,0E0,0E0,0E0,2.3879957E1,2.2154785E1,5.518123E2,4.1817032E2,2.893164E1,1.2800041E2,1.5797134E1,8.899094E0,6.499306E1,1.1188034E1,1.7700781E2,1.2276864E2,3.5943237E1,3.5926575E1,2.4049911E1,1.2800488E2,0E0,0E0,0E0,0E0,0E0,0E0,0E0,0E0,0E0,0E0,0E0,0E0,0E0,0E0,0E0,0E0,0E0,0E0,0E0,0E0,0E0,0E0,0E0,0E0,0E0,0E0,0E0,0E0,0E0,0E0,0E0,0E0,0E0,0E0,0E0,0E0,0E0,0E0],"parents":[2147483647,0,0,1,1,2,2,3,3,4,4,5,5,6,6,7,7,9,9,10,10,11,11,12,12,13,13,14,14,15,15,16,16,17,17,19,19,21,21,22,22,23,23,24,24,25,25,26,26,27,27,28,28,30,30,31,31,33,33,37,37,38,38,39,39,40,40,41,41,42,42,43,43,44,44,45,45,46,46,47,47,48,48,49,49,50,50,51,51,52,52],"right_children":[2,4,6,8,10,12,14,16,-1,18,20,22,24,26,28,30,32,34,-1,36,-1,38,40,42,44,46,48,50,52,-1,54,56,-1,58,-1,-1,-1,60,62,64,66,68,70,72,74,76,78,80,82,84,86,88,90,-1,-1,-1,-1,-1,-1,-1,-1,-1,-1,-1,-1,-1,-1,-1,-1,-1,-1,-1,-1,-1,-1,-1,-1,-1,-1,-1,-1,-1,-1,-1,-1,-1,-1,-1,-1,-1,-1],"split_conditions":[2.9981306E-1,2.72922E-1,-1.396225E-2,8.623046E-2,-4.6925524E-1,8.275811E-1,1.1099439E0,4.6546556E-2,-3.399953E-1,-8.5167736E-1,-2.950047E-1,-1.0449861E0,-2.442664E-2,8.535731E-1,4.210029E-1,-4.1135047E-2,-4.1135047E-2,-9.1385305E-1,-3.283443E-1,-3.0231595E-1,-3.2929632E-1,4.0219787E-1,5.698924E-1,-5.05197E-2,1.0336834E0,8.623046E-2,4.2319816E-1,1.1122005E0,4.2771825E-1,-3.398972E-1,-6.7395324E-1,-1.1861225E-1,-3.254103E-1,-1.1881429E0,-6.994222E-2,1.00349516E-1,1.6993761E-1,-1.1988739E0,-1.1881429E0,-7.3087686E-1,-8.5167736E-1,-7.594394E-2,9.5080596E-1,8.408918E-1,1.0507444E0,7.0589244E-2,9.243848E-2,2.2947894E-1,4.2604026E-1,4.1951934E-1,2.4106734E-1,4.271084E-1,4.3655986E-1,-3.366494E-1,-2.818814E-1,-2.0064601E-1,-2.2225352E-2,-3.0398303E-1,-1.8728629E-1,1.6238832E-1,-2.0559903E-2,3.7036127E-1,2.5641817E-1,3.5922462E-1,-1.6602506E-1,-2.6511306E-1,2.0199265E-1,3.2533908E-1,4.423429E-1,-8.3642654E-2,3.14564E-1,1.4845604E-1,7.937059E-1,1.02167346E-1,4.895257E-1,1.4500317E-1,5.484625E-1,-4.9055927E-3,1.6443431E-1,2.9697271E-2,1.937965E-1,-2.0711912E-1,4.836847E-2,4.5594636E-1,2.51143E-1,4.0769306E-1,1.428715E-1,-1.5620266E-2,-1.8349734E-1,3.2675374E-1,1.6414246E-1],"split_indices":[0,0,1,1,1,0,0,1,0,1,1,1,1,0,1,0,0,1,0,1,0,0,0,1,0,1,1,0,1,0,1,0,0,1,0,0,0,1,1,1,1,1,0,0,0,1,1,1,1,1,1,1,1,0,0,0,0,0,0,0,0,0,0,0,0,0,0,0,0,0,0,0,0,0,0,0,0,0,0,0,0,0,0,0,0,0,0,0,0,0,0],"split_type":[0,0,0,0,0,0,0,0,0,0,0,0,0,0,0,0,0,0,0,0,0,0,0,0,0,0,0,0,0,0,0,0,0,0,0,0,0,0,0,0,0,0,0,0,0,0,0,0,0,0,0,0,0,0,0,0,0,0,0,0,0,0,0,0,0,0,0,0,0,0,0,0,0,0,0,0,0,0,0,0,0,0,0,0,0,0,0,0,0,0,0],"sum_hessian":[4.8016574E4,2.1677453E4,2.633912E4,2.1525143E4,1.523107E2,6.951381E3,1.9387738E4,7.3935635E3,1.4131579E4,9.996752E1,5.2343185E1,3.7820935E3,3.1692876E3,4.933353E3,1.4454386E4,7.189432E3,2.041314E2,7.396073E1,2.6006792E1,2.299195E1,2.9351234E1,1.6711588E3,2.1109348E3,3.0638716E3,1.0541606E2,9.1618787E2,4.017165E3,5.9452545E2,1.385986E4,5.003575E3,2.1858567E3,1.8320316E2,2.0928232E1,6.1715122E1,1.2245608E1,1.3934515E1,9.057435E0,2.684066E2,1.4027522E3,9.601172E2,1.1508175E3,2.7691868E3,2.9468457E2,2.7008307E1,7.840775E1,1.4517265E2,7.710152E2,3.2559048E3,7.6126044E2,3.226802E2,2.7184528E2,7.381619E2,1.3121698E4,1.2734362E3,9.1242053E2,9.828595E1,8.491721E1,4.800065E1,1.3714472E1,1.0427631E2,1.6413026E2,1.2151265E3,1.8762573E2,2.3877028E2,7.2134686E2,2.1027148E2,9.405461E2,2.5551191E3,2.1406773E2,1.270202E2,1.6766438E2,4.6140933E0,2.2394213E1,6.410697E0,7.1997055E1,7.763771E1,6.753494E1,3.6815075E1,7.3420013E2,2.4797524E3,7.761522E2,2.5246683E2,5.087936E2,1.7819472E2,1.4448549E2,5.869331E1,2.1315196E2,6.520669E2,8.6095085E1,4.513637E2,1.2670335E4],"tree_param":{"num_deleted":"0","num_feature":"2","num_nodes":"91","size_leaf_vector":"1"}},{"base_weights":[-1.7643964E-1,-1.0720949E0,3.807924E-1,-1.0753276E0,-6.5291417E-1,6.186797E-1,3.2119685E-1,-1.0382912E0,-3.2845426E-1,-8.103784E-1,-3.6137894E-1,4.622748E-1,8.876389E-1,-1.0194412E0,3.301916E-1,-1.0603155E0,-3.781731E-1,-7.1922964E-1,-3.138525E-1,3.120778E-1,-3.15201E-1,7.8513694E-1,1.8920484E-1,9.8150504E-1,7.4021304E-1,-1.133108E0,-4.1049996E-1,3.00132E-1,5.3959376E-1,-3.2832697E-1,-9.834895E-1,-3.0950838E-1,-3.103941E-1,-9.267327E-1,-3.6205444E-1,7.0285045E-2,1.1887589E-1,1.13770224E-1,9.298559E-1,7.153085E-2,4.852152E-1,9.47674E-1,1.2494441E0,1.1879486E0,7.000141E-1,-3.629761E-1,-2.6480767E-1,-8.0810845E-2,-1.4210315E-1,3.4749758E-1,-3.223727E-1,6.983663E-1,3.0830184E-1,-3.2407358E-1,-2.5610125E-1,-1.5435189E-1,1.9918566E-3,-2.2012733E-1,-3.2295072E-1,-1.5661293E-1,-5.201435E-2,1.0397426E-1,-1.4604029E-2,3.198369E-1,2.3695938E-1,1.0708641E-1,-7.505397E-2,2.3665781E-1,-2.0028763E-2,3.0402902E-1,2.5298592E-1,1.5914896E-1,4.2343974E-1,3.056727E-1,4.591004E-1,7.289001E-2,2.358196E-1,7.580924E-2,1.2512715E-1,-1.9243081E-1,6.6990145E-2,1.2900491E-1,2.5662977E-1,7.380499E-2,3.4118322E-1],"categories":[],"categories_nodes":[],"categories_segments":[],"categories_sizes":[],"default_left":[0,0,0,0,0,0,0,0,0,0,0,0,0,0,0,0,0,0,0,0,0,0,0,0,0,0,0,0,0,0,0,0,0,0,0,0,0,0,0,0,0,0,0,0,0,0,0,0,0,0,0,0,0,0,0,0,0,0,0,0,0,0,0,0,0,0,0,0,0,0,0,0,0,0,0,0,0,0,0,0,0,0,0,0,0],"id":3,"left_children":[1,3,5,7,9,11,13,15,-1,17,19,21,23,25,27,29,31,33,-1,35,-1,37,39,41,43,45,47,49,51,-1,53,55,-1,57,59,-1,-1,61,63,65,67,69,71,73,75,-1,-1,-1,-1,77,79,81,83,-1,-1,-1,-1,-1,-1,-1,-1,-1,-1,-1,-1,-1,-1,-1,-1,-1,-1,-1,-1,-1,-1,-1,-1,-1,-1,-1,-1,-1,-1,-1,-1],"loss_changes":[2.162181E4,2.18125E1,3.7842944E2,1.078125E1,5.661278E0,2.2461389E2,2.5789795E2,8.260986E1,0E0,1.0402603E0,2.2280844E1,2.982362E2,2.6476929E1,9.404648E0,1.3339136E2,1.3399902E1,8.059589E0,4.3601227E0,0E0,6.8852186E-2,0E0,1.5054071E2,6.3880653E1,9.675537E0,1.3005646E1,1.2324371E0,8.6378574E-2,5.4724646E2,9.754657E1,0E0,2.0537842E1,1.1003256E1,0E0,3.4980774E-1,6.6179705E-1,0E0,0E0,1.0458852E1,2.3487793E1,1.20759315E2,8.750509E1,6.4752197E0,1.4530289E1,2.023491E0,2.7650085E1,0E0,0E0,0E0,0E0,1.1366431E2,2.2867242E2,6.613257E1,5.5762543E1,0E0,0E0,0E0,0E0,0E0,0E0,0E0,0E0,0E0,0E0,0E0,0E0,0E0,0E0,0E0,0E0,0E0,0E0,0E0,0E0,0E0,0E0,0E0,0E0,0E0,0E0,0E0,0E0,0E0,0E0,0E0,0E0],"parents":[2147483647,0,0,1,1,2,2,3,3,4,4,5,5,6,6,7,7,9,9,10,10,11,11,12,12,13,13,14,14,15,15,16,16,17,17,19,19,21,21,22,22,23,23,24,24,25,25,26,26,27,27,28,28,30,30,31,31,33,33,34,34,37,37,38,38,39,39,40,40,41,41,42,42,43,43,44,44,49,49,50,50,51,51,52,52],"right_children":[2,4,6,8,10,12,14,16,-1,18,20,22,24,26,28,30,32,34,-1,36,-1,38,40,42,44,46,48,50,52,-1,54,56,-1,58,60,-1,-1,62,64,66,68,70,72,74,76,-1,-1,-1,-1,78,80,82,84,-1,-1,-1,-1,-1,-1,-1,-1,-1,-1,-1,-1,-1,-1,-1,-1,-1,-1,-1,-1,-1,-1,-1,-1,-1,-1,-1,-1,-1,-1,-1,-1],"split_conditions":[2.9981306E-1,2.72922E-1,-1.2280241E-1,8.623046E-2,-4.6925524E-1,8.275811E-1,6.026225E-1,4.6546556E-2,-3.2845426E-1,-8.5167736E-1,-2.950047E-1,-1.0449861E0,9.9865437E-1,5.698924E-1,4.4095555E-1,-4.1135047E-2,-4.1135047E-2,-1.1881429E0,-3.138525E-1,-3.0231595E-1,-3.15201E-1,4.0219787E-1,-4.6925524E-1,-1.6731282E-1,-4.3508998E-1,5.027022E-1,-1.17978126E-1,4.391445E-1,4.456059E-1,-3.2832697E-1,-6.7395324E-1,-9.926387E-2,-3.103941E-1,-1.1988739E0,-9.1385305E-1,7.0285045E-2,1.1887589E-1,-1.1988739E0,-1.1961895E0,-6.7395324E-1,6.696015E-1,-1.7406982E-1,8.535731E-1,-4.9045458E-1,-1.7704073E-1,-3.629761E-1,-2.6480767E-1,-8.0810845E-2,-1.4210315E-1,1.1113592E0,4.4031954E-1,1.1150753E0,6.715932E-1,-3.2407358E-1,-2.5610125E-1,-1.5435189E-1,1.9918566E-3,-2.2012733E-1,-3.2295072E-1,-1.5661293E-1,-5.201435E-2,1.0397426E-1,-1.4604029E-2,3.198369E-1,2.3695938E-1,1.0708641E-1,-7.505397E-2,2.3665781E-1,-2.0028763E-2,3.0402902E-1,2.5298592E-1,1.5914896E-1,4.2343974E-1,3.056727E-1,4.591004E-1,7.289001E-2,2.358196E-1,7.580924E-2,1.2512715E-1,-1.9243081E-1,6.6990145E-2,1.2900491E-1,2.5662977E-1,7.380499E-2,3.4118322E-1],"split_indices":[0,0,1,1,1,0,0,1,0,1,1,1,0,0,1,0,0,1,0,1,0,0,1,1,1,0,1,1,1,0,1,0,0,1,1,0,0,1,1,1,0,1,0,1,1,0,0,0,0,0,1,0,1,0,0,0,0,0,0,0,0,0,0,0,0,0,0,0,0,0,0,0,0,0,0,0,0,0,0,0,0,0,0,0,0],"split_type":[0,0,0,0,0,0,0,0,0,0,0,0,0,0,0,0,0,0,0,0,0,0,0,0,0,0,0,0,0,0,0,0,0,0,0,0,0,0,0,0,0,0,0,0,0,0,0,0,0,0,0,0,0,0,0,0,0,0,0,0,0,0,0,0,0,0,0,0,0,0,0,0,0,0,0,0,0,0,0,0,0,0,0,0,0],"sum_hessian":[4.332084E4,1.661467E4,2.6706168E4,1.6485969E4,1.2870161E2,5.348241E3,2.1357926E4,5.7086807E3,1.0777288E4,8.241038E1,4.629123E1,3.3834307E3,1.9648105E3,1.4159334E2,2.1216334E4,5.523779E3,1.8490186E2,6.2356346E1,2.0054033E1,2.3691357E1,2.2599873E1,1.5495073E3,1.8339232E3,1.1970137E3,7.6779694E2,1.18595215E2,2.2998123E1,1.8555178E4,2.6611562E3,3.8162632E3,1.7075157E3,1.687253E2,1.6176569E1,3.843354E1,2.3922808E1,1.4278503E1,9.412852E0,2.7509558E2,1.2744117E3,1.3131456E3,5.207776E2,1.0668462E3,1.3016745E2,6.0903362E1,7.0689355E2,8.78244E1,3.0770811E1,8.739286E0,1.4258836E1,1.7243578E4,1.3115999E3,1.576757E3,1.0843992E3,9.7414813E2,7.333676E2,1.0197489E2,6.67504E1,1.9372162E1,1.9061378E1,1.1989335E1,1.1933474E1,1.1259709E2,1.624985E2,6.4244354E2,6.3196826E2,6.957565E2,6.1738916E2,3.3568652E2,1.8509106E2,6.491954E2,4.176508E2,2.4725574E1,1.0544187E2,4.3434956E1,1.7468407E1,1.1260944E2,5.942841E2,7.301729E3,9.941849E3,8.275459E2,4.8405392E2,5.835283E2,9.9322864E2,1.00982275E3,7.457646E1],"tree_param":{"num_deleted":"0","num_feature":"2","num_nodes":"85","size_leaf_vector":"1"}},{"base_weights":[-1.5300849E-1,-1.0385482E0,2.6818472E-1,-1.0426221E0,-5.694556E-1,4.408215E-1,2.1321878E-1,-9.948367E-1,-3.204707E-1,-7.213287E-1,-3.0605316E-1,3.0975366E-1,7.034553E-1,8.912634E-2,2.556348E-1,-1.0227724E0,-2.9922292E-1,-6.2214226E-1,-3.0193084E-1,2.2193056E-1,-3.0372038E-1,6.148356E-1,1.5892726E-1,7.788674E-1,6.247692E-1,3.088302E-1,2.1910261E-2,2.2911172E-1,4.0550548E-1,-3.2030272E-1,-9.2486364E-1,-2.385079E-1,-2.9776943E-1,-8.488203E-1,-2.8439063E-1,4.976806E-2,8.487056E-2,7.7882156E-2,7.4629825E-1,-1.3298716E-1,3.0254996E-1,6.5230197E-1,8.7714225E-1,4.0146032E-1,7.9623914E-1,1.5714607E0,2.511013E-1,-1.9556656E-1,9.75569E-2,2.8897297E-1,-1.2396448E-1,-3.6364604E-2,5.0357383E-1,-3.1466645E-1,-2.3065972E-1,-1.3996871E-1,-7.710451E-3,-1.9136243E-1,-3.0798858E-1,1.6691167E-2,-1.14202976E-1,1.1408032E-3,2.0332462E-1,2.4177358E-1,1.2326578E-1,1.6231777E-1,-1.328811E-1,-2.3796517E-1,1.2778746E-1,2.4886227E-1,9.471083E-2,2.1734175E-1,3.9255357E-1,1.7297922E-1,-5.412868E-2,2.0284455E-1,3.3410022E-1,3.209468E-1,7.816564E-1,-1.4285511E-1,9.512976E-2,2.1061616E-2,-2.1611887E-1,7.5544596E-2,-4.584107E-2,1.5457198E-1,8.243348E-2,-1.08486354E-1,5.346642E-2,-6.745107E-2,2.1591808E-1,3.3001047E-1,1.2028044E-1],"categories":[],"categories_nodes":[],"categories_segments":[],"categories_sizes":[],"default_left":[0,0,0,0,0,0,0,0,0,0,0,0,0,0,0,0,0,0,0,0,0,0,0,0,0,0,0,0,0,0,0,0,0,0,0,0,0,0,0,0,0,0,0,0,0,0,0,0,0,0,0,0,0,0,0,0,0,0,0,0,0,0,0,0,0,0,0,0,0,0,0,0,0,0,0,0,0,0,0,0,0,0,0,0,0,0,0,0,0,0,0,0,0],"id":4,"left_children":[1,3,5,7,9,11,13,15,-1,17,19,21,23,25,27,29,31,33,-1,35,-1,37,39,41,43,45,47,49,51,-1,53,55,-1,57,59,-1,-1,61,63,65,67,69,71,73,75,77,79,81,83,85,87,89,91,-1,-1,-1,-1,-1,-1,-1,-1,-1,-1,-1,-1,-1,-1,-1,-1,-1,-1,-1,-1,-1,-1,-1,-1,-1,-1,-1,-1,-1,-1,-1,-1,-1,-1,-1,-1,-1,-1,-1,-1],"loss_changes":[1.4641082E4,2.358496E1,2.5233362E2,1.42890625E1,4.225189E0,2.208927E2,1.0619147E2,8.5029785E1,0E0,1.3464813E0,1.603069E1,1.9715405E2,1.2197754E1,7.592815E1,5.9684998E1,1.757129E1,6.9601192E0,3.921301E0,0E0,3.873551E-2,0E0,1.000246E2,1.203633E2,1.2954041E1,3.9930023E1,8.7403534E1,6.481221E1,2.7013702E2,9.7948425E1,0E0,2.5018433E1,7.6808577E0,0E0,5.4657364E-1,7.8531516E-1,0E0,0E0,1.2438657E1,2.2440247E1,1.981042E2,2.6049268E2,2.832759E1,3.9175293E1,4.6838257E1,2.1874237E1,2.443219E1,5.5496567E1,1.4186978E2,1.1291472E2,3.4954346E1,1.3315952E2,5.8787067E1,1.1278677E2,0E0,0E0,0E0,0E0,0E0,0E0,0E0,0E0,0E0,0E0,0E0,0E0,0E0,0E0,0E0,0E0,0E0,0E0,0E0,0E0,0E0,0E0,0E0,0E0,0E0,0E0,0E0,0E0,0E0,0E0,0E0,0E0,0E0,0E0,0E0,0E0,0E0,0E0,0E0,0E0],"parents":[2147483647,0,0,1,1,2,2,3,3,4,4,5,5,6,6,7,7,9,9,10,10,11,11,12,12,13,13,14,14,15,15,16,16,17,17,19,19,21,21,22,22,23,23,24,24,25,25,26,26,27,27,28,28,30,30,31,31,33,33,34,34,37,37,38,38,39,39,40,40,41,41,42,42,43,43,44,44,45,45,46,46,47,47,48,48,49,49,50,50,51,51,52,52],"right_children":[2,4,6,8,10,12,14,16,-1,18,20,22,24,26,28,30,32,34,-1,36,-1,38,40,42,44,46,48,50,52,-1,54,56,-1,58,60,-1,-1,62,64,66,68,70,72,74,76,78,80,82,84,86,88,90,92,-1,-1,-1,-1,-1,-1,-1,-1,-1,-1,-1,-1,-1,-1,-1,-1,-1,-1,-1,-1,-1,-1,-1,-1,-1,-1,-1,-1,-1,-1,-1,-1,-1,-1,-1,-1,-1,-1,-1,-1],"split_conditions":[2.9981306E-1,2.72922E-1,-1.396225E-2,8.623046E-2,-4.6925524E-1,9.02686E-1,1.1099439E0,4.6546556E-2,-3.204707E-1,-8.5167736E-1,-2.950047E-1,-1.0449861E0,1.0100349E0,8.781671E-1,4.4120964E-1,-4.1135047E-2,-4.1135047E-2,-1.1881429E0,-3.0193084E-1,-3.0231595E-1,-3.0372038E-1,4.0219787E-1,5.698924E-1,9.5080596E-1,1.0507444E0,1.7949928E-2,9.243848E-2,4.3881363E-1,1.1145993E0,-3.2030272E-1,-6.7395324E-1,-1.1861225E-1,-2.9776943E-1,-1.1988739E0,-1.0449861E0,4.976806E-2,8.487056E-2,-1.1881429E0,-1.1881429E0,-7.3087686E-1,-8.5167736E-1,-1.2280241E-1,-7.594394E-2,-1.074262E-1,-7.594394E-2,8.535731E-1,7.0589244E-2,4.6546556E-2,4.1951934E-1,4.210029E-1,4.4031954E-1,6.715932E-1,4.417275E-1,-3.1466645E-1,-2.3065972E-1,-1.3996871E-1,-7.710451E-3,-1.9136243E-1,-3.0798858E-1,1.6691167E-2,-1.14202976E-1,1.1408032E-3,2.0332462E-1,2.4177358E-1,1.2326578E-1,1.6231777E-1,-1.328811E-1,-2.3796517E-1,1.2778746E-1,2.4886227E-1,9.471083E-2,2.1734175E-1,3.9255357E-1,1.7297922E-1,-5.412868E-2,2.0284455E-1,3.3410022E-1,3.209468E-1,7.816564E-1,-1.4285511E-1,9.512976E-2,2.1061616E-2,-2.1611887E-1,7.5544596E-2,-4.584107E-2,1.5457198E-1,8.243348E-2,-1.08486354E-1,5.346642E-2,-6.745107E-2,2.1591808E-1,3.3001047E-1,1.2028044E-1],"split_indices":[0,0,1,1,1,0,0,1,0,1,1,1,0,0,1,0,0,1,0,1,0,0,0,0,0,1,1,1,0,0,1,0,0,1,1,0,0,1,1,1,1,1,1,1,1,0,1,1,1,1,1,1,1,0,0,0,0,0,0,0,0,0,0,0,0,0,0,0,0,0,0,0,0,0,0,0,0,0,0,0,0,0,0,0,0,0,0,0,0,0,0,0,0],"split_type":[0,0,0,0,0,0,0,0,0,0,0,0,0,0,0,0,0,0,0,0,0,0,0,0,0,0,0,0,0,0,0,0,0,0,0,0,0,0,0,0,0,0,0,0,0,0,0,0,0,0,0,0,0,0,0,0,0,0,0,0,0,0,0,0,0,0,0,0,0,0,0,0,0,0,0,0,0,0,0,0,0,0,0,0,0,0,0,0,0,0,0,0,0],"sum_hessian":[3.9252242E4,1.2651521E4,2.660072E4,1.2541384E4,1.10138435E2,6.4223657E3,2.0178354E4,4.3903867E3,8.1509966E3,6.8756294E1,4.138214E1,4.2857397E3,2.1366257E3,5.140984E3,1.503737E4,4.220425E3,1.6996182E2,5.3371082E1,1.5385213E1,2.407344E1,1.73087E1,1.4168169E3,2.868923E3,1.0864674E3,1.0501584E3,1.2035245E3,3.9374592E3,1.2778454E4,2.2589167E3,2.8866396E3,1.3337852E3,1.5751265E2,1.2449172E1,3.10315E1,2.233958E1,1.4483185E1,9.590256E0,2.7896964E2,1.1378473E3,9.4608026E2,1.9228428E3,4.7821936E2,6.08248E2,4.5758163E2,5.925768E2,5.1474182E1,1.1520503E3,1.0157345E3,2.9217246E3,1.09261875E4,1.8522662E3,4.1039862E2,1.8485181E3,7.39851E2,5.9393414E2,7.5456795E1,8.2055855E1,1.6291391E1,1.4740109E1,5.0230727E0,1.7316507E1,2.492013E2,2.9768345E1,9.649428E2,1.7290445E2,2.9777182E2,6.483085E2,1.9408592E2,1.7287568E3,3.1230716E2,1.659122E2,4.5122903E2,1.5701895E2,3.517277E2,1.0585395E2,4.3219653E2,1.6038023E2,3.6030052E1,1.5444129E1,9.532878E1,1.0567216E3,6.7485596E2,3.4087854E2,1.8078318E3,1.113893E3,6.429017E2,1.0283286E4,1.0367268E3,8.155394E2,3.2907272E2,8.13259E1,2.6996533E2,1.5785527E3],"tree_param":{"num_deleted":"0","num_feature":"2","num_nodes":"93","size_leaf_vector":"1"}},{"base_weights":[-1.3075145E-1,-1.0104222E0,1.9059484E-1,-1.018236E0,-6.5715224E-1,3.654239E-1,1.5172003E-1,-9.609996E-1,-3.1483442E-1,-3.2793558E-1,-3.1265688E-1,2.4957621E-1,5.589779E-1,-7.8680396E-1,1.5767033E-1,-9.974671E-1,-2.1212561E-1,-6.2706363E-1,5.606002E-1,4.8314676E-1,7.890955E-2,6.2671185E-1,3.6101204E-1,-1.0715922E0,-4.2926136E-1,1.41462E-1,2.9239237E-1,-3.1461123E-1,-8.8526803E-1,-6.747119E-1,-1.4758681E-1,-4.1101068E-1,-3.076212E-1,2.4033391E0,1.5908344E-1,5.4768533E-2,6.049945E-1,-4.289378E-1,1.4607462E-1,6.545525E-1,3.6293052E-2,6.7156E-2,5.03155E-1,-3.3560938E-1,-2.2697815E-1,-5.954679E-1,-1.13563284E-1,1.6596752E-1,-1.962264E-1,4.467902E-1,1.2958662E-1,-3.1349617E-1,-2.0678288E-1,-2.3807825E-1,-1.4588614E-1,-3.286024E-2,-2.679158E-1,-2.495541E-1,4.752082E-2,1.0415078E0,2.7750862E-1,3.5452306E-2,6.119579E-2,-6.752336E-2,4.4408325E-2,2.4719223E-1,1.4801775E-1,3.758493E-2,-4.2963794E-1,1.5519455E-1,1.0393582E-2,1.854212E-1,3.9619502E-1,1.7182979E-1,-4.0372178E-1,2.051604E-1,-1.9628981E-1,2.1538658E-1,1.09112315E-1,-1.3261606E-1,-2.541896E-1,2.8473413E-2,6.362107E-2,-2.290851E-1,3.6847845E-2,1.4711195E-1,-2.467409E-1,-6.1834812E-2,7.472096E-2],"categories":[],"categories_nodes":[],"categories_segments":[],"categories_sizes":[],"default_left":[0,0,0,0,0,0,0,0,0,0,0,0,0,0,0,0,0,0,0,0,0,0,0,0,0,0,0,0,0,0,0,0,0,0,0,0,0,0,0,0,0,0,0,0,0,0,0,0,0,0,0,0,0,0,0,0,0,0,0,0,0,0,0,0,0,0,0,0,0,0,0,0,0,0,0,0,0,0,0,0,0,0,0,0,0,0,0,0,0],"id":5,"left_children":[1,3,5,7,9,11,13,15,-1,17,-1,19,21,23,25,27,29,31,33,35,37,39,41,43,45,47,49,-1,51,53,55,57,-1,59,61,63,65,67,69,71,73,75,77,-1,-1,79,-1,81,83,85,87,-1,-1,-1,-1,-1,-1,-1,-1,-1,-1,-1,-1,-1,-1,-1,-1,-1,-1,-1,-1,-1,-1,-1,-1,-1,-1,-1,-1,-1,-1,-1,-1,-1,-1,-1,-1,-1,-1],"loss_changes":[1.0145208E4,2.583789E1,1.7860394E2,1.5772461E1,2.635669E1,1.0706799E2,1.2022986E2,9.063379E1,0E0,3.0916885E1,0E0,1.1926289E2,2.376764E1,1.3353806E1,4.6627686E1,1.7305176E1,4.5499086E0,7.023632E0,2.143863E1,6.590967E1,5.9087635E1,2.1869019E1,1.9118443E1,2.6418304E-1,2.9567528E-1,1.5791672E2,5.7611725E1,0E0,3.0607117E1,3.493786E-2,3.8153813E0,1.3971833E1,0E0,5.0099545E0,2.2343695E-2,7.363485E0,2.3628235E1,1.1270116E2,6.323522E1,3.0089905E1,4.6022507E1,6.7471535E1,8.990898E0,0E0,0E0,1.16410255E-1,0E0,5.8253784E1,2.338588E2,6.551889E1,4.4899895E1,0E0,0E0,0E0,0E0,0E0,0E0,0E0,0E0,0E0,0E0,0E0,0E0,0E0,0E0,0E0,0E0,0E0,0E0,0E0,0E0,0E0,0E0,0E0,0E0,0E0,0E0,0E0,0E0,0E0,0E0,0E0,0E0,0E0,0E0,0E0,0E0,0E0,0E0],"parents":[2147483647,0,0,1,1,2,2,3,3,4,4,5,5,6,6,7,7,9,9,11,11,12,12,13,13,14,14,15,15,16,16,17,17,18,18,19,19,20,20,21,21,22,22,23,23,24,24,25,25,26,26,28,28,29,29,30,30,31,31,33,33,34,34,35,35,36,36,37,37,38,38,39,39,40,40,41,41,42,42,45,45,47,47,48,48,49,49,50,50],"right_children":[2,4,6,8,10,12,14,16,-1,18,-1,20,22,24,26,28,30,32,34,36,38,40,42,44,46,48,50,-1,52,54,56,58,-1,60,62,64,66,68,70,72,74,76,78,-1,-1,80,-1,82,84,86,88,-1,-1,-1,-1,-1,-1,-1,-1,-1,-1,-1,-1,-1,-1,-1,-1,-1,-1,-1,-1,-1,-1,-1,-1,-1,-1,-1,-1,-1,-1,-1,-1,-1,-1,-1,-1,-1,-1],"split_conditions":[2.9981306E-1,2.6152322E-1,-1.2280241E-1,8.623046E-2,-2.950047E-1,8.0172426E-1,6.3536125E-1,4.6546556E-2,-3.1483442E-1,-3.1817105E-1,-3.1265688E-1,-1.0449861E0,1.0336834E0,5.354108E-1,4.4120964E-1,-4.1135047E-2,-2.0196798E-1,-8.5167736E-1,2.72922E-1,4.0219787E-1,-8.798333E-1,-1.4140803E-1,1.0507444E0,5.027022E-1,5.698924E-1,4.3932772E-1,4.456059E-1,-3.1461123E-1,-6.7395324E-1,7.0589244E-2,-4.1135047E-2,-1.1881429E0,-3.076212E-1,-3.0231595E-1,-3.0231595E-1,3.3238077E-1,-1.1976534E0,-9.4510096E-1,-7.3087686E-1,-1.6731282E-1,9.9865437E-1,-3.0231595E-1,-1.4140803E-1,-3.3560938E-1,-2.2697815E-1,-1.17978126E-1,-1.13563284E-1,4.2771825E-1,4.4031954E-1,1.1160382E0,4.5267624E-1,-3.1349617E-1,-2.0678288E-1,-2.3807825E-1,-1.4588614E-1,-3.286024E-2,-2.679158E-1,-2.495541E-1,4.752082E-2,1.0415078E0,2.7750862E-1,3.5452306E-2,6.119579E-2,-6.752336E-2,4.4408325E-2,2.4719223E-1,1.4801775E-1,3.758493E-2,-4.2963794E-1,1.5519455E-1,1.0393582E-2,1.854212E-1,3.9619502E-1,1.7182979E-1,-4.0372178E-1,2.051604E-1,-1.9628981E-1,2.1538658E-1,1.09112315E-1,-1.3261606E-1,-2.541896E-1,2.8473413E-2,6.362107E-2,-2.290851E-1,3.6847845E-2,1.4711195E-1,-2.467409E-1,-6.1834812E-2,7.472096E-2],"split_indices":[0,0,1,1,1,0,0,1,0,1,0,1,0,0,1,0,0,1,0,0,1,1,0,0,0,1,1,0,1,1,0,1,0,1,1,0,1,1,1,1,0,1,1,0,0,1,0,1,1,0,1,0,0,0,0,0,0,0,0,0,0,0,0,0,0,0,0,0,0,0,0,0,0,0,0,0,0,0,0,0,0,0,0,0,0,0,0,0,0],"split_type":[0,0,0,0,0,0,0,0,0,0,0,0,0,0,0,0,0,0,0,0,0,0,0,0,0,0,0,0,0,0,0,0,0,0,0,0,0,0,0,0,0,0,0,0,0,0,0,0,0,0,0,0,0,0,0,0,0,0,0,0,0,0,0,0,0,0,0,0,0,0,0,0,0,0,0,0,0,0,0,0,0,0,0,0,0,0,0,0,0],"sum_hessian":[3.588783E4,9.601639E3,2.6286191E4,9.392018E3,2.0962093E2,4.780185E3,2.1506006E4,3.3255032E3,6.066514E3,1.1399987E2,9.5621056E1,2.9917976E3,1.7883875E3,1.3466357E2,2.1371342E4,3.1707664E3,1.5473691E2,8.550773E1,2.8492144E1,1.2623469E3,1.7294506E3,1.3308663E3,4.5752115E2,7.384654E1,6.081703E1,1.9078117E4,2.2932263E3,2.1710056E3,9.997607E2,1.7787737E1,1.3694917E2,5.675603E1,2.8751696E1,4.205515E0,2.4286629E1,2.7986813E2,9.824788E2,2.0138156E2,1.528069E3,1.2708328E3,6.0033604E1,1.4963959E2,3.0788156E2,6.202042E1,1.1826124E1,1.1707863E1,4.910917E1,1.7787793E4,1.2903239E3,1.1761106E3,1.1171157E3,5.4846747E2,4.512932E2,8.937253E0,8.850484E0,1.3138927E2,5.559899E0,3.237084E1,2.4385193E1,1.658513E0,2.547002E0,1.4608835E1,9.677793E0,6.960084E1,2.1026729E2,3.2952292E2,6.529559E2,1.3028146E2,7.110009E1,3.5192966E2,1.1761394E3,1.2066718E3,6.416099E1,4.3668186E1,1.6365416E1,8.070431E1,6.893528E1,1.1956257E2,1.88319E2,8.987854E0,2.7200086E0,7.0008047E3,1.0786988E4,4.639176E2,8.2640625E2,1.13766E3,3.8450546E1,2.9304504E2,8.240707E2],"tree_param":{"num_deleted":"0","num_feature":"2","num_nodes":"89","size_leaf_vector":"1"}},{"base_weights":[-1.0978298E-1,-9.847026E-1,1.3524728E-1,-8.964747E-1,-3.1079924E-1,2.5174615E-1,9.679343E-2,-9.3907994E-1,-1.8045022E-1,1.6717741E-1,4.5877492E-1,-4.802374E-1,1.0684514E-1,-9.732753E-1,-4.320579E-1,-1.3660938E-1,-2.7482885E-1,2.4361908E-1,-1.1434835E-1,4.0442857E-1,1.2062272E0,-1.2709608E0,1.1153053E0,3.385106E-2,1.3199231E-1,-3.1049854E-1,-8.374305E-1,-3.1158546E-1,-3.0366787E-1,-2.811257E-1,7.0590615E-2,1.8594353E-1,5.652149E-1,-5.132413E-1,1.2101588E-1,4.8030993E-1,-3.0356583E-1,1.4164462E0,-4.282268E-1,-1.3900698E0,-1.0739132E0,6.7075735E-1,-1.2294807E0,1.4586483E-1,-2.490006E-1,1.383068E-1,-1.9870505E-1,-3.0957764E-1,-1.8099546E-1,-1.7681089E-1,1.397642E-1,-1.7650433E-1,-6.1882883E-2,1.0716615E-2,9.809838E-2,1.207053E-1,2.3834648E-2,1.5641025E-1,3.7539634E-1,-3.2258883E-1,-1.2758878E-1,1.2620713E-1,-4.038045E-2,1.23585716E-1,2.0372777E-1,-4.5323232E-1,1.7138025E-2,4.9105963E-1,3.4997588E-1,-4.230726E-1,-2.748902E-1,-2.754249E-1,-3.7410656E-1,-3.8726014E-1,-1.7856385E-1,1.8603412E-2,1.3170871E-1,-1.061886E-1,8.735971E-3,3.520741E-2,7.977287E-2,-1.4391574E-1,1.2447E-1],"categories":[],"categories_nodes":[],"categories_segments":[],"categories_sizes":[],"default_left":[0,0,0,0,0,0,0,0,0,0,0,0,0,0,0,0,0,0,0,0,0,0,0,0,0,0,0,0,0,0,0,0,0,0,0,0,0,0,0,0,0,0,0,0,0,0,0,0,0,0,0,0,0,0,0,0,0,0,0,0,0,0,0,0,0,0,0,0,0,0,0,0,0,0,0,0,0,0,0,0,0,0,0],"id":6,"left_children":[1,3,5,7,-1,9,11,13,15,17,19,21,23,25,27,29,-1,31,33,35,37,39,41,43,45,-1,47,49,-1,51,53,55,57,59,61,63,65,67,-1,69,71,-1,73,75,77,79,81,-1,-1,-1,-1,-1,-1,-1,-1,-1,-1,-1,-1,-1,-1,-1,-1,-1,-1,-1,-1,-1,-1,-1,-1,-1,-1,-1,-1,-1,-1,-1,-1,-1,-1,-1,-1],"loss_changes":[7.1354316E3,3.2027344E1,1.1646066E2,8.1729004E1,0E0,1.1288928E2,1.1344948E2,4.350708E1,4.7773433E0,9.8644775E1,7.550171E1,4.239665E2,3.5270157E1,1.90271E1,1.0998978E1,4.3507547E0,0E0,6.674751E1,9.199872E1,9.391449E1,7.194232E1,3.7740784E0,2.9574677E2,1.5608919E2,2.9873047E1,0E0,3.3367798E1,2.9535772E1,0E0,1.842597E0,5.2678466E-1,7.043548E1,1.5821793E1,1.7514282E1,4.7294804E1,2.1146576E1,7.392302E1,4.559326E0,0E0,1.1993408E-2,1.2543411E0,0E0,6.60759E-1,8.672104E1,4.080854E1,3.746039E1,4.6446365E1,0E0,0E0,0E0,0E0,0E0,0E0,0E0,0E0,0E0,0E0,0E0,0E0,0E0,0E0,0E0,0E0,0E0,0E0,0E0,0E0,0E0,0E0,0E0,0E0,0E0,0E0,0E0,0E0,0E0,0E0,0E0,0E0,0E0,0E0,0E0,0E0],"parents":[2147483647,0,0,1,1,2,2,3,3,5,5,6,6,7,7,8,8,9,9,10,10,11,11,12,12,13,13,14,14,15,15,17,17,18,18,19,19,20,20,21,21,22,22,23,23,24,24,26,26,27,27,29,29,30,30,31,31,32,32,33,33,34,34,35,35,36,36,37,37,39,39,40,40,42,42,43,43,44,44,45,45,46,46],"right_children":[2,4,6,8,-1,10,12,14,16,18,20,22,24,26,28,30,-1,32,34,36,38,40,42,44,46,-1,48,50,-1,52,54,56,58,60,62,64,66,68,-1,70,72,-1,74,76,78,80,82,-1,-1,-1,-1,-1,-1,-1,-1,-1,-1,-1,-1,-1,-1,-1,-1,-1,-1,-1,-1,-1,-1,-1,-1,-1,-1,-1,-1,-1,-1,-1,-1,-1,-1,-1,-1],"split_conditions":[2.9981306E-1,8.623046E-2,2.4213327E-2,4.6546556E-2,-3.1079924E-1,9.385014E-1,7.0589244E-2,2.4992639E-1,-4.1135047E-2,-1.4140803E-1,1.7949928E-2,1.0507444E0,4.2771825E-1,-4.1135047E-2,-2.950047E-1,-9.294504E-2,-2.7482885E-1,-2.0393746E-1,-1.1476875E-1,-1.396225E-2,1.0336834E0,9.9865437E-1,4.6546556E-2,4.210029E-1,5.484208E-1,-3.1049854E-1,-6.7395324E-1,-3.7232342E-1,-3.0366787E-1,-2.0196798E-1,-4.743166E-2,-1.1881429E0,-1.6731282E-1,5.027022E-1,8.781671E-1,-7.594394E-2,1.0336834E0,9.8622715E-1,-4.282268E-1,4.6546556E-2,4.6546556E-2,6.7075735E-1,1.1056015E0,3.3870536E-1,4.2604026E-1,4.4120964E-1,6.715932E-1,-3.0957764E-1,-1.8099546E-1,-1.7681089E-1,1.397642E-1,-1.7650433E-1,-6.1882883E-2,1.0716615E-2,9.809838E-2,1.207053E-1,2.3834648E-2,1.5641025E-1,3.7539634E-1,-3.2258883E-1,-1.2758878E-1,1.2620713E-1,-4.038045E-2,1.23585716E-1,2.0372777E-1,-4.5323232E-1,1.7138025E-2,4.9105963E-1,3.4997588E-1,-4.230726E-1,-2.748902E-1,-2.754249E-1,-3.7410656E-1,-3.8726014E-1,-1.7856385E-1,1.8603412E-2,1.3170871E-1,-1.061886E-1,8.735971E-3,3.520741E-2,7.977287E-2,-1.4391574E-1,1.2447E-1],"split_indices":[0,1,1,1,0,0,1,0,0,1,1,0,1,0,1,0,0,1,1,1,0,0,1,1,1,0,1,1,0,0,0,1,1,0,0,1,0,0,0,1,1,0,0,1,1,1,1,0,0,0,0,0,0,0,0,0,0,0,0,0,0,0,0,0,0,0,0,0,0,0,0,0,0,0,0,0,0,0,0,0,0,0,0],"split_type":[0,0,0,0,0,0,0,0,0,0,0,0,0,0,0,0,0,0,0,0,0,0,0,0,0,0,0,0,0,0,0,0,0,0,0,0,0,0,0,0,0,0,0,0,0,0,0,0,0,0,0,0,0,0,0,0,0,0,0,0,0,0,0,0,0,0,0,0,0,0,0,0,0,0,0,0,0,0,0,0,0,0,0],"sum_hessian":[3.328214E4,7.281033E3,2.6001107E4,2.6836306E3,4.597403E3,6.4511895E3,1.9549918E4,2.5326216E3,1.5100894E2,4.581507E3,1.8696826E3,3.3392227E2,1.9215996E4,2.3717432E3,1.6087836E2,1.4363472E2,7.3742137E0,3.6032612E3,9.782457E2,1.7443911E3,1.2529151E2,2.2340837E2,1.105139E2,4.924401E3,1.4291595E4,1.6262527E3,7.454905E2,1.3448871E2,2.6389635E1,8.4406624E1,5.9228096E1,3.0566538E3,5.466074E2,3.625756E2,6.156701E2,1.5758197E3,1.685715E2,1.1645796E2,8.8335495E0,1.3546786E2,8.79405E1,7.480954E1,3.5704357E1,3.5278142E3,1.3965865E3,1.4024389E4,2.6720673E2,4.0533768E2,3.4015283E2,9.9264145E1,3.522457E1,1.5191632E1,6.9215E1,5.3140762E1,6.087332E0,1.0071831E3,2.0494707E3,5.154276E2,3.1179823E1,4.753769E1,3.150379E2,2.8311398E2,3.3255612E2,1.1748748E3,4.0094485E2,3.804603E1,1.3052548E2,5.8924942E1,5.7533016E1,1.2803955E2,7.428319E0,4.959719E1,3.8343307E1,3.1609848E1,4.0945077E0,2.7441262E3,7.836881E2,1.01373486E3,3.8285168E2,1.2048314E4,1.9760741E3,1.834225E2,8.378422E1],"tree_param":{"num_deleted":"0","num_feature":"2","num_nodes":"83","size_leaf_vector":"1"}},{"base_weights":[-9.113347E-2,-9.671964E-1,9.380304E-2,-8.666367E-1,-3.078734E-1,1.770219E-1,6.6761844E-2,-9.2261493E-1,-1.3844605E-1,-1.4077356E-1,2.1499656E-1,-4.1932872E-1,7.444937E-2,-3.074714E-1,-7.338416E-1,-1.02039106E-1,-2.6309824E-1,-2.492656E-1,3.3115217E-1,5.604019E-1,1.891426E-1,-1.1143069E0,6.8640065E-1,7.7500135E-2,-2.770371E-1,-9.800639E-1,-5.066908E-1,-2.5793123E-1,1.51801435E-2,-2.575128E-2,-3.4205112E-1,5.688856E-1,-3.022945E-1,6.323595E-1,4.17337E-1,9.599035E-2,3.2226405E-1,-1.2348844E0,-9.208918E-1,3.872458E-1,-1.1016546E0,6.4989455E-2,1.8081169E-1,-8.562316E-1,2.2962578E-1,-3.0521464E-1,1.20413095E-1,1.0781934E0,-2.3014796E-1,-1.4998335E-1,-5.400342E-2,2.3694586E-2,-1.9732663E-2,-5.680109E-2,2.3403354E-1,-6.1047003E-3,2.2281225E-1,1.82798E-1,3.2135218E-1,4.592431E-2,2.0666614E-1,4.9183864E-2,-3.8889825E-2,1.16183646E-1,6.3821524E-2,-3.779085E-1,-2.2215776E-1,-2.2568814E-1,-3.3819997E-1,-3.536125E-1,-1.4041455E-1,2.5415165E-2,-5.542303E-2,8.6380176E-2,-2.0201816E-5,-3.5857075E-1,-2.1556222E-1,2.0149945E-1,-2.580916E-2],"categories":[],"categories_nodes":[],"categories_segments":[],"categories_sizes":[],"default_left":[0,0,0,0,0,0,0,0,0,0,0,0,0,0,0,0,0,0,0,0,0,0,0,0,0,0,0,0,0,0,0,0,0,0,0,0,0,0,0,0,0,0,0,0,0,0,0,0,0,0,0,0,0,0,0,0,0,0,0,0,0,0,0,0,0,0,0,0,0,0,0,0,0,0,0,0,0,0,0],"id":7,"left_children":[1,3,5,7,-1,9,11,13,15,17,19,21,23,-1,25,27,-1,29,31,33,35,37,39,41,43,45,47,49,51,53,-1,55,-1,57,59,61,63,65,67,-1,69,71,73,75,77,-1,-1,-1,-1,-1,-1,-1,-1,-1,-1,-1,-1,-1,-1,-1,-1,-1,-1,-1,-1,-1,-1,-1,-1,-1,-1,-1,-1,-1,-1,-1,-1,-1,-1],"loss_changes":[5.0665625E3,3.147705E1,5.8095505E1,8.233557E1,0E0,7.644745E1,7.286389E1,3.5519287E1,3.8251657E0,3.4718987E1,5.0408264E1,2.3406393E2,2.0596687E1,0E0,3.6621704E1,2.5600488E0,0E0,1.0961383E2,4.095614E1,3.786087E0,6.524835E1,3.2193604E0,1.2872171E2,2.4576149E1,4.8713436E1,1.6770813E1,3.7367532E2,1.0432098E0,4.2247924E-1,5.8310127E1,0E0,1.1116196E1,0E0,1.9732895E0,9.552992E0,4.752832E1,1.5346558E1,4.4255066E-1,1.7855911E0,0E0,9.2747116E-1,8.362254E1,3.9804314E1,2.7519035E0,1.2472637E1,0E0,0E0,0E0,0E0,0E0,0E0,0E0,0E0,0E0,0E0,0E0,0E0,0E0,0E0,0E0,0E0,0E0,0E0,0E0,0E0,0E0,0E0,0E0,0E0,0E0,0E0,0E0,0E0,0E0,0E0,0E0,0E0,0E0,0E0],"parents":[2147483647,0,0,1,1,2,2,3,3,5,5,6,6,7,7,8,8,9,9,10,10,11,11,12,12,14,14,15,15,17,17,18,18,19,19,20,20,21,21,22,22,23,23,24,24,25,25,26,26,27,27,28,28,29,29,31,31,33,33,34,34,35,35,36,36,37,37,38,38,40,40,41,41,42,42,43,43,44,44],"right_children":[2,4,6,8,-1,10,12,14,16,18,20,22,24,-1,26,28,-1,30,32,34,36,38,40,42,44,46,48,50,52,54,-1,56,-1,58,60,62,64,66,68,-1,70,72,74,76,78,-1,-1,-1,-1,-1,-1,-1,-1,-1,-1,-1,-1,-1,-1,-1,-1,-1,-1,-1,-1,-1,-1,-1,-1,-1,-1,-1,-1,-1,-1,-1,-1,-1,-1],"split_conditions":[2.72922E-1,8.623046E-2,2.4213327E-2,4.6546556E-2,-3.078734E-1,4.0219787E-1,7.0589244E-2,-4.1135047E-2,-4.1135047E-2,-4.6925524E-1,-1.1961895E0,1.0507444E0,6.1242044E-1,-3.074714E-1,-6.7395324E-1,-1.1861225E-1,-2.6309824E-1,-7.3087686E-1,-2.950047E-1,-1.1976534E0,9.02686E-1,9.9865437E-1,4.6546556E-2,4.4120964E-1,6.715932E-1,2.6152322E-1,-6.670167E-1,-2.0196798E-1,7.0589244E-2,-8.798333E-1,-3.4205112E-1,2.9981306E-1,-3.022945E-1,6.3536125E-1,6.3536125E-1,-1.4140803E-1,1.0336834E0,4.6546556E-2,4.6546556E-2,3.872458E-1,1.1056015E0,4.3932772E-1,1.1160382E0,1.1110907E0,1.1113592E0,-3.0521464E-1,1.20413095E-1,1.0781934E0,-2.3014796E-1,-1.4998335E-1,-5.400342E-2,2.3694586E-2,-1.9732663E-2,-5.680109E-2,2.3403354E-1,-6.1047003E-3,2.2281225E-1,1.82798E-1,3.2135218E-1,4.592431E-2,2.0666614E-1,4.9183864E-2,-3.8889825E-2,1.16183646E-1,6.3821524E-2,-3.779085E-1,-2.2215776E-1,-2.2568814E-1,-3.3819997E-1,-3.536125E-1,-1.4041455E-1,2.5415165E-2,-5.542303E-2,8.6380176E-2,-2.0201816E-5,-3.5857075E-1,-2.1556222E-1,2.0149945E-1,-2.580916E-2],"split_indices":[0,1,1,1,0,0,1,0,0,1,1,0,1,0,1,0,0,1,1,1,0,0,1,1,1,0,1,0,1,1,0,0,0,0,0,1,0,1,1,0,0,1,0,0,0,0,0,0,0,0,0,0,0,0,0,0,0,0,0,0,0,0,0,0,0,0,0,0,0,0,0,0,0,0,0,0,0,0,0],"split_type":[0,0,0,0,0,0,0,0,0,0,0,0,0,0,0,0,0,0,0,0,0,0,0,0,0,0,0,0,0,0,0,0,0,0,0,0,0,0,0,0,0,0,0,0,0,0,0,0,0,0,0,0,0,0,0,0,0,0,0,0,0,0,0,0,0,0,0,0,0,0,0,0,0,0,0,0,0,0,0],"sum_hessian":[3.1270424E4,5.449824E3,2.58206E4,2.0220038E3,3.4278203E3,6.331122E3,1.9489477E4,1.8774142E3,1.4458957E2,6.754906E2,5.6556313E3,3.0259384E2,1.9186883E4,1.2147528E3,6.6266144E2,1.3888153E2,5.708045E0,5.4961115E2,1.25879486E2,3.9241022E2,5.263221E3,1.858038E2,1.1679004E2,1.9022555E4,1.6432893E2,3.1639136E2,3.4627008E2,5.9092655E1,7.978887E1,4.402005E2,1.0941064E2,1.0738585E2,1.8493639E1,2.588141E2,1.3359615E2,3.0974734E3,2.1657478E3,1.1113576E2,7.466804E1,8.749282E1,2.929722E1,1.6969262E4,2.0532915E3,7.635423E1,8.79747E1,3.0832578E2,8.065577E0,1.9916615E1,3.2635345E2,1.307294E1,4.6019714E1,4.4635593E1,3.5153282E1,3.665566E2,7.364388E1,2.4663292E1,8.272256E1,2.4817616E2,1.0637909E1,6.849994E1,6.5096214E1,2.3806992E3,7.167742E2,1.3574346E3,8.0831323E2,1.04350555E2,6.7852063E0,4.3657566E1,3.1010473E1,2.535362E1,3.9436011E0,1.57275205E4,1.2417418E3,1.2891968E3,7.640946E2,1.9836021E1,5.6518208E1,3.6180454E1,5.1794247E1],"tree_param":{"num_deleted":"0","num_feature":"2","num_nodes":"79","size_leaf_vector":"1"}},{"base_weights":[-7.4853525E-2,-9.42559E-1,6.592432E-2,-8.1970304E-1,-3.0573332E-1,-3.0901837E-1,6.920464E-2,-8.8803875E-1,-1.0596326E-1,-4.3220899E-1,7.7437693E-3,1.5360473E-1,4.850704E-2,-3.0519316E-1,-6.7505205E-1,-7.605562E-2,-2.5070757E-1,-2.9518282E-1,-1.0351479E0,2.065011E-1,-2.8118894E-1,8.1580274E-2,2.675987E-1,-1.2240582E-2,6.8482324E-2,-9.58352E-1,-4.5665452E-1,-1.7240521E-1,4.5791436E-2,3.4553215E-1,-3.367031E-1,-3.3559933E-1,-2.0736004E-1,-1.4486359E-2,1.1967157E-1,2.0194136E-1,-7.406259E-2,2.7157316E-1,-7.032755E-1,1.7154017E-1,-4.898573E-2,3.3473563E-1,5.8225647E-2,-3.0209172E-1,7.821325E-2,2.5125647E-1,-2.648356E-1,-1.2503408E-1,-3.6850836E-2,6.8129445E-3,6.215774E-2,5.816662E-3,-1.2205842E-1,-1.2335638E-2,7.883265E-3,3.240974E-2,1.9283517E-1,-1.0493957E-1,1.2296717E-2,7.183995E-2,1.7031114E-1,1.6515215E-1,2.1089735E-3,-5.8605685E-3,-8.06215E-2,1.8174382E-2,2.4567415E-1,-6.1961737E-2,2.2727804E-2],"categories":[],"categories_nodes":[],"categories_segments":[],"categories_sizes":[],"default_left":[0,0,0,0,0,0,0,0,0,0,0,0,0,0,0,0,0,0,0,0,0,0,0,0,0,0,0,0,0,0,0,0,0,0,0,0,0,0,0,0,0,0,0,0,0,0,0,0,0,0,0,0,0,0,0,0,0,0,0,0,0,0,0,0,0,0,0,0,0],"id":8,"left_children":[1,3,5,7,-1,9,11,13,15,17,19,21,23,-1,25,27,-1,29,31,33,-1,35,37,39,41,43,45,47,49,-1,51,-1,-1,53,-1,55,57,59,-1,61,63,65,67,-1,-1,-1,-1,-1,-1,-1,-1,-1,-1,-1,-1,-1,-1,-1,-1,-1,-1,-1,-1,-1,-1,-1,-1,-1,-1],"loss_changes":[3.6352847E3,3.8235107E1,3.151522E1,7.7940674E1,0E0,8.676586E0,4.4336838E1,3.9511597E1,3.0122275E0,1.2917206E1,1.2068105E1,4.101966E1,2.4739601E1,0E0,3.3865143E1,1.6102101E0,0E0,8.306565E0,6.665611E-2,2.2615113E0,0E0,5.742746E1,2.0723679E1,3.4082546E1,4.18786E1,1.45134735E1,1.7444656E2,8.7459373E-1,2.2275957E-1,0E0,3.2282963E0,0E0,0E0,2.8934885E-2,0E0,7.1489296E1,4.243583E1,1.8242401E1,0E0,5.242546E1,2.7213766E1,7.546448E1,6.860327E1,0E0,0E0,0E0,0E0,0E0,0E0,0E0,0E0,0E0,0E0,0E0,0E0,0E0,0E0,0E0,0E0,0E0,0E0,0E0,0E0,0E0,0E0,0E0,0E0,0E0,0E0],"parents":[2147483647,0,0,1,1,2,2,3,3,5,5,6,6,7,7,8,8,9,9,10,10,11,11,12,12,14,14,15,15,17,17,18,18,19,19,21,21,22,22,23,23,24,24,25,25,26,26,27,27,28,28,30,30,33,33,35,35,36,36,37,37,39,39,40,40,41,41,42,42],"right_children":[2,4,6,8,-1,10,12,14,16,18,20,22,24,-1,26,28,-1,30,32,34,-1,36,38,40,42,44,46,48,50,-1,52,-1,-1,54,-1,56,58,60,-1,62,64,66,68,-1,-1,-1,-1,-1,-1,-1,-1,-1,-1,-1,-1,-1,-1,-1,-1,-1,-1,-1,-1,-1,-1,-1,-1,-1,-1],"split_conditions":[2.72922E-1,8.623046E-2,3.3238077E-1,4.6546556E-2,-3.0573332E-1,-4.6925524E-1,-5.05197E-2,-4.1135047E-2,-4.1135047E-2,-8.5167736E-1,-2.950047E-1,8.275811E-1,1.1093408E0,-3.0519316E-1,-6.7395324E-1,-9.294504E-2,-2.5070757E-1,-1.2003099E0,-4.9045458E-1,2.9981306E-1,-2.8118894E-1,-6.7395324E-1,1.1093408E0,8.408918E-1,4.1951934E-1,2.6152322E-1,-6.210623E-1,-2.0196798E-1,-4.743166E-2,3.4553215E-1,-1.1988739E0,-3.3559933E-1,-2.0736004E-1,-3.0231595E-1,1.1967157E-1,-8.5167736E-1,5.354108E-1,-7.594394E-2,-7.032755E-1,2.0362784E-1,4.2319816E-1,4.1575786E-1,4.2604026E-1,-3.0209172E-1,7.821325E-2,2.5125647E-1,-2.648356E-1,-1.2503408E-1,-3.6850836E-2,6.8129445E-3,6.215774E-2,5.816662E-3,-1.2205842E-1,-1.2335638E-2,7.883265E-3,3.240974E-2,1.9283517E-1,-1.0493957E-1,1.2296717E-2,7.183995E-2,1.7031114E-1,1.6515215E-1,2.1089735E-3,-5.8605685E-3,-8.06215E-2,1.8174382E-2,2.4567415E-1,-6.1961737E-2,2.2727804E-2],"split_indices":[0,1,0,1,0,1,1,0,0,1,1,0,0,0,1,0,0,1,1,0,0,1,0,0,1,0,1,0,0,0,1,0,0,1,0,1,0,1,0,1,1,1,1,0,0,0,0,0,0,0,0,0,0,0,0,0,0,0,0,0,0,0,0,0,0,0,0,0,0],"split_type":[0,0,0,0,0,0,0,0,0,0,0,0,0,0,0,0,0,0,0,0,0,0,0,0,0,0,0,0,0,0,0,0,0,0,0,0,0,0,0,0,0,0,0,0,0,0,0,0,0,0,0,0,0,0,0,0,0,0,0,0,0,0,0,0,0,0,0,0,0],"sum_hessian":[2.975841E4,4.153289E3,2.5605121E4,1.5989272E3,2.5543618E3,2.2126466E2,2.5383857E4,1.4589943E3,1.3993298E2,1.5904622E2,6.2218445E1,4.9977505E3,2.0386107E4,9.055789E2,5.5341534E2,1.3548442E2,4.448552E0,1.308079E2,2.8238316E1,5.2052456E1,1.0165989E1,3.0637227E3,1.9340276E3,5.04474E3,1.5341366E4,2.3943631E2,3.1397906E2,7.542655E1,6.005788E1,2.9029179E0,1.2790498E2,2.0908863E1,7.3294525E0,2.4657068E1,2.7395386E1,1.7275126E3,1.3362102E3,1.9319836E3,2.0438962E0,8.3996906E2,4.204771E3,5.678891E2,1.4773478E4,2.3042036E2,9.015953E0,7.753544E1,2.3644362E2,1.1470261E1,6.3956287E1,5.35417E1,6.5161824E0,2.1171515E1,1.0673347E2,1.4908282E1,9.748787E0,1.4251666E3,3.0234595E2,3.9279245E2,9.434177E2,1.7446377E3,1.8734604E2,2.5354794E2,5.8642114E2,3.708817E3,4.9595428E2,3.633027E2,2.045864E2,9.169184E2,1.385656E4],"tree_param":{"num_deleted":"0","num_feature":"2","num_nodes":"69","size_leaf_vector":"1"}},{"base_weights":[-6.017115E-2,-9.1465974E-1,4.6333525E-2,-7.6576203E-1,-3.041512E-1,2.0178166E-1,3.938158E-2,-8.4791434E-1,-8.0385104E-2,-4.7376037E-2,2.990301E-1,-3.079446E-1,4.5954067E-2,-3.0342478E-1,-6.0726994E-1,-5.5873092E-2,-2.3757468E-1,-1.14011355E-1,4.8123273E-1,5.042704E-1,2.1798213E-1,1.7465875E-2,-7.63306E-1,8.2192E-1,4.272402E-2,-9.342428E-1,-3.9201215E-1,-1.6698131E-1,-3.963552E-2,6.4552E-2,-2.827112E-1,-6.1984345E-2,4.3611345E-1,7.4064374E-1,4.4870797E-1,4.03594E-1,1.5418947E-1,-3.7478352E-1,3.213414E-1,-2.5056162E-1,-1.1885693E0,1.7799003E0,-2.566942E-1,-1.7193353E-1,4.984935E-2,-2.992156E-1,5.2779555E-2,1.3823406E-1,-2.4910359E-1,-3.075704E-2,9.848479E-3,-5.470301E-2,8.6269245E-2,-6.677479E-2,-2.2144064E-1,9.899259E-2,-4.8207585E-2,1.3881043E-1,3.2225382E-1,1.2512064E-1,2.9952037E-1,-1.959113E-2,3.474841E-1,1.0963357E-1,-1.6548935E-1,1.2752764E-1,-3.936658E-1,1.1661384E-1,-3.9658304E-2,1.0175525E-1,-1.2212622E-1,-2.7175897E-1,-3.831441E-1,-2.64847E-1,5.8540905E-1,2.7776593E-2,-1.1626054E-1,-1.6696657E-1,7.668913E-2,1.5916443E-1,1.3112824E-2],"categories":[],"categories_nodes":[],"categories_segments":[],"categories_sizes":[],"default_left":[0,0,0,0,0,0,0,0,0,0,0,0,0,0,0,0,0,0,0,0,0,0,0,0,0,0,0,0,0,0,0,0,0,0,0,0,0,0,0,0,0,0,0,0,0,0,0,0,0,0,0,0,0,0,0,0,0,0,0,0,0,0,0,0,0,0,0,0,0,0,0,0,0,0,0,0,0,0,0,0,0],"id":9,"left_children":[1,3,5,7,-1,9,11,13,15,17,19,21,23,-1,25,27,-1,29,31,33,35,37,39,41,43,45,47,-1,49,51,53,55,-1,57,59,61,63,65,67,69,71,73,75,77,79,-1,-1,-1,-1,-1,-1,-1,-1,-1,-1,-1,-1,-1,-1,-1,-1,-1,-1,-1,-1,-1,-1,-1,-1,-1,-1,-1,-1,-1,-1,-1,-1,-1,-1,-1,-1],"loss_changes":[2.605848E3,4.6085938E1,2.750652E1,7.15954E1,0E0,2.6416958E1,5.565042E1,4.409955E1,2.3510203E0,1.0860556E1,1.2929611E1,6.710273E1,5.9918602E1,0E0,3.2169083E1,1.0661249E0,0E0,8.249144E0,1.8332932E1,2.572239E0,6.6127834E0,3.171127E1,4.0853516E1,1.02859085E2,3.6444622E1,1.2988693E1,1.052247E2,0E0,5.9902555E-1,7.4059124E0,3.688222E0,9.473641E-1,0E0,3.2625465E0,2.7420235E0,5.08823E1,6.3000443E1,8.765517E1,4.630991E0,8.153227E0,1.4197083E0,2.574347E1,2.2062135E0,1.26040474E2,6.803023E1,0E0,0E0,0E0,0E0,0E0,0E0,0E0,0E0,0E0,0E0,0E0,0E0,0E0,0E0,0E0,0E0,0E0,0E0,0E0,0E0,0E0,0E0,0E0,0E0,0E0,0E0,0E0,0E0,0E0,0E0,0E0,0E0,0E0,0E0,0E0,0E0],"parents":[2147483647,0,0,1,1,2,2,3,3,5,5,6,6,7,7,8,8,9,9,10,10,11,11,12,12,14,14,15,15,17,17,18,18,19,19,20,20,21,21,22,22,23,23,24,24,25,25,26,26,28,28,29,29,30,30,31,31,33,33,34,34,35,35,36,36,37,37,38,38,39,39,40,40,41,41,42,42,43,43,44,44],"right_children":[2,4,6,8,-1,10,12,14,16,18,20,22,24,-1,26,28,-1,30,32,34,36,38,40,42,44,46,48,-1,50,52,54,56,-1,58,60,62,64,66,68,70,72,74,76,78,80,-1,-1,-1,-1,-1,-1,-1,-1,-1,-1,-1,-1,-1,-1,-1,-1,-1,-1,-1,-1,-1,-1,-1,-1,-1,-1,-1,-1,-1,-1,-1,-1,-1,-1,-1,-1],"split_conditions":[2.72922E-1,8.623046E-2,-1.0449861E0,4.6546556E-2,-3.041512E-1,4.0219787E-1,-8.5167736E-1,-4.1135047E-2,-4.1135047E-2,-1.1881429E0,-1.1976534E0,5.698924E-1,-7.726104E-1,-3.0342478E-1,-6.7395324E-1,-2.2124021E-1,-2.3757468E-1,-1.1988739E0,3.6807188E-1,-1.2003099E0,5.354108E-1,-8.798333E-1,-9.4510096E-1,7.3605317E-1,6.026225E-1,2.6152322E-1,-6.210623E-1,-1.6698131E-1,-9.294504E-2,-1.2003099E0,-1.1943669E0,2.9981306E-1,4.3611345E-1,5.027022E-1,6.3536125E-1,-1.1881429E0,-1.1881429E0,-9.4510096E-1,5.354108E-1,6.3536125E-1,6.3536125E-1,3.3238077E-1,7.6703376E-1,-4.6925524E-1,-4.9045458E-1,-2.992156E-1,5.2779555E-2,1.3823406E-1,-2.4910359E-1,-3.075704E-2,9.848479E-3,-5.470301E-2,8.6269245E-2,-6.677479E-2,-2.2144064E-1,9.899259E-2,-4.8207585E-2,1.3881043E-1,3.2225382E-1,1.2512064E-1,2.9952037E-1,-1.959113E-2,3.474841E-1,1.0963357E-1,-1.6548935E-1,1.2752764E-1,-3.936658E-1,1.1661384E-1,-3.9658304E-2,1.0175525E-1,-1.2212622E-1,-2.7175897E-1,-3.831441E-1,-2.64847E-1,5.8540905E-1,2.7776593E-2,-1.1626054E-1,-1.6696657E-1,7.668913E-2,1.5916443E-1,1.3112824E-2],"split_indices":[0,1,1,1,0,0,1,0,0,1,1,0,1,0,1,0,0,1,0,1,0,1,1,0,0,0,1,0,0,1,1,0,0,0,0,1,1,1,0,0,0,0,0,1,1,0,0,0,0,0,0,0,0,0,0,0,0,0,0,0,0,0,0,0,0,0,0,0,0,0,0,0,0,0,0,0,0,0,0,0,0],"split_type":[0,0,0,0,0,0,0,0,0,0,0,0,0,0,0,0,0,0,0,0,0,0,0,0,0,0,0,0,0,0,0,0,0,0,0,0,0,0,0,0,0,0,0,0,0,0,0,0,0,0,0,0,0,0,0,0,0,0,0,0,0,0,0,0,0,0,0,0,0,0,0,0,0,0,0,0,0,0,0,0,0],"sum_hessian":[2.8632016E4,3.1723794E3,2.5459635E4,1.2717667E3,1.9006128E3,1.0886647E3,2.437097E4,1.1354316E3,1.3633507E2,3.0577057E2,7.8289404E2,4.51758E2,2.3919213E4,6.741737E2,4.612579E2,1.3283739E2,3.497683E0,2.7223724E2,3.353334E1,2.2015834E2,5.627357E2,2.6403494E2,1.8772305E2,9.810295E1,2.382111E4,1.8178679E2,2.794711E2,3.1270547E0,1.2971033E2,1.3255229E2,1.3968495E2,2.2115885E1,1.1417455E1,3.9554726E1,1.8060362E2,1.4257405E2,4.2016165E2,1.1515584E2,1.488791E2,8.582823E1,1.0189481E2,5.1612602E1,4.649035E1,7.6456964E2,2.3056541E4,1.7209998E2,9.686809E0,9.486219E1,1.8460892E2,6.922144E1,6.0488888E1,6.299418E1,6.9558105E1,1.24708694E2,1.4976257E1,3.9777226E0,1.8138163E1,2.2877598E1,1.6677128E1,1.7243723E2,8.166393E0,8.850072E1,5.407333E1,3.2374527E2,9.64164E1,6.2431835E1,5.2724003E1,1.297483E2,1.9130802E1,1.7757172E1,6.807106E1,2.6987556E1,7.490726E1,2.8714745E0,4.8741127E1,1.2748989E1,3.374136E1,4.0233835E2,3.622313E2,2.8970856E2,2.2766832E4],"tree_param":{"num_deleted":"0","num_feature":"2","num_nodes":"81","size_leaf_vector":"1"}},{"base_weights":[-4.778458E-2,-8.9142776E-1,3.1837467E-2,-7.246558E-1,-3.0296388E-1,-2.6720825E-1,3.4749612E-2,-8.273438E-1,-5.353851E-2,-1.6902934E-1,-2.943692E-1,1.1309706E-1,2.1064352E-2,-3.0198875E-1,-5.782827E-1,-4.15726E-2,-1.8925735E-1,-3.3016428E-1,2.76715E-1,5.9356257E-2,2.7658916E-1,-8.524069E-1,2.3016803E-2,-9.8773474E-1,-3.5147387E-1,-1.4740351E-1,-2.8422613E-2,-1.9148718E-1,-2.9224092E-1,6.990211E-1,6.909455E-2,1.8431035E-1,-4.5374515E-3,3.1744263E-1,9.927507E-3,-3.0842185E-1,-5.406658E-1,-1.8299781E-1,2.6429955E-2,-3.0087245E-1,-1.1610901E-1,9.472566E-2,-2.614329E-1,9.563932E-3,-2.905364E-2,2.532833E-1,-7.391265E-2,-2.5185771E-2,6.0576525E-2,6.8140533E-3,6.9575354E-2,-7.207885E-2,1.7013298E-2,8.271325E-2,3.419237E-1,-3.1368804E-1,1.3642554E-1,-1.2245846E-1,-2.6135546E-1,-1.8809427E-1,1.6635794E-2,5.934063E-2,6.2575787E-3],"categories":[],"categories_nodes":[],"categories_segments":[],"categories_sizes":[],"default_left":[0,0,0,0,0,0,0,0,0,0,0,0,0,0,0,0,0,0,0,0,0,0,0,0,0,0,0,0,0,0,0,0,0,0,0,0,0,0,0,0,0,0,0,0,0,0,0,0,0,0,0,0,0,0,0,0,0,0,0,0,0,0,0],"id":10,"left_children":[1,3,5,7,-1,9,11,13,15,17,-1,19,21,-1,23,25,-1,27,29,31,33,35,37,39,41,-1,43,45,-1,-1,47,49,51,53,55,-1,57,59,61,-1,-1,-1,-1,-1,-1,-1,-1,-1,-1,-1,-1,-1,-1,-1,-1,-1,-1,-1,-1,-1,-1,-1,-1],"loss_changes":[1.8672584E3,4.6625E1,2.2130287E1,6.881061E1,0E0,1.7015398E1,2.697121E1,3.810791E1,8.970984E-1,1.5653773E1,0E0,3.284953E1,3.6545227E1,0E0,3.3550247E1,7.668307E-1,0E0,1.4066235E1,2.4596725E1,2.2487312E1,1.0075104E1,2.0614395E0,1.5031835E1,7.92778E-1,8.230701E1,0E0,5.3669107E-1,7.7444334E0,0E0,0E0,1.1100549E0,7.325981E0,2.6933937E1,2.7213547E1,5.8667015E1,0E0,4.9093246E-1,3.6920795E1,2.006839E1,0E0,0E0,0E0,0E0,0E0,0E0,0E0,0E0,0E0,0E0,0E0,0E0,0E0,0E0,0E0,0E0,0E0,0E0,0E0,0E0,0E0,0E0,0E0,0E0],"parents":[2147483647,0,0,1,1,2,2,3,3,5,5,6,6,7,7,8,8,9,9,11,11,12,12,14,14,15,15,17,17,18,18,19,19,20,20,21,21,22,22,23,23,24,24,26,26,27,27,30,30,31,31,32,32,33,33,34,34,36,36,37,37,38,38],"right_children":[2,4,6,8,-1,10,12,14,16,18,-1,20,22,-1,24,26,-1,28,30,32,34,36,38,40,42,-1,44,46,-1,-1,48,50,52,54,56,-1,58,60,62,-1,-1,-1,-1,-1,-1,-1,-1,-1,-1,-1,-1,-1,-1,-1,-1,-1,-1,-1,-1,-1,-1,-1,-1],"split_conditions":[2.6152322E-1,8.623046E-2,3.3238077E-1,4.6546556E-2,-3.0296388E-1,-2.950047E-1,-1.4140803E-1,-4.1135047E-2,-4.1135047E-2,-3.1817105E-1,-2.943692E-1,-2.0393746E-1,5.698924E-1,-3.0198875E-1,-6.7395324E-1,-2.2124021E-1,-1.8925735E-1,-8.5167736E-1,2.72922E-1,-1.0449861E0,1.0336834E0,5.027022E-1,-1.17978126E-1,2.4367352E-1,-6.210623E-1,-1.4740351E-1,7.0589244E-2,2.6701063E-1,-2.9224092E-1,6.990211E-1,2.9981306E-1,4.0219787E-1,-8.5167736E-1,-1.6731282E-1,1.0507444E0,-3.0842185E-1,-1.17978126E-1,9.02686E-1,-5.05197E-2,-3.0087245E-1,-1.1610901E-1,9.472566E-2,-2.614329E-1,9.563932E-3,-2.905364E-2,2.532833E-1,-7.391265E-2,-2.5185771E-2,6.0576525E-2,6.8140533E-3,6.9575354E-2,-7.207885E-2,1.7013298E-2,8.271325E-2,3.419237E-1,-3.1368804E-1,1.3642554E-1,-1.2245846E-1,-2.6135546E-1,-1.8809427E-1,1.6635794E-2,5.934063E-2,6.2575787E-3],"split_indices":[0,1,0,1,0,1,1,0,0,1,0,1,0,0,1,0,0,1,0,1,0,0,1,0,1,0,1,0,0,0,0,0,1,1,0,0,1,0,1,0,0,0,0,0,0,0,0,0,0,0,0,0,0,0,0,0,0,0,0,0,0,0,0],"split_type":[0,0,0,0,0,0,0,0,0,0,0,0,0,0,0,0,0,0,0,0,0,0,0,0,0,0,0,0,0,0,0,0,0,0,0,0,0,0,0,0,0,0,0,0,0,0,0,0,0,0,0,0,0,0,0,0,0,0,0,0,0,0,0],"sum_hessian":[2.7796494E4,2.39628E3,2.5400213E4,9.981177E2,1.3981625E3,2.4408961E2,2.5156123E4,8.654604E2,1.326573E2,2.156713E2,2.8418322E1,3.7396348E3,2.1416488E4,5.0145148E2,3.6400888E2,1.3101384E2,1.6434714E0,1.5859799E2,5.707329E1,2.81552E3,9.2411475E2,4.679357E1,2.1369695E4,1.2856285E2,2.3544603E2,2.688648E0,1.283252E2,1.315636E2,2.7034399E1,4.3021836E0,5.2771107E1,9.519497E2,1.8635703E3,8.0118066E2,1.2293405E2,2.845906E1,1.833451E1,3.4741537E2,2.102228E4,1.24742386E2,3.8204637E0,1.0329293E2,1.321531E2,6.8494095E1,5.9831097E1,5.8973055E0,1.2566629E2,2.4690266E1,2.8080843E1,2.1696616E2,7.349835E2,3.8374353E2,1.4798269E3,7.6375543E2,3.7425232E1,3.60464E1,8.688765E1,1.4684158E1,3.6503534E0,1.2082175E2,2.2659361E2,6.608349E2,2.0361445E4],"tree_param":{"num_deleted":"0","num_feature":"2","num_nodes":"63","size_leaf_vector":"1"}},{"base_weights":[-3.7559707E-2,-8.624307E-1,2.2029145E-2,-6.7533904E-1,-3.020555E-1,2.4436882E-2,-3.2180506E-1,-1.0021281E0,-4.2508632E-1,2.1336926E-2,2.3412609E-1,-7.2823614E-1,-2.890978E-2,-3.0149975E-1,-5.905427E-2,1.7560215E-1,-6.261213E-1,2.59625E-2,-1.3870482E-1,6.0415596E-2,4.8680833E-1,-3.15574E-1,-5.902177E-1,-2.9246232E-1,1.9815159E-1,-3.641172E-2,9.1976124E-1,-2.9780114E-1,-3.329097E-2,1.919178E-2,3.366949E-1,-3.0448815E-1,7.892957E-2,2.0218912E-1,-9.469451E-2,1.696071E-1,1.3792151E-1,2.6388696E-1,-7.7262634E-1,6.8042535E-1,-1.0211158E-1,-2.410372E-1,2.3492244E-3,3.8414696E-1,1.474932E-1,-6.456392E-2,-2.0849458E-3,8.762029E-3,-3.169954E-2,9.103909E-2,3.0565703E-1,3.47429E-2,-1.2141709E-1,6.4282894E-2,4.0507875E-3,1.8302497E-1,-7.5943306E-2,-9.147641E-2,5.4816103E-1,-3.1100458E-1,-1.9360615E-1,8.947107E-2,4.8532844E-1,-4.211265E-1,4.0491655E-2],"categories":[],"categories_nodes":[],"categories_segments":[],"categories_sizes":[],"default_left":[0,0,0,0,0,0,0,0,0,0,0,0,0,0,0,0,0,0,0,0,0,0,0,0,0,0,0,0,0,0,0,0,0,0,0,0,0,0,0,0,0,0,0,0,0,0,0,0,0,0,0,0,0,0,0,0,0,0,0,0,0,0,0,0,0],"id":11,"left_children":[1,3,5,7,-1,9,11,13,15,17,19,21,23,-1,-1,25,27,29,31,33,35,-1,37,-1,39,41,43,-1,45,47,49,51,53,55,57,-1,-1,-1,59,61,63,-1,-1,-1,-1,-1,-1,-1,-1,-1,-1,-1,-1,-1,-1,-1,-1,-1,-1,-1,-1,-1,-1,-1,-1],"loss_changes":[1.3333949E3,4.8703247E1,2.0953068E1,6.493588E1,0E0,1.6327156E1,2.0931131E1,6.0180664E-1,5.4978333E1,1.833335E1,1.603259E1,2.6704407E0,2.2388115E1,0E0,0E0,1.81321E1,7.399019E1,5.0624958E1,2.5124548E1,4.8129406E0,5.676651E-2,0E0,1.5138599E1,0E0,1.2256812E1,3.068673E0,3.30447E0,0E0,6.271508E-1,2.9455406E1,1.1323181E1,1.6691513E1,2.6678512E0,2.1366829E1,4.2892536E1,0E0,0E0,0E0,9.611645E-1,1.1132932E1,1.646427E1,0E0,0E0,0E0,0E0,0E0,0E0,0E0,0E0,0E0,0E0,0E0,0E0,0E0,0E0,0E0,0E0,0E0,0E0,0E0,0E0,0E0,0E0,0E0,0E0],"parents":[2147483647,0,0,1,1,2,2,3,3,5,5,6,6,7,7,8,8,9,9,10,10,11,11,12,12,15,15,16,16,17,17,18,18,19,19,20,20,22,22,24,24,25,25,26,26,28,28,29,29,30,30,31,31,32,32,33,33,34,34,38,38,39,39,40,40],"right_children":[2,4,6,8,-1,10,12,14,16,18,20,22,24,-1,-1,26,28,30,32,34,36,-1,38,-1,40,42,44,-1,46,48,50,52,54,56,58,-1,-1,-1,60,62,64,-1,-1,-1,-1,-1,-1,-1,-1,-1,-1,-1,-1,-1,-1,-1,-1,-1,-1,-1,-1,-1,-1,-1,-1],"split_conditions":[2.4992639E-1,8.623046E-2,6.1242044E-1,-6.7395324E-1,-3.020555E-1,4.6312505E-1,6.715932E-1,2.4367352E-1,-6.210623E-1,1.1160382E0,1.1145036E0,1.1110907E0,1.1102443E0,-3.0149975E-1,-5.905427E-2,1.7516312E-1,4.6546556E-2,4.4219953E-1,4.5267624E-1,5.484208E-1,1.1164964E0,-3.15574E-1,1.1113592E0,-2.9246232E-1,1.1113592E0,-4.1135047E-2,2.1588129E-1,-2.9780114E-1,-1.8942836E-1,4.3932772E-1,4.456059E-1,4.3842065E-1,1.1164964E0,1.1122005E0,1.1144078E0,1.696071E-1,1.3792151E-1,2.6388696E-1,1.1122005E0,1.1110907E0,1.1118696E0,-2.410372E-1,2.3492244E-3,3.8414696E-1,1.474932E-1,-6.456392E-2,-2.0849458E-3,8.762029E-3,-3.169954E-2,9.103909E-2,3.0565703E-1,3.47429E-2,-1.2141709E-1,6.4282894E-2,4.0507875E-3,1.8302497E-1,-7.5943306E-2,-9.147641E-2,5.4816103E-1,-3.1100458E-1,-1.9360615E-1,8.947107E-2,4.8532844E-1,-4.211265E-1,4.0491655E-2],"split_indices":[0,1,1,1,0,1,1,0,1,0,0,0,0,0,0,0,1,1,1,1,0,0,0,0,0,0,0,0,0,1,1,1,0,0,0,0,0,0,0,0,0,0,0,0,0,0,0,0,0,0,0,0,0,0,0,0,0,0,0,0,0,0,0,0,0],"split_type":[0,0,0,0,0,0,0,0,0,0,0,0,0,0,0,0,0,0,0,0,0,0,0,0,0,0,0,0,0,0,0,0,0,0,0,0,0,0,0,0,0,0,0,0,0,0,0,0,0,0,0,0,0,0,0,0,0,0,0,0,0,0,0,0,0],"sum_hessian":[2.7125988E4,1.8266556E3,2.5299332E4,7.982414E2,1.0284142E3,2.5124324E4,1.7500703E2,3.4488004E2,4.533614E2,2.4759395E4,3.6493066E2,7.267478E1,1.02332245E2,3.434077E2,1.4723179E0,1.1371366E2,3.3964774E2,2.4064707E4,6.9468756E2,2.1699384E2,1.4793683E2,1.9745834E1,5.292895E1,1.9170834E1,8.3161415E1,8.923992E1,2.4473738E1,2.094621E2,1.3018564E2,2.3552568E4,5.121382E2,3.940899E2,3.005977E2,1.1321223E2,1.037816E2,3.28196E1,1.1511723E2,5.421386E0,4.7507565E1,3.1423624E1,5.1737785E1,3.930761E0,8.530916E1,1.2201696E1,1.2272041E1,1.5558999E1,1.1462664E2,2.180437E4,1.748199E3,4.8972626E2,2.2411972E1,7.5857216E1,3.1823267E2,9.721563E1,2.0338206E2,5.953768E1,5.367455E1,9.430715E1,9.474446E0,1.312709E1,3.4380474E1,2.325843E1,8.165194E0,7.2134414E0,4.4524345E1],"tree_param":{"num_deleted":"0","num_feature":"2","num_nodes":"65","size_leaf_vector":"1"}},{"base_weights":[-2.9265333E-2,-8.207911E-1,1.5394305E-2,-6.0718167E-1,-3.0134204E-1,-2.1230726E-1,1.769222E-2,-9.9808955E-1,-3.5699442E-1,-1.0331703E-1,-2.9329666E-1,1.2909713E-1,1.2816125E-2,-3.0058038E-1,-5.049667E-2,1.13294706E-1,-5.511481E-1,-2.539172E-1,2.7944353E-1,-2.2256685E-2,1.7370886E-1,-3.5466957E-1,1.504166E-2,-2.2113316E-2,6.533143E-1,-2.949771E-1,-2.4216222E-2,-1.5148984E-1,-6.914459E-1,1.5065479E0,4.0257506E-2,-2.1335691E-1,4.0944982E-2,3.5758364E-1,5.5965085E-2,7.242683E-3,7.026387E-2,-2.2821562E-1,3.1959603E-3,3.1936076E-1,9.509408E-2,-1.20900586E-1,-4.355272E-3,2.0739861E-1,-5.4662384E-2,2.5248152E-1,-2.847035E-1,7.699029E-1,5.3026702E-2,-2.0454353E-2,4.0281877E-2,-1.0717068E-2,-1.02337055E-1,8.870441E-2,-1.736376E-2,4.0601794E-2,2.7277452E-1,7.839474E-2,-1.0537075E-1,5.910989E-3,-1.952971E-1,5.2989326E-2,2.627883E-3],"categories":[],"categories_nodes":[],"categories_segments":[],"categories_sizes":[],"default_left":[0,0,0,0,0,0,0,0,0,0,0,0,0,0,0,0,0,0,0,0,0,0,0,0,0,0,0,0,0,0,0,0,0,0,0,0,0,0,0,0,0,0,0,0,0,0,0,0,0,0,0,0,0,0,0,0,0,0,0,0,0,0,0],"id":12,"left_children":[1,3,5,7,-1,9,11,13,15,17,-1,19,21,-1,-1,23,25,27,29,31,33,-1,35,37,39,-1,41,43,45,47,49,51,53,55,57,59,61,-1,-1,-1,-1,-1,-1,-1,-1,-1,-1,-1,-1,-1,-1,-1,-1,-1,-1,-1,-1,-1,-1,-1,-1,-1,-1],"loss_changes":[9.428471E2,5.528363E1,1.3214716E1,6.430351E1,0E0,2.0947468E1,1.3577295E1,6.52771E-1,3.70139E1,1.2867688E1,0E0,7.0808773E0,6.37157E1,0E0,0E0,8.722052E0,6.523429E1,7.0583525E0,1.8476976E1,2.9012594E0,1.7508383E1,0E0,1.0295449E1,2.335703E0,2.9689398E0,0E0,4.7231922E-1,3.5122852E0,1.2660293E1,1.4027412E1,5.584967E-1,1.3423207E0,4.568806E0,3.8603848E1,4.1462505E1,1.7183713E2,1.9352081E1,0E0,0E0,0E0,0E0,0E0,0E0,0E0,0E0,0E0,0E0,0E0,0E0,0E0,0E0,0E0,0E0,0E0,0E0,0E0,0E0,0E0,0E0,0E0,0E0,0E0,0E0],"parents":[2147483647,0,0,1,1,2,2,3,3,5,5,6,6,7,7,8,8,9,9,11,11,12,12,15,15,16,16,17,17,18,18,19,19,20,20,22,22,23,23,24,24,26,26,27,27,28,28,29,29,30,30,31,31,32,32,33,33,34,34,35,35,36,36],"right_children":[2,4,6,8,-1,10,12,14,16,18,-1,20,22,-1,-1,24,26,28,30,32,34,-1,36,38,40,-1,42,44,46,48,50,52,54,56,58,60,62,-1,-1,-1,-1,-1,-1,-1,-1,-1,-1,-1,-1,-1,-1,-1,-1,-1,-1,-1,-1,-1,-1,-1,-1,-1,-1],"split_conditions":[2.4992639E-1,8.623046E-2,3.3238077E-1,-6.7395324E-1,-3.0134204E-1,-2.950047E-1,-9.4510096E-1,2.4367352E-1,-6.210623E-1,-3.7232342E-1,-2.9329666E-1,4.0219787E-1,-8.798333E-1,-3.0058038E-1,-5.049667E-2,1.883706E-1,4.6546556E-2,-8.5167736E-1,2.72922E-1,-1.2003099E0,5.698924E-1,-3.5466957E-1,4.4031954E-1,-4.1135047E-2,2.1588129E-1,-2.949771E-1,-2.2124021E-1,-1.2003099E0,2.5598142E-1,-3.0231595E-1,2.9981306E-1,3.6807188E-1,-1.1988739E0,-1.1881429E0,-1.1881429E0,4.3932772E-1,4.417275E-1,-2.2821562E-1,3.1959603E-3,3.1936076E-1,9.509408E-2,-1.20900586E-1,-4.355272E-3,2.0739861E-1,-5.4662384E-2,2.5248152E-1,-2.847035E-1,7.699029E-1,5.3026702E-2,-2.0454353E-2,4.0281877E-2,-1.0717068E-2,-1.02337055E-1,8.870441E-2,-1.736376E-2,4.0601794E-2,2.7277452E-1,7.839474E-2,-1.0537075E-1,5.910989E-3,-1.952971E-1,5.2989326E-2,2.627883E-3],"split_indices":[0,1,0,1,0,1,1,0,1,1,0,0,1,0,0,0,1,1,0,1,0,0,1,0,0,0,0,1,0,1,0,0,1,1,1,1,1,0,0,0,0,0,0,0,0,0,0,0,0,0,0,0,0,0,0,0,0,0,0,0,0,0,0],"split_type":[0,0,0,0,0,0,0,0,0,0,0,0,0,0,0,0,0,0,0,0,0,0,0,0,0,0,0,0,0,0,0,0,0,0,0,0,0,0,0,0,0,0,0,0,0,0,0,0,0,0,0,0,0,0,0,0,0,0,0,0,0,0,0],"sum_hessian":[2.6670975E4,1.4235358E3,2.5247438E4,6.601425E2,7.6339325E2,2.5133293E2,2.4996105E4,2.564539E2,4.0368866E2,2.2099666E2,3.0336271E1,1.0471115E3,2.3948994E4,2.5506445E2,1.3894265E0,1.18081635E2,2.8560703E2,1.5883743E2,6.2159225E1,2.3848988E2,8.086215E2,4.353167E1,2.390546E4,9.5175705E1,2.2905926E1,1.5644707E2,1.2915994E2,1.2979752E2,2.9039919E1,9.275282E0,5.2883945E1,5.8681446E1,1.7980844E2,3.148689E2,4.9375262E2,2.0948113E4,2.9573494E3,3.099185E0,9.207652E1,9.331533E0,1.3574392E1,2.2121189E0,1.2694782E2,3.8081098E0,1.259894E2,3.8509905E0,2.5188929E1,4.6441693E0,4.6311126E0,2.4685793E1,2.819815E1,2.50852E1,3.359625E1,4.970171E1,1.3010674E2,2.2533533E2,8.9533554E1,3.2846603E2,1.6528659E2,2.0559877E4,3.8823654E2,1.0828192E3,1.87453E3],"tree_param":{"num_deleted":"0","num_feature":"2","num_nodes":"63","size_leaf_vector":"1"}},{"base_weights":[-2.2994535E-2,-7.7135104E-1,1.0479054E-2,-5.349105E-1,-3.00754E-1,1.207551E-2,-2.4167287E-1,-9.9391764E-1,-2.9385486E-1,6.0693063E-3,7.1663246E-2,-5.9369075E-1,7.141169E-3,-2.9971993E-1,-4.311576E-2,7.524918E-2,-4.7500736E-1,1.438824E-2,-2.0437665E-1,-6.408514E-2,1.361392E-1,-2.8336298E-1,-4.657025E-1,-2.8202587E-1,1.4290881E-1,-8.1959486E-2,3.3902422E-1,-2.9176226E-1,-1.81186E-2,1.2329236E-2,2.0640029E-1,-9.8893565E-1,-8.763607E-2,-2.1733204E-1,9.2125826E-2,4.865705E-1,4.9768526E-2,1.7474975E-1,-6.2370133E-1,5.143912E-1,-8.159197E-2,2.3131477E-2,-1.15974076E-1,1.1264154E-1,-7.628326E-2,-1.04982674E-1,-3.0702273E-3,5.047477E-3,-5.5497434E-2,-5.2960355E-2,3.7213853E-1,-3.2434946E-1,-2.0570748E-1,1.3301495E-1,-5.397856E-2,-2.6055848E-2,-1.4605282E-1,4.623007E-2,-2.051821E-2,4.101265E-2,3.0561528E-1,3.0444048E-3,1.04062855E-1,-2.637653E-1,-1.5227976E-1,2.4521267E-1,-1.142386E-1,-3.146603E-1,2.7957398E-2],"categories":[],"categories_nodes":[],"categories_segments":[],"categories_sizes":[],"default_left":[0,0,0,0,0,0,0,0,0,0,0,0,0,0,0,0,0,0,0,0,0,0,0,0,0,0,0,0,0,0,0,0,0,0,0,0,0,0,0,0,0,0,0,0,0,0,0,0,0,0,0,0,0,0,0,0,0,0,0,0,0,0,0,0,0,0,0,0,0],"id":13,"left_children":[1,3,5,7,-1,9,11,13,15,17,19,21,23,-1,-1,25,27,29,31,33,35,-1,37,-1,39,41,43,-1,45,47,49,51,53,55,57,59,61,-1,63,65,67,-1,-1,-1,-1,-1,-1,-1,-1,-1,-1,-1,-1,-1,-1,-1,-1,-1,-1,-1,-1,-1,-1,-1,-1,-1,-1,-1,-1],"loss_changes":[6.579542E2,6.0926697E1,1.012365E1,6.1455933E1,0E0,8.941371E0,1.386275E1,6.9573975E-1,2.4596594E1,3.973953E1,2.0031277E1,2.503004E0,1.2183149E1,0E0,0E0,5.0782213E0,5.602361E1,8.630216E0,7.8972626E1,1.7671125E1,4.6928814E1,0E0,8.642599E0,0E0,6.948398E0,3.7664247E0,1.0831838E0,0E0,3.353163E-1,1.9168674E1,9.19281E1,2.3828735E0,3.695818E1,1.3056868E1,3.649977E0,5.6948486E1,1.4659897E1,0E0,8.5681725E-1,8.809255E0,8.970402E0,0E0,0E0,0E0,0E0,0E0,0E0,0E0,0E0,0E0,0E0,0E0,0E0,0E0,0E0,0E0,0E0,0E0,0E0,0E0,0E0,0E0,0E0,0E0,0E0,0E0,0E0,0E0,0E0],"parents":[2147483647,0,0,1,1,2,2,3,3,5,5,6,6,7,7,8,8,9,9,10,10,11,11,12,12,15,15,16,16,17,17,18,18,19,19,20,20,22,22,24,24,25,25,26,26,28,28,29,29,30,30,31,31,32,32,33,33,34,34,35,35,36,36,38,38,39,39,40,40],"right_children":[2,4,6,8,-1,10,12,14,16,18,20,22,24,-1,-1,26,28,30,32,34,36,-1,38,-1,40,42,44,-1,46,48,50,52,54,56,58,60,62,-1,64,66,68,-1,-1,-1,-1,-1,-1,-1,-1,-1,-1,-1,-1,-1,-1,-1,-1,-1,-1,-1,-1,-1,-1,-1,-1,-1,-1,-1,-1],"split_conditions":[2.4992639E-1,8.623046E-2,6.1242044E-1,-6.7395324E-1,-3.00754E-1,4.4095555E-1,6.715932E-1,2.4367352E-1,-6.210623E-1,4.3932772E-1,1.1150753E0,1.1110907E0,1.1102443E0,-2.9971993E-1,-4.311576E-2,1.4746158E-1,4.6546556E-2,1.1157807E0,4.3978658E-1,4.4219953E-1,4.417275E-1,-2.8336298E-1,1.1113592E0,-2.8202587E-1,1.1113592E0,1.0021141E-1,2.4367352E-1,-2.9176226E-1,-2.2124021E-1,1.1151776E0,4.3881363E-1,1.1153747E0,4.398561E-1,4.417275E-1,5.484208E-1,4.4120964E-1,4.6312505E-1,1.7474975E-1,1.1122005E0,7.300913E-1,1.1118696E0,2.3131477E-2,-1.15974076E-1,1.1264154E-1,-7.628326E-2,-1.04982674E-1,-3.0702273E-3,5.047477E-3,-5.5497434E-2,-5.2960355E-2,3.7213853E-1,-3.2434946E-1,-2.0570748E-1,1.3301495E-1,-5.397856E-2,-2.6055848E-2,-1.4605282E-1,4.623007E-2,-2.051821E-2,4.101265E-2,3.0561528E-1,3.0444048E-3,1.04062855E-1,-2.637653E-1,-1.5227976E-1,2.4521267E-1,-1.142386E-1,-3.146603E-1,2.7957398E-2],"split_indices":[0,1,1,1,0,1,1,0,1,1,0,0,0,0,0,0,1,0,1,1,1,0,0,0,0,0,0,0,0,0,1,0,1,1,1,1,1,0,0,1,0,0,0,0,0,0,0,0,0,0,0,0,0,0,0,0,0,0,0,0,0,0,0,0,0,0,0,0,0],"split_type":[0,0,0,0,0,0,0,0,0,0,0,0,0,0,0,0,0,0,0,0,0,0,0,0,0,0,0,0,0,0,0,0,0,0,0,0,0,0,0,0,0,0,0,0,0,0,0,0,0,0,0,0,0,0,0,0,0,0,0,0,0,0,0,0,0,0,0,0,0],"sum_hessian":[2.6264127E4,1.1235392E3,2.5140588E4,5.5706665E2,5.6647253E2,2.4983361E4,1.5722568E2,1.9074174E2,3.6632486E2,2.2696725E4,2.2866367E3,6.453565E1,9.2690025E1,1.8941956E2,1.3221927E0,1.2079196E2,2.4553291E2,2.1834537E4,8.621882E2,7.363414E2,1.5502953E3,1.5544314E1,4.8991333E1,1.0877232E1,8.18128E1,7.6116295E1,4.467567E1,1.16998085E2,1.2853482E2,2.1603936E4,2.3060147E2,1.1070697E2,7.514812E2,3.7149963E2,3.6484177E2,3.0563013E2,1.2446652E3,6.0653863E0,4.292595E1,3.033164E1,5.1481155E1,5.0495728E1,2.562057E1,4.2435905E1,2.2397661E0,1.9763327E0,1.26558495E2,2.1123578E4,4.803576E2,1.6888797E2,6.1713505E1,8.292169E1,2.778528E1,1.1070697E2,6.4077423E2,2.5120505E2,1.2029458E2,2.6324622E2,1.0159556E2,1.8515579E2,1.20474335E2,1.0991263E3,1.455388E2,1.135756E1,3.1568388E1,2.2726547E1,7.6050935E0,7.113434E0,4.436772E1],"tree_param":{"num_deleted":"0","num_feature":"2","num_nodes":"69","size_leaf_vector":"1"}},{"base_weights":[-1.7860398E-2,-7.1398836E-1,7.1602375E-3,-4.6156332E-1,-3.0023676E-1,5.007382E-2,-5.167005E-4,-9.892485E-1,-2.3803335E-1,-1.0140097E-2,1.5477532E-1,-9.355689E-1,1.612872E-3,-2.988407E-1,-3.6773887E-2,4.8861098E-2,-4.007522E-1,1.8998144E-2,-1.0848458E0,3.797988E-1,1.0124104E-1,-3.012962E-1,-1.5197727E-1,-6.8042785E-2,1.3119774E-2,-2.613067E-2,3.2903033E-1,-2.879074E-1,-1.3645271E-2,-1.0108255E-2,8.61657E-1,-1.3805772E0,-3.5206428E-1,1.3950053E-1,4.5891243E-1,-5.0317067E-1,1.5278856E-1,7.359411E-2,-2.2016568E-1,-1.3530125E-1,2.522409E-2,-2.1610287E-1,-1.012295E-4,1.804927E-1,3.7470784E-2,-2.3466822E-2,5.578278E-3,1.8441472E-2,-6.318669E-2,5.6248546E-1,-9.830125E-2,-1.8482998E-1,-4.659092E-1,-2.3797421E-1,3.1195173E-1,3.9856082E-1,2.005676E-2,1.8918002E-1,9.580036E-2,-1.3683245E-1,-1.721085E-1,5.7630565E-2,-2.3003817E-2,-2.2760514E-2,5.349968E-1,8.260436E-4,-1.3870937E-1,4.659881E-2,-2.9352254E-1,6.404101E-1,3.8945253E-3],"categories":[],"categories_nodes":[],"categories_segments":[],"categories_sizes":[],"default_left":[0,0,0,0,0,0,0,0,0,0,0,0,0,0,0,0,0,0,0,0,0,0,0,0,0,0,0,0,0,0,0,0,0,0,0,0,0,0,0,0,0,0,0,0,0,0,0,0,0,0,0,0,0,0,0,0,0,0,0,0,0,0,0,0,0,0,0,0,0,0,0],"id":14,"left_children":[1,3,5,7,-1,9,11,13,15,17,19,21,23,-1,-1,25,27,29,31,33,35,-1,-1,37,39,41,43,-1,45,47,49,51,53,55,57,59,61,63,65,67,69,-1,-1,-1,-1,-1,-1,-1,-1,-1,-1,-1,-1,-1,-1,-1,-1,-1,-1,-1,-1,-1,-1,-1,-1,-1,-1,-1,-1,-1,-1],"loss_changes":[4.5268042E2,6.481967E1,8.265421E0,5.6555016E1,0E0,2.400375E1,4.2380924E1,7.311096E-1,1.5869356E1,7.574121E1,1.670773E1,9.1757965E-1,1.7021456E1,0E0,0E0,2.6089659E0,4.688544E1,5.777368E1,1.33497925E1,5.008026E0,3.5106537E1,0E0,0E0,6.488802E1,3.274618E1,1.7645575E0,1.3831875E0,0E0,2.7018225E-1,3.2701862E1,9.539389E1,4.9950714E0,1.2922397E1,5.7432294E0,4.5980644E0,3.2360077E-2,9.36738E0,3.9875195E2,7.83918E1,3.36935E2,4.3517578E2,0E0,0E0,0E0,0E0,0E0,0E0,0E0,0E0,0E0,0E0,0E0,0E0,0E0,0E0,0E0,0E0,0E0,0E0,0E0,0E0,0E0,0E0,0E0,0E0,0E0,0E0,0E0,0E0,0E0,0E0],"parents":[2147483647,0,0,1,1,2,2,3,3,5,5,6,6,7,7,8,8,9,9,10,10,11,11,12,12,15,15,16,16,17,17,18,18,19,19,20,20,23,23,24,24,25,25,26,26,28,28,29,29,30,30,31,31,32,32,33,33,34,34,35,35,36,36,37,37,38,38,39,39,40,40],"right_children":[2,4,6,8,-1,10,12,14,16,18,20,22,24,-1,-1,26,28,30,32,34,36,-1,-1,38,40,42,44,-1,46,48,50,52,54,56,58,60,62,64,66,68,70,-1,-1,-1,-1,-1,-1,-1,-1,-1,-1,-1,-1,-1,-1,-1,-1,-1,-1,-1,-1,-1,-1,-1,-1,-1,-1,-1,-1,-1,-1],"split_conditions":[2.4992639E-1,8.623046E-2,-1.4140803E-1,-6.7395324E-1,-3.0023676E-1,-3.1817105E-1,5.354108E-1,2.4367352E-1,-6.210623E-1,-4.3508998E-1,5.698924E-1,5.027022E-1,9.74558E-1,-2.988407E-1,-3.6773887E-2,1.9545595E-1,4.6546556E-2,-4.6925524E-1,8.275811E-1,3.3238077E-1,6.696015E-1,-3.012962E-1,-1.5197727E-1,1.1413969E-1,1.1413969E-1,-4.1135047E-2,2.1588129E-1,-2.879074E-1,-1.3123144E-1,-6.7395324E-1,6.696015E-1,2.72922E-1,-3.7176734E-1,2.6152322E-1,4.3543896E-1,6.3536125E-1,1.0336834E0,9.243848E-2,8.535731E-1,4.6546556E-2,1.4926632E-1,-2.1610287E-1,-1.012295E-4,1.804927E-1,3.7470784E-2,-2.3466822E-2,5.578278E-3,1.8441472E-2,-6.318669E-2,5.6248546E-1,-9.830125E-2,-1.8482998E-1,-4.659092E-1,-2.3797421E-1,3.1195173E-1,3.9856082E-1,2.005676E-2,1.8918002E-1,9.580036E-2,-1.3683245E-1,-1.721085E-1,5.7630565E-2,-2.3003817E-2,-2.2760514E-2,5.349968E-1,8.260436E-4,-1.3870937E-1,4.659881E-2,-2.9352254E-1,6.404101E-1,3.8945253E-3],"split_indices":[0,1,1,1,0,1,0,0,1,1,0,0,0,0,0,0,1,1,0,0,0,0,0,1,1,0,0,0,0,1,0,0,1,0,0,0,0,1,0,1,1,0,0,0,0,0,0,0,0,0,0,0,0,0,0,0,0,0,0,0,0,0,0,0,0,0,0,0,0,0,0],"split_type":[0,0,0,0,0,0,0,0,0,0,0,0,0,0,0,0,0,0,0,0,0,0,0,0,0,0,0,0,0,0,0,0,0,0,0,0,0,0,0,0,0,0,0,0,0,0,0,0,0,0,0,0,0,0,0,0,0,0,0,0,0,0,0,0,0,0,0,0,0,0,0],"sum_hessian":[2.5988588E4,9.0073254E2,2.5087855E4,4.804651E2,4.2026746E2,3.8061582E3,2.1281697E4,1.4194684E2,3.3851822E2,2.417027E3,1.389131E3,4.7362717E1,2.1234334E4,1.4067952E2,1.2673231E0,1.2276584E2,2.157524E2,2.3541812E3,6.2846027E1,2.6579718E2,1.1233339E3,3.9664547E1,7.6981697E0,3.0098223E3,1.8224512E4,9.755927E1,2.5206564E1,8.76772E1,1.280752E2,2.276535E3,7.764611E1,4.4145885E1,1.8700144E1,6.6518486E1,1.992787E2,8.758692E1,1.035747E3,1.5588976E3,1.4509248E3,1.3734408E3,1.685107E4,2.5302866E0,9.5028984E1,9.958986E0,1.5247578E1,4.217339E1,8.590181E1,1.6781571E3,5.983778E2,4.1614517E1,3.6031597E1,8.967216E0,3.517867E1,1.4526019E1,4.1741247E0,2.8345711E0,6.3683914E1,8.7783195E1,1.11495514E2,5.7010113E1,3.0576809E1,8.843923E2,1.5135461E2,1.4344548E3,1.2444276E2,7.5604846E2,6.948763E2,1.02196967E3,3.514712E2,9.623051E1,1.675484E4],"tree_param":{"num_deleted":"0","num_feature":"2","num_nodes":"71","size_leaf_vector":"1"}},{"base_weights":[-1.4044022E-2,-6.4947E-1,4.6867547E-3,-3.8996235E-1,-2.997431E-1,-1.5701157E-1,6.2112566E-3,-9.836902E-1,-1.8959624E-1,-9.548397E-2,-2.8390557E-1,4.4335812E-2,-1.6567908E-4,-2.9786563E-1,-3.1340033E-2,3.2614883E-2,-3.3122763E-1,-2.0205006E-1,1.4742288E-1,2.0379343E-3,1.4075807E-1,-7.3006946E-1,9.7618456E-4,-2.0221333E-1,4.9865827E-2,-2.831392E-1,-9.814647E-3,6.3396305E-1,-2.3527677E-1,1.5757838E0,5.973436E-2,6.459749E-2,-7.366607E-2,3.8965744E-1,1.00996226E-1,-2.930905E-1,-4.2031944E-1,-1.7468242E-1,3.7892188E-3,-8.558121E-3,4.9032327E-2,9.239111E-3,-1.7452532E-2,6.677449E-1,-1.0828016E-1,-3.995195E-2,-2.685669E-1,1.1058891E0,-1.9629769E-1,9.764864E-2,1.1610963E-3,-2.3743946E-3,1.9866814E-1,-9.960112E-2,1.8011352E-2,2.8974952E-3,1.7098415E-1,-9.3788214E-2,4.61106E-2,-8.530255E-2,-2.3902646E-1,-1.3955882E-1,-6.039584E-3,3.5487503E-2,3.31697E-5],"categories":[],"categories_nodes":[],"categories_segments":[],"categories_sizes":[],"default_left":[0,0,0,0,0,0,0,0,0,0,0,0,0,0,0,0,0,0,0,0,0,0,0,0,0,0,0,0,0,0,0,0,0,0,0,0,0,0,0,0,0,0,0,0,0,0,0,0,0,0,0,0,0,0,0,0,0,0,0,0,0,0,0,0,0],"id":15,"left_children":[1,3,5,7,-1,9,11,13,15,17,-1,19,21,-1,-1,23,25,27,29,31,33,35,37,-1,39,-1,41,43,45,47,49,51,53,55,57,-1,59,61,63,-1,-1,-1,-1,-1,-1,-1,-1,-1,-1,-1,-1,-1,-1,-1,-1,-1,-1,-1,-1,-1,-1,-1,-1,-1,-1],"loss_changes":[3.0582205E2,6.637323E1,6.153843E0,5.0248657E1,0E0,1.1233543E1,6.011779E0,7.5917816E-1,1.002593E1,5.657738E0,0E0,1.4451429E1,1.765768E1,0E0,0E0,1.5547904E0,3.8273453E1,4.3586426E0,8.2821045E0,1.1674272E1,1.06533375E1,2.12014E0,1.0453216E1,0E0,1.0974863E0,0E0,2.5423828E-1,1.040601E1,9.750829E0,2.043246E1,9.496123E-1,5.8493095E1,3.8544693E1,1.0166491E1,2.0386803E1,0E0,6.145971E-1,1.4961547E1,8.7700405E0,0E0,0E0,0E0,0E0,0E0,0E0,0E0,0E0,0E0,0E0,0E0,0E0,0E0,0E0,0E0,0E0,0E0,0E0,0E0,0E0,0E0,0E0,0E0,0E0,0E0,0E0],"parents":[2147483647,0,0,1,1,2,2,3,3,5,5,6,6,7,7,8,8,9,9,11,11,12,12,15,15,16,16,17,17,18,18,19,19,20,20,21,21,22,22,24,24,26,26,27,27,28,28,29,29,30,30,31,31,32,32,33,33,34,34,36,36,37,37,38,38],"right_children":[2,4,6,8,-1,10,12,14,16,18,-1,20,22,-1,-1,24,26,28,30,32,34,36,38,-1,40,-1,42,44,46,48,50,52,54,56,58,-1,60,62,64,-1,-1,-1,-1,-1,-1,-1,-1,-1,-1,-1,-1,-1,-1,-1,-1,-1,-1,-1,-1,-1,-1,-1,-1,-1,-1],"split_conditions":[2.4992639E-1,8.623046E-2,3.3238077E-1,-6.7395324E-1,-2.997431E-1,-2.950047E-1,-1.4140803E-1,2.4367352E-1,-6.210623E-1,-3.7232342E-1,-2.8390557E-1,8.0172426E-1,5.698924E-1,-2.9786563E-1,-3.1340033E-2,-4.1135047E-2,4.6546556E-2,2.5598142E-1,2.6152322E-1,-7.3087686E-1,-4.3508998E-1,5.027022E-1,-1.17978126E-1,-2.0221333E-1,1.4746158E-1,-2.831392E-1,7.0589244E-2,-4.3508998E-1,-8.5167736E-1,-3.0231595E-1,2.72922E-1,-8.5167736E-1,5.354108E-1,-7.3087686E-1,-2.0393746E-1,-2.930905E-1,-1.17978126E-1,9.02686E-1,-5.05197E-2,-8.558121E-3,4.9032327E-2,9.239111E-3,-1.7452532E-2,6.677449E-1,-1.0828016E-1,-3.995195E-2,-2.685669E-1,1.1058891E0,-1.9629769E-1,9.764864E-2,1.1610963E-3,-2.3743946E-3,1.9866814E-1,-9.960112E-2,1.8011352E-2,2.8974952E-3,1.7098415E-1,-9.3788214E-2,4.61106E-2,-8.530255E-2,-2.3902646E-1,-1.3955882E-1,-6.039584E-3,3.5487503E-2,3.31697E-5],"split_indices":[0,1,0,1,0,1,1,0,1,1,0,0,0,0,0,0,1,0,0,1,1,0,1,0,0,0,1,1,1,1,0,1,0,1,1,0,1,0,1,0,0,0,0,0,0,0,0,0,0,0,0,0,0,0,0,0,0,0,0,0,0,0,0,0,0],"split_type":[0,0,0,0,0,0,0,0,0,0,0,0,0,0,0,0,0,0,0,0,0,0,0,0,0,0,0,0,0,0,0,0,0,0,0,0,0,0,0,0,0,0,0,0,0,0,0,0,0,0,0,0,0,0,0,0,0,0,0,0,0,0,0,0,0],"sum_hessian":[2.569371E4,7.347359E2,2.4958975E4,4.229569E2,3.1177902E2,2.3216429E2,2.472681E4,1.05734215E2,3.1722272E2,2.1641605E2,1.5748256E1,3.5424277E3,2.1184383E4,1.0451192E2,1.2222978E0,1.2378352E2,1.9343918E2,1.505404E2,6.587564E1,2.4629976E3,1.0794303E3,3.2092045E1,2.1152291E4,2.0425034E0,1.2174102E2,6.590216E1,1.2753701E2,5.063305E0,1.454771E2,2.8286953E0,6.3046944E1,1.3486554E3,1.1143422E3,1.4747476E2,9.319555E2,1.6659145E1,1.5432899E1,3.3243515E2,2.0819855E4,7.24694E1,4.9271626E1,6.9519646E1,5.801737E1,1.4715558E0,3.5917492E0,1.27026054E2,1.8451048E1,1.1178381E0,1.7108573E0,1.01124735E1,5.2934467E1,1.2036052E3,1.4505016E2,3.795353E2,7.348069E2,4.7793438E1,9.968132E1,1.0477466E2,8.2718085E2,1.2627053E1,2.8058462E0,1.1474161E2,2.1769356E2,6.470951E2,2.017276E4],"tree_param":{"num_deleted":"0","num_feature":"2","num_nodes":"65","size_leaf_vector":"1"}},{"base_weights":[-1.08022215E-2,-9.6772856E-1,-2.278033E-3,-2.991011E-1,-5.418452E-1,7.4111044E-6,-2.954119E-1,-2.4474077E-1,-3.7769556E-1,-2.2446041E-1,3.9756205E-3,-1.22126594E-1,-2.347677E-1,-1.8422091E-1,-2.872414E-1,1.4761531E-1,1.9507946E-3,-3.6721995E-1,1.1384982E-1,-7.532117E-1,-1.3595621E-1,3.2286223E-2,3.5666186E-1,-1.7115565E-2,1.6005764E-2,-3.775136E-2,-1.2625502E-1,-6.5506403E-3,6.1014775E-2,-2.7292427E-1,-1.5551129E-1,1.830848E-1,-4.745235E-2,-2.5755605E-3,4.8949774E-2,1.907161E-1,4.1166443E-2,1.6286734E-3,-1.10314E-1,-4.9107928E-2,6.812882E-3],"categories":[],"categories_nodes":[],"categories_segments":[],"categories_sizes":[],"default_left":[0,0,0,0,0,0,0,0,0,0,0,0,0,0,0,0,0,0,0,0,0,0,0,0,0,0,0,0,0,0,0,0,0,0,0,0,0,0,0,0,0],"id":16,"left_children":[1,3,5,-1,7,9,-1,-1,11,13,15,17,-1,19,-1,21,23,25,27,29,31,33,35,37,39,-1,-1,-1,-1,-1,-1,-1,-1,-1,-1,-1,-1,-1,-1,-1,-1],"loss_changes":[2.080347E2,2.2672577E0,5.6760475E1,0E0,4.4168806E-1,2.2467178E1,0E0,0E0,1.1759231E0,1.274749E1,7.208321E0,5.460297E-1,0E0,1.1338168E1,0E0,8.2944145E0,6.5500383E0,5.4647923E-3,6.76727E-2,7.177868E-1,6.4838552E0,1.1949453E0,7.407489E0,8.1984215E1,1.6953848E1,0E0,0E0,0E0,0E0,0E0,0E0,0E0,0E0,0E0,0E0,0E0,0E0,0E0,0E0,0E0,0E0],"parents":[2147483647,0,0,1,1,2,2,4,4,5,5,8,8,9,9,10,10,11,11,13,13,15,15,16,16,17,17,18,18,19,19,20,20,21,21,22,22,23,23,24,24],"right_children":[2,4,6,-1,8,10,-1,-1,12,14,16,18,-1,20,-1,22,24,26,28,30,32,34,36,38,40,-1,-1,-1,-1,-1,-1,-1,-1,-1,-1,-1,-1,-1,-1,-1,-1],"split_conditions":[-2.0196798E-1,-2.2566515E-1,7.8763247E-1,-2.991011E-1,4.6546556E-2,2.9981306E-1,-2.954119E-1,-2.4474077E-1,8.623046E-2,8.623046E-2,-1.1976534E0,7.0589244E-2,-2.347677E-1,-1.1881429E0,-2.872414E-1,4.6683678E-1,4.2771825E-1,-2.2124021E-1,-2.1492487E-1,2.72922E-1,-9.4510096E-1,4.0219787E-1,5.698924E-1,4.2475227E-1,1.1087513E0,-3.775136E-2,-1.2625502E-1,-6.5506403E-3,6.1014775E-2,-2.7292427E-1,-1.5551129E-1,1.830848E-1,-4.745235E-2,-2.5755605E-3,4.8949774E-2,1.907161E-1,4.1166443E-2,1.6286734E-3,-1.10314E-1,-4.9107928E-2,6.812882E-3],"split_indices":[0,0,1,0,1,0,0,0,1,1,1,1,0,1,0,0,1,0,0,0,1,0,0,1,0,0,0,0,0,0,0,0,0,0,0,0,0,0,0,0,0],"split_type":[0,0,0,0,0,0,0,0,0,0,0,0,0,0,0,0,0,0,0,0,0,0,0,0,0,0,0,0,0,0,0,0,0,0,0,0,0,0,0,0,0],"sum_hessian":[2.550303E4,2.241787E2,2.5278852E4,2.0850507E2,1.5673624E1,2.522118E4,5.7672577E1,4.3851547E0,1.1288469E1,4.3715707E2,2.4784021E4,7.718093E0,3.5703766E0,4.155939E2,2.1563196E1,3.4351358E2,2.4440508E4,3.5130963E0,4.2049966E0,3.1354221E1,3.8423965E2,2.2212416E2,1.21389435E2,1.03711875E4,1.406932E4,1.246985E0,2.2661114E0,1.9722321E0,2.2327647E0,1.7089273E1,1.4264948E1,1.03442E1,3.7389548E2,1.6997755E2,5.2146595E1,5.2600857E1,6.878858E1,9.745508E3,6.256806E2,5.0515106E2,1.3564169E4],"tree_param":{"num_deleted":"0","num_feature":"2","num_nodes":"41","size_leaf_vector":"1"}},{"base_weights":[-8.215093E-3,-2.9668728E-1,-2.0392006E-3,-2.6639993E-4,-2.938162E-1,-1.7585772E-1,2.7542068E-3,-1.4247553E-1,-2.8329307E-1,8.917707E-3,-2.5562936E-2,-5.445485E-1,-7.935893E-2,5.3170826E-3,3.2368988E-1,-1.4467873E-1,3.569197E-2,-2.8789416E-1,-6.687201E-2,1.1276027E-2,-4.7395986E-2,-3.5342146E-3,6.79257E-3,5.580245E-3,5.4047656E-1,-2.1490086E-2,-3.2471725E-1,2.1311564E-2,-1.9898597E-2],"categories":[],"categories_nodes":[],"categories_segments":[],"categories_sizes":[],"default_left":[0,0,0,0,0,0,0,0,0,0,0,0,0,0,0,0,0,0,0,0,0,0,0,0,0,0,0,0,0],"id":17,"left_children":[1,-1,3,5,-1,7,9,11,-1,13,15,17,19,21,23,25,27,-1,-1,-1,-1,-1,-1,-1,-1,-1,-1,-1,-1],"loss_changes":[1.5363223E2,0E0,4.3674805E1,1.3346506E1,0E0,1.0782022E1,4.3178177E0,1.0336539E1,0E0,2.302481E1,3.2271687E1,7.1725903E0,3.2673743E0,5.9506593E0,1.03560814E2,1.0280336E2,1.0538872E1,0E0,0E0,0E0,0E0,0E0,0E0,0E0,0E0,0E0,0E0,0E0,0E0],"parents":[2147483647,0,0,2,2,3,3,5,5,6,6,7,7,9,9,10,10,11,11,12,12,13,13,14,14,15,15,16,16],"right_children":[2,-1,4,6,-1,8,10,12,-1,14,16,18,20,22,24,26,28,-1,-1,-1,-1,-1,-1,-1,-1,-1,-1,-1,-1],"split_conditions":[-2.2124021E-1,-2.9668728E-1,7.8763247E-1,2.9981306E-1,-2.938162E-1,8.623046E-2,4.3842065E-1,-8.798333E-1,-2.8329307E-1,1.1144078E0,4.4031954E-1,2.4367352E-1,-4.9045458E-1,4.2604026E-1,4.2930877E-1,4.398561E-1,1.1160382E0,-2.8789416E-1,-6.687201E-2,1.1276027E-2,-4.7395986E-2,-3.5342146E-3,6.79257E-3,5.580245E-3,5.4047656E-1,-2.1490086E-2,-3.2471725E-1,2.1311564E-2,-1.9898597E-2],"split_indices":[0,0,1,0,0,1,1,1,0,0,1,0,1,1,1,1,0,0,0,0,0,0,0,0,0,0,0,0,0],"split_type":[0,0,0,0,0,0,0,0,0,0,0,0,0,0,0,0,0,0,0,0,0,0,0,0,0,0,0,0,0],"sum_hessian":[2.5363916E4,1.5772533E2,2.520619E4,2.516155E4,4.4639977E1,4.2455344E2,2.4736996E4,4.0801437E2,1.6539068E1,2.031576E4,4.4212363E3,5.4324196E1,3.5369016E2,2.0087006E4,2.2875484E2,1.5010143E3,2.9202222E3,2.2850554E1,3.1473642E1,1.4240631E2,2.1128386E2,1.01099E4,9.9771045E3,1.9045166E2,3.8303185E1,1.393538E3,1.0747628E2,2.169032E3,7.5119E2],"tree_param":{"num_deleted":"0","num_feature":"2","num_nodes":"29","size_leaf_vector":"1"}},{"base_weights":[-6.3454644E-3,-9.842559E-1,-1.741395E-3,-2.9770875E-1,-1.1647431E-1,-4.158442E-4,-2.9154116E-1,-1.7147192E-1,1.4818711E-3,-2.8436866E-1,-1.14315845E-1,2.887028E-3,-1.4077075E-1,-8.0683045E-2,-2.7146795E-1,1.0903239E-3,1.7021751E-1,-2.0511599E-1,3.606454E-1,-7.225547E-2,2.936904E-2,1.1658916E-3,-2.8655669E-2,-4.4554897E-2,7.091058E-2,-1.0270347E-1,1.532314E-2],"categories":[],"categories_nodes":[],"categories_segments":[],"categories_sizes":[],"default_left":[0,0,0,0,0,0,0,0,0,0,0,0,0,0,0,0,0,0,0,0,0,0,0,0,0,0,0],"id":18,"left_children":[1,3,5,-1,-1,7,-1,9,11,-1,13,15,17,19,-1,21,23,25,-1,-1,-1,-1,-1,-1,-1,-1,-1],"loss_changes":[1.1369042E2,1.8643188E-1,3.2318974E1,0E0,0E0,8.148437E0,0E0,1.211433E1,4.9629235E0,0E0,6.7784853E0,7.3910494E0,2.1231913E1,7.1245694E0,0E0,6.5708623E0,5.5416956E0,8.195231E0,0E0,0E0,0E0,0E0,0E0,0E0,0E0,0E0,0E0],"parents":[2147483647,0,0,1,1,2,2,5,5,7,7,8,8,10,10,11,11,12,12,13,13,15,15,16,16,17,17],"right_children":[2,4,6,-1,-1,8,-1,10,12,-1,14,16,18,20,-1,22,24,26,-1,-1,-1,-1,-1,-1,-1,-1,-1],"split_conditions":[-2.2124021E-1,-2.2566515E-1,7.8763247E-1,-2.9770875E-1,-1.1647431E-1,1.9545595E-1,-2.9154116E-1,-6.7395324E-1,5.484208E-1,-2.8436866E-1,8.623046E-2,4.6312505E-1,1.1144078E0,4.6546556E-2,-2.7146795E-1,1.1160382E0,1.1093408E0,6.715932E-1,3.606454E-1,-7.225547E-2,2.936904E-2,1.1658916E-3,-2.8655669E-2,-4.4554897E-2,7.091058E-2,-1.0270347E-1,1.532314E-2],"split_indices":[0,0,1,0,0,0,0,1,1,0,1,1,0,1,0,0,0,1,0,0,0,0,0,0,0,0,0],"split_type":[0,0,0,0,0,0,0,0,0,0,0,0,0,0,0,0,0,0,0,0,0,0,0,0,0,0,0],"sum_hessian":[2.5250635E4,1.1732755E2,2.5133307E4,1.15097046E2,2.230507E0,2.510001E4,3.329771E1,2.7442645E2,2.4825582E4,1.7748037E1,2.566784E2,2.4583727E4,2.4185585E2,2.4726146E2,9.416959E0,2.432356E4,2.601667E2,2.3160587E2,1.0249986E1,1.3016635E2,1.170951E2,2.3640342E4,6.8321875E2,4.4501465E1,2.1566522E2,1.5060083E2,8.100504E1],"tree_param":{"num_deleted":"0","num_feature":"2","num_nodes":"27","size_leaf_vector":"1"}},{"base_weights":[-4.791275E-3,-9.783195E-1,-1.3591723E-3,-2.967488E-1,-1.0121458E-1,-3.673169E-4,-2.8862545E-1,-9.791496E-2,1.669255E-3,-7.977493E-2,-2.7321813E-1,2.0791704E-2,-9.225724E-3,-1.2341392E-1,5.7990767E-2,2.730182E-4,3.828278E-1,-2.1234663E-1,8.604298E-3,-2.8826353E-1,-1.9645646E-2,2.0111818E-2,-1.5283258E-1,4.7300253E-3,-2.8644903E-2,1.5360983E-1,-1.164799E-1,-2.2872787E-2,-2.5897136E-1,6.6288E-2,1.4579068E-3],"categories":[],"categories_nodes":[],"categories_segments":[],"categories_sizes":[],"default_left":[0,0,0,0,0,0,0,0,0,0,0,0,0,0,0,0,0,0,0,0,0,0,0,0,0,0,0,0,0,0,0],"id":19,"left_children":[1,3,5,-1,-1,7,-1,9,11,13,-1,15,17,19,21,23,25,27,29,-1,-1,-1,-1,-1,-1,-1,-1,-1,-1,-1,-1],"loss_changes":[8.416719E1,2.8129578E-1,2.3920546E1,0E0,0E0,4.9822984E0,0E0,7.489587E0,5.118336E0,3.0298915E0,0E0,6.623862E1,5.668294E1,1.8476597E1,6.5866864E-1,1.2522602E1,4.784764E1,1.1182146E2,1.1440614E1,0E0,0E0,0E0,0E0,0E0,0E0,0E0,0E0,0E0,0E0,0E0,0E0],"parents":[2147483647,0,0,1,1,2,2,5,5,7,7,8,8,9,9,11,11,12,12,13,13,14,14,15,15,16,16,17,17,18,18],"right_children":[2,4,6,-1,-1,8,-1,10,12,14,-1,16,18,20,22,24,26,28,30,-1,-1,-1,-1,-1,-1,-1,-1,-1,-1,-1,-1],"split_conditions":[-2.2124021E-1,-2.2566515E-1,7.8763247E-1,-2.967488E-1,-1.0121458E-1,3.3238077E-1,-2.8862545E-1,8.623046E-2,4.1951934E-1,4.6546556E-2,-2.7321813E-1,3.3870536E-1,4.2604026E-1,-4.743166E-2,-4.1135047E-2,1.6431266E-1,1.1118696E0,4.2475227E-1,4.271084E-1,-2.8826353E-1,-1.9645646E-2,2.0111818E-2,-1.5283258E-1,4.7300253E-3,-2.8644903E-2,1.5360983E-1,-1.164799E-1,-2.2872787E-2,-2.5897136E-1,6.6288E-2,1.4579068E-3],"split_indices":[0,0,1,0,0,0,0,1,1,1,0,1,1,0,0,1,0,1,1,0,0,0,0,0,0,0,0,0,0,0,0],"split_type":[0,0,0,0,0,0,0,0,0,0,0,0,0,0,0,0,0,0,0,0,0,0,0,0,0,0,0,0,0,0,0],"sum_hessian":[2.5189734E4,8.749473E1,2.510224E4,8.550489E1,1.9898379E0,2.507735E4,2.4889532E1,5.1188785E2,2.4565463E4,5.017873E2,1.0100548E1,8.915831E3,1.5649632E4,3.811557E2,1.2063159E2,8.438568E3,4.7726193E2,1.2619941E3,1.4387638E4,2.3650852E1,3.5750485E2,1.1960613E2,1.0254576E0,7.26405E3,1.1745189E3,4.090562E2,6.82057E1,1.0446671E3,2.1732704E2,2.4830534E2,1.4139333E4],"tree_param":{"num_deleted":"0","num_feature":"2","num_nodes":"31","size_leaf_vector":"1"}},{"base_weights":[-3.8131245E-3,-2.9551467E-1,-1.28281E-3,-5.277654E-4,-2.850893E-1,-5.700876E-3,3.506553E-2,2.2249063E-3,-1.2420866E-1,2.3279226E-1,-1.0429537E-2,3.3101626E-4,6.369434E-1,-6.113811E-1,-4.0897753E-2,5.440605E-1,-1.6146846E-1,-2.628495E-1,5.8644723E-2,-2.4416144E-1,1.6254981E-4,-8.3146155E-2,4.3777916E-1,-3.4472317E-1,-1.4435603E-1,1.6870968E-1,-2.5404477E-2,2.5509917E-3,3.3339733E-1,1.1082796E-1,-4.39612E-1,-1.4434004E-1,1.1058202E-1,3.4560796E-2,-1.1541666E-2],"categories":[],"categories_nodes":[],"categories_segments":[],"categories_sizes":[],"default_left":[0,0,0,0,0,0,0,0,0,0,0,0,0,0,0,0,0,0,0,0,0,0,0,0,0,0,0,0,0,0,0,0,0,0,0],"id":20,"left_children":[1,-1,3,5,-1,7,9,11,13,15,17,19,21,23,25,27,29,31,33,-1,-1,-1,-1,-1,-1,-1,-1,-1,-1,-1,-1,-1,-1,-1,-1],"loss_changes":[6.2333412E1,0E0,1.794379E1,4.6077776E0,0E0,2.0522509E1,2.8568518E1,2.4619154E1,5.5566116E1,7.2988716E1,4.504365E1,3.5055792E0,4.6202858E1,1.3444672E1,3.0970446E1,1.00909645E2,1.8249669E2,7.668342E1,1.1146325E1,0E0,0E0,0E0,0E0,0E0,0E0,0E0,0E0,0E0,0E0,0E0,0E0,0E0,0E0,0E0,0E0],"parents":[2147483647,0,0,2,2,3,3,5,5,6,6,7,7,8,8,9,9,10,10,11,11,12,12,13,13,14,14,15,15,16,16,17,17,18,18],"right_children":[2,-1,4,6,-1,8,10,12,14,16,18,20,22,24,26,28,30,32,34,-1,-1,-1,-1,-1,-1,-1,-1,-1,-1,-1,-1,-1,-1,-1,-1],"split_conditions":[-2.2566515E-1,-2.9551467E-1,7.8763247E-1,1.1148815E0,-2.850893E-1,4.3842065E-1,4.3881363E-1,1.1144078E0,4.3881363E-1,1.1155785E0,4.4031954E-1,-1.322835E0,4.10348E-1,1.1145036E0,4.391445E-1,4.3850303E-1,4.3850303E-1,1.1156815E0,1.1160382E0,-2.4416144E-1,1.6254981E-4,-8.3146155E-2,4.3777916E-1,-3.4472317E-1,-1.4435603E-1,1.6870968E-1,-2.5404477E-2,2.5509917E-3,3.3339733E-1,1.1082796E-1,-4.39612E-1,-1.4434004E-1,1.1058202E-1,3.4560796E-2,-1.1541666E-2],"split_indices":[0,0,1,0,0,1,1,0,1,0,1,1,1,0,1,1,1,0,0,0,0,0,0,0,0,0,0,0,0,0,0,0,0,0,0],"split_type":[0,0,0,0,0,0,0,0,0,0,0,0,0,0,0,0,0,0,0,0,0,0,0,0,0,0,0,0,0,0,0,0,0,0,0],"sum_hessian":[2.510525E4,6.3573708E1,2.5041676E4,2.5022768E4,1.890778E1,2.1848203E4,3.174566E3,2.0479518E4,1.3686857E3,5.9303815E2,2.5815278E3,2.0419588E4,5.9927998E1,1.9895123E2,1.1697345E3,3.3118674E2,2.618514E2,5.5404834E2,2.0274794E3,4.286674E0,2.0415303E4,2.869424E1,3.1233759E1,3.7256786E1,1.6169446E2,7.8351135E1,1.0913833E3,1.7087634E2,1.6031038E2,1.8659464E2,7.525678E1,4.1189954E2,1.421488E2,1.2811758E3,7.463036E2],"tree_param":{"num_deleted":"0","num_feature":"2","num_nodes":"35","size_leaf_vector":"1"}},{"base_weights":[-2.9287275E-3,-2.939104E-1,-1.0387378E-3,-4.6932782E-4,-2.8040862E-1,3.7652277E-4,-1.5067565E-1,-2.3077452E-3,9.807992E-2,-4.2423397E-1,3.6438588E-2,6.90831E-4,-1.896856E-1,4.4087365E-1,9.04266E-2,-2.4808858E-1,-2.8942546E-1,-2.398667E-1,7.8637235E-2,-8.850415E-4,5.4459315E-2,2.458053E-2,-7.7271536E-2,4.1790804E-1,1.3913633E-2,1.3245773E-3,3.9181523E-2,1.5016711E-1,-1.2979484E-1,1.0901833E-1,-2.6274526E-2],"categories":[],"categories_nodes":[],"categories_segments":[],"categories_sizes":[],"default_left":[0,0,0,0,0,0,0,0,0,0,0,0,0,0,0,0,0,0,0,0,0,0,0,0,0,0,0,0,0,0,0],"id":21,"left_children":[1,-1,3,5,-1,7,9,11,13,15,17,19,21,23,25,-1,27,-1,29,-1,-1,-1,-1,-1,-1,-1,-1,-1,-1,-1,-1],"loss_changes":[4.6191944E1,0E0,1.3276962E1,3.1713426E0,0E0,6.510026E0,7.170046E0,1.3574272E1,1.7014408E0,2.8472242E0,3.023471E0,1.5657742E1,7.0377455E0,5.2831E0,2.247406E0,0E0,5.209932E0,0E0,3.8562639E0,0E0,0E0,0E0,0E0,0E0,0E0,0E0,0E0,0E0,0E0,0E0,0E0],"parents":[2147483647,0,0,2,2,3,3,5,5,6,6,7,7,8,8,9,9,10,10,11,11,12,12,13,13,14,14,16,16,18,18],"right_children":[2,-1,4,6,-1,8,10,12,14,16,18,20,22,24,26,-1,28,-1,30,-1,-1,-1,-1,-1,-1,-1,-1,-1,-1,-1,-1],"split_conditions":[-2.2566515E-1,-2.939104E-1,7.8763247E-1,6.1242044E-1,-2.8040862E-1,4.5267624E-1,6.715932E-1,1.1160382E0,1.1087513E0,1.1110907E0,1.1102443E0,4.4219953E-1,4.3842065E-1,4.6312505E-1,1.1145036E0,-2.4808858E-1,1.1113592E0,-2.398667E-1,1.1113592E0,-8.850415E-4,5.4459315E-2,2.458053E-2,-7.7271536E-2,4.1790804E-1,1.3913633E-2,1.3245773E-3,3.9181523E-2,1.5016711E-1,-1.2979484E-1,1.0901833E-1,-2.6274526E-2],"split_indices":[0,0,1,1,0,1,1,0,0,0,0,1,1,1,0,0,0,0,0,0,0,0,0,0,0,0,0,0,0,0,0],"split_type":[0,0,0,0,0,0,0,0,0,0,0,0,0,0,0,0,0,0,0,0,0,0,0,0,0,0,0,0,0,0,0],"sum_hessian":[2.5021053E4,4.7321438E1,2.497373E4,2.495951E4,1.4221577E1,2.4820734E4,1.3877446E2,2.4158004E4,6.627319E2,5.5852165E1,8.2922295E1,2.3778477E4,3.795266E2,1.3237029E1,6.494949E2,1.2719498E1,4.3132668E1,3.122152E0,7.980015E1,2.3310143E4,4.68334E2,7.584697E1,3.0367966E2,3.1362379E0,1.0100791E1,2.0715065E2,4.423442E2,6.236883E0,3.6895786E1,2.8975197E1,5.0824947E1],"tree_param":{"num_deleted":"0","num_feature":"2","num_nodes":"31","size_leaf_vector":"1"}},{"base_weights":[-2.1873019E-3,-2.918185E-1,-7.755827E-4,-3.4474986E-4,-2.7454683E-1,9.166323E-2,-1.6344864E-3,-3.2142E-2,2.3095052E-1,-6.984986E-2,1.3057577E-3,-2.0580415E-1,-9.171531E-3,2.0252796E-1,2.7054426E-1,2.4280215E-2,-3.2673362E-1,3.7762442E-1,-1.2717665E-3,2.5348779E-2,-4.130635E-2,1.5613222E-1,3.946841E-2,-4.656531E-2,1.6207794E-2,-6.276722E-3,-3.1863397E-1,4.6058908E-1,-3.3401832E-2,-4.7862176E-2,1.181274E-3],"categories":[],"categories_nodes":[],"categories_segments":[],"categories_sizes":[],"default_left":[0,0,0,0,0,0,0,0,0,0,0,0,0,0,0,0,0,0,0,0,0,0,0,0,0,0,0,0,0,0,0],"id":22,"left_children":[1,-1,3,5,-1,7,9,11,13,15,17,-1,19,21,-1,23,25,27,29,-1,-1,-1,-1,-1,-1,-1,-1,-1,-1,-1,-1],"loss_changes":[3.4221745E1,0E0,9.825564E0,2.9586737E0,0E0,5.951044E0,4.9316707E0,2.7476218E0,2.912321E0,2.45758E1,2.286542E1,0E0,2.1560938E0,3.4737968E0,0E0,3.9834366E0,6.126667E1,9.094581E1,1.9304485E1,0E0,0E0,0E0,0E0,0E0,0E0,0E0,0E0,0E0,0E0,0E0,0E0],"parents":[2147483647,0,0,2,2,3,3,5,5,6,6,7,7,8,8,9,9,10,10,12,12,13,13,15,15,16,16,17,17,18,18],"right_children":[2,-1,4,6,-1,8,10,12,14,16,18,-1,20,22,-1,24,26,28,30,-1,-1,-1,-1,-1,-1,-1,-1,-1,-1,-1,-1],"split_conditions":[-2.2566515E-1,-2.918185E-1,7.8763247E-1,-1.1976534E0,-2.7454683E-1,4.0219787E-1,-8.5167736E-1,2.72922E-1,6.3536125E-1,-9.4510096E-1,-7.3087686E-1,-2.0580415E-1,3.6807188E-1,-1.2003099E0,2.7054426E-1,3.6807188E-1,5.698924E-1,5.027022E-1,5.354108E-1,2.5348779E-2,-4.130635E-2,1.5613222E-1,3.946841E-2,-4.656531E-2,1.6207794E-2,-6.276722E-3,-3.1863397E-1,4.6058908E-1,-3.3401832E-2,-4.7862176E-2,1.181274E-3],"split_indices":[0,0,1,1,0,0,1,0,0,1,1,0,0,1,0,0,0,0,0,0,0,0,0,0,0,0,0,0,0,0,0],"split_type":[0,0,0,0,0,0,0,0,0,0,0,0,0,0,0,0,0,0,0,0,0,0,0,0,0,0,0,0,0,0,0],"sum_hessian":[2.4976533E4,3.5277992E1,2.4941254E4,2.4930508E4,1.07462435E1,3.4366776E2,2.458684E4,1.8235295E2,1.613148E2,1.0150203E3,2.357182E4,5.2090263E0,1.7714392E2,1.5600713E2,5.30768E0,7.434888E2,2.715316E2,1.5936263E2,2.3412457E4,1.0266232E2,7.44816E1,2.731392E1,1.286932E2,1.0509359E2,6.3839514E2,1.9250562E2,7.902596E1,4.668683E1,1.126758E2,7.4511035E2,2.2667348E4],"tree_param":{"num_deleted":"0","num_feature":"2","num_nodes":"31","size_leaf_vector":"1"}},{"base_weights":[-1.727442E-3,-2.890975E-1,-6.7013694E-4,-3.4199413E-4,-2.6733997E-1,1.2251977E-2,-7.920458E-3,-9.358482E-3,1.8539156E-1,-1.5784577E-1,4.9011675E-3,9.872734E-3,-2.5362504E-1,-2.3992255E-1,2.9794398E-1,-5.4809112E-2,-7.2765976E-1,-1.2261554E-1,1.0172948E-2,2.6326962E-3,4.2658952E-1,8.7167986E-2,-1.5586707E-1,-1.6996577E-1,2.399925E-1,3.1040198E-1,5.8714386E-2,-4.6010114E-2,6.3559264E-3,-2.8639364E-1,-5.7891817E-3,-1.1531127E-1,-1.0960129E-2,7.031352E-2,-5.9814117E-4],"categories":[],"categories_nodes":[],"categories_segments":[],"categories_sizes":[],"default_left":[0,0,0,0,0,0,0,0,0,0,0,0,0,0,0,0,0,0,0,0,0,0,0,0,0,0,0,0,0,0,0,0,0,0,0],"id":23,"left_children":[1,-1,3,5,-1,7,9,11,13,15,17,19,21,23,25,27,29,31,33,-1,-1,-1,-1,-1,-1,-1,-1,-1,-1,-1,-1,-1,-1,-1,-1],"loss_changes":[2.533812E1,0E0,7.2718053E0,2.3746562E0,0E0,3.4975353E1,2.9859997E1,3.9043377E1,4.972516E1,7.181005E1,9.621277E0,1.1924418E1,8.7936356E1,7.436621E1,6.1605087E1,7.77374E0,3.010051E1,1.2789031E1,3.748988E1,0E0,0E0,0E0,0E0,0E0,0E0,0E0,0E0,0E0,0E0,0E0,0E0,0E0,0E0,0E0,0E0],"parents":[2147483647,0,0,2,2,3,3,5,5,6,6,7,7,8,8,9,9,10,10,11,11,12,12,13,13,14,14,15,15,16,16,17,17,18,18],"right_children":[2,-1,4,6,-1,8,10,12,14,16,18,20,22,24,26,28,30,32,34,-1,-1,-1,-1,-1,-1,-1,-1,-1,-1,-1,-1,-1,-1,-1,-1],"split_conditions":[-2.2566515E-1,-2.890975E-1,7.8763247E-1,4.1951934E-1,-2.6733997E-1,2.2947894E-1,4.2604026E-1,1.6431266E-1,9.8622715E-1,4.2475227E-1,1.1087513E0,1.1113592E0,9.1482174E-1,3.3870536E-1,1.0336834E0,4.2202654E-1,1.1110907E0,4.3655986E-1,1.1107978E0,2.6326962E-3,4.2658952E-1,8.7167986E-2,-1.5586707E-1,-1.6996577E-1,2.399925E-1,3.1040198E-1,5.8714386E-2,-4.6010114E-2,6.3559264E-3,-2.8639364E-1,-5.7891817E-3,-1.1531127E-1,-1.0960129E-2,7.031352E-2,-5.9814117E-4],"split_indices":[0,0,1,1,0,1,1,1,0,1,0,0,0,1,0,1,0,1,0,0,0,0,0,0,0,0,0,0,0,0,0,0,0,0,0],"split_type":[0,0,0,0,0,0,0,0,0,0,0,0,0,0,0,0,0,0,0,0,0,0,0,0,0,0,0,0,0,0,0,0,0,0,0],"sum_hessian":[2.4912875E4,2.6353292E1,2.4886523E4,2.4878355E4,8.16749E0,9.346172E3,1.5532184E4,8.309913E3,1.0362579E3,1.2227747E3,1.4309409E4,7.7043096E3,6.056042E2,2.1660759E2,8.196504E2,1.036454E3,1.8632065E2,5.672082E2,1.3742201E4,7.699334E3,4.9755373E0,1.9876738E2,4.068368E2,1.6518001E2,5.142757E1,9.87652E1,7.208852E2,4.5079886E2,5.856551E2,1.4084198E2,4.5478676E1,1.3951357E2,4.276946E2,7.064102E2,1.3035791E4],"tree_param":{"num_deleted":"0","num_feature":"2","num_nodes":"35","size_leaf_vector":"1"}},{"base_weights":[-1.5134448E-3,-2.8558284E-1,-7.2012277E-4,-4.6857906E-4,-2.5868094E-1,2.0783803E-4,-1.2569857E-1,-1.4745693E-3,6.1199136E-2,-2.4735713E-1,-7.917987E-2,8.156286E-4,-1.4689061E-1,1.0720709E-3,9.147644E-2,-2.904369E-1,4.7719356E-2,6.0796177E-5,2.8700387E-1,