{"learner":{"attributes":{"scikit_learn":"{\"_estimator_type\": \"classifier\"}"},"feature_names":[],"feature_types":[],"gradient_booster":{"model":{"gbtree_model_param":{"num_parallel_tree":"1","num_trees":"100"},"iteration_indptr":[0,1,2,3,4,5,6,7,8,9,10,11,12,13,14,15,16,17,18,19,20,21,22,23,24,25,26,27,28,29,30,31,32,33,34,35,36,37,38,39,40,41,42,43,44,45,46,47,48,49,50,51,52,53,54,55,56,57,58,59,60,61,62,63,64,65,66,67,68,69,70,71,72,73,74,75,76,77,78,79,80,81,82,83,84,85,86,87,88,89,90,91,92,93,94,95,96,97,98,99,100],"tree_info":[0,0,0,0,0,0,0,0,0,0,0,0,0,0,0,0,0,0,0,0,0,0,0,0,0,0,0,0,0,0,0,0,0,0,0,0,0,0,0,0,0,0,0,0,0,0,0,0,0,0,0,0,0,0,0,0,0,0,0,0,0,0,0,0,0,0,0,0,0,0,0,0,0,0,0,0,0,0,0,0,0,0,0,0,0,0,0,0,0,0,0,0,0,0,0,0,0,0,0,0],"trees":[{"base_weights":[-2.526207E-2,-1.4639726E0,1.3901142E0,-4.10399E-1,-1.5092262E0,2.1999006E-1,1.4275007E0,-1.3136367E0,2.14611E0,-1.514007E0,-1.0197474E0,1.8225378E0,-8.412645E-1,2.1864748E0,1.3708109E0,3.9299554E-1,-1.4585607E0,7.9868263E-1,1.2095125E0,-9.851579E-1,-4.549794E-1,5.265324E-1,-4.3977222E-1,7.830829E-1,1.1362431E0,-4.2925277E-1,-4.0618238E-1,1.6147766E0,2.488309E0,4.7337463E-1,1.4564997E0,-1.285993E-1,9.4150263E-1,-4.4709307E-1,-7.08848E-3,-7.270514E-2,7.222636E-1,-4.27068E-1,5.649402E-1,7.2349906E-1,-4.3574136E-1,-8.873735E-1,4.9282962E-1,7.8114885E-1,1.2300069E0,8.677158E-1,1.9762856E0,8.156282E-1,-4.291129E-1,7.330635E-1,4.376619E-1,1.0763698E-1,3.8983613E-1,-2.0555077E-1,7.528373E-2,-3.1338283E-1,4.890673E-1,4.420559E-2,-4.274594E-1,-1.6974752E-1,4.4384554E-1,1.3873756E-1,5.541146E-1,4.3989062E-1,6.963243E-1,1.2790577E-1,6.997795E-1,6.878367E-1,-1.05102174E-1],"categories":[],"categories_nodes":[],"categories_segments":[],"categories_sizes":[],"default_left":[0,0,0,0,0,0,0,0,0,0,0,0,0,0,0,0,0,0,0,0,0,0,0,0,0,0,0,0,0,0,0,0,0,0,0,0,0,0,0,0,0,0,0,0,0,0,0,0,0,0,0,0,0,0,0,0,0,0,0,0,0,0,0,0,0,0,0,0,0],"id":0,"left_children":[1,3,5,7,9,11,13,15,17,19,21,23,25,27,29,31,33,-1,35,37,-1,-1,-1,-1,39,41,-1,43,45,47,49,-1,51,-1,-1,53,-1,-1,-1,-1,55,57,59,-1,61,-1,63,65,-1,67,-1,-1,-1,-1,-1,-1,-1,-1,-1,-1,-1,-1,-1,-1,-1,-1,-1,-1,-1],"loss_changes":[1.3321635E4,1.5406055E2,1.4395166E2,3.1451492E2,5.7338867E0,1.7719328E2,1.3449219E2,2.5396393E1,1.4000015E1,2.7231445E0,4.360991E1,1.9450867E1,1.2688496E1,3.4015503E1,2.2817041E2,4.2990355E0,4.18898E0,0E0,2.243107E1,2.5139545E1,0E0,0E0,0E0,0E0,4.90293E1,1.5768976E1,0E0,2.6864105E1,2.3746399E1,1.7114346E2,3.5947266E0,0E0,6.8015957E-1,0E0,0E0,1.7515823E0,0E0,0E0,0E0,0E0,1.6251614E1,1.3893894E1,1.40920315E1,0E0,2.698214E1,0E0,8.196503E0,1.2995816E2,0E0,1.920771E1,0E0,0E0,0E0,0E0,0E0,0E0,0E0,0E0,0E0,0E0,0E0,0E0,0E0,0E0,0E0,0E0,0E0,0E0,0E0],"parents":[2147483647,0,0,1,1,2,2,3,3,4,4,5,5,6,6,7,7,8,8,9,9,10,10,11,11,12,12,13,13,14,14,15,15,16,16,18,18,19,19,24,24,25,25,27,27,28,28,29,29,30,30,32,32,35,35,40,40,41,41,42,42,44,44,46,46,47,47,49,49],"right_children":[2,4,6,8,10,12,14,16,18,20,22,24,26,28,30,32,34,-1,36,38,-1,-1,-1,-1,40,42,-1,44,46,48,50,-1,52,-1,-1,54,-1,-1,-1,-1,56,58,60,-1,62,-1,64,66,-1,68,-1,-1,-1,-1,-1,-1,-1,-1,-1,-1,-1,-1,-1,-1,-1,-1,-1,-1,-1],"split_conditions":[-3.6501535E-3,-2.6974478E0,2.3419224E-1,-4.0204185E-1,-7.452171E-2,-2.2156825E0,-1.1014642E0,-4.8620634E0,-2.9901733E0,-2.657083E0,-2.1343615E0,-3.4400475E0,-1.121362E0,5.0942504E-1,9.899871E-1,-6.260256E-1,-4.2612374E-1,7.9868263E-1,-1.9213444E-1,-3.5553846E-1,-4.549794E-1,5.265324E-1,-4.3977222E-1,7.830829E-1,1.1420769E-1,-1.3757926E0,-4.0618238E-1,-3.9931853E0,-1.5629483E0,-2.321561E-1,-4.7376567E-1,-1.285993E-1,-5.272986E-1,-4.4709307E-1,-7.08848E-3,-3.2860142E-1,7.222636E-1,-4.27068E-1,5.649402E-1,7.2349906E-1,-2.4536033E0,-1.8594718E0,9.0795666E-2,7.8114885E-1,-2.3620615E0,8.677158E-1,-1.3757926E0,-4.5310605E-1,-4.291129E-1,-8.6698204E-1,4.376619E-1,1.0763698E-1,3.8983613E-1,-2.0555077E-1,7.528373E-2,-3.1338283E-1,4.890673E-1,4.420559E-2,-4.274594E-1,-1.6974752E-1,4.4384554E-1,1.3873756E-1,5.541146E-1,4.3989062E-1,6.963243E-1,1.2790577E-1,6.997795E-1,6.878367E-1,-1.05102174E-1],"split_indices":[0,1,0,0,0,1,1,1,1,1,1,1,1,0,0,0,0,0,0,0,0,0,0,0,0,1,0,1,1,1,1,0,0,0,0,0,0,0,0,0,1,1,0,0,1,0,1,1,0,1,0,0,0,0,0,0,0,0,0,0,0,0,0,0,0,0,0,0,0],"split_type":[0,0,0,0,0,0,0,0,0,0,0,0,0,0,0,0,0,0,0,0,0,0,0,0,0,0,0,0,0,0,0,0,0,0,0,0,0,0,0,0,0,0,0,0,0,0,0,0,0,0,0,0,0,0,0,0,0,0,0,0,0,0,0,0,0,0,0,0,0],"sum_hessian":[6.540025E3,3.2432607E3,3.2967642E3,1.3398373E2,3.1092769E3,1.0228624E2,3.194478E3,9.936378E1,3.4619957E1,3.07713E3,3.2147102E1,4.0464886E1,6.1821354E1,2.194096E2,2.9750684E3,7.6433673E0,9.1720406E1,2.1131662E1,1.3488296E1,1.6860369E1,3.0602695E3,4.046489E0,2.8100615E1,1.7534784E1,2.2930101E1,3.5294373E1,2.6526981E1,7.800731E1,1.414023E2,2.5987448E2,2.7151938E3,3.147269E0,4.4960985E0,8.969717E1,2.0232444E0,6.9689527E0,6.519343E0,1.506193E1,1.7984394E0,1.2364271E1,1.0565831E1,2.3604517E1,1.1689856E1,2.0232443E1,5.7774864E1,7.643367E1,6.496862E1,2.2075844E2,3.911606E1,9.891417E0,2.7053025E3,2.4728541E0,2.0232444E0,2.0232444E0,4.9457083E0,8.542587E0,2.0232444E0,8.317782E0,1.5286735E1,5.844928E0,5.844928E0,2.6526981E1,3.1247885E1,2.832542E1,3.6643204E1,1.7669667E2,4.4061764E1,3.5968788E0,6.294538E0],"tree_param":{"num_deleted":"0","num_feature":"2","num_nodes":"69","size_leaf_vector":"1"}},{"base_weights":[-5.006952E-2,-1.2757351E0,8.723173E-1,-3.968369E-1,-1.3224984E0,1.3666335E-1,8.930811E-1,-1.1474152E0,1.3807797E0,-3.9809713E-1,-8.793173E-1,1.1962771E0,-6.8726224E-1,1.3405337E0,8.5319227E-1,3.0695698E-1,-1.27688E0,1.7622668E-1,1.4836837E0,3.4728467E-1,-3.8375658E-1,4.910895E-1,7.6160556E-1,-3.4198532E-1,-3.4808984E-1,1.0071641E0,1.7662959E0,-5.019317E-1,8.8918203E-1,-1.0335954E-1,7.071011E-1,-3.9166835E-1,-9.656356E-2,3.560592E-1,-2.807474E-1,1.1669219E0,5.396161E-1,4.6147376E-1,-3.294219E-1,-7.261726E-1,3.461254E-1,1.1990315E0,-6.8225014E-1,1.5940907E0,2.2008505E0,4.266274E-1,-1.1638658E0,5.25243E-1,9.0702134E-1,8.238773E-2,2.8961188E-1,1.840606E-1,-2.3173626E-1,4.741732E-1,1.3424374E-1,-2.6034197E-1,3.597661E-1,3.189579E-2,-3.7235227E-1,-1.3420253E-1,2.9830703E-1,4.7664377E-1,3.2186773E-1,-4.387934E-1,2.860922E-1,5.4768527E-1,3.5412526E-1,1.9467837E-1,7.141248E-1,-5.9367586E-2,4.0278843E-1,-1.3053516E-1,-3.6436266E-1,3.1111735E-1,-3.7158805E-1,3.7904224E-1,2.716288E-1],"categories":[],"categories_nodes":[],"categories_segments":[],"categories_sizes":[],"default_left":[0,0,0,0,0,0,0,0,0,0,0,0,0,0,0,0,0,0,0,0,0,0,0,0,0,0,0,0,0,0,0,0,0,0,0,0,0,0,0,0,0,0,0,0,0,0,0,0,0,0,0,0,0,0,0,0,0,0,0,0,0,0,0,0,0,0,0,0,0,0,0,0,0,0,0,0,0],"id":1,"left_children":[1,3,5,7,9,11,13,15,17,-1,19,21,23,25,27,29,31,33,35,-1,-1,-1,37,39,-1,41,43,45,47,-1,49,-1,51,-1,-1,53,-1,-1,55,57,59,61,63,65,67,69,71,73,75,-1,-1,-1,-1,-1,-1,-1,-1,-1,-1,-1,-1,-1,-1,-1,-1,-1,-1,-1,-1,-1,-1,-1,-1,-1,-1,-1,-1],"loss_changes":[7.1087163E3,1.10447266E2,5.4683105E1,1.8548495E2,3.9355469E0,8.783716E1,6.113257E1,1.874231E1,4.866951E0,0E0,2.4843729E1,7.1746635E0,8.86479E0,3.85083E1,1.5682251E2,2.5305257E0,2.910019E0,6.045795E0,1.6913757E0,0E0,0E0,0E0,2.0845188E1,9.291811E0,0E0,5.31736E1,5.7200623E0,5.1875675E1,1.9804443E1,0E0,3.7850165E-1,0E0,2.0133529E0,0E0,0E0,5.7764015E0,0E0,0E0,9.933028E0,9.678862E0,7.095104E0,5.4446564E0,2.32386E1,6.6514435E0,7.4765778E0,2.0585869E1,1.2837219E0,1.352019E2,5.449219E-1,0E0,0E0,0E0,0E0,0E0,0E0,0E0,0E0,0E0,0E0,0E0,0E0,0E0,0E0,0E0,0E0,0E0,0E0,0E0,0E0,0E0,0E0,0E0,0E0,0E0,0E0,0E0,0E0],"parents":[2147483647,0,0,1,1,2,2,3,3,4,4,5,5,6,6,7,7,8,8,10,10,11,11,12,12,13,13,14,14,15,15,16,16,17,17,18,18,22,22,23,23,25,25,26,26,27,27,28,28,30,30,32,32,35,35,38,38,39,39,40,40,41,41,42,42,43,43,44,44,45,45,46,46,47,47,48,48],"right_children":[2,4,6,8,10,12,14,16,18,-1,20,22,24,26,28,30,32,34,36,-1,-1,-1,38,40,-1,42,44,46,48,-1,50,-1,52,-1,-1,54,-1,-1,56,58,60,62,64,66,68,70,72,74,76,-1,-1,-1,-1,-1,-1,-1,-1,-1,-1,-1,-1,-1,-1,-1,-1,-1,-1,-1,-1,-1,-1,-1,-1,-1,-1,-1,-1],"split_conditions":[-3.6501535E-3,-2.657083E0,2.3419224E-1,-4.0204185E-1,-7.452171E-2,-2.2156825E0,-8.9691246E-1,-4.8620634E0,-3.5553846E-1,-3.9809713E-1,-2.1343615E0,1.1420769E-1,-1.121362E0,6.9791585E-1,-6.500144E-1,-6.260256E-1,-4.2612374E-1,-3.4400475E0,-1.6582283E-1,3.4728467E-1,-3.8375658E-1,4.910895E-1,-3.4400475E0,-1.3757926E0,-3.4808984E-1,-1.1299591E0,-1.1658549E0,6.683527E-1,9.899871E-1,-1.0335954E-1,-5.272986E-1,-3.9166835E-1,-2.9901733E0,3.560592E-1,-2.807474E-1,-2.9901733E0,5.396161E-1,4.6147376E-1,-2.4536033E0,-1.8594718E0,9.0795666E-2,-3.4400475E0,6.353651E-1,-1.490573E0,7.457352E-1,-8.069746E-1,-8.380362E-1,-2.321561E-1,-2.321561E-1,8.238773E-2,2.8961188E-1,1.840606E-1,-2.3173626E-1,4.741732E-1,1.3424374E-1,-2.6034197E-1,3.597661E-1,3.189579E-2,-3.7235227E-1,-1.3420253E-1,2.9830703E-1,4.7664377E-1,3.2186773E-1,-4.387934E-1,2.860922E-1,5.4768527E-1,3.5412526E-1,1.9467837E-1,7.141248E-1,-5.9367586E-2,4.0278843E-1,-1.3053516E-1,-3.6436266E-1,3.1111735E-1,-3.7158805E-1,3.7904224E-1,2.716288E-1],"split_indices":[0,1,0,0,0,1,1,1,0,0,1,0,1,0,1,0,0,1,0,0,0,0,1,1,0,1,1,0,0,0,0,0,1,0,0,1,0,0,1,1,0,1,0,1,0,1,1,1,1,0,0,0,0,0,0,0,0,0,0,0,0,0,0,0,0,0,0,0,0,0,0,0,0,0,0,0,0],"split_type":[0,0,0,0,0,0,0,0,0,0,0,0,0,0,0,0,0,0,0,0,0,0,0,0,0,0,0,0,0,0,0,0,0,0,0,0,0,0,0,0,0,0,0,0,0,0,0,0,0,0,0,0,0,0,0,0,0,0,0,0,0,0,0,0,0,0,0,0,0,0,0,0,0,0,0,0,0],"sum_hessian":[6.285922E3,2.6990486E3,3.5868733E3,1.3683171E2,2.562217E3,9.866863E1,3.4882046E3,9.6457954E1,4.037375E1,2.5345337E3,2.7683376E1,4.29634E1,5.5705227E1,2.828403E2,3.2053645E3,7.7725344E0,8.8685425E1,3.3911238E0,3.6982624E1,4.2317896E0,2.3451588E1,1.9960575E1,2.3002825E1,3.3197113E1,2.2508118E1,1.6051971E2,1.223206E2,8.2591576E1,3.1227727E3,3.010315E0,4.7622194E0,8.647795E1,2.2074752E0,1.7413254E0,1.6497985E0,2.0786438E1,1.6196186E1,1.31980095E1,9.804816E0,2.126762E1,1.1929492E1,1.4440936E2,1.6110353E1,9.0948044E1,3.1372555E1,3.4521046E1,4.8070534E1,1.4733978E2,2.975433E3,2.5520835E0,2.210136E0,1.1214854E0,1.0859897E0,1.2438038E1,8.348399E0,7.5707245E0,2.2340913E0,8.431611E0,1.2836009E1,5.5032034E0,6.426288E0,3.2472057E1,1.119373E2,1.0978847E1,5.131507E0,5.6123394E1,3.482465E1,3.7320051E0,2.764055E1,2.0992529E1,1.3528519E1,3.7486978E0,4.4321835E1,1.1452159E2,3.28182E1,9.705524E0,2.9657275E3],"tree_param":{"num_deleted":"0","num_feature":"2","num_nodes":"77","size_leaf_vector":"1"}},{"base_weights":[-5.793213E-2,-1.1796253E0,6.007117E-1,-4.5866054E-1,-3.6559808E-1,6.1596707E-2,6.233309E-1,-1.0220323E0,9.7600734E-1,8.037085E-1,-8.1733054E-1,1.0401934E0,5.910331E-1,2.4441382E-1,-1.1609635E0,3.8977993E-1,4.9985617E-1,3.8557726E-1,4.779134E-1,-3.23565E-1,-3.8645875E-1,7.218227E-1,1.2783113E0,-3.602435E-1,6.1376923E-1,-8.3044894E-2,5.489479E-1,-3.578589E-1,-2.6589189E-2,-7.622375E-2,9.970969E-1,9.733913E-1,-3.0902812E-1,-4.0146166E-1,-3.676827E-2,9.2135537E-1,-3.7547553E-1,4.4661853E-1,1.1051625E0,7.216346E-1,-8.2931113E-1,1.7518339E0,6.1053675E-1,6.349585E-2,2.2625823E-1,-2.131388E-1,4.6509817E-2,1.4818466E-1,3.6915922E-1,3.760276E-1,7.043777E-2,-3.1609702E-1,1.5943131E-1,2.4482867E-1,-2.7802292E-1,1.8288356E-1,3.3514073E-1,-2.6520336E-1,3.7818784E-1,4.8280537E-2,4.3100637E-1,-8.239016E-2,-2.8432167E-1,5.79477E-1,1.1508544E-1,8.437245E-2,1.8778689E-1],"categories":[],"categories_nodes":[],"categories_segments":[],"categories_sizes":[],"default_left":[0,0,0,0,0,0,0,0,0,0,0,0,0,0,0,0,0,0,0,0,0,0,0,0,0,0,0,0,0,0,0,0,0,0,0,0,0,0,0,0,0,0,0,0,0,0,0,0,0,0,0,0,0,0,0,0,0,0,0,0,0,0,0,0,0,0,0],"id":2,"left_children":[1,3,5,7,-1,9,11,13,15,17,19,21,23,25,27,-1,29,-1,31,-1,33,35,37,39,41,-1,43,-1,-1,45,47,49,51,-1,53,55,-1,-1,57,59,61,63,65,-1,-1,-1,-1,-1,-1,-1,-1,-1,-1,-1,-1,-1,-1,-1,-1,-1,-1,-1,-1,-1,-1,-1,-1],"loss_changes":[4.2484287E3,5.931201E1,4.414319E1,9.060887E1,0E0,9.6539825E1,4.6200195E1,1.4376892E1,4.2410336E0,1.196928E1,7.2133904E0,1.793219E1,7.006775E1,1.5399628E0,2.3692474E0,0E0,4.221894E0,0E0,1.9575262E1,0E0,8.985346E0,4.3962646E1,3.4915771E0,3.917324E1,1.0534668E1,0E0,2.4568594E-1,0E0,0E0,1.229851E0,3.1291294E-1,6.029581E0,1.298777E1,0E0,1.6604824E1,5.380356E0,0E0,0E0,2.6233582E1,9.200327E0,3.253376E0,1.3247166E0,1.58029785E1,0E0,0E0,0E0,0E0,0E0,0E0,0E0,0E0,0E0,0E0,0E0,0E0,0E0,0E0,0E0,0E0,0E0,0E0,0E0,0E0,0E0,0E0,0E0,0E0],"parents":[2147483647,0,0,1,1,2,2,3,3,5,5,6,6,7,7,8,8,9,9,10,10,11,11,12,12,13,13,14,14,16,16,18,18,20,20,21,21,22,22,23,23,24,24,26,26,29,29,30,30,31,31,32,32,34,34,35,35,38,38,39,39,40,40,41,41,42,42],"right_children":[2,4,6,8,-1,10,12,14,16,18,20,22,24,26,28,-1,30,-1,32,-1,34,36,38,40,42,-1,44,-1,-1,46,48,50,52,-1,54,56,-1,-1,58,60,62,64,66,-1,-1,-1,-1,-1,-1,-1,-1,-1,-1,-1,-1,-1,-1,-1,-1,-1,-1,-1,-1,-1,-1,-1,-1],"split_conditions":[-7.452171E-2,-2.657083E0,3.1448406E-1,-4.0204185E-1,-3.6559808E-1,-1.8594718E0,-8.9691246E-1,-4.8620634E0,-2.9901733E0,-3.4400475E0,9.0795666E-2,6.353651E-1,-6.500144E-1,-6.260256E-1,-4.2612374E-1,3.8977993E-1,-2.3983145E-1,3.8557726E-1,1.1420769E-1,-3.23565E-1,-1.3757926E0,-1.1299591E0,-1.490573E0,5.9906906E-1,-6.164588E-1,-8.3044894E-2,-5.272986E-1,-3.578589E-1,-2.6589189E-2,-3.5553846E-1,-1.6582283E-1,-2.2156825E0,-2.4536033E0,-4.0146166E-1,-1.121362E0,-2.3620615E0,-3.7547553E-1,4.4661853E-1,-1.390262E0,-8.069746E-1,6.683527E-1,8.100518E-1,1.0051774E0,6.349585E-2,2.2625823E-1,-2.131388E-1,4.6509817E-2,1.4818466E-1,3.6915922E-1,3.760276E-1,7.043777E-2,-3.1609702E-1,1.5943131E-1,2.4482867E-1,-2.7802292E-1,1.8288356E-1,3.3514073E-1,-2.6520336E-1,3.7818784E-1,4.8280537E-2,4.3100637E-1,-8.239016E-2,-2.8432167E-1,5.79477E-1,1.1508544E-1,8.437245E-2,1.8778689E-1],"split_indices":[0,1,0,0,0,1,1,1,1,1,0,0,1,0,0,0,0,0,0,0,1,1,1,0,1,0,0,0,0,0,0,1,1,0,1,1,0,0,1,1,0,0,0,0,0,0,0,0,0,0,0,0,0,0,0,0,0,0,0,0,0,0,0,0,0,0,0],"split_type":[0,0,0,0,0,0,0,0,0,0,0,0,0,0,0,0,0,0,0,0,0,0,0,0,0,0,0,0,0,0,0,0,0,0,0,0,0,0,0,0,0,0,0,0,0,0,0,0,0,0,0,0,0,0,0,0,0,0,0,0,0,0,0,0,0,0,0],"sum_hessian":[5.7485146E3,2.1263967E3,3.622118E3,1.0987067E2,2.0165261E3,1.4600058E2,3.4761172E3,7.909781E1,3.0772858E1,7.92079E1,6.679267E1,2.4771338E2,3.2284038E3,7.7443113E0,7.135349E1,1.7299528E1,1.34733305E1,3.0775084E1,4.8432823E1,4.0646954E1,2.6145721E1,1.0771994E2,1.3999344E2,7.501331E1,3.1533906E3,2.8895953E0,4.854716E0,6.918306E1,2.170435E0,6.63409E0,6.839241E0,2.9574839E1,1.8857983E1,6.265685E0,1.9880035E1,9.83126E1,9.407344E0,5.976577E1,8.022768E1,2.252416E1,5.2489155E1,7.3990645E0,3.1459915E3,2.6049833E0,2.2497325E0,1.2189205E0,5.4151692E0,3.1549692E0,3.6842718E0,2.0938963E1,8.635877E0,9.864585E0,8.993397E0,1.0194065E1,9.685971E0,3.951159E1,5.8801006E1,5.4759526E0,7.4751724E1,1.3311327E1,9.212834E0,9.819018E0,4.2670135E1,6.1759157E0,1.2231492E0,1.415849E2,3.0044067E3],"tree_param":{"num_deleted":"0","num_feature":"2","num_nodes":"67","size_leaf_vector":"1"}},{"base_weights":[-6.0034893E-2,-1.1093156E0,4.3260697E-1,-4.0135092E-1,-3.45152E-1,7.9364485E-1,4.1600707E-1,-9.2668337E-1,7.950239E-1,6.2621295E-1,3.957568E-1,-7.1726906E-1,4.3542817E-1,1.9669667E-1,-1.0798771E0,3.7241632E-1,4.999305E-1,1.0640936E0,3.290689E-1,-3.0934542E-1,-3.936766E-1,7.593792E-1,4.2061687E-1,-6.661642E-2,4.339034E-1,-3.4059566E-1,-2.7658844E-1,6.2078764E-3,2.8644145E-1,4.017336E-1,8.7706685E-1,-1.3464831E-1,7.7361965E-1,-3.5524255E-1,-1.5121205E-1,3.8213193E-1,1.1274503E0,-2.808623E-1,4.3636405E-1,4.9147666E-2,1.8142259E-1,1.5852095E-1,-2.7701655E-1,-2.4464245E-1,6.656301E-2,2.9733187E-1,1.4034201E-1,3.2656446E-1,-1.975453E-1,3.716213E-1,1.0302872E-1,1.6421321E-1,-2.65569E-1,2.2741227E-1,-6.980453E-2,2.3911846E-1,4.0717867E-1,1.5765852E-1,-2.0110683E-1,3.4873128E-1,1.2995316E-1],"categories":[],"categories_nodes":[],"categories_segments":[],"categories_sizes":[],"default_left":[0,0,0,0,0,0,0,0,0,0,0,0,0,0,0,0,0,0,0,0,0,0,0,0,0,0,0,0,0,0,0,0,0,0,0,0,0,0,0,0,0,0,0,0,0,0,0,0,0,0,0,0,0,0,0,0,0,0,0,0,0],"id":3,"left_children":[1,3,5,7,-1,9,11,13,15,17,-1,19,21,23,25,-1,27,29,31,-1,33,35,37,-1,39,-1,41,43,-1,-1,45,47,49,-1,51,53,55,57,59,-1,-1,-1,-1,-1,-1,-1,-1,-1,-1,-1,-1,-1,-1,-1,-1,-1,-1,-1,-1,-1,-1],"loss_changes":[2.6868987E3,4.7967407E1,2.0869446E1,5.9090385E1,0E0,1.2758865E1,7.478967E1,1.1394917E1,3.1818428E0,1.5131886E1,0E0,5.423229E0,1.5646362E1,9.5492697E-1,2.2394485E0,0E0,4.273024E0,1.2766914E0,1.5015423E1,0E0,5.546939E0,1.9597763E1,3.5296814E1,0E0,1.711427E-1,0E0,3.1036541E0,1.9783702E0,0E0,0E0,9.954796E-1,2.394755E1,6.99354E0,0E0,1.2795989E1,1.698898E1,4.4226303E0,2.250174E1,6.7036133E0,0E0,0E0,0E0,0E0,0E0,0E0,0E0,0E0,0E0,0E0,0E0,0E0,0E0,0E0,0E0,0E0,0E0,0E0,0E0,0E0,0E0,0E0],"parents":[2147483647,0,0,1,1,2,2,3,3,5,5,6,6,7,7,8,8,9,9,11,11,12,12,13,13,14,14,16,16,17,17,18,18,20,20,21,21,22,22,24,24,26,26,27,27,30,30,31,31,32,32,34,34,35,35,36,36,37,37,38,38],"right_children":[2,4,6,8,-1,10,12,14,16,18,-1,20,22,24,26,-1,28,30,32,-1,34,36,38,-1,40,-1,42,44,-1,-1,46,48,50,-1,52,54,56,58,60,-1,-1,-1,-1,-1,-1,-1,-1,-1,-1,-1,-1,-1,-1,-1,-1,-1,-1,-1,-1,-1,-1],"split_conditions":[-7.452171E-2,-2.657083E0,-1.8594718E0,-4.0204185E-1,-3.45152E-1,5.0942504E-1,3.1448406E-1,-4.8620634E0,-3.4400475E0,-3.4400475E0,3.957568E-1,7.1466185E-2,-8.9691246E-1,-6.260256E-1,-4.6364927E-1,3.7241632E-1,-2.3983145E-1,-4.8620634E0,-2.4536033E0,-3.0934542E-1,-1.3757926E0,7.457352E-1,-6.500144E-1,-6.661642E-2,-5.272986E-1,-3.4059566E-1,-3.4400475E0,-3.5553846E-1,2.8644145E-1,4.017336E-1,3.5912704E-1,9.0795666E-2,-2.2156825E0,-3.5524255E-1,-1.121362E0,-1.2032021E0,-1.3757926E0,5.9906906E-1,-6.0606563E-1,4.9147666E-2,1.8142259E-1,1.5852095E-1,-2.7701655E-1,-2.4464245E-1,6.656301E-2,2.9733187E-1,1.4034201E-1,3.2656446E-1,-1.975453E-1,3.716213E-1,1.0302872E-1,1.6421321E-1,-2.65569E-1,2.2741227E-1,-6.980453E-2,2.3911846E-1,4.0717867E-1,1.5765852E-1,-2.0110683E-1,3.4873128E-1,1.2995316E-1],"split_indices":[0,1,1,0,0,0,0,1,1,1,0,0,1,0,0,0,0,1,1,0,1,0,1,0,0,0,1,0,0,0,0,0,1,0,1,1,1,0,1,0,0,0,0,0,0,0,0,0,0,0,0,0,0,0,0,0,0,0,0,0,0],"split_type":[0,0,0,0,0,0,0,0,0,0,0,0,0,0,0,0,0,0,0,0,0,0,0,0,0,0,0,0,0,0,0,0,0,0,0,0,0,0,0,0,0,0,0,0,0,0,0,0,0,0,0,0,0,0,0,0,0,0,0,0,0],"sum_hessian":[5.1959766E3,1.6597064E3,3.53627E3,9.184671E1,1.5678597E3,1.5338687E2,3.382883E3,6.397881E1,2.7867899E1,1.1798869E2,3.5398174E1,5.6390724E1,3.3264924E3,7.643624E0,5.6335186E1,9.814915E0,1.8052984E1,4.665516E1,7.133354E1,2.7514894E1,2.8875832E1,1.4324234E2,3.18325E3,2.7871761E0,4.856447E0,5.231139E1,4.023796E0,9.142893E0,8.910091E0,1.6391632E1,3.0263525E1,3.5255325E1,3.6078217E1,5.8665056E0,2.3009325E1,7.174594E1,7.14964E1,6.952074E1,3.1137292E3,2.6407106E0,2.2157369E0,1.8742276E0,2.1495683E0,1.3226287E0,7.8202643E0,2.2556507E1,7.7070165E0,1.0247833E1,2.5007492E1,1.6432278E1,1.9645939E1,1.1919455E1,1.108987E1,4.4378883E1,2.7367062E1,3.1163097E1,4.0333298E1,2.2528816E1,4.699192E1,1.201735E1,3.101712E3],"tree_param":{"num_deleted":"0","num_feature":"2","num_nodes":"61","size_leaf_vector":"1"}},{"base_weights":[-5.8622643E-2,-1.0602769E0,3.1425795E-1,-3.55056E-1,-3.315102E-1,6.2355095E-1,2.9696417E-1,-8.8042563E-1,6.04801E-1,3.4758282E-1,3.6722374E-1,-7.8631335E-1,3.064207E-1,1.5923518E-1,-1.0650693E0,3.635984E-1,2.664724E-1,5.228586E-1,-9.037418E-1,-4.858905E-1,-2.9843187E-1,1.4477453E-1,3.2351717E-1,-5.3327173E-2,3.4642223E-1,-3.2543546E-1,-1.2366993E-1,-2.8781173E-1,5.0084716E-1,9.683857E-1,3.2865754E-1,-1.0833907E0,8.166502E-2,-3.2247064E-1,7.4905324E-1,2.920429E-1,-1.1829016E0,3.805447E-1,3.2140034E-1,3.8146548E-2,1.4748108E-1,7.8902535E-2,3.0697232E-1,3.5802972E-1,2.2585529E-1,2.1797154E-2,1.872193E-1,-3.5660827E-1,-1.5125695E-1,2.1218781E-1,-1.6501173E-1,7.500037E-2,2.5359237E-1,5.727965E-2,3.9202815E-1,-2.0761922E-1,-3.7199557E-1,-2.374469E-1,9.672406E-2],"categories":[],"categories_nodes":[],"categories_segments":[],"categories_sizes":[],"default_left":[0,0,0,0,0,0,0,0,0,0,0,0,0,0,0,0,0,0,0,0,0,0,0,0,0,0,0,0,0,0,0,0,0,0,0,0,0,0,0,0,0,0,0,0,0,0,0,0,0,0,0,0,0,0,0,0,0,0,0],"id":4,"left_children":[1,3,5,7,-1,9,11,13,15,17,-1,19,21,23,25,-1,27,29,31,33,-1,35,37,-1,39,-1,-1,-1,41,43,45,47,49,-1,51,53,55,-1,57,-1,-1,-1,-1,-1,-1,-1,-1,-1,-1,-1,-1,-1,-1,-1,-1,-1,-1,-1,-1],"loss_changes":[1.7615109E3,3.9990234E1,1.8198608E1,3.977822E1,0E0,2.958574E1,3.3604523E1,9.902962E0,5.4541607E0,2.79912E1,0E0,1.2993279E0,8.87793E0,5.9882253E-1,1.0866928E-1,0E0,6.037346E0,9.25856E0,2.8823042E0,1.0708996E1,0E0,6.1094677E1,5.4327393E0,0E0,1.2258613E-1,0E0,0E0,0E0,1.829853E0,7.0643044E-1,5.89869E0,2.1909237E-1,1.718309E0,0E0,2.8188229E-2,2.8527239E1,1.6605377E-2,0E0,3.5414734E0,0E0,0E0,0E0,0E0,0E0,0E0,0E0,0E0,0E0,0E0,0E0,0E0,0E0,0E0,0E0,0E0,0E0,0E0,0E0,0E0],"parents":[2147483647,0,0,1,1,2,2,3,3,5,5,6,6,7,7,8,8,9,9,11,11,12,12,13,13,14,14,16,16,17,17,18,18,19,19,21,21,22,22,24,24,28,28,29,29,30,30,31,31,32,32,34,34,35,35,36,36,38,38],"right_children":[2,4,6,8,-1,10,12,14,16,18,-1,20,22,24,26,-1,28,30,32,34,-1,36,38,-1,40,-1,-1,-1,42,44,46,48,50,-1,52,54,56,-1,58,-1,-1,-1,-1,-1,-1,-1,-1,-1,-1,-1,-1,-1,-1,-1,-1,-1,-1,-1,-1],"split_conditions":[-7.452171E-2,-2.657083E0,-1.490573E0,-4.2612374E-1,-3.315102E-1,5.4166555E-1,1.1420769E-1,-4.8620634E0,-3.4400475E0,-1.8594718E0,3.6722374E-1,-1.121362E0,9.899871E-1,-6.260256E-1,-4.6364927E-1,3.635984E-1,-3.5553846E-1,-3.6351979E0,5.0942504E-1,-1.1299591E0,-2.9843187E-1,-2.321561E-1,-8.6698204E-1,-5.3327173E-2,-5.272986E-1,-3.2543546E-1,-1.2366993E-1,-2.8781173E-1,-1.6582283E-1,-4.8620634E0,-2.4536033E0,3.9428985E-1,-1.6523572E0,-3.2247064E-1,7.1466185E-2,-2.9123208E-1,5.714248E-1,3.805447E-1,-6.500144E-1,3.8146548E-2,1.4748108E-1,7.8902535E-2,3.0697232E-1,3.5802972E-1,2.2585529E-1,2.1797154E-2,1.872193E-1,-3.5660827E-1,-1.5125695E-1,2.1218781E-1,-1.6501173E-1,7.500037E-2,2.5359237E-1,5.727965E-2,3.9202815E-1,-2.0761922E-1,-3.7199557E-1,-2.374469E-1,9.672406E-2],"split_indices":[0,1,1,0,0,0,0,1,1,1,0,1,0,0,0,0,0,1,0,1,0,1,1,0,0,0,0,0,0,1,1,0,1,0,0,1,0,0,1,0,0,0,0,0,0,0,0,0,0,0,0,0,0,0,0,0,0,0,0],"split_type":[0,0,0,0,0,0,0,0,0,0,0,0,0,0,0,0,0,0,0,0,0,0,0,0,0,0,0,0,0,0,0,0,0,0,0,0,0,0,0,0,0,0,0,0,0,0,0,0,0,0,0,0,0,0,0,0,0,0,0],"sum_hessian":[4.714368E3,1.2784027E3,3.4359653E3,7.682534E1,1.2015774E3,1.8008861E2,3.2558767E3,4.9703373E1,2.712197E1,1.24468735E2,5.561987E1,2.7465471E1,3.2284114E3,7.5167756E0,4.2186596E1,8.780831E0,1.8341139E1,1.0968681E2,1.4781918E1,1.2615465E1,1.4850006E1,3.0969836E2,2.918713E3,2.7022672E0,4.8145084E0,4.030766E1,1.8789362E0,2.4473734E0,1.58937645E1,3.2087242E1,7.759957E1,1.2418478E1,2.3634398E0,8.629286E0,3.9861794E0,2.7947815E2,3.0220222E1,5.1865153E0,2.9135264E3,2.6651602E0,2.1493483E0,1.1954509E1,3.9392562E0,1.3477684E1,1.8609558E1,4.224012E1,3.535945E1,9.617615E0,2.8008633E0,1.1273128E0,1.2361271E0,1.2261645E0,2.760015E0,2.5523373E2,2.4244415E1,4.5156655E0,2.5704557E1,1.9404364E0,2.911586E3],"tree_param":{"num_deleted":"0","num_feature":"2","num_nodes":"59","size_leaf_vector":"1"}},{"base_weights":[-5.547809E-2,-1.0237762E0,2.275081E-1,-3.1344324E-1,-3.2201535E-1,4.457195E-1,2.0809262E-1,-8.1083447E-1,5.029679E-1,2.7509674E-1,8.554644E-1,-5.412036E-1,2.19469E-1,1.2934045E-1,-1.0218903E0,3.3182442E-1,2.0664704E-1,7.768259E-1,1.5539235E-1,3.3744127E-1,6.9580996E-1,-3.73079E-1,-8.992677E-1,-2.5832874E-1,2.2259483E-1,-4.2597745E-2,2.781531E-1,-3.140079E-1,-1.0654904E-1,-2.5829735E-1,3.981355E-1,3.2876343E-1,6.039456E-1,2.611316E-1,-2.893983E-1,-3.0618498E-1,1.0217817E0,-2.813285E-1,-1.5776695E-1,4.99876E-3,-3.0001283E-1,7.8258276E-1,2.1455757E-1,2.9660651E-2,1.2074203E-1,5.7624876E-2,2.7755648E-1,3.0805987E-1,1.3599521E-1,3.5771008E-3,2.2776207E-1,-1.6392407E-1,8.435023E-2,-1.7530659E-1,2.9821867E-1,1.0199093E-1,3.4429914E-1,3.0362147E-1,-1.0691842E-1,3.3205476E-1,-2.4147768E-1,-9.3857594E-2,6.864388E-2],"categories":[],"categories_nodes":[],"categories_segments":[],"categories_sizes":[],"default_left":[0,0,0,0,0,0,0,0,0,0,0,0,0,0,0,0,0,0,0,0,0,0,0,0,0,0,0,0,0,0,0,0,0,0,0,0,0,0,0,0,0,0,0,0,0,0,0,0,0,0,0,0,0,0,0,0,0,0,0,0,0,0,0],"id":5,"left_children":[1,3,5,7,-1,9,11,13,15,17,19,21,23,25,27,-1,29,31,33,-1,35,37,39,-1,41,-1,43,-1,-1,-1,45,-1,47,49,51,53,55,-1,57,-1,-1,59,61,-1,-1,-1,-1,-1,-1,-1,-1,-1,-1,-1,-1,-1,-1,-1,-1,-1,-1,-1,-1],"loss_changes":[1.1842794E3,3.4106567E1,1.4077576E1,2.6891247E1,0E0,1.880888E1,2.6316208E1,8.24991E0,4.294348E0,1.1518351E1,2.6406822E0,2.4488096E0,1.0419281E1,3.7817222E-1,1.8259811E-1,0E0,4.063596E0,1.383379E0,7.4931345E0,0E0,1.7494602E1,3.8864746E0,1.3152685E0,0E0,1.3424759E1,0E0,8.847469E-2,0E0,0E0,0E0,1.5724821E0,0E0,1.2084084E0,1.5872352E1,4.6653E0,5.529553E0,3.0362854E0,0E0,6.222025E0,0E0,0E0,2.2694172E1,2.2467178E1,0E0,0E0,0E0,0E0,0E0,0E0,0E0,0E0,0E0,0E0,0E0,0E0,0E0,0E0,0E0,0E0,0E0,0E0,0E0,0E0],"parents":[2147483647,0,0,1,1,2,2,3,3,5,5,6,6,7,7,8,8,9,9,10,10,11,11,12,12,13,13,14,14,16,16,17,17,18,18,20,20,21,21,22,22,24,24,26,26,30,30,32,32,33,33,34,34,35,35,36,36,38,38,41,41,42,42],"right_children":[2,4,6,8,-1,10,12,14,16,18,20,22,24,26,28,-1,30,32,34,-1,36,38,40,-1,42,-1,44,-1,-1,-1,46,-1,48,50,52,54,56,-1,58,-1,-1,60,62,-1,-1,-1,-1,-1,-1,-1,-1,-1,-1,-1,-1,-1,-1,-1,-1,-1,-1,-1,-1],"split_conditions":[-7.452171E-2,-2.657083E0,-8.9691246E-1,-4.2612374E-1,-3.2201535E-1,6.9791585E-1,-7.363435E-1,-4.8620634E0,-3.4400475E0,-3.4400475E0,-1.490573E0,7.8026164E-1,1.1420769E-1,-6.260256E-1,-4.6364927E-1,3.3182442E-1,-3.5553846E-1,-4.8620634E0,-1.2032021E0,3.3744127E-1,-1.3757926E0,3.1448406E-1,-8.380362E-1,-2.5832874E-1,6.2055475E-1,-4.2597745E-2,-5.272986E-1,-3.140079E-1,-1.0654904E-1,-2.5829735E-1,-1.6582283E-1,3.2876343E-1,1.1420769E-1,4.7114363E-1,6.353651E-1,9.899871E-1,7.457352E-1,-2.813285E-1,3.9428985E-1,4.99876E-3,-3.0001283E-1,-2.321561E-1,-4.707103E-1,2.9660651E-2,1.2074203E-1,5.7624876E-2,2.7755648E-1,3.0805987E-1,1.3599521E-1,3.5771008E-3,2.2776207E-1,-1.6392407E-1,8.435023E-2,-1.7530659E-1,2.9821867E-1,1.0199093E-1,3.4429914E-1,3.0362147E-1,-1.0691842E-1,3.3205476E-1,-2.4147768E-1,-9.3857594E-2,6.864388E-2],"split_indices":[0,1,1,0,0,0,1,1,1,1,1,0,0,0,0,0,0,1,1,0,1,0,1,0,0,0,0,0,0,0,0,0,0,0,0,0,0,0,0,0,0,1,1,0,0,0,0,0,0,0,0,0,0,0,0,0,0,0,0,0,0,0,0],"split_type":[0,0,0,0,0,0,0,0,0,0,0,0,0,0,0,0,0,0,0,0,0,0,0,0,0,0,0,0,0,0,0,0,0,0,0,0,0,0,0,0,0,0,0,0,0,0,0,0,0,0,0,0,0,0,0,0,0,0,0,0,0,0,0],"sum_hessian":[4.3201016E3,9.764274E2,3.343674E3,6.421793E1,9.122095E2,2.7140338E2,3.0722705E3,3.990997E1,2.4307964E1,1.9279329E2,7.861011E1,4.5251415E1,3.0270193E3,7.3876996E0,3.252227E1,7.108019E0,1.7199945E1,3.607961E1,1.5671368E2,2.7005732E1,5.1604378E1,3.218246E1,1.3068953E1,7.9394975E0,3.0190796E3,2.632905E0,4.7547946E0,3.0806358E1,1.7159134E0,2.0840545E0,1.51158905E1,1.0803223E1,2.5276386E1,1.2694758E2,2.97661E1,1.2682061E1,3.8922318E1,7.9575186E0,2.4224943E1,1.3781142E0,1.1690838E1,4.1354828E1,2.9777249E3,2.6821294E0,2.0726655E0,1.1848239E1,3.267652E0,5.110463E0,2.0165924E1,8.529491E1,4.1652676E1,2.0551064E1,9.215036E0,1.0900605E1,1.7814559E0,6.642953E0,3.227936E1,2.92174E0,2.1303204E1,3.459183E1,6.7629957E0,7.781463E1,2.8999102E3],"tree_param":{"num_deleted":"0","num_feature":"2","num_nodes":"63","size_leaf_vector":"1"}},{"base_weights":[-5.013559E-2,-9.942835E-1,1.648461E-1,-2.74195E-1,-3.151592E-1,3.5936815E-1,1.4863233E-1,-7.431358E-1,4.187255E-1,2.138706E-1,7.482997E-1,-4.3935856E-1,1.5689638E-1,1.0526412E-1,-9.8414856E-1,3.0646077E-1,1.5978976E-1,3.9032388E-1,-3.247977E-2,3.2045674E-1,5.825265E-1,-2.9071948E-1,-7.8598934E-1,-2.3786363E-1,1.5920605E-1,-3.3959106E-2,2.2406986E-1,-3.046797E-1,-9.164361E-2,-2.3366366E-1,3.1776696E-1,3.1588677E-1,3.1623662E-1,-2.8790778E-1,9.8313496E-2,-8.306312E-1,7.5372636E-1,-2.8153467E-1,-1.1977893E-1,4.1237217E-3,-2.6728374E-1,4.4739538E-1,1.4935507E-1,2.3089493E-2,9.9188186E-2,4.205125E-2,2.5339037E-1,2.5240472E-1,5.770165E-2,-2.2234689E-1,6.43125E-2,-4.5705456E-1,2.4566369E-1,5.9053954E-2,2.6614365E-1,1.5371412E-1,-7.9492874E-2,2.125722E-1,-2.9687747E-1,-3.172714E-1,4.844067E-2],"categories":[],"categories_nodes":[],"categories_segments":[],"categories_sizes":[],"default_left":[0,0,0,0,0,0,0,0,0,0,0,0,0,0,0,0,0,0,0,0,0,0,0,0,0,0,0,0,0,0,0,0,0,0,0,0,0,0,0,0,0,0,0,0,0,0,0,0,0,0,0,0,0,0,0,0,0,0,0,0,0],"id":6,"left_children":[1,3,5,7,-1,9,11,13,15,17,19,21,23,25,27,-1,29,31,33,-1,35,37,39,-1,41,-1,43,-1,-1,-1,45,47,-1,-1,49,51,53,-1,55,-1,-1,57,59,-1,-1,-1,-1,-1,-1,-1,-1,-1,-1,-1,-1,-1,-1,-1,-1,-1,-1],"loss_changes":[8.135502E2,2.98208E1,1.0244057E1,1.825178E1,0E0,1.4015217E1,1.4721634E1,6.910242E0,3.414947E0,7.9979734E0,2.9729729E0,1.9384079E0,6.6510468E0,2.3995069E-1,2.4514961E-1,0E0,2.801207E0,4.9595013E0,9.503758E0,0E0,1.1961847E1,3.3224618E0,1.0224419E0,0E0,8.35923E0,0E0,6.376079E-2,0E0,0E0,0E0,1.3273194E0,6.1833553E0,0E0,0E0,6.8722034E0,7.5778875E0,2.9694061E0,0E0,2.4938822E0,0E0,0E0,3.7331253E1,4.2152344E1,0E0,0E0,0E0,0E0,0E0,0E0,0E0,0E0,0E0,0E0,0E0,0E0,0E0,0E0,0E0,0E0,0E0,0E0],"parents":[2147483647,0,0,1,1,2,2,3,3,5,5,6,6,7,7,8,8,9,9,10,10,11,11,12,12,13,13,14,14,16,16,17,17,18,18,20,20,21,21,22,22,24,24,26,26,30,30,31,31,34,34,35,35,36,36,38,38,41,41,42,42],"right_children":[2,4,6,8,-1,10,12,14,16,18,20,22,24,26,28,-1,30,32,34,-1,36,38,40,-1,42,-1,44,-1,-1,-1,46,48,-1,-1,50,52,54,-1,56,-1,-1,58,60,-1,-1,-1,-1,-1,-1,-1,-1,-1,-1,-1,-1,-1,-1,-1,-1,-1,-1],"split_conditions":[-7.452171E-2,-2.657083E0,-8.9691246E-1,-4.2612374E-1,-3.151592E-1,6.9791585E-1,-7.363435E-1,-4.8620634E0,-3.4400475E0,-1.8594718E0,-1.490573E0,7.8026164E-1,1.1420769E-1,-6.260256E-1,-4.6364927E-1,3.0646077E-1,-3.5553846E-1,5.0942504E-1,-1.7586228E0,3.2045674E-1,-1.390262E0,2.7269852E-1,-8.380362E-1,-2.3786363E-1,7.9567665E-1,-3.3959106E-2,-5.272986E-1,-3.046797E-1,-9.164361E-2,-2.3366366E-1,-1.6582283E-1,-3.9931853E0,3.1623662E-1,-2.8790778E-1,7.1466185E-2,9.248026E-1,-1.3757926E0,-2.8153467E-1,3.9428985E-1,4.1237217E-3,-2.6728374E-1,-2.321561E-1,-4.7376567E-1,2.3089493E-2,9.9188186E-2,4.205125E-2,2.5339037E-1,2.5240472E-1,5.770165E-2,-2.2234689E-1,6.43125E-2,-4.5705456E-1,2.4566369E-1,5.9053954E-2,2.6614365E-1,1.5371412E-1,-7.9492874E-2,2.125722E-1,-2.9687747E-1,-3.172714E-1,4.844067E-2],"split_indices":[0,1,1,0,0,0,1,1,1,1,1,0,0,0,0,0,0,0,1,0,1,0,1,0,0,0,0,0,0,0,0,1,0,0,0,0,1,0,0,0,0,1,1,0,0,0,0,0,0,0,0,0,0,0,0,0,0,0,0,0,0],"split_type":[0,0,0,0,0,0,0,0,0,0,0,0,0,0,0,0,0,0,0,0,0,0,0,0,0,0,0,0,0,0,0,0,0,0,0,0,0,0,0,0,0,0,0,0,0,0,0,0,0,0,0,0,0,0,0,0,0,0,0,0,0],"sum_hessian":[4.0063318E3,7.423748E2,3.2639568E3,5.4212296E1,6.8816254E2,2.4949672E2,3.0144602E3,3.228836E1,2.1923937E1,1.8269954E2,6.679718E1,4.1057236E1,2.9734028E3,7.267821E0,2.5020538E1,5.7027125E0,1.6221224E1,1.06111015E2,7.658853E1,2.0942043E1,4.5855137E1,3.0022118E1,1.1035116E1,6.3828115E0,2.96702E3,2.576795E0,4.6910257E0,2.3437944E1,1.5825945E0,1.7705646E0,1.445066E1,9.673878E1,9.372234E0,8.684605E0,6.790392E1,4.5387244E0,4.131641E1,5.331195E0,2.4690924E1,1.3810418E0,9.654075E0,9.6599396E1,2.8704207E3,2.6940775E0,1.9969484E0,1.1754505E1,2.6961548E0,1.7309553E1,7.942923E1,7.593615E0,6.031031E1,3.2499514E0,1.2887728E0,8.463962E0,3.285245E1,4.139506E0,2.0551418E1,8.217131E1,1.4428089E1,2.7666277E1,2.8427544E3],"tree_param":{"num_deleted":"0","num_feature":"2","num_nodes":"61","size_leaf_vector":"1"}},{"base_weights":[-4.475303E-2,-1.0110204E0,1.1228928E-1,2.249049E-2,-1.0291982E0,-3.0339047E-1,1.1945593E-1,-1.1935718E-1,1.24208935E-1,-5.397727E-1,-3.1012613E-1,5.6706864E-1,-8.839313E-1,2.956751E-1,1.06391676E-1,2.0677354E-2,-1.62133E-1,-2.6227102E-1,2.0885374E-1,2.6434824E-1,3.1205723E-1,-2.2362912E-1,-3.074739E-1,1.7552653E-1,7.2196454E-1,-2.567176E-1,1.1429492E-1,-3.9535593E-2,9.781612E-2,6.9630724E-1,-5.1466703E-2,-2.3275118E-1,3.399771E-1,2.4120007E-1,-6.712679E-1,5.379113E-1,3.2871026E-1,-4.4170868E-2,-5.258622E-1,1.0964402E0,1.1173048E-1,4.18249E-2,6.898333E-3,4.8072826E-2,2.7334607E-1,-8.584506E-2,2.6650423E-1,-1.0652082E-2,1.6452084E-1,2.9162848E-1,6.0425382E-2,-3.515368E-1,3.5470855E-1,3.0384037E-1,5.376237E-2,-2.3162295E-1,2.6166987E-2,-8.190869E-2,-1.940134E-1,3.6099574E-1,9.344282E-2,-2.2401562E-2,3.6030557E-2],"categories":[],"categories_nodes":[],"categories_segments":[],"categories_sizes":[],"default_left":[0,0,0,0,0,0,0,0,0,0,0,0,0,0,0,0,0,0,0,0,0,0,0,0,0,0,0,0,0,0,0,0,0,0,0,0,0,0,0,0,0,0,0,0,0,0,0,0,0,0,0,0,0,0,0,0,0,0,0,0,0,0,0],"id":7,"left_children":[1,3,5,7,9,11,13,15,-1,17,-1,19,21,23,25,27,-1,-1,-1,29,-1,31,-1,33,35,37,39,-1,41,43,45,-1,47,49,51,53,-1,55,57,59,61,-1,-1,-1,-1,-1,-1,-1,-1,-1,-1,-1,-1,-1,-1,-1,-1,-1,-1,-1,-1,-1,-1],"loss_changes":[5.707032E2,9.901001E0,9.674618E0,6.084989E-1,5.941162E-1,2.8354458E1,7.292412E0,4.926756E-1,0E0,3.4435914E0,0E0,2.9707303E0,2.8852654E0,1.1090485E1,8.533173E0,9.628598E-2,0E0,0E0,0E0,2.1039863E0,0E0,2.4938867E0,0E0,9.736919E0,2.7009563E0,3.6054068E0,7.183708E0,0E0,1.3236802E-2,5.993395E-1,2.3911178E0,0E0,3.514131E-1,4.4715395E0,1.31278515E1,5.6126556E0,0E0,3.5615325E0,6.7582464E-1,2.4947166E-1,4.525528E0,0E0,0E0,0E0,0E0,0E0,0E0,0E0,0E0,0E0,0E0,0E0,0E0,0E0,0E0,0E0,0E0,0E0,0E0,0E0,0E0,0E0,0E0],"parents":[2147483647,0,0,1,1,2,2,3,3,4,4,5,5,6,6,7,7,9,9,11,11,12,12,13,13,14,14,15,15,19,19,21,21,23,23,24,24,25,25,26,26,28,28,29,29,30,30,32,32,33,33,34,34,35,35,37,37,38,38,39,39,40,40],"right_children":[2,4,6,8,10,12,14,16,-1,18,-1,20,22,24,26,28,-1,-1,-1,30,-1,32,-1,34,36,38,40,-1,42,44,46,-1,48,50,52,54,-1,56,58,60,62,-1,-1,-1,-1,-1,-1,-1,-1,-1,-1,-1,-1,-1,-1,-1,-1,-1,-1,-1,-1,-1,-1],"split_conditions":[-3.5553846E-1,-3.9931853E0,-3.6501535E-3,-5.003741E-1,-3.4400475E0,-2.657083E0,-8.9691246E-1,-4.8620634E0,1.24208935E-1,-4.2612374E-1,-3.1012613E-1,-1.6582283E-1,-2.1343615E0,7.457352E-1,-6.500144E-1,-6.6289914E-1,-1.62133E-1,-2.6227102E-1,2.0885374E-1,-2.9901733E0,3.1205723E-1,-7.452171E-2,-3.074739E-1,-1.0267761E0,-1.1658549E0,6.8259495E-1,-6.164588E-1,-3.9535593E-2,-5.6212735E-1,-3.053281E-1,-2.6974478E0,-2.3275118E-1,-2.3620615E0,-4.8620634E0,-1.0033194E0,-1.490573E0,3.2871026E-1,3.1448406E-1,-8.069746E-1,8.100518E-1,9.899871E-1,4.18249E-2,6.898333E-3,4.8072826E-2,2.7334607E-1,-8.584506E-2,2.6650423E-1,-1.0652082E-2,1.6452084E-1,2.9162848E-1,6.0425382E-2,-3.515368E-1,3.5470855E-1,3.0384037E-1,5.376237E-2,-2.3162295E-1,2.6166987E-2,-8.190869E-2,-1.940134E-1,3.6099574E-1,9.344282E-2,-2.2401562E-2,3.6030557E-2],"split_indices":[0,1,0,0,1,1,1,1,0,0,0,0,1,0,1,0,0,0,0,1,0,0,0,1,1,0,1,0,0,0,1,0,1,1,1,1,0,0,1,0,0,0,0,0,0,0,0,0,0,0,0,0,0,0,0,0,0,0,0,0,0,0,0],"split_type":[0,0,0,0,0,0,0,0,0,0,0,0,0,0,0,0,0,0,0,0,0,0,0,0,0,0,0,0,0,0,0,0,0,0,0,0,0,0,0,0,0,0,0,0,0,0,0,0,0,0,0,0,0,0,0,0,0,0,0,0,0,0,0],"sum_hessian":[3.7591912E3,5.2478674E2,3.2344045E3,9.066478E0,5.157203E2,5.4118084E1,3.1802864E3,7.1656504E0,1.9008275E0,5.8579926E0,5.0986227E2,2.1661772E1,3.245631E1,2.180088E2,2.9622776E3,6.090962E0,1.0746882E0,4.8407E0,1.0172927E0,1.4160263E1,7.5015087E0,6.165551E0,2.629076E1,1.7117526E2,4.6833553E1,6.243123E1,2.8998464E3,1.8083631E0,4.282599E0,5.471614E0,8.688649E0,2.9240634E0,3.2414877E0,1.5951886E2,1.1656401E1,3.3014328E1,1.3819225E1,3.5533844E1,2.6897385E1,6.441078E0,2.8934053E3,2.1974957E0,2.0851033E0,2.0650187E0,3.4065952E0,7.5090656E0,1.179584E0,1.4531837E0,1.7883041E0,7.0245876E0,1.5249426E2,9.467741E0,2.1886606E0,1.3421719E1,1.959261E1,4.6878366E0,3.0846008E1,9.752674E0,1.7144709E1,5.200086E0,1.2409922E0,1.24018196E2,2.769387E3],"tree_param":{"num_deleted":"0","num_feature":"2","num_nodes":"63","size_leaf_vector":"1"}},{"base_weights":[-3.8237996E-2,-9.917515E-1,8.064049E-2,1.1862442E-2,-1.0147772E0,5.5040497E-1,7.61876E-2,-1.06090836E-1,1.00522034E-1,-4.841719E-1,-3.060189E-1,2.8550872E-1,4.054234E-1,-2.562638E-1,8.712665E-2,-1.3017832E-1,8.76514E-3,-2.3805547E-1,8.0099806E-2,2.749741E-1,1.9824423E-1,1.839489E-1,-5.4496366E-1,4.7102112E-1,8.0004245E-2,-5.1953953E-2,-5.5201393E-2,3.2478598E-1,-3.9993774E-2,4.2357165E-1,-3.963347E-1,-9.884616E-1,-2.2927752E-1,-6.416654E-2,3.1984085E-1,-7.8086615E-1,8.219661E-2,-4.2382732E-2,2.3593072E-2,5.7565108E-2,1.8960613E-1,-1.7823221E-1,7.201467E-2,-9.6617285E-3,2.1365005E-1,-2.604242E-1,2.3287173E-1,-1.0740306E-1,-3.071358E-1,-1.4804776E-1,-1.9800285E-4,-1.6149014E-1,1.4106174E-1,-5.0361836E-1,2.4880277E-1,1.3176127E-1,2.3525931E-2],"categories":[],"categories_nodes":[],"categories_segments":[],"categories_sizes":[],"default_left":[0,0,0,0,0,0,0,0,0,0,0,0,0,0,0,0,0,0,0,0,0,0,0,0,0,0,0,0,0,0,0,0,0,0,0,0,0,0,0,0,0,0,0,0,0,0,0,0,0,0,0,0,0,0,0,0,0],"id":8,"left_children":[1,3,5,7,9,11,13,15,-1,17,-1,-1,19,21,23,25,-1,-1,-1,-1,27,29,31,33,35,37,-1,39,41,43,45,47,49,51,-1,53,55,-1,-1,-1,-1,-1,-1,-1,-1,-1,-1,-1,-1,-1,-1,-1,-1,-1,-1,-1,-1],"loss_changes":[4.0556015E2,9.177429E0,6.613264E0,4.123579E-1,5.935974E-1,1.3429146E0,1.1488264E1,2.9879667E-2,0E0,1.5428811E0,0E0,0E0,2.3143852E0,1.2896945E1,8.310394E0,1.9808613E-2,0E0,0E0,0E0,0E0,5.5708516E-1,5.817178E0,8.3224945E0,1.7716007E1,5.7238407E0,6.0530934E-2,0E0,3.6449933E-1,1.2523078E0,3.8687153E0,7.527685E0,1.9221687E-1,2.2330172E0,7.8835425E0,0E0,1.2542828E1,3.9998932E0,0E0,0E0,0E0,0E0,0E0,0E0,0E0,0E0,0E0,0E0,0E0,0E0,0E0,0E0,0E0,0E0,0E0,0E0,0E0,0E0],"parents":[2147483647,0,0,1,1,2,2,3,3,4,4,5,5,6,6,7,7,9,9,12,12,13,13,14,14,15,15,20,20,21,21,22,22,23,23,24,24,25,25,27,27,28,28,29,29,30,30,31,31,32,32,33,33,35,35,36,36],"right_children":[2,4,6,8,10,12,14,16,-1,18,-1,-1,20,22,24,26,-1,-1,-1,-1,28,30,32,34,36,38,-1,40,42,44,46,48,50,52,-1,54,56,-1,-1,-1,-1,-1,-1,-1,-1,-1,-1,-1,-1,-1,-1,-1,-1,-1,-1,-1,-1],"split_conditions":[-3.5553846E-1,-3.9931853E0,-3.4400475E0,-5.003741E-1,-3.4400475E0,1.1420769E-1,3.1448406E-1,-5.272986E-1,1.00522034E-1,-4.6364927E-1,-3.060189E-1,2.8550872E-1,-4.8620634E0,-2.2156825E0,-1.5629483E0,-5.9182656E-1,8.76514E-3,-2.3805547E-1,8.0099806E-2,2.749741E-1,3.5912704E-1,1.1420769E-1,1.4501476E-2,5.0942504E-1,-1.4179598E0,-6.6289914E-1,-5.5201393E-2,3.1448406E-1,3.9428985E-1,-1.9213444E-1,-2.4536033E0,-2.1343615E0,-1.3757926E0,-2.3620615E0,3.1984085E-1,8.4440166E-1,-1.2032021E0,-4.2382732E-2,2.3593072E-2,5.7565108E-2,1.8960613E-1,-1.7823221E-1,7.201467E-2,-9.6617285E-3,2.1365005E-1,-2.604242E-1,2.3287173E-1,-1.0740306E-1,-3.071358E-1,-1.4804776E-1,-1.9800285E-4,-1.6149014E-1,1.4106174E-1,-5.0361836E-1,2.4880277E-1,1.3176127E-1,2.3525931E-2],"split_indices":[0,1,1,0,1,0,0,0,0,0,0,0,1,1,1,0,0,0,0,0,0,0,0,0,1,0,0,0,0,0,1,1,1,1,0,0,1,0,0,0,0,0,0,0,0,0,0,0,0,0,0,0,0,0,0,0,0],"split_type":[0,0,0,0,0,0,0,0,0,0,0,0,0,0,0,0,0,0,0,0,0,0,0,0,0,0,0,0,0,0,0,0,0,0,0,0,0,0,0,0,0,0,0,0,0,0,0,0,0,0,0,0,0,0,0,0,0],"sum_hessian":[3.5761697E3,3.9561725E2,3.1805525E3,8.883844E0,3.867334E2,2.8714024E1,3.1518384E3,7.00074E0,1.8831046E0,4.7279367E0,3.8200546E2,6.1439857E0,2.2570038E1,9.969058E1,3.0521477E3,5.974986E0,1.0257541E0,3.308897E0,1.4190397E0,5.5219846E0,1.7048054E1,3.9628086E1,6.0062496E1,5.4408775E1,2.997739E3,3.236574E0,2.7384121E0,1.0896839E1,6.1512146E0,2.8237663E1,1.1390422E1,2.408918E1,3.5973316E1,2.9116472E1,2.5292301E1,6.7126937E0,2.9910264E3,1.873461E0,1.3631129E0,8.740471E0,2.1563685E0,1.688578E0,4.4626365E0,1.1292251E1,1.6945414E1,8.307754E0,3.0826678E0,1.8688989E0,2.2220282E1,1.615002E1,1.9823296E1,1.5423908E1,1.3692563E1,4.2823033E0,2.4303904E0,3.0104435E1,2.9609219E3],"tree_param":{"num_deleted":"0","num_feature":"2","num_nodes":"57","size_leaf_vector":"1"}},{"base_weights":[-3.1995688E-2,-9.720916E-1,5.7701316E-2,-1.4889489E-1,-3.0255455E-1,4.695708E-1,5.4148808E-2,-2.2620727E-1,3.4754824E-2,2.6869857E-1,3.3427426E-1,-2.1070483E-1,6.212528E-2,-9.122708E-2,1.957374E-1,2.5925675E-1,1.5338463E-1,1.4855936E-1,-4.488037E-1,4.0334386E-1,5.653571E-2,1.71253E-1,-5.555247E-1,2.6139423E-1,-4.070168E-2,3.8895628E-1,-2.8445745E-1,-9.465231E-1,-1.6779284E-1,-4.5338854E-2,3.079545E-1,-5.825903E-1,5.812662E-2,9.315448E-2,1.62125E-2,-2.0679773E-1,-2.5071891E-2,4.3734208E-2,1.6228285E-1,-1.3718246E-1,5.6092773E-2,1.8014427E-3,2.4523081E-1,-1.9707707E-1,2.172194E-1,-8.7938145E-2,-2.990838E-1,-1.6870901E-1,-1.6954836E-2,-1.169293E-1,1.0865837E-1,-4.337969E-1,1.7451644E-1,1.9288537E-1,1.6912539E-2],"categories":[],"categories_nodes":[],"categories_segments":[],"categories_sizes":[],"default_left":[0,0,0,0,0,0,0,0,0,0,0,0,0,0,0,0,0,0,0,0,0,0,0,0,0,0,0,0,0,0,0,0,0,0,0,0,0,0,0,0,0,0,0,0,0,0,0,0,0,0,0,0,0,0,0],"id":9,"left_children":[1,3,5,7,-1,9,11,-1,13,-1,15,17,19,21,-1,-1,23,25,27,29,31,33,35,37,39,41,43,45,47,49,-1,51,53,-1,-1,-1,-1,-1,-1,-1,-1,-1,-1,-1,-1,-1,-1,-1,-1,-1,-1,-1,-1,-1,-1],"loss_changes":[2.9006155E2,8.833405E0,4.5697613E0,1.567428E0,0E0,1.2413468E0,6.593506E0,0E0,9.618691E-1,0E0,1.9648476E0,7.875953E0,5.745821E0,1.3757876E0,0E0,0E0,3.7808573E-1,3.9766955E0,7.5552874E0,1.3630997E1,3.0608253E0,1.05277106E-1,1.9692755E-1,2.8945488E-1,7.619477E-1,3.983005E0,5.6728973E0,3.5639E-1,1.5693475E0,4.2404394E0,0E0,8.363155E0,3.0064745E0,0E0,0E0,0E0,0E0,0E0,0E0,0E0,0E0,0E0,0E0,0E0,0E0,0E0,0E0,0E0,0E0,0E0,0E0,0E0,0E0,0E0,0E0],"parents":[2147483647,0,0,1,1,2,2,3,3,5,5,6,6,8,8,10,10,11,11,12,12,13,13,16,16,17,17,18,18,19,19,20,20,21,21,22,22,23,23,24,24,25,25,26,26,27,27,28,28,29,29,31,31,32,32],"right_children":[2,4,6,8,-1,10,12,-1,14,-1,16,18,20,22,-1,-1,24,26,28,30,32,34,36,38,40,42,44,46,48,50,-1,52,54,-1,-1,-1,-1,-1,-1,-1,-1,-1,-1,-1,-1,-1,-1,-1,-1,-1,-1,-1,-1,-1,-1],"split_conditions":[-3.5553846E-1,-3.4400475E0,-3.4400475E0,-6.914008E-1,-3.0255455E-1,1.1420769E-1,3.1448406E-1,-2.2620727E-1,-4.2612374E-1,2.6869857E-1,-4.8620634E0,-2.2156825E0,-1.5629483E0,-4.8620634E0,1.957374E-1,2.5925675E-1,3.5912704E-1,7.1466185E-2,1.4501476E-2,5.0942504E-1,-1.4179598E0,-5.9182656E-1,-4.6364927E-1,3.1448406E-1,3.9428985E-1,-1.4532217E-1,-2.3620615E0,-2.1343615E0,-2.0130107E0,-2.3620615E0,3.079545E-1,7.9567665E-1,4.3611845E-1,9.315448E-2,1.62125E-2,-2.0679773E-1,-2.5071891E-2,4.3734208E-2,1.6228285E-1,-1.3718246E-1,5.6092773E-2,1.8014427E-3,2.4523081E-1,-1.9707707E-1,2.172194E-1,-8.7938145E-2,-2.990838E-1,-1.6870901E-1,-1.6954836E-2,-1.169293E-1,1.0865837E-1,-4.337969E-1,1.7451644E-1,1.9288537E-1,1.6912539E-2],"split_indices":[0,1,1,0,0,0,0,0,0,0,1,1,1,1,0,0,0,0,0,0,1,0,0,0,0,0,1,1,1,1,0,0,0,0,0,0,0,0,0,0,0,0,0,0,0,0,0,0,0,0,0,0,0,0,0],"split_type":[0,0,0,0,0,0,0,0,0,0,0,0,0,0,0,0,0,0,0,0,0,0,0,0,0,0,0,0,0,0,0,0,0,0,0,0,0,0,0,0,0,0,0,0,0,0,0,0,0,0,0,0,0,0,0],"sum_hessian":[3.438189E3,2.986162E2,3.1395728E3,1.2868414E1,2.857478E2,2.5726454E1,3.1138464E3,2.2730143E0,1.05954E1,4.8457327E0,2.0880722E1,9.0293465E1,3.023553E3,9.508444E0,1.0869554E0,4.3525424E0,1.652818E1,3.613935E1,5.4154118E1,4.758426E1,2.9759688E3,6.477624E0,3.0308201E0,1.0395987E1,6.132192E0,2.3303663E1,1.2835687E1,1.8687323E1,3.5466797E1,2.8204374E1,1.9379885E1,6.4825883E0,2.969486E3,2.2066524E0,4.270972E0,2.0025115E0,1.0283086E0,8.430749E0,1.9652383E0,1.8107319E0,4.3214602E0,1.2841054E1,1.0462609E1,9.628375E0,3.2073119E0,1.8269166E0,1.6860405E1,6.9102726E0,2.8556522E1,1.53093405E1,1.2895034E1,3.583388E0,2.8992004E0,7.7736573E0,2.9617124E3],"tree_param":{"num_deleted":"0","num_feature":"2","num_nodes":"55","size_leaf_vector":"1"}},{"base_weights":[-2.626655E-2,-1.0066655E0,3.808884E-2,-3.0343947E-1,-4.742166E-1,-3.2967237E-1,4.3603774E-2,-1.2027392E-2,-1.9001703E-1,6.178425E-2,-8.6537546E-1,2.4489217E-1,3.784744E-2,-2.2670731E-1,2.642355E-1,3.609074E-2,-2.887866E-1,1.1378369E-1,6.4740366E-1,-7.900831E-1,4.0272273E-2,5.5301953E-2,-6.3779634E-1,6.133175E-1,1.7404374E-2,4.4265375E-1,-5.4492548E-2,7.497097E-2,7.3784345E-1,3.853759E-3,-2.7449626E-1,7.236591E-1,3.810918E-2,-2.5499554E-2,4.0377233E-2,-2.251802E-1,-4.6757262E-2,6.836042E-2,2.515062E-1,-4.8162676E-2,2.1434869E-1,3.113388E-1,2.697821E-3,1.5614073E-1,-5.6036323E-2,1.2611982E-1,-1.21961504E-1,1.5842706E-1,2.761421E-1,-1.6492409E-1,2.8678864E-1,-1.4491272E-1,1.1988444E-2],"categories":[],"categories_nodes":[],"categories_segments":[],"categories_sizes":[],"default_left":[0,0,0,0,0,0,0,0,0,0,0,0,0,0,0,0,0,0,0,0,0,0,0,0,0,0,0,0,0,0,0,0,0,0,0,0,0,0,0,0,0,0,0,0,0,0,0,0,0,0,0,0,0],"id":10,"left_children":[1,3,5,-1,7,9,11,-1,-1,13,15,17,19,21,23,-1,-1,25,27,29,31,33,35,37,39,41,43,45,47,-1,-1,49,51,-1,-1,-1,-1,-1,-1,-1,-1,-1,-1,-1,-1,-1,-1,-1,-1,-1,-1,-1,-1],"loss_changes":[2.1053697E2,4.560852E-2,6.366076E0,0E0,2.3158729E-1,9.780865E0,3.5668235E0,0E0,0E0,1.6797698E0,1.999464E0,4.444985E0,6.058046E0,1.4235783E0,1.433399E0,0E0,0E0,3.6655784E0,1.0227795E0,8.957257E-1,4.3980956E0,1.0068964E-1,1.5224528E-1,4.0857458E-1,1.4602021E0,5.7672343E0,3.4758825E0,8.286169E-1,1.984644E-1,0E0,0E0,3.303537E0,2.9013038E0,0E0,0E0,0E0,0E0,0E0,0E0,0E0,0E0,0E0,0E0,0E0,0E0,0E0,0E0,0E0,0E0,0E0,0E0,0E0,0E0],"parents":[2147483647,0,0,1,1,2,2,4,4,5,5,6,6,9,9,10,10,11,11,12,12,13,13,14,14,17,17,18,18,19,19,20,20,21,21,22,22,23,23,24,24,25,25,26,26,27,27,28,28,31,31,32,32],"right_children":[2,4,6,-1,8,10,12,-1,-1,14,16,18,20,22,24,-1,-1,26,28,30,32,34,36,38,40,42,44,46,48,-1,-1,50,52,-1,-1,-1,-1,-1,-1,-1,-1,-1,-1,-1,-1,-1,-1,-1,-1,-1,-1,-1,-1],"split_conditions":[-7.1282184E-1,-7.3860246E-1,-7.452171E-2,-3.0343947E-1,-4.7376567E-1,-2.657083E0,-1.8594718E0,-1.2027392E-2,-1.9001703E-1,-4.2612374E-1,-6.914008E-1,4.3611845E-1,-1.7586228E0,-4.8620634E0,-2.9901733E0,3.609074E-2,-2.887866E-1,1.1420769E-1,-3.21854E0,-1.7855134E0,-1.5629483E0,-6.260256E-1,-4.6364927E-1,-3.053281E-1,-2.6974478E0,-2.657083E0,-3.9931853E0,-3.6351979E0,5.0942504E-1,3.853759E-3,-2.7449626E-1,1.1420769E-1,-1.390262E0,-2.5499554E-2,4.0377233E-2,-2.251802E-1,-4.6757262E-2,6.836042E-2,2.515062E-1,-4.8162676E-2,2.1434869E-1,3.113388E-1,2.697821E-3,1.5614073E-1,-5.6036323E-2,1.2611982E-1,-1.21961504E-1,1.5842706E-1,2.761421E-1,-1.6492409E-1,2.8678864E-1,-1.4491272E-1,1.1988444E-2],"split_indices":[0,0,0,0,1,1,1,0,0,0,0,0,1,1,1,0,0,0,1,1,1,0,0,0,1,1,1,1,0,0,0,0,1,0,0,0,0,0,0,0,0,0,0,0,0,0,0,0,0,0,0,0,0],"split_type":[0,0,0,0,0,0,0,0,0,0,0,0,0,0,0,0,0,0,0,0,0,0,0,0,0,0,0,0,0,0,0,0,0,0,0,0,0,0,0,0,0,0,0,0,0,0,0,0,0,0,0,0,0],"sum_hessian":[3.335273E3,2.0454617E2,3.1307266E3,2.0182727E2,2.7189033E0,4.5386215E1,3.0853406E3,1.0653013E0,1.653602E0,2.6734827E1,1.8651388E1,8.462479E1,3.0007156E3,1.0975297E1,1.575953E1,1.653602E0,1.6997786E1,6.480032E1,1.9824467E1,7.8142214E0,2.9929014E3,7.0229735E0,3.952323E0,5.9127007E0,9.846828E0,2.1381989E1,4.341833E1,2.9543097E0,1.6870157E1,1.1727198E0,6.6415014E0,8.390971E0,2.9845105E3,2.5098383E0,4.5131354E0,2.7509623E0,1.2013606E0,2.9214072E0,2.9912937E0,8.457562E0,1.3892667E0,8.425712E0,1.2956278E1,7.5727267E0,3.5845608E1,1.7941345E0,1.1601752E0,9.663302E0,7.206855E0,1.0837443E0,7.3072267E0,9.65006E0,2.9748604E3],"tree_param":{"num_deleted":"0","num_feature":"2","num_nodes":"53","size_leaf_vector":"1"}},{"base_weights":[-2.121954E-2,-9.991136E-1,2.7127482E-2,-3.0164203E-1,-4.2701915E-1,-2.5644964E-1,3.1657998E-2,-1.0238159E-2,-1.7604995E-1,1.24511376E-1,-7.4027705E-1,1.6061974E-1,2.3766972E-2,-3.3919374E-3,2.467892E-1,2.8591694E-2,-8.1650823E-1,6.1870247E-2,5.677005E-1,-3.6184096E-1,2.8748918E-2,-5.6904696E-2,1.76453E-1,-3.582352E-1,-2.860708E-1,1.1689993E-1,-5.63845E-1,3.2758132E-1,3.0652747E-1,-2.7838516E-1,-2.6603898E-1,3.9760792E-1,2.3806937E-2,1.356666E-2,-1.22445785E-1,-2.2148776E-1,3.5640165E-2,2.3453744E-1,2.8615942E-2,-2.9296672E-1,2.9478353E-1,2.6624495E-1,3.293983E-2,-1.4800593E-1,-3.5350055E-2,1.6690868E-1,-1.7542262E-1,-7.896528E-2,9.469279E-3],"categories":[],"categories_nodes":[],"categories_segments":[],"categories_sizes":[],"default_left":[0,0,0,0,0,0,0,0,0,0,0,0,0,0,0,0,0,0,0,0,0,0,0,0,0,0,0,0,0,0,0,0,0,0,0,0,0,0,0,0,0,0,0,0,0,0,0,0,0],"id":11,"left_children":[1,3,5,-1,7,9,11,-1,-1,13,15,17,19,21,-1,-1,23,25,27,29,31,33,-1,35,-1,37,39,41,-1,43,-1,45,47,-1,-1,-1,-1,-1,-1,-1,-1,-1,-1,-1,-1,-1,-1,-1,-1],"loss_changes":[1.5425139E2,1.2986755E-1,4.002858E0,0E0,1.952216E-1,9.124683E0,3.1115315E0,0E0,0E0,2.527328E0,1.4620752E0,7.053798E0,5.5546327E0,8.2142955E-1,0E0,0E0,9.158459E-1,4.991243E0,3.405424E0,1.3690534E0,5.1859922E0,8.699806E-1,0E0,1.2137183E0,0E0,1.817956E0,8.449198E0,2.81808E0,0E0,1.0905592E0,0E0,6.1918454E0,6.2726808E0,0E0,0E0,0E0,0E0,0E0,0E0,0E0,0E0,0E0,0E0,0E0,0E0,0E0,0E0,0E0,0E0],"parents":[2147483647,0,0,1,1,2,2,4,4,5,5,6,6,9,9,10,10,11,11,12,12,13,13,16,16,17,17,18,18,19,19,20,20,21,21,23,23,25,25,26,26,27,27,29,29,31,31,32,32],"right_children":[2,4,6,-1,8,10,12,-1,-1,14,16,18,20,22,-1,-1,24,26,28,30,32,34,-1,36,-1,38,40,42,-1,44,-1,46,48,-1,-1,-1,-1,-1,-1,-1,-1,-1,-1,-1,-1,-1,-1,-1,-1],"split_conditions":[-7.1282184E-1,-7.3860246E-1,-3.6501535E-3,-3.0164203E-1,-4.7376567E-1,-2.657083E0,-8.9691246E-1,-1.0238159E-2,-1.7604995E-1,-1.6582283E-1,-6.914008E-1,7.457352E-1,-7.363435E-1,-2.6974478E0,2.467892E-1,2.8591694E-2,-2.1343615E0,-1.0267761E0,-1.1658549E0,-8.069746E-1,6.2055475E-1,-2.8938105E0,1.76453E-1,-7.452171E-2,-2.860708E-1,-4.8620634E0,-1.0033194E0,-1.490573E0,3.0652747E-1,5.4166555E-1,-2.6603898E-1,-2.321561E-1,-4.707103E-1,1.356666E-2,-1.22445785E-1,-2.2148776E-1,3.5640165E-2,2.3453744E-1,2.8615942E-2,-2.9296672E-1,2.9478353E-1,2.6624495E-1,3.293983E-2,-1.4800593E-1,-3.5350055E-2,1.6690868E-1,-1.7542262E-1,-7.896528E-2,9.469279E-3],"split_indices":[0,0,0,0,1,1,1,0,0,0,0,0,1,1,0,0,1,1,1,1,0,1,0,0,0,1,1,1,0,0,0,1,1,0,0,0,0,0,0,0,0,0,0,0,0,0,0,0,0],"split_type":[0,0,0,0,0,0,0,0,0,0,0,0,0,0,0,0,0,0,0,0,0,0,0,0,0,0,0,0,0,0,0,0,0,0,0,0,0,0,0,0,0,0,0,0,0,0,0,0,0],"sum_hessian":[3.2610542E3,1.5270436E2,3.1083499E3,1.5027628E2,2.428091E0,4.800467E1,3.0603452E3,1.0529722E0,1.3751187E0,2.7272903E1,2.0731766E1,1.7534566E2,2.8849995E3,2.3890953E1,3.3819504E0,1.7123373E0,1.9019428E1,1.4204132E2,3.3304337E1,3.5884323E1,2.8491152E3,2.273791E1,1.1530437E0,5.210717E0,1.3808712E1,1.313065E2,1.0734819E1,2.2910196E1,1.039414E1,3.228246E1,3.6018631E0,3.6617367E1,2.8124978E3,1.8290977E1,4.4469304E0,2.5953329E0,2.6153843E0,3.0078163E0,1.2829868E2,8.764353E0,1.9704666E0,5.554603E0,1.7355595E1,1.2915973E1,1.9366488E1,3.1896345E1,4.721022E0,7.314562E1,2.7393523E3],"tree_param":{"num_deleted":"0","num_feature":"2","num_nodes":"49","size_leaf_vector":"1"}},{"base_weights":[-1.7127153E-2,-9.916221E-1,1.9209052E-2,-3.0001658E-1,-3.8449788E-1,-1.9324952E-1,2.2951262E-2,-8.714689E-3,-1.628258E-1,1.2591697E-1,-6.9285506E-1,1.021329E-1,1.3193247E-2,-6.353601E-2,5.9940237E-1,2.8845854E-2,-7.676992E-1,4.1319434E-2,9.464408E-1,-1.1687449E0,7.332443E-3,-2.2770092E-1,7.680599E-2,7.998102E-1,1.3422772E-1,-8.8887626E-1,-3.1754053E-1,1.2295813E-1,-2.2883165E-1,2.9891878E-1,8.307427E-2,-6.492483E-2,-3.7829316E-1,-2.707019E-3,-2.2146402E-1,2.1813828E-1,-2.4528436E-2,6.2397752E-2,2.6236326E-1,-1.0404962E-1,1.2942296E-1,-6.639187E-2,-2.8736866E-1,-1.7023438E-1,1.0754838E-1,9.938649E-3,1.2323711E-1,1.5025373E-1,-1.6779679E-1],"categories":[],"categories_nodes":[],"categories_segments":[],"categories_sizes":[],"default_left":[0,0,0,0,0,0,0,0,0,0,0,0,0,0,0,0,0,0,0,0,0,0,0,0,0,0,0,0,0,0,0,0,0,0,0,0,0,0,0,0,0,0,0,0,0,0,0,0,0],"id":12,"left_children":[1,3,5,-1,7,9,11,-1,-1,13,15,17,19,21,23,-1,25,27,29,31,-1,33,35,37,39,41,43,45,47,-1,-1,-1,-1,-1,-1,-1,-1,-1,-1,-1,-1,-1,-1,-1,-1,-1,-1,-1,-1],"loss_changes":[1.133248E2,2.0449066E-1,2.4578686E0,0E0,1.6427958E-1,8.6211815E0,2.3423567E0,0E0,0E0,3.043382E0,1.3148623E0,1.7040974E1,3.5946342E1,5.89611E-1,7.9414034E-1,0E0,7.7089024E-1,6.8948207E0,4.7008896E-1,1.9659538E0,0E0,1.2991765E0,1.5170921E0,1.0810089E-1,7.3768365E-1,4.6328354E-1,1.1580694E0,6.185156E0,1.7788414E1,0E0,0E0,0E0,0E0,0E0,0E0,0E0,0E0,0E0,0E0,0E0,0E0,0E0,0E0,0E0,0E0,0E0,0E0,0E0,0E0],"parents":[2147483647,0,0,1,1,2,2,4,4,5,5,6,6,9,9,10,10,11,11,12,12,13,13,14,14,16,16,17,17,18,18,19,19,21,21,22,22,23,23,24,24,25,25,26,26,27,27,28,28],"right_children":[2,4,6,-1,8,10,12,-1,-1,14,16,18,20,22,24,-1,26,28,30,32,-1,34,36,38,40,42,44,46,48,-1,-1,-1,-1,-1,-1,-1,-1,-1,-1,-1,-1,-1,-1,-1,-1,-1,-1,-1,-1],"split_conditions":[-7.1282184E-1,-7.3860246E-1,4.296952E-2,-3.0001658E-1,-4.7376567E-1,-2.259797E0,-2.321561E-1,-8.714689E-3,-1.628258E-1,-1.9213444E-1,-6.914008E-1,-2.9123208E-1,8.641077E-2,-4.2612374E-1,-2.657083E0,2.8845854E-2,1.4501476E-2,8.100518E-1,1.0051774E0,5.714248E-1,7.332443E-3,-3.9931853E0,-3.4400475E0,-1.6582283E-1,-4.3994986E-2,-2.1343615E0,-1.2032021E0,-6.500144E-1,-8.6698204E-1,2.9891878E-1,8.307427E-2,-6.492483E-2,-3.7829316E-1,-2.707019E-3,-2.2146402E-1,2.1813828E-1,-2.4528436E-2,6.2397752E-2,2.6236326E-1,-1.0404962E-1,1.2942296E-1,-6.639187E-2,-2.8736866E-1,-1.7023438E-1,1.0754838E-1,9.938649E-3,1.2323711E-1,1.5025373E-1,-1.6779679E-1],"split_indices":[0,0,0,0,1,1,1,0,0,0,0,1,1,0,1,0,0,0,0,0,0,1,1,0,0,1,1,1,1,0,0,0,0,0,0,0,0,0,0,0,0,0,0,0,0,0,0,0,0],"split_type":[0,0,0,0,0,0,0,0,0,0,0,0,0,0,0,0,0,0,0,0,0,0,0,0,0,0,0,0,0,0,0,0,0,0,0,0,0,0,0,0,0,0,0,0,0,0,0,0,0],"sum_hessian":[3.1988733E3,1.14044395E2,3.0848289E3,1.11843666E2,2.2007334E0,5.2518627E1,3.0323103E3,1.0425858E0,1.1581475E0,3.250268E1,2.0015947E1,3.316513E2,2.700659E3,2.3832523E1,8.670158E0,1.7095144E0,1.8306433E1,3.1034674E2,2.1304588E1,2.4489162E1,2.67617E3,1.0697114E1,1.3135409E1,5.5567904E0,3.1133676E0,1.3655862E1,4.650571E0,2.38744E2,7.160273E1,1.9371056E1,1.9335326E0,2.4578152E0,2.2031347E1,8.20163E0,2.4954848E0,1.8720592E0,1.126335E1,1.0471922E0,4.5095983E0,1.1250838E0,1.9882839E0,1.6737181E0,1.1982144E1,3.5126765E0,1.1378943E0,1.82807E2,5.5936985E1,2.2160349E1,4.9442383E1],"tree_param":{"num_deleted":"0","num_feature":"2","num_nodes":"49","size_leaf_vector":"1"}},{"base_weights":[-1.3967632E-2,-9.8354745E-1,1.3361366E-2,-2.9841444E-1,-1.0399299E-1,-1.2607533E-1,1.7025637E-2,1.9339891E-1,-3.7366065E-1,9.2295155E-2,8.804711E-3,-4.573861E-2,4.8895893E-1,-4.7031513E-1,-2.9540104E-1,4.1647628E-2,8.1693673E-1,-1.0726461E0,1.7102651E-2,3.777477E-2,-1.364574E-1,7.362287E-1,-9.541116E-2,-1.2043098E-1,-7.290731E-1,2.1321608E-2,9.960286E-1,3.1618068E-1,5.557974E-1,-5.3336766E-2,-3.5334617E-1,2.3610685E-2,5.112407E-3,-2.8742276E-2,2.4589072E-1,7.534077E-2,2.852057E-1,6.983749E-2,-1.3051678E-1,-7.7234045E-2,2.1430762E-1,-2.555801E-1,3.4569822E-2,3.3350844E-2,-8.164527E-2,1.220159E-1,3.555404E-1,1.645528E-2,1.9240208E-1],"categories":[],"categories_nodes":[],"categories_segments":[],"categories_sizes":[],"default_left":[0,0,0,0,0,0,0,0,0,0,0,0,0,0,0,0,0,0,0,0,0,0,0,0,0,0,0,0,0,0,0,0,0,0,0,0,0,0,0,0,0,0,0,0,0,0,0,0,0],"id":13,"left_children":[1,3,5,-1,-1,7,9,11,13,15,17,19,21,-1,23,25,27,29,31,33,-1,35,37,39,41,43,45,-1,47,-1,-1,-1,-1,-1,-1,-1,-1,-1,-1,-1,-1,-1,-1,-1,-1,-1,-1,-1,-1],"loss_changes":[8.337765E1,2.687149E-1,1.5660386E0,0E0,0E0,6.2810516E0,1.8452432E0,2.4912808E0,3.7012925E0,1.0743386E1,2.4164211E1,7.081418E-1,2.3400204E0,0E0,3.179239E0,5.3235536E0,5.981617E-1,1.7203693E0,8.744657E-3,1.929052E0,0E0,9.214473E-1,7.2058827E-1,3.829867E0,1.3615813E0,7.170636E0,1.5584469E-1,0E0,4.4550204E-1,0E0,0E0,0E0,0E0,0E0,0E0,0E0,0E0,0E0,0E0,0E0,0E0,0E0,0E0,0E0,0E0,0E0,0E0,0E0,0E0],"parents":[2147483647,0,0,1,1,2,2,5,5,6,6,7,7,8,8,9,9,10,10,11,11,12,12,14,14,15,15,16,16,17,17,18,18,19,19,21,21,22,22,23,23,24,24,25,25,26,26,28,28],"right_children":[2,4,6,-1,-1,8,10,12,14,16,18,20,22,-1,24,26,28,30,32,34,-1,36,38,40,42,44,46,-1,48,-1,-1,-1,-1,-1,-1,-1,-1,-1,-1,-1,-1,-1,-1,-1,-1,-1,-1,-1,-1],"split_conditions":[-7.1282184E-1,-7.3860246E-1,1.9446144E-1,-2.9841444E-1,-1.0399299E-1,-2.657083E0,-2.321561E-1,-2.3983145E-1,-2.4536033E0,-2.9123208E-1,-9.54784E-2,-2.8776246E-1,1.1420769E-1,-4.7031513E-1,-1.121362E0,1.0051774E0,8.4440166E-1,5.714248E-1,1.022212E0,-3.053281E-1,-1.364574E-1,-1.6582283E-1,-3.4400475E0,-1.1299591E0,1.1420769E-1,8.100518E-1,-6.164588E-1,3.1618068E-1,8.8042104E-1,-5.3336766E-2,-3.5334617E-1,2.3610685E-2,5.112407E-3,-2.8742276E-2,2.4589072E-1,7.534077E-2,2.852057E-1,6.983749E-2,-1.3051678E-1,-7.7234045E-2,2.1430762E-1,-2.555801E-1,3.4569822E-2,3.3350844E-2,-8.164527E-2,1.220159E-1,3.555404E-1,1.645528E-2,1.9240208E-1],"split_indices":[0,0,0,0,0,1,1,0,1,1,1,0,0,0,1,0,0,0,0,0,0,0,1,1,0,0,1,0,0,0,0,0,0,0,0,0,0,0,0,0,0,0,0,0,0,0,0,0,0],"split_type":[0,0,0,0,0,0,0,0,0,0,0,0,0,0,0,0,0,0,0,0,0,0,0,0,0,0,0,0,0,0,0,0,0,0,0,0,0,0,0,0,0,0,0,0,0,0,0,0,0],"sum_hessian":[3.1451104E3,8.526005E1,3.05985E3,8.323876E1,2.0212862E0,7.749571E1,2.9823545E3,3.393116E1,4.3564556E1,2.9265195E2,2.6897026E3,1.9223045E1,1.4708114E1,1.508971E0,4.2055584E1,2.745222E2,1.8129765E1,1.950417E1,2.6701985E3,1.6718061E1,2.504984E0,1.0152379E1,4.5557346E0,3.0876001E1,1.1179583E1,2.6979846E2,4.723718E0,7.912661E0,1.0217104E1,2.3342302E0,1.7169939E1,1.3789835E0,2.6688193E3,1.5027968E1,1.6900936E0,3.7779171E0,6.374462E0,2.4768896E0,2.078845E0,2.7116856E1,3.7591448E0,9.751537E0,1.4280453E0,2.0703502E2,6.2763462E1,1.9130019E0,2.8107162E0,1.729603E0,8.4875E0],"tree_param":{"num_deleted":"0","num_feature":"2","num_nodes":"49","size_leaf_vector":"1"}},{"base_weights":[-1.1101968E-2,-2.966962E-1,9.117877E-3,-8.700813E-2,1.4565221E-2,1.03029385E-2,-4.779893E-1,8.966208E-1,1.0927274E-2,-3.1342957E-2,2.242972E-1,-2.4978952E-1,-2.999818E-1,8.570364E-2,2.8656432E-1,-6.181355E-1,1.2239016E-2,4.789396E-2,-5.4861724E-1,-1.9123541E-1,3.2931978E-1,1.573714E-1,-4.8008707E-1,-9.078443E-1,9.647828E-2,1.4875676E-1,6.5265927E-3,-1.9751662E-2,1.04176894E-1,2.937236E-1,-2.1944885E-1,1.23383276E-1,-1.3555063E-1,-6.89508E-2,1.6452983E-1,-1.7860407E-1,7.479277E-2,-2.448796E-2,-3.328478E-1,6.2398005E-2,-2.3564938E-1,-1.0487137E-1,3.9524613E-3],"categories":[],"categories_nodes":[],"categories_segments":[],"categories_sizes":[],"default_left":[0,0,0,0,0,0,0,0,0,0,0,0,0,0,0,0,0,0,0,0,0,0,0,0,0,0,0,0,0,0,0,0,0,0,0,0,0,0,0,0,0,0,0],"id":14,"left_children":[1,-1,3,5,7,9,11,13,15,17,19,-1,21,-1,-1,23,25,27,29,-1,31,33,35,37,-1,39,41,-1,-1,-1,-1,-1,-1,-1,-1,-1,-1,-1,-1,-1,-1,-1,-1],"loss_changes":[6.1464954E1,0E0,1.5963266E0,6.225853E0,9.243437E0,1.18253E0,1.8086252E0,1.50671E-1,2.3781137E0,4.587771E0,2.1657305E0,0E0,1.9925625E0,0E0,0E0,1.9247432E0,2.235484E0,3.3399992E0,4.8687987E0,0E0,1.4612813E0,1.2357458E0,1.5729227E0,7.167635E-1,0E0,6.5351686E0,6.5237637E0,0E0,0E0,0E0,0E0,0E0,0E0,0E0,0E0,0E0,0E0,0E0,0E0,0E0,0E0,0E0,0E0],"parents":[2147483647,0,0,2,2,3,3,4,4,5,5,6,6,7,7,8,8,9,9,10,10,12,12,15,15,16,16,17,17,18,18,20,20,21,21,22,22,23,23,25,25,26,26],"right_children":[2,-1,4,6,8,10,12,14,16,18,20,-1,22,-1,-1,24,26,28,30,-1,32,34,36,38,-1,40,42,-1,-1,-1,-1,-1,-1,-1,-1,-1,-1,-1,-1,-1,-1,-1,-1],"split_conditions":[-7.3860246E-1,-2.966962E-1,5.4166555E-1,-1.121362E0,-1.490573E0,-1.341997E0,1.1420769E-1,5.714248E-1,-1.390262E0,-1.8594718E0,1.4501476E-2,-2.4978952E-1,3.9428985E-1,8.570364E-2,2.8656432E-1,9.082859E-1,7.9567665E-1,-2.3620615E0,-3.053281E-1,-1.9123541E-1,5.23724E-1,3.1448406E-1,-2.9123208E-1,6.683527E-1,9.647828E-2,-2.321561E-1,9.248026E-1,-1.9751662E-2,1.04176894E-1,2.937236E-1,-2.1944885E-1,1.23383276E-1,-1.3555063E-1,-6.89508E-2,1.6452983E-1,-1.7860407E-1,7.479277E-2,-2.448796E-2,-3.328478E-1,6.2398005E-2,-2.3564938E-1,-1.0487137E-1,3.9524613E-3],"split_indices":[0,0,0,1,1,1,0,0,1,1,0,0,0,0,0,0,0,1,0,0,0,0,1,0,0,1,0,0,0,0,0,0,0,0,0,0,0,0,0,0,0,0,0],"split_type":[0,0,0,0,0,0,0,0,0,0,0,0,0,0,0,0,0,0,0,0,0,0,0,0,0,0,0,0,0,0,0,0,0,0,0,0,0,0,0,0,0,0,0],"sum_hessian":[3.1071228E3,6.197421E1,3.0451484E3,1.625073E2,2.882641E3,1.3090106E2,3.1606241E1,1.083209E1,2.871809E3,1.1029068E2,2.0610378E1,9.333567E0,2.2272675E1,1.4621516E0,9.369939E0,4.9974203E0,2.8668118E3,9.6427216E1,1.3863466E1,1.6882241E0,1.8922155E1,6.3285065E0,1.5944169E1,3.8457472E0,1.151673E0,1.141347E2,2.752677E3,7.04443E1,2.5982916E1,1.0166968E0,1.2846769E1,1.755392E1,1.3682342E0,3.3870816E0,2.9414246E0,1.3927168E1,2.0170007E0,1.0300597E0,2.8156877E0,1.0806047E2,6.0742235E0,4.9504707E1,2.7031724E3],"tree_param":{"num_deleted":"0","num_feature":"2","num_nodes":"43","size_leaf_vector":"1"}},{"base_weights":[-8.9210635E-3,-2.9472074E-1,6.2167034E-3,1.9153534E-1,4.330779E-3,-6.1550364E-2,3.0039132E-1,-1.7259416E-1,8.856167E-3,7.396153E-2,-1.1727803E-1,2.3893768E-1,1.8029857E-1,-8.7489836E-2,-6.308366E-1,-3.0554724E-1,9.714772E-3,-1.2476611E-2,1.3237476E-1,2.1722098E-1,5.726794E-2,2.9623842E-1,-1.20115764E-1,-2.3425013E-1,-1.8470506E-1,2.6930776E-1,6.61316E-3,1.7111318E-2,5.535816E-2,4.724279E-2,-3.1582505E-2,-2.305977E-1,-2.2578117E-2,9.3316846E-2,-1.3689989E-1,6.780656E-3,2.7868366E-1,1.4226235E-1,1.5978229E-3],"categories":[],"categories_nodes":[],"categories_segments":[],"categories_sizes":[],"default_left":[0,0,0,0,0,0,0,0,0,0,0,0,0,0,0,0,0,0,0,0,0,0,0,0,0,0,0,0,0,0,0,0,0,0,0,0,0,0,0],"id":15,"left_children":[1,-1,3,5,7,9,11,13,15,17,-1,-1,19,21,23,-1,25,-1,27,-1,29,-1,31,-1,33,35,37,-1,-1,-1,-1,-1,-1,-1,-1,-1,-1,-1,-1],"loss_changes":[4.5406357E1,0E0,1.0597739E0,8.600949E-1,2.407581E0,4.7604105E-1,1.1390821E0,2.8695533E0,2.5953848E0,5.9086848E-2,0E0,0E0,1.2046905E0,2.3775802E0,6.310711E-1,0E0,2.3570507E0,0E0,1.1131391E-2,0E0,2.8168434E-1,0E0,1.7866443E0,0E0,7.1089613E-1,5.6039867E0,1.7404393E0,0E0,0E0,0E0,0E0,0E0,0E0,0E0,0E0,0E0,0E0,0E0,0E0],"parents":[2147483647,0,0,2,2,3,3,4,4,5,5,6,6,7,7,8,8,9,9,12,12,13,13,14,14,16,16,18,18,20,20,22,22,24,24,25,25,26,26],"right_children":[2,-1,4,6,8,10,12,14,16,18,-1,-1,20,22,24,-1,26,-1,28,-1,30,-1,32,-1,34,36,38,-1,-1,-1,-1,-1,-1,-1,-1,-1,-1,-1,-1],"split_conditions":[-7.3860246E-1,-2.9472074E-1,-3.4400475E0,-4.2612374E-1,3.1448406E-1,-4.8620634E0,1.1420769E-1,-1.121362E0,-3.21854E0,-6.260256E-1,-1.1727803E-1,2.3893768E-1,-4.8620634E0,-6.260256E-1,1.1420769E-1,-3.0554724E-1,-1.5629483E0,-1.2476611E-2,-5.272986E-1,2.1722098E-1,3.5912704E-1,2.9623842E-1,-3.5553846E-1,-2.3425013E-1,1.4949416E-1,5.0942504E-1,4.3611845E-1,1.7111318E-2,5.535816E-2,4.724279E-2,-3.1582505E-2,-2.305977E-1,-2.2578117E-2,9.3316846E-2,-1.3689989E-1,6.780656E-3,2.7868366E-1,1.4226235E-1,1.5978229E-3],"split_indices":[0,0,1,0,0,1,0,1,1,0,0,0,1,0,0,0,1,0,0,0,0,0,0,0,0,0,0,0,0,0,0,0,0,0,0,0,0,0,0],"split_type":[0,0,0,0,0,0,0,0,0,0,0,0,0,0,0,0,0,0,0,0,0,0,0,0,0,0,0,0,0,0,0,0,0,0,0,0,0,0,0],"sum_hessian":[3.0798374E3,4.6180164E1,3.0336572E3,2.9548418E1,3.0041086E3,9.01755E0,2.0530867E1,7.3996506E1,2.9301123E3,6.9384046E0,2.079146E0,2.9038584E0,1.7627008E1,6.341084E1,1.058567E1,1.4570787E0,2.928655E3,2.426482E0,4.511923E0,2.350957E0,1.52760515E1,1.005801E0,6.2405037E1,7.360659E0,3.2250118E0,3.356501E1,2.89509E3,2.702167E0,1.8097556E0,9.469352E0,5.8066998E0,2.9930809E0,5.9411957E1,1.0901574E0,2.1348546E0,2.5181393E1,8.383616E0,6.9384317E0,2.8881516E3],"tree_param":{"num_deleted":"0","num_feature":"2","num_nodes":"39","size_leaf_vector":"1"}},{"base_weights":[-6.8448363E-3,-2.92337E-1,4.4896575E-3,-6.0770787E-2,8.042276E-3,6.20126E-3,-3.5491753E-1,8.046595E-1,5.832197E-3,2.3553553E-1,-7.19318E-3,-2.1740763E-1,-2.2972481E-1,4.2963084E-2,2.675524E-1,-2.9843754E-1,7.624317E-3,1.3181362E-1,-9.017285E-2,9.9133946E-2,-3.4615692E-1,-4.0263104E-1,1.8779586E-1,7.508272E-1,5.562264E-3,2.5162756E-2,1.8744263E-1,-1.2317583E-1,9.896534E-3,-4.4740774E-2,1.02655746E-1,-2.2626728E-1,-3.6017213E-2,-2.5030124E-1,-5.9495784E-2,2.722534E-1,1.2455456E-1,7.18678E-2,1.0549185E-3],"categories":[],"categories_nodes":[],"categories_segments":[],"categories_sizes":[],"default_left":[0,0,0,0,0,0,0,0,0,0,0,0,0,0,0,0,0,0,0,0,0,0,0,0,0,0,0,0,0,0,0,0,0,0,0,0,0,0,0],"id":16,"left_children":[1,-1,3,5,7,9,11,13,15,-1,17,-1,19,-1,-1,21,23,25,27,29,31,33,-1,35,37,-1,-1,-1,-1,-1,-1,-1,-1,-1,-1,-1,-1,-1,-1],"loss_changes":[3.3585934E1,0E0,7.023985E-1,3.083562E0,5.051839E0,1.345176E0,1.177218E0,3.300767E-1,1.5645978E0,0E0,1.4792417E0,0E0,9.2066336E-1,0E0,0E0,1.8703407E0,4.362493E0,1.0810046E0,3.180538E0,4.631769E-1,1.5073078E0,1.2200341E0,0E0,3.7433624E-2,1.359919E0,0E0,0E0,0E0,0E0,0E0,0E0,0E0,0E0,0E0,0E0,0E0,0E0,0E0,0E0],"parents":[2147483647,0,0,2,2,3,3,4,4,5,5,6,6,7,7,8,8,10,10,12,12,15,15,16,16,17,17,18,18,19,19,20,20,21,21,23,23,24,24],"right_children":[2,-1,4,6,8,10,12,14,16,-1,18,-1,20,-1,-1,22,24,26,28,30,32,34,-1,36,38,-1,-1,-1,-1,-1,-1,-1,-1,-1,-1,-1,-1,-1,-1],"split_conditions":[-7.3860246E-1,-2.92337E-1,5.4166555E-1,-1.121362E0,-1.490573E0,-6.914008E-1,1.1420769E-1,5.714248E-1,-1.3757926E0,2.3553553E-1,-2.8938105E0,-2.1740763E-1,3.9428985E-1,4.2963084E-2,2.675524E-1,9.899871E-1,-1.2032021E0,4.7114363E-1,-2.3620615E0,3.1448406E-1,-8.380362E-1,-1.390262E0,1.8779586E-1,-1.2907096E0,5.9906906E-1,2.5162756E-2,1.8744263E-1,-1.2317583E-1,9.896534E-3,-4.4740774E-2,1.02655746E-1,-2.2626728E-1,-3.6017213E-2,-2.5030124E-1,-5.9495784E-2,2.722534E-1,1.2455456E-1,7.18678E-2,1.0549185E-3],"split_indices":[0,0,0,1,1,0,0,0,1,0,1,0,0,0,0,0,1,0,1,0,1,1,0,1,0,0,0,0,0,0,0,0,0,0,0,0,0,0,0],"split_type":[0,0,0,0,0,0,0,0,0,0,0,0,0,0,0,0,0,0,0,0,0,0,0,0,0,0,0,0,0,0,0,0,0,0,0,0,0,0,0],"sum_hessian":[3.0609463E3,3.445659E1,3.0264897E3,1.5541736E2,2.8710723E3,1.2739148E2,2.8025885E1,6.938729E0,2.8641335E3,1.1796035E0,1.26211876E2,5.877434E0,2.214845E1,1.115801E0,5.822928E0,1.5801462E1,2.848332E3,4.6958656E1,7.925322E1,5.830097E0,1.6318354E1,1.4708133E1,1.0933291E0,6.876276E0,2.8414558E3,4.386359E1,3.0950646E0,2.1357187E1,5.789603E1,3.0752394E0,2.7548575E0,4.9851985E0,1.1333156E1,3.7342005E0,1.0973932E1,3.5263457E0,3.34993E0,2.362169E1,2.8178342E3],"tree_param":{"num_deleted":"0","num_feature":"2","num_nodes":"39","size_leaf_vector":"1"}},{"base_weights":[-5.126529E-3,-2.8937858E-1,3.3702906E-3,1.4565514E-1,2.9418026E-3,-2.867486E-1,4.344955E-3,-7.823586E-3,-2.445061E-1,2.0038296E-1,3.7097642E-3,-1.0384276E-1,1.0496128E-1,7.8250855E-2,1.5832551E-3,7.5263637E-3,-1.6159357E-1,-1.3051094E-2,9.960845E-2,-1.7788641E-1,9.5147634E-4],"categories":[],"categories_nodes":[],"categories_segments":[],"categories_sizes":[],"default_left":[0,0,0,0,0,0,0,0,0,0,0,0,0,0,0,0,0,0,0,0,0],"id":17,"left_children":[1,-1,3,-1,5,7,9,11,-1,-1,13,15,-1,17,19,-1,-1,-1,-1,-1,-1],"loss_changes":[2.4851109E1,0E0,6.229299E-1,0E0,1.2290065E0,2.1411414E0,1.2649636E0,3.986072E-1,0E0,0E0,4.7620997E-1,5.2291566E-1,0E0,2.5891876E0,2.7618542E0,0E0,0E0,0E0,0E0,0E0,0E0],"parents":[2147483647,0,0,2,2,4,4,5,5,6,6,7,7,10,10,11,11,13,13,14,14],"right_children":[2,-1,4,-1,6,8,10,12,-1,-1,14,16,-1,18,20,-1,-1,-1,-1,-1,-1],"split_conditions":[-7.3860246E-1,-2.8937858E-1,-7.0129097E-1,1.4565514E-1,-3.5553846E-1,-3.4400475E0,-4.8620634E0,-4.6364927E-1,-2.445061E-1,2.0038296E-1,-1.8594718E0,-4.8620634E0,1.0496128E-1,-2.3620615E0,-1.7586228E0,7.5263637E-3,-1.6159357E-1,-1.3051094E-2,9.960845E-2,-1.7788641E-1,9.5147634E-4],"split_indices":[0,0,0,0,0,1,1,0,0,0,1,1,0,1,1,0,0,0,0,0,0],"split_type":[0,0,0,0,0,0,0,0,0,0,0,0,0,0,0,0,0,0,0,0,0],"sum_hessian":[3.046907E3,2.5758064E1,3.021149E3,1.6773283E0,3.0194714E3,1.3574444E1,3.005897E3,9.54797E0,4.026474E0,1.8698401E0,3.004027E3,8.086836E0,1.4611338E0,8.2328995E1,2.9216982E3,6.9640946E0,1.1227411E0,5.619632E1,2.6132679E1,6.7926245E0,2.9149055E3],"tree_param":{"num_deleted":"0","num_feature":"2","num_nodes":"21","size_leaf_vector":"1"}},{"base_weights":[-4.057497E-3,-2.8566214E-1,2.319988E-3,8.876903E-2,6.978789E-4,4.2193606E-2,6.172574E-1,-5.190295E-1,2.73465E-3,2.1562657E-1,-2.2428E-1,-5.6287897E-4,2.6039708E-1,1.4994642E-1,-7.052493E-1,5.3776205E-1,6.924846E-4,-8.803272E-3,5.6499773E-1,4.2774204E-2,-5.7719123E-1,-3.3223498E-1,-2.3303775E-1,-9.062815E-2,8.030199E-1,-5.738871E-1,2.8551014E-3,-5.186717E-2,2.2566285E-2,2.4677657E-1,6.5154776E-2,1.637043E-1,-1.5769333E-2,-2.3625638E-1,3.795595E-2,-1.0246004E-1,1.3191638E-2,1.0241432E-1,-1.7806247E-1,6.526758E-2,2.890731E-1,1.0613844E-1,-2.4283123E-1,1.3180624E-2,-3.4446784E-4],"categories":[],"categories_nodes":[],"categories_segments":[],"categories_sizes":[],"default_left":[0,0,0,0,0,0,0,0,0,0,0,0,0,0,0,0,0,0,0,0,0,0,0,0,0,0,0,0,0,0,0,0,0,0,0,0,0,0,0,0,0,0,0,0,0],"id":18,"left_children":[1,-1,3,5,7,9,11,13,15,17,19,-1,-1,-1,21,23,25,27,29,31,33,-1,35,37,39,41,43,-1,-1,-1,-1,-1,-1,-1,-1,-1,-1,-1,-1,-1,-1,-1,-1,-1,-1],"loss_changes":[1.8377266E1,0E0,4.2336124E-1,1.3426648E0,3.1399503E0,2.4596639E0,6.893643E-1,2.5493953E0,3.2275503E0,2.523099E0,2.0095472E0,0E0,0E0,0E0,1.6800008E0,1.9450288E0,3.6599376E0,2.9617763E-1,9.481244E-1,6.4812493E-1,1.4525898E0,0E0,1.9414943E-1,1.1222138E0,5.423317E-1,2.6997495E0,4.8257565E-1,0E0,0E0,0E0,0E0,0E0,0E0,0E0,0E0,0E0,0E0,0E0,0E0,0E0,0E0,0E0,0E0,0E0,0E0],"parents":[2147483647,0,0,2,2,3,3,4,4,5,5,6,6,7,7,8,8,9,9,10,10,14,14,15,15,16,16,17,17,18,18,19,19,20,20,22,22,23,23,24,24,25,25,26,26],"right_children":[2,-1,4,6,8,10,12,14,16,18,20,-1,-1,-1,22,24,26,28,30,32,34,-1,36,38,40,42,44,-1,-1,-1,-1,-1,-1,-1,-1,-1,-1,-1,-1,-1,-1,-1,-1,-1,-1],"split_conditions":[-7.3860246E-1,-2.8566214E-1,-2.6974478E0,4.7114363E-1,-2.4536033E0,2.3419224E-1,-3.21854E0,-7.452171E-2,-2.2156825E0,-1.9213444E-1,-3.4400475E0,-5.6287897E-4,2.6039708E-1,1.4994642E-1,3.5912704E-1,-2.3620615E0,1.4501476E-2,-5.272986E-1,1.1420769E-1,-4.8620634E0,4.3611845E-1,-3.3223498E-1,-2.657083E0,1.4501476E-2,1.4949416E-1,-7.0129097E-1,-2.321561E-1,-5.186717E-2,2.2566285E-2,2.4677657E-1,6.5154776E-2,1.637043E-1,-1.5769333E-2,-2.3625638E-1,3.795595E-2,-1.0246004E-1,1.3191638E-2,1.0241432E-1,-1.7806247E-1,6.526758E-2,2.890731E-1,1.0613844E-1,-2.4283123E-1,1.3180624E-2,-3.4446784E-4],"split_indices":[0,0,1,0,1,0,1,0,1,0,1,0,0,0,0,1,0,0,0,1,0,0,1,0,0,0,1,0,0,0,0,0,0,0,0,0,0,0,0,0,0,0,0,0,0],"split_type":[0,0,0,0,0,0,0,0,0,0,0,0,0,0,0,0,0,0,0,0,0,0,0,0,0,0,0,0,0,0,0,0,0,0,0,0,0,0,0,0,0,0,0,0,0],"sum_hessian":[3.0378013E3,1.9305582E1,3.0184956E3,5.460565E1,2.9638901E3,5.1175423E1,3.4302268E0,1.0579058E1,2.953311E3,3.1115122E1,2.00603E1,1.2748245E0,2.1554024E0,1.3745487E0,9.204509E0,1.0232249E1,2.9430789E3,1.9538647E1,1.1576476E1,1.1919443E1,8.140858E0,4.244265E0,4.9602437E0,3.2326083E0,6.999641E0,1.0044396E1,2.9330344E3,6.258691E0,1.3279955E1,5.8666434E0,5.7098327E0,1.1467555E0,1.0772688E1,6.175873E0,1.9649849E0,3.3968718E0,1.563372E0,1.9116603E0,1.3209479E0,2.0132992E0,4.986342E0,1.9323022E0,8.112094E0,2.5956125E2,2.6734731E3],"tree_param":{"num_deleted":"0","num_feature":"2","num_nodes":"45","size_leaf_vector":"1"}},{"base_weights":[-3.047746E-3,-2.809922E-1,1.7591162E-3,-3.7103202E-2,6.5041436E-3,-5.1314E-3,-8.3741033E-1,3.9141715E-1,2.914106E-3,-3.4918126E-2,7.36615E-1,-2.6202783E-1,-2.9185942E-1,2.2165278E-2,8.2853115E-1,-3.3051866E-1,4.818142E-3,1.1727794E-2,-2.935848E-1,2.8293177E-1,3.7527755E-1,-1.8261816E-1,5.455326E-2,3.9162654E-1,-5.477747E-1,3.2491237E-1,4.0126416E-1,1.8362632E-2,1.4298363E-3,-1.5537995E-2,7.689088E-2,1.173907E-1,-1.89907E-1,2.955047E-2,1.4046039E-1,1.8513199E-2,1.5287213E-1,-3.5190248E-1,1.9538617E-1,-3.7407838E-2,1.733813E-1],"categories":[],"categories_nodes":[],"categories_segments":[],"categories_sizes":[],"default_left":[0,0,0,0,0,0,0,0,0,0,0,0,0,0,0,0,0,0,0,0,0,0,0,0,0,0,0,0,0,0,0,0,0,0,0,0,0,0,0,0,0],"id":19,"left_children":[1,-1,3,5,7,9,11,13,15,17,19,21,-1,23,25,-1,27,29,31,-1,33,-1,-1,35,37,-1,39,-1,-1,-1,-1,-1,-1,-1,-1,-1,-1,-1,-1,-1,-1],"loss_changes":[1.3596367E1,0E0,5.561865E-1,8.393488E0,3.7127805E0,7.0207477E0,7.272291E-1,3.9890275E0,5.6080484E0,3.6874998E0,5.6144714E-1,6.9084966E-1,0E0,3.264916E0,7.987695E-1,0E0,7.5120255E-3,4.0470314E0,1.1101426E1,0E0,1.113404E-1,0E0,0E0,3.3324468E-1,5.347798E0,0E0,6.1310786E-1,0E0,0E0,0E0,0E0,0E0,0E0,0E0,0E0,0E0,0E0,0E0,0E0,0E0,0E0],"parents":[2147483647,0,0,2,2,3,3,4,4,5,5,6,6,7,7,8,8,9,9,10,10,11,11,13,13,14,14,16,16,17,17,18,18,20,20,23,23,24,24,26,26],"right_children":[2,-1,4,6,8,10,12,14,16,18,20,22,-1,24,26,-1,28,30,32,-1,34,-1,-1,36,38,-1,40,-1,-1,-1,-1,-1,-1,-1,-1,-1,-1,-1,-1,-1,-1],"split_conditions":[-7.3860246E-1,-2.809922E-1,9.570673E-1,-2.321561E-1,-2.321561E-1,-2.9123208E-1,5.714248E-1,-4.7376567E-1,-9.54784E-2,8.100518E-1,8.4440166E-1,5.23724E-1,-2.9185942E-1,-6.0606563E-1,-4.1705924E-1,-3.3051866E-1,1.022212E0,-6.500144E-1,-8.380362E-1,2.8293177E-1,8.8042104E-1,-1.8261816E-1,5.455326E-2,-1.3757926E0,1.0051774E0,3.2491237E-1,9.719559E-1,1.8362632E-2,1.4298363E-3,-1.5537995E-2,7.689088E-2,1.173907E-1,-1.89907E-1,2.955047E-2,1.4046039E-1,1.8513199E-2,1.5287213E-1,-3.5190248E-1,1.9538617E-1,-3.7407838E-2,1.733813E-1],"split_indices":[0,0,0,1,1,1,0,1,1,0,0,0,0,1,1,0,0,1,1,0,0,0,0,1,0,0,0,0,0,0,0,0,0,0,0,0,0,0,0,0,0],"split_type":[0,0,0,0,0,0,0,0,0,0,0,0,0,0,0,0,0,0,0,0,0,0,0,0,0,0,0,0,0,0,0,0,0,0,0,0,0,0,0,0,0],"sum_hessian":[3.028361E3,1.45194845E1,3.0138416E3,3.272018E2,2.68664E3,3.156002E2,1.1601631E1,2.3828156E1,2.6628118E3,3.0433188E2,1.1268301E1,2.7699373E0,8.831695E0,1.348631E1,1.0341846E1,3.5879762E0,2.6592236E3,2.5864462E2,4.568728E1,6.146031E0,5.12227E0,1.3466748E0,1.4232624E0,8.372035E0,5.1142745E0,5.5193343E0,4.8225117E0,1.3673832E0,2.6578562E3,2.0594481E2,5.2699802E1,1.5089106E1,3.0598171E1,1.8052641E0,3.317006E0,2.6059663E0,5.766069E0,3.375761E0,1.7385134E0,1.2865808E0,3.5359309E0],"tree_param":{"num_deleted":"0","num_feature":"2","num_nodes":"41","size_leaf_vector":"1"}},{"base_weights":[-2.444628E-3,-2.7517372E-1,1.2000417E-3,1.3033484E-1,-1.6133905E-5,-4.438699E-2,2.1054739E-1,-4.519062E-1,8.8727876E-4,6.1645776E-2,-9.793182E-2,2.1200997E-1,1.1104398E-1,1.4520225E-1,-2.8096104E-1,2.3941748E-1,-2.7830192E-4,-1.0923877E-2,1.1213376E-1,1.7674297E-1,3.3004537E-2,-1.2591463E-1,1.8972631E-1,-1.22856855E-1,3.569933E-1,-1.01301715E-1,3.354066E-3,4.520186E-2,1.7889615E-2,3.3736855E-2,-2.6734866E-2,1.351472E-1,-2.64366E-1,2.2610256E-1,4.5255505E-2,-1.6026918E-2,-1.6889368E-1,2.4722685E-1,5.5960484E-4],"categories":[],"categories_nodes":[],"categories_segments":[],"categories_sizes":[],"default_left":[0,0,0,0,0,0,0,0,0,0,0,0,0,0,0,0,0,0,0,0,0,0,0,0,0,0,0,0,0,0,0,0,0,0,0,0,0,0,0],"id":20,"left_children":[1,-1,3,5,7,9,11,13,15,17,-1,-1,19,21,-1,23,25,-1,27,-1,29,-1,-1,31,33,35,37,-1,-1,-1,-1,-1,-1,-1,-1,-1,-1,-1,-1],"loss_changes":[1.0056198E1,0E0,4.7191143E-1,4.0225494E-1,1.2160629E0,3.086305E-1,8.787027E-1,1.8558234E0,8.265954E-1,4.2958178E-2,0E0,0E0,6.2736917E-1,1.2365892E0,0E0,6.596662E-1,1.0862995E0,0E0,1.9991174E-3,0E0,1.6490212E-1,0E0,0E0,2.2607324E0,7.997862E-1,2.2410665E0,3.490051E0,0E0,0E0,0E0,0E0,0E0,0E0,0E0,0E0,0E0,0E0,0E0,0E0],"parents":[2147483647,0,0,2,2,3,3,4,4,5,5,6,6,7,7,8,8,9,9,12,12,13,13,15,15,16,16,18,18,20,20,23,23,24,24,25,25,26,26],"right_children":[2,-1,4,6,8,10,12,14,16,18,-1,-1,20,22,-1,24,26,-1,28,-1,30,-1,-1,32,34,36,38,-1,-1,-1,-1,-1,-1,-1,-1,-1,-1,-1,-1],"split_conditions":[-7.3860246E-1,-2.7517372E-1,-3.4400475E0,-4.2612374E-1,-3.21854E0,-4.8620634E0,1.1420769E-1,1.1420769E-1,-2.8938105E0,-6.260256E-1,-9.793182E-2,2.1200997E-1,-4.8620634E0,-3.053281E-1,-2.8096104E-1,-2.3983145E-1,5.4166555E-1,-1.0923877E-2,-5.6212735E-1,1.7674297E-1,3.5912704E-1,-1.2591463E-1,1.8972631E-1,-2.8776246E-1,1.4949416E-1,-5.845039E-1,-1.5629483E0,4.520186E-2,1.7889615E-2,3.3736855E-2,-2.6734866E-2,1.351472E-1,-2.64366E-1,2.2610256E-1,4.5255505E-2,-1.6026918E-2,-1.6889368E-1,2.4722685E-1,5.5960484E-4],"split_indices":[0,0,1,0,1,1,0,0,1,0,0,0,1,0,0,0,0,0,0,0,0,0,0,0,0,1,1,0,0,0,0,0,0,0,0,0,0,0,0],"split_type":[0,0,0,0,0,0,0,0,0,0,0,0,0,0,0,0,0,0,0,0,0,0,0,0,0,0,0,0,0,0,0,0,0,0,0,0,0,0,0],"sum_hessian":[3.0147925E3,1.0968881E1,3.0038235E3,2.703515E1,2.9767883E3,8.646868E0,1.8388283E1,4.943237E0,2.9718452E3,6.852301E0,1.7945665E0,2.0523603E0,1.6335922E1,2.5284028E0,2.414834E0,1.3457364E1,2.9583877E3,2.4237087E0,4.428592E0,1.3732951E0,1.4962627E1,1.2350001E0,1.2934026E0,3.2864003E0,1.0170964E1,1.0174577E2,2.8566418E3,1.4755741E0,2.9530182E0,9.112914E0,5.849713E0,2.102677E0,1.1837232E0,2.569783E0,7.601181E0,9.3196465E1,8.54931E0,4.1717696E0,2.8524702E3],"tree_param":{"num_deleted":"0","num_feature":"2","num_nodes":"39","size_leaf_vector":"1"}},{"base_weights":[-1.7717847E-3,-2.6803496E-1,1.0014136E-3,1.05962224E-1,6.569246E-4,-2.0192808E-1,1.5190531E-3,2.0597098E-2,-2.2303751E-1,1.6339646E-1,1.1262327E-3,-5.2539986E-2,8.551606E-2,2.2621505E-1,6.244691E-4,-2.3516754E-2,7.110166E-3,-6.418976E-4,1.6806556E-1,-1.08349994E-1,3.2501406E-4],"categories":[],"categories_nodes":[],"categories_segments":[],"categories_sizes":[],"default_left":[0,0,0,0,0,0,0,0,0,0,0,0,0,0,0,0,0,0,0,0,0],"id":21,"left_children":[1,-1,3,-1,5,7,9,11,-1,-1,13,15,-1,17,19,-1,-1,-1,-1,-1,-1],"loss_changes":[7.4442024E0,0E0,3.6397204E-1,0E0,5.24236E-1,1.5480609E0,6.369098E-1,2.0816149E-1,0E0,0E0,3.3720672E-1,1.8941548E-2,0E0,5.0770307E-1,4.9537462E-1,0E0,0E0,0E0,0E0,0E0,0E0],"parents":[2147483647,0,0,2,2,4,4,5,5,6,6,7,7,10,10,11,11,13,13,14,14],"right_children":[2,-1,4,-1,6,8,10,12,-1,-1,14,16,-1,18,20,-1,-1,-1,-1,-1,-1],"split_conditions":[-7.3860246E-1,-2.6803496E-1,-7.0129097E-1,1.05962224E-1,-3.5553846E-1,-3.4400475E0,-4.8620634E0,-4.6364927E-1,-2.2303751E-1,1.6339646E-1,-2.8776246E-1,-5.272986E-1,8.551606E-2,-3.053281E-1,-2.3983145E-1,-2.3516754E-2,7.110166E-3,-6.418976E-4,1.6806556E-1,-1.08349994E-1,3.2501406E-4],"split_indices":[0,0,0,0,0,1,1,0,0,0,0,0,0,0,0,0,0,0,0,0,0],"split_type":[0,0,0,0,0,0,0,0,0,0,0,0,0,0,0,0,0,0,0,0,0],"sum_hessian":[3.0090723E3,8.333687E0,3.0007385E3,1.931236E0,2.9988074E3,1.1719464E1,2.987088E3,8.988062E0,2.7314022E0,1.1574872E0,2.9859304E3,7.6685925E0,1.3194691E0,5.640828E0,2.9802896E3,5.705853E0,1.9627396E0,3.940407E0,1.7004213E0,2.779793E0,2.9775098E3],"tree_param":{"num_deleted":"0","num_feature":"2","num_nodes":"21","size_leaf_vector":"1"}},{"base_weights":[-1.3839942E-3,-2.5945973E-1,7.389946E-4,5.1517483E-2,-1.7030207E-3,-8.875335E-3,4.4988605E-1,-2.3117091E-1,-5.591246E-4,4.311288E-2,-2.4203555E-1,7.107127E-2,7.4455446E-1,-1.0791558E-1,3.0695149E-3,-1.0395119E-3,2.4978743E-1,-3.1430933E-1,1.7913061E-1,2.0666425E-1,-6.175506E-2,2.5930327E-1,3.9114314E-1,-2.1881959E-1,2.0158038E-1,2.8152463E-1,1.0585054E-3,1.0946265E-2,-1.123305E-1,8.7743856E-2,-1.1070891E-1,-1.6017666E-2,2.2496103E-1,-4.5699466E-2,2.1474995E-1,-1.08770624E-1,-3.4304958E-2,2.1735151E-1,-9.05918E-2,1.00591116E-1,-4.6603705E-4],"categories":[],"categories_nodes":[],"categories_segments":[],"categories_sizes":[],"default_left":[0,0,0,0,0,0,0,0,0,0,0,0,0,0,0,0,0,0,0,0,0,0,0,0,0,0,0,0,0,0,0,0,0,0,0,0,0,0,0,0,0],"id":22,"left_children":[1,-1,3,5,7,9,11,-1,13,15,17,19,21,23,25,27,-1,29,-1,31,-1,-1,33,35,37,-1,39,-1,-1,-1,-1,-1,-1,-1,-1,-1,-1,-1,-1,-1,-1],"loss_changes":[5.5132637E0,0E0,3.721913E-1,3.3174117E0,2.5185273E0,1.4719734E0,1.9730315E0,0E0,1.1147839E0,3.4671986E0,1.530055E0,3.822259E-1,8.963299E-2,3.255547E0,5.2060604E0,1.3472456E0,0E0,8.0634093E-1,0E0,9.6841854E-1,0E0,0E0,8.8267773E-1,1.0001333E0,6.855132E0,0E0,2.4129932E0,0E0,0E0,0E0,0E0,0E0,0E0,0E0,0E0,0E0,0E0,0E0,0E0,0E0,0E0],"parents":[2147483647,0,0,2,2,3,3,4,4,5,5,6,6,8,8,9,9,10,10,11,11,12,12,13,13,14,14,15,15,17,17,19,19,22,22,23,23,24,24,26,26],"right_children":[2,-1,4,6,8,10,12,-1,14,16,18,20,22,24,26,28,-1,30,-1,32,-1,-1,34,36,38,-1,40,-1,-1,-1,-1,-1,-1,-1,-1,-1,-1,-1,-1,-1,-1],"split_conditions":[-7.3860246E-1,-2.5945973E-1,-1.2032021E0,-1.3757926E0,1.4501476E-2,-1.5629483E0,3.5912704E-1,-2.3117091E-1,-6.500144E-1,5.0942504E-1,9.899871E-1,2.7269852E-1,7.313476E-1,7.457352E-1,-6.164588E-1,-1.8594718E0,2.4978743E-1,4.296952E-2,1.7913061E-1,2.3419224E-1,-6.175506E-2,2.5930327E-1,8.271638E-1,-1.0033194E0,-8.380362E-1,2.8152463E-1,6.2055475E-1,1.0946265E-2,-1.123305E-1,8.7743856E-2,-1.1070891E-1,-1.6017666E-2,2.2496103E-1,-4.5699466E-2,2.1474995E-1,-1.08770624E-1,-3.4304958E-2,2.1735151E-1,-9.05918E-2,1.00591116E-1,-4.6603705E-4],"split_indices":[0,0,1,1,0,1,0,0,1,0,0,0,0,0,1,1,0,0,0,0,0,0,0,1,1,0,0,0,0,0,0,0,0,0,0,0,0,0,0,0,0],"split_type":[0,0,0,0,0,0,0,0,0,0,0,0,0,0,0,0,0,0,0,0,0,0,0,0,0,0,0,0,0,0,0,0,0,0,0,0,0,0,0,0,0],"sum_hessian":[3.006167E3,6.376255E0,2.9997908E3,1.3672287E2,2.8630679E3,1.1957324E2,1.7149626E1,3.2540157E0,2.859814E3,9.843915E1,2.1134089E1,8.0465145E0,9.10311E0,9.256149E1,2.7672524E3,9.4171425E1,4.2677274E0,2.0034023E1,1.1000654E0,5.57195E0,2.4745646E0,5.7189417E0,3.3841684E0,6.835891E1,2.4202583E1,4.9378915E0,2.7623145E3,8.63912E1,7.7802234E0,1.2978048E0,1.873622E1,4.3778095E0,1.1941404E0,1.4641969E0,1.9199716E0,2.7730925E1,4.062799E1,1.1657664E1,1.2544919E1,2.0431122E1,2.7418835E3],"tree_param":{"num_deleted":"0","num_feature":"2","num_nodes":"41","size_leaf_vector":"1"}},{"base_weights":[-6.2563334E-4,-2.4942315E-1,1.0169505E-3,1.190723E-1,6.413491E-4,-1.6900086E-1,1.3298912E-3,5.3699434E-2,-5.885455E-1,9.621099E-2,-2.1899517E-5,-2.2494895E-2,7.562446E-2,-2.0900302E-1,-4.590512E-2,2.7672642E-1,-5.918744E-2,-4.0202016E-1,1.4444666E-3,1.8899709E-2,-2.7448826E-2,1.614767E-2,1.4653717E-1,-5.341687E-2,1.5476194E-1,1.6894656E-1,-1.7291798E-1,1.449493E-1,-6.285511E-5],"categories":[],"categories_nodes":[],"categories_segments":[],"categories_sizes":[],"default_left":[0,0,0,0,0,0,0,0,0,0,0,0,0,0,0,0,0,0,0,0,0,0,0,0,0,0,0,0,0],"id":23,"left_children":[1,-1,3,-1,5,7,9,11,13,15,17,19,-1,-1,-1,21,23,25,27,-1,-1,-1,-1,-1,-1,-1,-1,-1,-1],"loss_changes":[4.094231E0,0E0,4.4504887E-1,0E0,3.4980872E-1,1.1627116E0,3.8244066E-1,1.3906065E-1,9.5027685E-2,1.1913351E0,1.7341572E0,4.879232E-2,0E0,0E0,0E0,8.965064E-1,1.6867772E0,2.1240678E0,2.3355403E0,0E0,0E0,0E0,0E0,0E0,0E0,0E0,0E0,0E0,0E0],"parents":[2147483647,0,0,2,2,4,4,5,5,6,6,7,7,8,8,9,9,10,10,11,11,15,15,16,16,17,17,18,18],"right_children":[2,-1,4,-1,6,8,10,12,14,16,18,20,-1,-1,-1,22,24,26,28,-1,-1,-1,-1,-1,-1,-1,-1,-1,-1],"split_conditions":[-7.3860246E-1,-2.4942315E-1,-7.0129097E-1,1.190723E-1,-3.5553846E-1,-3.9931853E0,-2.6974478E0,-5.003741E-1,-4.2612374E-1,2.3419224E-1,-2.4536033E0,-5.9182656E-1,7.562446E-2,-2.0900302E-1,-4.590512E-2,-1.6582283E-1,4.7114363E-1,-7.452171E-2,-2.2156825E0,1.8899709E-2,-2.7448826E-2,1.614767E-2,1.4653717E-1,-5.341687E-2,1.5476194E-1,1.6894656E-1,-1.7291798E-1,1.449493E-1,-6.285511E-5],"split_indices":[0,0,0,0,0,1,1,0,0,0,1,0,0,0,0,0,0,0,1,0,0,0,0,0,0,0,0,0,0],"split_type":[0,0,0,0,0,0,0,0,0,0,0,0,0,0,0,0,0,0,0,0,0,0,0,0,0,0,0,0,0],"sum_hessian":[2.998622E3,4.9202127E0,2.993702E3,1.836912E0,2.991865E3,1.11061125E1,2.9807588E3,7.824671E0,3.2814417E0,4.088522E1,2.9398735E3,6.293919E0,1.5307518E0,2.148427E0,1.1330146E0,1.8552883E1,2.2332336E1,9.691996E0,2.9301816E3,2.849864E0,3.444055E0,9.649029E0,8.903855E0,1.907896E1,3.2533765E0,1.1418917E0,8.550104E0,9.030199E0,2.9211514E3],"tree_param":{"num_deleted":"0","num_feature":"2","num_nodes":"29","size_leaf_vector":"1"}},{"base_weights":[-4.460655E-4,-2.3802118E-1,8.350165E-4,-6.420875E-2,2.681405E-3,-2.1298265E-2,-4.562527E-1,1.2554795E-1,-1.2121869E-4,-6.254539E-2,1.8574473E-1,-6.461363E-1,-1.20116875E-1,4.318177E-2,5.96793E-1,-7.4805014E-2,4.2911903E-3,-2.751856E-2,-2.1087141E-1,-2.2514637E-1,-5.5756997E-2,-1.6432916E-1,7.152214E-2,1.6441713E-1,-1.7248392E-1,5.3108256E-2,6.339802E-1,4.1474994E-2,-3.045516E-1,3.0592152E-1,1.1000205E-3,2.237619E-1,-1.5651735E-2,2.3395784E-2,2.360785E-1,-1.5584093E-1,-1.4937409E-2,2.224947E-1,1.0245226E-1,-2.728012E-2,1.11168735E-1,-2.5972658E-1,2.0684086E-2,-9.712008E-2,2.7997425E-1,-3.2794654E-1,9.0816565E-4],"categories":[],"categories_nodes":[],"categories_segments":[],"categories_sizes":[],"default_left":[0,0,0,0,0,0,0,0,0,0,0,0,0,0,0,0,0,0,0,0,0,0,0,0,0,0,0,0,0,0,0,0,0,0,0,0,0,0,0,0,0,0,0,0,0,0,0],"id":24,"left_children":[1,-1,3,5,7,9,11,13,15,17,-1,19,21,23,25,27,29,31,-1,-1,-1,-1,-1,33,35,-1,37,39,41,43,45,-1,-1,-1,-1,-1,-1,-1,-1,-1,-1,-1,-1,-1,-1,-1,-1],"loss_changes":[3.0449073E0,0E0,3.5961124E-1,1.3807675E0,1.0025089E0,2.034485E0,4.3972588E-1,2.4943504E0,9.3862283E-1,1.5930521E0,0E0,9.8323345E-2,7.675257E-1,1.5015785E0,3.733945E-2,4.2574873E0,2.588406E0,1.3583388E0,0E0,0E0,0E0,0E0,0E0,1.9068543E0,8.581164E-1,0E0,1.1699915E-2,4.6690674E0,1.1276974E1,1.1422218E1,5.617693E0,0E0,0E0,0E0,0E0,0E0,0E0,0E0,0E0,0E0,0E0,0E0,0E0,0E0,0E0,0E0,0E0],"parents":[2147483647,0,0,2,2,3,3,4,4,5,5,6,6,7,7,8,8,9,9,11,11,12,12,13,13,14,14,15,15,16,16,17,17,23,23,24,24,26,26,27,27,28,28,29,29,30,30],"right_children":[2,-1,4,6,8,10,12,14,16,18,-1,20,22,24,26,28,30,32,-1,-1,-1,-1,-1,34,36,-1,38,40,42,44,46,-1,-1,-1,-1,-1,-1,-1,-1,-1,-1,-1,-1,-1,-1,-1,-1],"split_conditions":[-7.3860246E-1,-2.3802118E-1,3.1448406E-1,-1.121362E0,-1.2032021E0,-1.1299591E0,-6.0606563E-1,-1.3757926E0,9.248026E-1,-1.2907096E0,1.8574473E-1,2.3419224E-1,1.4501476E-2,-1.5629483E0,3.9428985E-1,-4.7376567E-1,-1.09551765E-1,-6.914008E-1,-2.1087141E-1,-2.2514637E-1,-5.5756997E-2,-1.6432916E-1,7.152214E-2,5.0942504E-1,-1.4179598E0,5.3108256E-2,7.313476E-1,-6.500144E-1,-4.5310605E-1,-4.7376567E-1,-9.54784E-2,2.237619E-1,-1.5651735E-2,2.3395784E-2,2.360785E-1,-1.5584093E-1,-1.4937409E-2,2.224947E-1,1.0245226E-1,-2.728012E-2,1.11168735E-1,-2.5972658E-1,2.0684086E-2,-9.712008E-2,2.7997425E-1,-3.2794654E-1,9.0816565E-4],"split_indices":[0,0,0,1,1,1,1,1,0,1,0,0,0,1,0,1,1,0,0,0,0,0,0,0,1,0,0,1,1,1,1,0,0,0,0,0,0,0,0,0,0,0,0,0,0,0,0],"split_type":[0,0,0,0,0,0,0,0,0,0,0,0,0,0,0,0,0,0,0,0,0,0,0,0,0,0,0,0,0,0,0,0,0,0,0,0,0,0,0,0,0,0,0,0,0,0,0],"sum_hessian":[2.995764E3,3.8347354E0,2.9919292E3,8.1654785E1,2.9102744E3,7.454943E1,7.105353E0,6.3927048E1,2.8463472E3,7.088643E1,3.6630013E0,3.951115E0,3.154238E0,5.534521E1,8.581834E0,1.578945E2,2.688453E3,6.8199005E1,2.6874244E0,2.7069166E0,1.2441982E0,1.1977423E0,1.9564958E0,3.5581104E1,1.9764107E1,1.1671865E0,7.4146476E0,1.05379166E2,5.2515335E1,2.7152212E1,2.6613005E3,1.2031287E0,6.699588E1,3.2231297E1,3.349807E0,4.3181286E0,1.5445978E1,4.2969947E0,3.117653E0,7.566068E1,2.9718485E1,2.0458008E1,3.2057327E1,1.3792475E1,1.3359738E1,3.683352E0,2.6576172E3],"tree_param":{"num_deleted":"0","num_feature":"2","num_nodes":"47","size_leaf_vector":"1"}},{"base_weights":[-3.9071694E-4,-2.2548032E-1,6.2115176E-4,1.04581356E-1,2.8014532E-4,-6.3338175E-2,2.0340225E-3,6.280762E-2,-1.6708662E-1,1.6254275E-1,5.0644646E-4,1.901325E-1,-2.2947396E-1,-2.399923E-1,-8.748965E-2,-1.16237275E-1,4.7294745E-1,2.4535264E-1,-5.0663605E-4,1.6603317E-2,1.882215E-1,1.403413E-3,-1.6188015E-1,-3.1032693E-1,-9.270342E-3,3.558271E-2,-8.885829E-2,2.5708595E-1,8.857368E-2,2.5640663E-2,1.6852099E-1,-1.5140891E-1,2.7478847E-4],"categories":[],"categories_nodes":[],"categories_segments":[],"categories_sizes":[],"default_left":[0,0,0,0,0,0,0,0,0,0,0,0,0,0,0,0,0,0,0,0,0,0,0,0,0,0,0,0,0,0,0,0,0],"id":25,"left_children":[1,-1,3,-1,5,7,9,11,13,15,17,19,21,-1,23,25,27,29,31,-1,-1,-1,-1,-1,-1,-1,-1,-1,-1,-1,-1,-1,-1],"loss_changes":[2.2732341E0,0E0,3.5434908E-1,0E0,3.331958E-1,1.0590205E0,7.12419E-1,1.4162076E0,2.1583612E0,2.425338E0,7.143903E-1,1.5117155E0,8.481278E-1,0E0,2.1337194E0,6.7894995E-1,6.448839E-1,5.522972E-1,2.0580375E0,0E0,0E0,0E0,0E0,0E0,0E0,0E0,0E0,0E0,0E0,0E0,0E0,0E0,0E0],"parents":[2147483647,0,0,2,2,4,4,5,5,6,6,7,7,8,8,9,9,10,10,11,11,12,12,14,14,15,15,16,16,17,17,18,18],"right_children":[2,-1,4,-1,6,8,10,12,14,16,18,20,22,-1,24,26,28,30,32,-1,-1,-1,-1,-1,-1,-1,-1,-1,-1,-1,-1,-1,-1],"split_conditions":[-7.3860246E-1,-2.2548032E-1,-7.0129097E-1,1.04581356E-1,3.1448406E-1,-2.657083E0,4.3611845E-1,1.4949416E-1,-7.452171E-2,-2.4536033E0,-2.0130107E0,-1.6582283E-1,-3.4400475E0,-2.399923E-1,-2.4536033E0,-3.4400475E0,-2.1343615E0,-2.3620615E0,5.0942504E-1,1.6603317E-2,1.882215E-1,1.403413E-3,-1.6188015E-1,-3.1032693E-1,-9.270342E-3,3.558271E-2,-8.885829E-2,2.5708595E-1,8.857368E-2,2.5640663E-2,1.6852099E-1,-1.5140891E-1,2.7478847E-4],"split_indices":[0,0,0,0,0,1,0,0,0,1,1,0,1,0,1,1,1,1,0,0,0,0,0,0,0,0,0,0,0,0,0,0,0],"split_type":[0,0,0,0,0,0,0,0,0,0,0,0,0,0,0,0,0,0,0,0,0,0,0,0,0,0,0,0,0,0,0,0,0],"sum_hessian":[2.9889866E3,3.0228739E0,2.9859636E3,1.9234065E0,2.9840403E3,7.911706E1,2.904923E3,3.588264E1,4.3234417E1,2.6392086E1,2.878531E3,2.5237896E1,1.0644745E1,3.8189607E0,3.9415455E1,1.4233897E1,1.2158189E1,1.0867395E1,2.8676638E3,2.0152504E1,5.0853906E0,6.626508E0,4.0182366E0,1.2482312E0,3.8167225E1,6.323087E0,7.91081E0,2.6371043E0,9.521084E0,8.062949E0,2.8044462E0,7.0731225E0,2.8605906E3],"tree_param":{"num_deleted":"0","num_feature":"2","num_nodes":"33","size_leaf_vector":"1"}},{"base_weights":[-4.0335758E-4,-5.949947E-1,5.613023E-4,-1.1141223E-2,-2.213694E-1,2.455706E-2,-2.2593678E-3,2.376594E-4,5.5666816E-1,-8.26066E-1,5.7329313E-4,-1.0766863E-2,6.1777556E-1,6.484475E-1,-5.320022E-2,-4.6040673E-2,-2.8496885E-1,2.3052227E-2,-1.6006045E-1,4.8882328E-2,2.3557465E-1,2.6712117E-1,3.8140154E-1,1.8158678E-2,-8.1234E-2,8.878562E-2,-1.0470344E-1,4.294097E-2,1.7625748E-1],"categories":[],"categories_nodes":[],"categories_segments":[],"categories_sizes":[],"default_left":[0,0,0,0,0,0,0,0,0,0,0,0,0,0,0,0,0,0,0,0,0,0,0,0,0,0,0,0,0],"id":26,"left_children":[1,3,5,-1,-1,7,9,11,13,15,-1,17,19,21,-1,-1,-1,23,25,-1,-1,-1,27,-1,-1,-1,-1,-1,-1],"loss_changes":[1.7131162E0,3.582617E-1,2.019096E-1,0E0,0E0,4.0603166E0,9.172873E0,2.0525806E0,1.0388165E0,9.742842E-1,0E0,1.5020925E0,2.7486086E-1,4.6186876E-1,0E0,0E0,0E0,2.6904738E0,4.8368883E0,0E0,0E0,0E0,2.9139602E-1,0E0,0E0,0E0,0E0,0E0,0E0],"parents":[2147483647,0,0,1,1,2,2,5,5,6,6,7,7,8,8,9,9,11,11,12,12,13,13,17,17,18,18,22,22],"right_children":[2,4,6,-1,-1,8,10,12,14,16,-1,18,20,22,-1,-1,-1,24,26,-1,-1,-1,28,-1,-1,-1,-1,-1,-1],"split_conditions":[-7.1282184E-1,-8.380362E-1,-2.321561E-1,-1.1141223E-2,-2.213694E-1,-2.9123208E-1,1.1747507E-1,1.0051774E0,1.0051774E0,5.714248E-1,5.7329313E-4,8.100518E-1,-6.164588E-1,8.4440166E-1,-5.320022E-2,-4.6040673E-2,-2.8496885E-1,-4.7376567E-1,-8.9691246E-1,4.8882328E-2,2.3557465E-1,2.6712117E-1,9.248026E-1,1.8158678E-2,-8.1234E-2,8.878562E-2,-1.0470344E-1,4.294097E-2,1.7625748E-1],"split_indices":[0,1,1,0,0,1,1,0,0,0,0,0,1,0,0,0,0,1,1,0,0,0,0,0,0,0,0,0,0],"split_type":[0,0,0,0,0,0,0,0,0,0,0,0,0,0,0,0,0,0,0,0,0,0,0,0,0,0,0,0,0],"sum_hessian":[2.9851343E3,3.837773E0,2.9812964E3,1.039543E0,2.7982302E0,3.1277533E2,2.668521E3,3.000619E2,1.2713466E1,1.2448121E1,2.656073E3,2.9577374E2,4.2881217E0,1.1404065E1,1.3094004E0,2.2836378E0,1.0164483E1,2.418367E2,5.393705E1,1.6849538E0,2.6031678E0,4.75843E0,6.645635E0,2.1518503E2,2.6651674E1,1.5635706E1,3.8301346E1,3.8684196E0,2.7772155E0],"tree_param":{"num_deleted":"0","num_feature":"2","num_nodes":"29","size_leaf_vector":"1"}},{"base_weights":[-3.1500816E-4,-1.9983894E-1,3.5459135E-4,9.4880134E-2,3.7416565E-5,-6.961197E-2,1.915738E-3,1.8123457E-2,-1.7170435E-1,4.409446E-2,-1.7651288E-3,-2.9135939E-2,4.741806E-1,-6.307764E-1,-7.762138E-2,-1.2602113E-3,3.6199793E-1,-7.572415E-1,1.3257256E-3,2.8933723E-2,-7.3230766E-2,4.5353714E-2,1.9407593E-1,-9.994328E-3,-2.4515451E-1,-1.5889297E-1,2.1253891E-2,-7.4633486E-3,7.544242E-2,1.6834138E-1,7.6121785E-2,-2.7388843E-2,-2.7131516E-1,3.2593966E-2,3.687845E-4],"categories":[],"categories_nodes":[],"categories_segments":[],"categories_sizes":[],"default_left":[0,0,0,0,0,0,0,0,0,0,0,0,0,0,0,0,0,0,0,0,0,0,0,0,0,0,0,0,0,0,0,0,0,0,0],"id":27,"left_children":[1,-1,3,-1,5,7,9,11,13,15,17,19,21,23,25,27,29,31,33,-1,-1,-1,-1,-1,-1,-1,-1,-1,-1,-1,-1,-1,-1,-1,-1],"loss_changes":[1.3287041E0,0E0,2.9835957E-1,0E0,3.8943753E-1,7.032999E-1,4.5010033E-1,9.394342E-1,1.5156243E0,3.3555126E0,6.22845E0,1.099485E0,1.3042098E-1,6.4333224E-1,2.1316411E0,1.227729E0,4.8403215E-1,9.824128E-1,2.7368145E-2,0E0,0E0,0E0,0E0,0E0,0E0,0E0,0E0,0E0,0E0,0E0,0E0,0E0,0E0,0E0,0E0],"parents":[2147483647,0,0,2,2,4,4,5,5,6,6,7,7,8,8,9,9,10,10,11,11,12,12,13,13,14,14,15,15,16,16,17,17,18,18],"right_children":[2,-1,4,-1,6,8,10,12,14,16,18,20,22,24,26,28,30,32,34,-1,-1,-1,-1,-1,-1,-1,-1,-1,-1,-1,-1,-1,-1,-1,-1],"split_conditions":[-7.3860246E-1,-1.9983894E-1,-7.0129097E-1,9.4880134E-2,3.1448406E-1,-2.2156825E0,-2.321561E-1,-2.3620615E0,1.4501476E-2,-4.5310605E-1,-9.54784E-2,7.1466185E-2,1.4949416E-1,-2.1343615E0,-2.0130107E0,9.570673E-1,6.8259495E-1,5.714248E-1,1.022212E0,2.8933723E-2,-7.3230766E-2,4.5353714E-2,1.9407593E-1,-9.994328E-3,-2.4515451E-1,-1.5889297E-1,2.1253891E-2,-7.4633486E-3,7.544242E-2,1.6834138E-1,7.6121785E-2,-2.7388843E-2,-2.7131516E-1,3.2593966E-2,3.687845E-4],"split_indices":[0,0,0,0,0,1,1,1,0,1,1,0,0,1,1,0,0,0,0,0,0,0,0,0,0,0,0,0,0,0,0,0,0,0,0],"split_type":[0,0,0,0,0,0,0,0,0,0,0,0,0,0,0,0,0,0,0,0,0,0,0,0,0,0,0,0,0,0,0,0,0,0,0],"sum_hessian":[2.9787683E3,1.9942276E0,2.976774E3,1.9865552E0,2.9747874E3,7.717112E1,2.8976162E3,4.1946182E1,3.5224934E1,2.3169257E2,2.6659238E3,3.8855824E1,3.0903614E0,5.0209675E0,3.0203966E1,2.0363622E2,2.8056349E1,9.868382E0,2.6560554E3,2.4875254E1,1.3980568E1,1.7302281E0,1.3601333E0,1.4742991E0,3.5466683E0,6.832987E0,2.337098E1,1.870576E2,1.6578625E1,8.407531E0,1.9648817E1,2.079106E0,7.7892766E0,1.3741771E0,2.6546812E3],"tree_param":{"num_deleted":"0","num_feature":"2","num_nodes":"35","size_leaf_vector":"1"}},{"base_weights":[-3.777536E-4,-5.151808E-1,3.2055448E-4,-1.1343038E-2,-2.0021673E-1,-3.0053101E-2,1.8390465E-3,-1.5174898E-2,-3.397212E-1,2.3360756E-1,8.0499874E-4,-3.1632744E-2,1.7678212E-1,-4.6633074E-1,-8.06227E-2,-4.8843697E-1,1.6247594E-3,-2.7793918E-3,-4.2939407E-1,-1.6770795E-1,3.246767E-1,1.2325433E-3,-2.3032758E-1,2.3827665E-2,-5.537467E-2,-5.787384E-1,-4.200452E-2,2.5957748E-1,3.6473048E-4,6.8106335E-3,-8.0187485E-2,-1.5594035E-1,-2.9516663E-2,1.7316331E-1,-2.5390267E-2,-5.654585E-2,-2.0998673E-1,-1.5055864E-1,1.762242E-1,4.7802504E-2,-6.833925E-4],"categories":[],"categories_nodes":[],"categories_segments":[],"categories_sizes":[],"default_left":[0,0,0,0,0,0,0,0,0,0,0,0,0,0,0,0,0,0,0,0,0,0,0,0,0,0,0,0,0,0,0,0,0,0,0,0,0,0,0,0,0],"id":28,"left_children":[1,3,5,-1,-1,7,9,11,13,-1,15,17,19,21,23,25,27,29,31,-1,33,-1,-1,-1,-1,35,-1,37,39,-1,-1,-1,-1,-1,-1,-1,-1,-1,-1,-1,-1],"loss_changes":[1.0697756E0,2.6766336E-1,1.3714483E-1,0E0,0E0,6.4714485E-1,2.2741141E0,4.3567225E-1,1.7378402E-1,0E0,1.1353849E0,1.4475607E0,1.3678795E0,5.873144E-1,6.9970034E-2,6.796205E-2,9.1818595E-1,8.061447E-1,2.0415223E-1,0E0,1.0525315E0,0E0,0E0,0E0,0E0,3.0878305E-2,0E0,3.7226934E0,1.1819783E0,0E0,0E0,0E0,0E0,0E0,0E0,0E0,0E0,0E0,0E0,0E0,0E0],"parents":[2147483647,0,0,1,1,2,2,5,5,6,6,7,7,8,8,10,10,11,11,12,12,13,13,14,14,15,15,16,16,17,17,18,18,20,20,25,25,27,27,28,28],"right_children":[2,4,6,-1,-1,8,10,12,14,-1,16,18,20,22,24,26,28,30,32,-1,34,-1,-1,-1,-1,36,-1,38,40,-1,-1,-1,-1,-1,-1,-1,-1,-1,-1,-1,-1],"split_conditions":[-7.1282184E-1,-8.380362E-1,5.585967E-1,-1.1343038E-2,-2.0021673E-1,-4.707103E-1,-1.490573E0,-7.363435E-1,-2.9123208E-1,2.3360756E-1,-1.390262E0,5.23724E-1,1.1420769E-1,5.0942504E-1,-1.09551765E-1,8.957869E-1,5.8432925E-1,-1.121362E0,-8.380362E-1,-1.6770795E-1,-5.845039E-1,1.2325433E-3,-2.3032758E-1,2.3827665E-2,-5.537467E-2,6.9791585E-1,-4.200452E-2,-1.0033194E0,-8.380362E-1,6.8106335E-3,-8.0187485E-2,-1.5594035E-1,-2.9516663E-2,1.7316331E-1,-2.5390267E-2,-5.654585E-2,-2.0998673E-1,-1.5055864E-1,1.762242E-1,4.7802504E-2,-6.833925E-4],"split_indices":[0,1,0,0,0,1,1,1,1,0,1,0,0,0,1,0,0,1,1,0,1,0,0,0,0,0,0,1,1,0,0,0,0,0,0,0,0,0,0,0,0],"split_type":[0,0,0,0,0,0,0,0,0,0,0,0,0,0,0,0,0,0,0,0,0,0,0,0,0,0,0,0,0,0,0,0,0,0,0,0,0,0,0,0,0],"sum_hessian":[2.974346E3,3.0310822E0,2.9713147E3,1.0346181E0,1.996464E0,1.4057953E2,2.830735E3,1.3513585E2,5.443685E0,2.763201E0,2.827972E3,1.25233864E2,9.901983E0,3.1195056E0,2.3241796E0,3.7355356E0,2.8242366E3,1.1770277E2,7.5310955E0,1.1919361E0,8.710048E0,1.6034174E0,1.5160881E0,1.0081316E0,1.3160479E0,2.4416893E0,1.2938462E0,1.2732021E1,2.8115044E3,1.0819417E2,9.508596E0,5.467415E0,2.0636804E0,5.1329484E0,3.577099E0,1.184193E0,1.2574964E0,3.6721597E0,9.059861E0,4.500244E1,2.766502E3],"tree_param":{"num_deleted":"0","num_feature":"2","num_nodes":"41","size_leaf_vector":"1"}},{"base_weights":[-4.8303697E-4,-1.7403217E-1,-1.8416556E-5,2.9206035E-1,-3.1677962E-4,2.8664255E-1,-1.5286292E-1,-1.6841449E-1,3.3946955E-4,-4.233833E-2,-1.8265972E-1,1.1037889E-1,-3.1436447E-4,-1.0805319E-1,6.671098E-2,2.0747618E-1,-5.8796685E-2,-4.3463835E-1,4.2347712E-4,-5.0486937E-2,-1.5221266E-2,1.1042484E-1,2.8070651E-2,-9.094028E-2,2.8614363E-2,3.7014756E-2,-2.526816E-1,5.588929E-2,-1.2386432E-4],"categories":[],"categories_nodes":[],"categories_segments":[],"categories_sizes":[],"default_left":[0,0,0,0,0,0,0,0,0,0,0,0,0,0,0,0,0,0,0,0,0,0,0,0,0,0,0,0,0],"id":29,"left_children":[1,-1,3,5,7,-1,-1,9,11,13,-1,15,17,19,-1,21,23,25,27,-1,-1,-1,-1,-1,-1,-1,-1,-1,-1],"loss_changes":[8.0063623E-1,0E0,2.590566E-1,2.1000848E0,3.27645E-1,0E0,0E0,6.1560607E-1,2.1293059E-1,1.9892827E-1,0E0,2.9935175E-1,9.4316465E-1,2.1594197E-2,0E0,1.7278484E-1,2.9840446E-1,1.2393064E0,4.5689952E-1,0E0,0E0,0E0,0E0,0E0,0E0,0E0,0E0,0E0,0E0],"parents":[2147483647,0,0,2,2,3,3,4,4,7,7,8,8,9,9,11,11,12,12,13,13,15,15,16,16,17,17,18,18],"right_children":[2,-1,4,6,8,-1,-1,10,12,14,-1,16,18,20,-1,22,24,26,28,-1,-1,-1,-1,-1,-1,-1,-1,-1,-1],"split_conditions":[-7.3860246E-1,-1.7403217E-1,-7.0129097E-1,-1.1299591E0,-3.5553846E-1,2.8664255E-1,-1.5286292E-1,-3.4400475E0,-3.4400475E0,-4.6364927E-1,-1.8265972E-1,3.5912704E-1,-3.21854E0,-6.260256E-1,6.671098E-2,-3.9931853E0,3.9428985E-1,1.1420769E-1,-2.8938105E0,-5.0486937E-2,-1.5221266E-2,1.1042484E-1,2.8070651E-2,-9.094028E-2,2.8614363E-2,3.7014756E-2,-2.526816E-1,5.588929E-2,-1.2386432E-4],"split_indices":[0,0,0,1,0,0,0,1,1,0,0,0,1,0,0,1,0,0,1,0,0,0,0,0,0,0,0,0,0],"split_type":[0,0,0,0,0,0,0,0,0,0,0,0,0,0,0,0,0,0,0,0,0,0,0,0,0,0,0,0,0],"sum_hessian":[2.9720093E3,1.3811914E0,2.9706282E3,2.033551E0,2.9685947E3,1.0076528E0,1.0258982E0,1.055015E1,2.9580444E3,9.054488E0,1.495661E0,1.6481087E1,2.9415635E3,7.7278275E0,1.326661E0,1.0327364E1,6.1537232E0,3.9914033E0,2.937572E3,2.8238618E0,4.903966E0,3.3593452E0,6.9680185E0,2.0069778E0,4.146745E0,1.9792598E0,2.0121434E0,1.2165362E1,2.9254067E3],"tree_param":{"num_deleted":"0","num_feature":"2","num_nodes":"29","size_leaf_vector":"1"}},{"base_weights":[-4.7846287E-4,-4.5168304E-1,5.633627E-5,-1.9106487E-2,-1.7808731E-1,-3.2373007E-2,2.4465777E-3,1.3041521E-2,-3.1433755E-1,2.4888583E-1,-8.8930276E-4,-3.98358E-2,1.0300837E0,1.788274E-2,-9.0642226E-1,-1.3263585E-1,6.236692E-1,-2.1569768E-1,2.4864625E-3,1.0593241E-2,-1.3729602E-1,4.2685837E-2,3.5356814E-1,-3.2106322E-1,2.6740795E-1,-4.7957042E-1,1.8734073E-2,4.311553E-2,-7.3629045E-1,3.176743E-1,9.87627E-2,1.5564513E-1,-9.3705106E-1,-3.4993923E-1,4.1780304E-3,-8.3104605E-3,9.473577E-2,-7.393931E-2,4.02486E-2,-1.7097247E-1,-1.5602145E-2,1.5727988E-1,-4.99689E-2,1.201219E-1,-1.683819E-1,-4.8715383E-2,1.15710065E-1,-5.921145E-2,-2.5914645E-1,1.01284735E-1,-2.7235975E-2,1.1914184E-1,-2.3561938E-2,-3.601857E-1,1.4846449E-1,-2.6681843E-1,3.3501133E-2,1.6676499E-1,1.8613318E-4],"categories":[],"categories_nodes":[],"categories_segments":[],"categories_sizes":[],"default_left":[0,0,0,0,0,0,0,0,0,0,0,0,0,0,0,0,0,0,0,0,0,0,0,0,0,0,0,0,0,0,0,0,0,0,0,0,0,0,0,0,0,0,0,0,0,0,0,0,0,0,0,0,0,0,0,0,0,0,0],"id":30,"left_children":[1,3,5,-1,-1,7,9,11,13,15,17,19,21,23,25,27,29,31,33,35,37,-1,-1,39,41,-1,43,45,47,-1,49,51,53,55,57,-1,-1,-1,-1,-1,-1,-1,-1,-1,-1,-1,-1,-1,-1,-1,-1,-1,-1,-1,-1,-1,-1,-1,-1],"loss_changes":[7.171772E-1,1.5596902E-1,2.3025447E-1,0E0,0E0,2.6152737E0,2.2745833E0,9.537595E0,5.588217E0,5.3664665E0,1.9806126E0,8.3118623E-1,9.876156E-1,1.7034643E0,6.5619984E0,2.061965E0,4.194217E0,1.1465881E1,1.604719E0,1.3198692E0,1.7411653E0,0E0,0E0,5.4377216E-1,1.3761109E0,0E0,1.4099685E0,1.1725618E0,1.2988019E-1,0E0,4.667523E-1,1.6574435E0,6.068124E0,3.301293E0,5.2548585E0,0E0,0E0,0E0,0E0,0E0,0E0,0E0,0E0,0E0,0E0,0E0,0E0,0E0,0E0,0E0,0E0,0E0,0E0,0E0,0E0,0E0,0E0,0E0,0E0],"parents":[2147483647,0,0,1,1,2,2,5,5,6,6,7,7,8,8,9,9,10,10,11,11,12,12,13,13,14,14,15,15,16,16,17,17,18,18,19,19,20,20,23,23,24,24,26,26,27,27,28,28,30,30,31,31,32,32,33,33,34,34],"right_children":[2,4,6,-1,-1,8,10,12,14,16,18,20,22,24,26,28,30,32,34,36,38,-1,-1,40,42,-1,44,46,48,-1,50,52,54,56,58,-1,-1,-1,-1,-1,-1,-1,-1,-1,-1,-1,-1,-1,-1,-1,-1,-1,-1,-1,-1,-1,-1,-1,-1],"split_conditions":[-7.1282184E-1,-9.126878E-1,6.9791585E-1,-1.9106487E-2,-1.7808731E-1,-5.241675E-1,7.9567665E-1,-6.500144E-1,6.353651E-1,-6.500144E-1,-4.7376567E-1,-1.2032021E0,1.4949416E-1,5.4166555E-1,-4.707103E-1,-6.565053E-1,-4.7376567E-1,-6.164588E-1,8.8042104E-1,-1.3757926E0,6.353651E-1,4.2685837E-2,3.5356814E-1,-4.1705924E-1,5.9906906E-1,-4.7957042E-1,6.8259495E-1,7.457352E-1,7.313476E-1,3.176743E-1,-4.5310605E-1,8.957869E-1,1.0051774E0,-4.5310605E-1,-2.8900516E-1,-8.3104605E-3,9.473577E-2,-7.393931E-2,4.02486E-2,-1.7097247E-1,-1.5602145E-2,1.5727988E-1,-4.99689E-2,1.201219E-1,-1.683819E-1,-4.8715383E-2,1.15710065E-1,-5.921145E-2,-2.5914645E-1,1.01284735E-1,-2.7235975E-2,1.1914184E-1,-2.3561938E-2,-3.601857E-1,1.4846449E-1,-2.6681843E-1,3.3501133E-2,1.6676499E-1,1.8613318E-4],"split_indices":[0,1,0,0,0,1,0,1,0,1,1,1,0,0,1,1,1,1,0,1,0,0,0,1,0,0,0,0,0,0,1,0,0,1,1,0,0,0,0,0,0,0,0,0,0,0,0,0,0,0,0,0,0,0,0,0,0,0,0],"split_type":[0,0,0,0,0,0,0,0,0,0,0,0,0,0,0,0,0,0,0,0,0,0,0,0,0,0,0,0,0,0,0,0,0,0,0,0,0,0,0,0,0,0,0,0,0,0,0,0,0,0,0,0,0,0,0,0,0,0,0],"sum_hessian":[2.970987E3,2.518561E0,2.9684685E3,1.062614E0,1.4559469E0,2.0291376E2,2.7655547E3,1.755867E2,2.7327066E1,3.5952377E1,2.7296023E3,1.6782224E2,7.7644606E0,1.8126204E1,9.200864E0,1.8136202E1,1.7816175E1,4.125953E1,2.6883428E3,1.1118359E2,5.6638645E1,1.3930719E0,6.3713884E0,7.564358E0,1.0561845E1,4.8468533E0,4.3540106E0,1.4765784E1,3.370417E0,9.183778E0,8.632398E0,2.7755571E1,1.3503955E1,1.1858408E1,2.6764844E3,9.95958E1,1.1587789E1,4.045965E1,1.6178997E1,3.348872E0,4.215486E0,6.504123E0,4.0577216E0,2.812744E0,1.5412668E0,9.558249E0,5.207535E0,1.1324711E0,2.237946E0,3.4738333E0,5.158564E0,1.3321964E1,1.4433608E1,1.1541175E1,1.9627807E0,5.040801E0,6.817607E0,1.6153608E1,2.6603308E3],"tree_param":{"num_deleted":"0",